tree
version=v4
num_class=1
num_tree_per_iteration=1
label_index=0
max_feature_idx=63
objective=binary sigmoid:1
feature_names=age alcohol_consumption_per_week physical_activity_minutes_per_week diet_score sleep_hours_per_day screen_time_hours_per_day bmi waist_to_hip_ratio systolic_bp diastolic_bp heart_rate cholesterol_total hdl_cholesterol ldl_cholesterol triglycerides family_history_diabetes hypertension_history cardiovascular_history cardio_risk_score cholesterol_risk lifestyle_risk diet_activity_balance metabolic_index overall_health_risk age_bmi age_bp bmi_cholesterol family_history_age log_physical_activity log_triglycerides age_squared bmi_squared high_bp_flag high_cholesterol_flag obese_flag sedentary_flag medical_history_score gender_Male gender_Other ethnicity_Black ethnicity_Hispanic ethnicity_Other ethnicity_White education_level_Highschool education_level_No_formal education_level_Postgraduate income_level_Low income_level_Lower-Middle income_level_Middle income_level_Upper-Middle smoking_status_Former smoking_status_Never employment_status_Retired employment_status_Student employment_status_Unemployed bmi_category_normal bmi_category_overweight bmi_category_obese age_group_middle age_group_senior age_group_elderly bp_category_elevated bp_category_high bp_category_very_high
feature_infos=[19:89] [1:8] [1:747] [0.10000000000000001:9.9000000000000004] [3.2999999999999998:9.9000000000000004] [0.59999999999999998:15.800000000000001] [15.1:37.799999999999997] [0.69999999999999996:1.02] [91:163] [51:103] [42:98] [121:286] [21:90] [51:199] [31:290] [0:1] [0:1] [0:1] [0.4792857142857142:0.98438095238095236] [0.31916666666666671:1.0175000000000001] [0:0.76657142857142857] [0.0049000000000000007:7.0217999999999998] [0.52715789473684216:1.3934736842105264] [0.43086146616541354:0.89127230576441108] [352:3001.2000000000003] [1729:13261] [2174.4000000000001:9792] [0:89] [0.69314718055994529:6.6174029779744776] [3.4657359027997265:5.6733232671714928] [361:7921] [228.00999999999999:1428.8399999999997] [0:1] [0:1] [0:1] [0:1] [0:3] [0:1] [0:1] [0:1] [0:1] [0:1] [0:1] [0:1] [0:1] [0:1] [0:1] [0:1] [0:1] [0:1] [0:1] [0:1] [0:1] [0:1] [0:1] [0:1] [0:1] [0:1] [0:1] [0:1] [0:1] [0:1] [0:1] [0:1]
tree_sizes=20811 21423 21431 21415 21535 21435 21596 21430 21532 21532 21517 21451 21498 21549 21419 21422 21489 21522 21488 21482 21525 21537 21578 21504 21574 21535 21541 21481 21535 21494 21527 21592 21562 21497 21616 21605 21675 21531 21487 21569 21521 21516 21581 21534 21566 21661 21548 21664 21665 21559

Tree=0
num_leaves=196
num_cat=0
split_feature=27 23 21 21 30 30 30 21 21 30 30 21 30 30 30 30 23 30 30 21 21 35 23 23 21 15 21 30 23 23 15 23 21 21 30 30 30 15 30 23 21 30 21 30 25 10 10 23 25 30 27 30 14 27 30 21 25 3 10 22 21 10 3 14 3 23 23 21 30 30 25 21 3 21 35 21 11 3 23 30 30 21 26 8 30 30 14 14 27 21 22 30 23 25 4 10 3 13 30 26 21 10 14 30 21 30 30 23 3 22 3 11 8 11 30 6 4 26 23 13 21 22 6 21 3 25 3 18 23 22 23 21 11 11 18 30 7 14 14 18 10 10 14 30 23 22 26 21 21 21 25 18 21 13 23 21 25 18 14 10 6 18 3 23 22 25 12 8 3 23 18 3 30 5 21 25 5 21 18 22 19 12 22 22 10 5 14 26 11 21 25 3 6 3 21
split_gain=15406.4 8775.97 4225.55 2367.72 1807.55 1485.7 779.093 606.712 592.032 405.674 400.633 374.632 361.821 361.252 306.625 306.428 293.196 267.169 264.676 240.186 229.267 220.36 148.632 141.212 139.372 136.001 126.112 124.647 105.548 103.611 100.178 99.3285 92.4522 91.9538 91.4042 85.8306 82.4485 81.0612 77.9535 77.8396 77.1468 76.6253 71.5264 69.7167 66.8682 65.1059 64.9141 63.0428 62.6027 61.8658 59.4753 57.4508 48.5538 45.4044 45.2651 46.4315 44.3488 46.0253 42.7642 42.4323 41.1942 39.5164 48.3179 38.9943 37.9218 37.765 37.7345 37.3253 36.3008 34.4484 34.3571 34.2398 34.5189 33.9967 33.9666 33.7277 33.3241 33.1804 32.3066 32.2176 31.9725 31.6068 31.1536 30.4849 29.6102 29.488 29.2128 29.1723 29.1413 28.6441 28.642 28.5077 28.4269 27.714 27.3086 28.3939 26.5804 26.5299 26.3216 25.6845 25.6499 25.8155 24.7462 24.5942 24.412 24.3189 24.2837 24.2388 24.169 23.3605 23.3277 23.1733 23.0046 22.8474 22.0252 21.7535 21.642 21.4375 21.3719 21.3576 21.3039 21.2971 21.2313 21.1575 23.5648 20.6859 20.3772 22.76 20.2544 20.1219 20.0876 19.9877 19.8676 19.8472 19.6338 21.4768 19.6069 19.5351 19.5115 22.7645 19.2157 19.1235 18.9503 18.8175 18.6155 18.4447 18.3075 18.1405 18.12 18.0946 18.0721 19.0465 19.2568 19.2117 17.8725 17.8331 17.8107 17.7996 19.0696 17.6994 17.6761 26.8088 17.6361 22.9597 18.501 20.4251 17.6333 17.507 17.455 23.5539 18.5992 18.1629 17.4065 17.4007 17.3363 17.3317 17.2691 17.1394 17.0691 17.06 16.9487 16.9184 21.3461 20.4579 16.915 16.8836 16.8662 16.859 16.8302 16.8165 20.7551 16.7896 16.7301 18.4896 16.6942
threshold=26.500000000000004 0.64748536967418546 0.80035000000000012 0.50780000000000014 2352.5000000000005 2862.5000000000005 2450.5000000000005 0.38205000000000006 1.0361000000000002 4556.5000000000009 4556.5000000000009 0.42860000000000009 930.50000000000011 4556.5000000000009 812.50000000000011 2450.5000000000005 0.68665808270676698 2450.5000000000005 870.50000000000011 0.85035000000000005 0.73060000000000025 1.0000000180025095e-35 0.71522753759398505 0.59808038847117817 0.35295000000000004 1.0000000180025095e-35 0.32880000000000004 4556.5000000000009 0.64915300751879712 0.68214307644110284 1.0000000180025095e-35 0.59239630325814552 1.3594500000000003 0.65380000000000016 1122.5000000000002 3660.5000000000005 2070.5000000000005 1.0000000180025095e-35 5112.5000000000009 0.6149447681704262 0.53125000000000011 812.50000000000011 0.24915000000000004 650.50000000000011 6778.0000000000009 61.500000000000007 67.500000000000014 0.68778471177944878 5105.0000000000009 1722.5000000000002 49.500000000000007 3782.5000000000005 103.50000000000001 49.500000000000007 702.50000000000011 0.51035000000000019 3450.5000000000005 5.7500000000000009 68.500000000000014 0.8626666666666668 0.82945000000000013 68.500000000000014 5.7500000000000009 105.50000000000001 7.0500000000000007 0.61429959273182966 0.69601130952380963 0.99415000000000009 1722.5000000000002 1640.5000000000002 4873.5000000000009 1.4309000000000003 5.8500000000000005 0.23070000000000004 1.0000000180025095e-35 0.18010000000000001 176.50000000000003 4.9500000000000011 0.71296723057644129 5112.5000000000009 552.50000000000011 0.78225000000000011 4512.1000000000013 115.50000000000001 5112.5000000000009 1056.5000000000002 125.50000000000001 131.50000000000003 58.500000000000007 0.61780000000000002 0.88775438596491241 2862.5000000000005 0.67801412907268188 4801.0000000000009 8.0500000000000025 65.500000000000014 4.0500000000000007 73.500000000000014 2352.5000000000005 4133.1000000000013 1.0893000000000002 61.500000000000007 141.50000000000003 5112.5000000000009 0.18345000000000003 3782.5000000000005 702.50000000000011 0.54738458646616561 6.3500000000000005 1.0107192982456141 7.8500000000000005 159.50000000000003 92.500000000000014 194.50000000000003 3422.5000000000005 30.150000000000002 7.3500000000000005 5053.5500000000002 0.57052728696741861 97.500000000000014 1.2942000000000002 0.88110526315789484 23.550000000000004 0.23985000000000004 4.7500000000000009 8027.0000000000009 7.1500000000000012 0.66026190476190483 0.58202127192982467 1.0195263157894738 0.71522753759398505 0.42615000000000008 193.50000000000003 175.50000000000003 0.64954761904761915 1722.5000000000002 0.90500000000000014 108.50000000000001 127.50000000000001 0.70626190476190487 71.500000000000014 75.500000000000014 140.50000000000003 1640.5000000000002 0.73894555137844631 0.79247368421052655 4356.3000000000002 0.20420000000000002 0.36825000000000002 0.35965000000000008 7684.5000000000009 0.65888095238095257 0.87325000000000019 107.50000000000001 0.67325034461152899 0.63075000000000003 8097.0000000000009 0.60321428571428581 100.50000000000001 66.500000000000014 23.450000000000003 0.6122619047619049 6.0500000000000007 0.65473937969924823 0.91008771929824583 4428.5000000000009 50.500000000000007 100.50000000000001 7.5500000000000007 0.60011647869674201 0.61730952380952397 8.5500000000000025 380.50000000000006 3.9500000000000006 0.99415000000000009 7874.5000000000009 6.0500000000000007 0.43630000000000008 0.67030952380952391 0.89622807017543871 0.50041666666666684 45.500000000000007 0.99352631578947381 0.94471929824561418 66.500000000000014 7.6500000000000012 148.50000000000003 6094.7000000000016 194.50000000000003 1.1551000000000002 4833.0000000000009 4.7500000000000009 23.950000000000003 6.1500000000000012 0.39870000000000011
decision_type=2 2 2 2 2 2 2 2 2 2 2 2 2 2 2 2 2 2 2 2 2 2 2 2 2 2 2 2 2 2 2 2 2 2 2 2 2 2 2 2 2 2 2 2 2 2 2 2 2 2 2 2 2 2 2 2 2 2 2 2 2 2 2 2 2 2 2 2 2 2 2 2 2 2 2 2 2 2 2 2 2 2 2 2 2 2 2 2 2 2 2 2 2 2 2 2 2 2 2 2 2 2 2 2 2 2 2 2 2 2 2 2 2 2 2 2 2 2 2 2 2 2 2 2 2 2 2 2 2 2 2 2 2 2 2 2 2 2 2 2 2 2 2 2 2 2 2 2 2 2 2 2 2 2 2 2 2 2 2 2 2 2 2 2 2 2 2 2 2 2 2 2 2 2 2 2 2 2 2 2 2 2 2 2 2 2 2 2 2 2 2 2 2 2 2
left_child=1 2 4 5 7 12 19 18 17 22 11 39 37 21 25 32 24 56 30 34 28 46 26 118 36 54 75 58 53 81 43 69 61 51 106 90 122 41 130 91 64 80 115 82 63 107 66 70 162 59 67 65 194 149 55 192 132 94 71 104 103 62 -10 -35 87 -13 150 -22 116 -20 76 72 -17 -41 -42 -7 117 125 155 -37 172 105 -1 -82 131 -21 188 112 148 -78 97 -6 -43 157 95 185 -67 -19 187 -88 109 136 143 -15 -33 138 154 -34 -54 110 141 128 -25 -72 -75 -18 159 -36 177 -70 -60 -98 -14 -51 -125 -53 174 -128 -64 -49 -11 -12 -4 -73 166 191 -102 -45 -23 -140 -120 -87 -65 168 -24 -46 -126 -38 -30 -2 151 152 -8 -153 -5 -31 -135 -76 -159 -47 161 -56 163 -26 165 -165 -114 -113 169 -59 171 -170 -3 -168 -99 -52 -145 -16 -157 -77 -61 -48 183 -183 -91 -58 -89 -44 -63 190 -169 -136 193 -9 -28
right_child=20 3 8 6 10 9 13 14 15 38 84 33 16 60 23 27 42 35 31 85 50 29 144 40 48 -27 52 -29 88 78 -32 49 45 44 47 79 147 -39 -40 73 74 92 98 137 145 68 181 129 -50 123 175 77 108 -55 160 -57 57 102 120 180 -62 86 111 142 -66 96 -68 -69 119 -71 113 133 -74 114 93 179 89 -79 -80 -81 83 -83 -84 -85 -86 100 99 186 -90 184 -92 -93 -94 -95 -96 -97 121 126 -100 -101 101 -103 -104 -105 -106 -107 -108 -109 -110 -111 -112 167 134 -115 -116 -117 -118 -119 140 -121 -122 -123 -124 124 146 -127 127 -129 -130 -131 -132 -133 -134 156 135 -137 -138 -139 139 -141 -142 -143 -144 176 -146 -147 -148 -149 -150 -151 -152 153 -154 -155 -156 178 -158 158 -160 -161 -162 -163 -164 164 -166 -167 173 189 170 -171 -172 -173 -174 -175 -176 -177 -178 -179 -180 -181 -182 182 -184 -185 -186 -187 -188 -189 -190 -191 -192 -193 -194 -195 -196
leaf_value=0.49104616492345193 0.52830858082695586 0.51077980000175427 0.49428057468639547 0.49139023283741662 0.51186174098856796 0.52426263105079629 0.51471772188048492 0.48112928141238581 0.48670479155414814 0.52440606943259971 0.5230955940080404 0.50975062376213465 0.51226503284757485 0.5214153119172249 0.50646679225312863 0.49403315548509408 0.52110663229552001 0.49447715330330771 0.50397393154796233 0.49115752581377919 0.52415361334551958 0.51200325477530051 0.52395295391670971 0.49299613599287401 0.50706626701812285 0.51676123162111087 0.51798463680884954 0.51008587027073604 0.53079585788755324 0.5175770752017228 0.51990964286266284 0.513135973943878 0.48262971291141671 0.50274464029381771 0.51022262493487114 0.51103034728405861 0.5207727179089422 0.52492092408442603 0.52924840489313896 0.51938007677589881 0.49739203609678095 0.50961376954578186 0.51756092450892155 0.50081409207769567 0.50925583168203148 0.47905513558650015 0.50579730553171087 0.51264495692736434 0.51599348753539065 0.51577587788093526 0.52573349606542019 0.50430009283059507 0.51910208024459903 0.52964293969430054 0.49860538973401919 0.48498611434032923 0.5031234262924692 0.48890629978902073 0.49514102288573059 0.511941198720955 0.51743954810227044 0.48659494858722574 0.47517966174480947 0.50766641455506911 0.511628224482094 0.50377940301176294 0.51763613218608906 0.51810146269552182 0.48173878138311355 0.5101405463502644 0.51226209642246245 0.49037792092639271 0.5030951717765989 0.51592306228631213 0.50643378387574556 0.52120467662096848 0.50856115887516506 0.5171399477778913 0.51973647670307743 0.52272365516162689 0.50805042196006445 0.51049929650811987 0.50266736100333365 0.49736834795167628 0.52534151845271648 0.50167164432533062 0.5057457325705994 0.51205752539492899 0.53186036654824431 0.50758563763651687 0.51219442203588106 0.5154688739682477 0.51715364082666371 0.50759441529283889 0.48237023893283998 0.49006756080827008 0.51257384892847258 0.50340996101453972 0.52040746454532882 0.48852791635900872 0.49921036735468544 0.49414639068481625 0.50866422920397369 0.52566584475152855 0.50935502043724479 0.51653022672080617 0.50520872267364292 0.49218029405550573 0.5213533185381275 0.51369142342409913 0.50808458192309047 0.50433472546711355 0.51033232023001363 0.50824771421893378 0.51837877907707852 0.52392598243488542 0.4839488916901164 0.52201050592075715 0.50459045057481056 0.49129427616390625 0.48717989758941005 0.51651087417395281 0.51645729723150835 0.51002988891538537 0.51243594227118594 0.51763079236572551 0.50925616731228596 0.49972843086503921 0.4971166660161338 0.51822380804600909 0.5275610858202725 0.51852489324434814 0.48071999108945829 0.49603973779615312 0.48859067064357864 0.50696640337184118 0.51579600073019183 0.50708473902282614 0.51523143787236236 0.50242767676733524 0.50096112364106093 0.49040875582420307 0.51576596888517912 0.49956836404837746 0.52635855003244159 0.51444990984094252 0.51595018928859504 0.51851894119756903 0.5292367138063363 0.52611119497579173 0.5124322889537446 0.50721101538844227 0.50438563573279827 0.49081179173154321 0.50482138610416871 0.5165584568465339 0.50659278743550129 0.50006708112369103 0.5045298382161173 0.46890615823657461 0.50073623870396644 0.48006959130002824 0.51390201257564905 0.50696833140930286 0.51466833631458231 0.51317051129594626 0.50243211823711198 0.49548461757103207 0.51104052884744533 0.49861362033993295 0.49604391724007119 0.49652032864195 0.49569447350848833 0.50765026033925664 0.49355210386283915 0.52979507729424147 0.50448316971543672 0.49826801816136557 0.51225529689284233 0.52297160396796938 0.51631443365892948 0.49701142613344762 0.51030142108568599 0.48114318475178847 0.50142222913493484 0.48848815585439886 0.50503393615764203 0.52046495244585567 0.47416564704355818 0.49338211792845965 0.50660391851597308 0.50199958831968339 0.49951813486546226 0.49797406507611303 0.51276897878141159
leaf_weight=280.48995620012283 2616.8128672242165 32.745280265808105 395.10049366950989 90.890203177928925 1328.9677606523037 3055.9543841779232 91.365537017583847 47.681636184453964 217.01980590820312 2830.1214787960052 723.55235525965691 2109.9319555163383 479.6741027534008 1082.0711298286915 109.51599499583244 202.46027433872223 3883.7652706503868 102.79183065891266 679.13742765784264 109.47864773869514 1012.0442813336849 1903.2945722043514 3069.8686274886131 42.066186457872391 399.04031637310982 99.91883048415184 432.2252080142498 285.91943094134331 7012.3557095825672 1599.3010025918484 111.30940166115761 782.21861717104912 123.53697395324707 693.27661800384521 424.49495163559914 665.04132243990898 1938.0154505968094 111.93087494373322 3371.5945474505424 2465.4577915370464 186.19805118441582 444.2672370672226 4002.4019032716751 315.13906010985374 417.99367779493332 153.61081784963608 103.56518125534058 1428.5688724815845 3763.1563916802406 1805.6777164041996 1418.5578659176826 130.93186631798744 4662.9179817438126 4907.7532989084721 83.100409358739853 314.61858460307121 172.66063222289085 140.28643843531609 297.20781129598618 661.36541882157326 538.85055747628212 285.53524392843246 31.502333700656891 898.09223484992981 1213.7476573884487 113.6200342476368 155.89514717459679 598.90915498137474 181.15113866329193 645.21978226304054 1482.842497587204 213.00648173689842 631.71440443396568 4180.9407112598419 1246.7716842591763 5150.1162322461605 816.22697764635086 1284.3577684164047 1399.8044435083866 98.774393409490585 646.9680472612381 1089.9348568618298 120.50018897652626 114.51982238888741 882.85082906484604 455.54370993375778 53.048323899507523 738.11437511444092 5613.0098180472851 238.24190783500671 165.85928508639336 2035.9245852828026 311.54564541578293 1804.8916970193386 63.207855999469757 166.06084889173508 3423.9214681684971 629.48874905705452 2908.729980558157 77.64095002412796 73.627625852823257 263.59435227513313 136.9122329056263 954.24868646264076 3108.3514545857906 1156.9421339929104 654.04565271735191 466.70976582169533 2843.3576314151287 73.747893780469894 193.08394378423691 129.16595596075058 764.77872276306152 799.01776814460754 1987.7138156890869 1381.1030936837196 144.65688505768776 64.825570374727249 1472.301266759634 166.36666005849838 211.49712780117989 591.49044764041901 6172.6284473240376 686.49865409731865 1155.2575195133686 62.570362150669098 441.72591957449913 115.18275600671768 30.306585341691971 284.63870537281036 1036.4115286767483 700.26632621884346 43.741381734609604 553.96141263842583 40.055627167224884 398.97915413975716 39.706299126148224 426.77397483587265 1635.1975978910923 52.27291676402092 834.76659920811653 62.23705467581749 119.35369536280632 568.49301615357399 1999.9396609961987 627.41248270869255 1033.4252936840057 4205.1297780275345 4818.4972624182701 3111.5099278986454 165.92044731974602 46.045844703912735 233.78280267119408 59.297154396772385 59.816005110740662 740.18977797031403 65.062424898147583 450.91096901893616 1554.2473880946636 116.50699844956398 296.71440035104752 43.210623532533646 1555.4931524991989 364.65145021677017 641.26350724697113 415.90799224376678 273.49115833640099 145.92938446998596 94.938818067312241 262.36699452996254 120.04250049591064 46.547050058841705 178.47147613763809 1587.9117266535759 72.250447332859039 554.44324564933777 482.58076885342598 613.29591429233551 627.33367511630058 3393.0733079910278 643.68044373393059 176.07218500971794 35.276746809482574 35.452439099550247 510.33824229240417 34.114664375782013 150.60152918100357 910.12311771512032 47.192338317632675 290.94133543968201 105.21861809492111 217.03333818912506 168.44617599248886 47.904526680707932 474.91698083281517
leaf_count=882 5382 84 1205 285 3371 6646 224 164 710 6143 1598 5482 1211 2443 295 619 8804 313 1879 344 2204 4820 6704 130 1068 239 1019 740 13914 3790 256 1955 419 1943 1097 1703 4412 241 6842 5713 551 1156 9487 901 1092 537 281 3591 9092 4374 3024 361 10843 9903 243 1045 482 450 899 1676 1279 935 114 2388 3087 315 369 1410 619 1669 3744 674 1764 10110 3360 11660 2149 3060 3229 219 1713 2808 338 339 1892 1291 144 1868 10963 634 419 4950 742 4803 215 527 8614 1752 6653 250 214 805 360 2036 8112 2777 1786 1452 6425 183 511 356 1974 2111 4664 3017 485 145 4047 522 689 1420 14830 1778 2911 148 1154 333 90 669 2154 1640 151 1661 129 1069 96 1142 3987 147 2383 197 289 1646 4227 1544 2498 9850 9780 6599 418 123 644 187 164 1776 175 1299 4275 442 849 150 3853 977 1574 1039 769 440 243 767 360 139 537 4223 222 1116 1328 1799 1584 7507 1549 523 91 122 1450 110 412 2080 172 895 283 613 488 141 1192
internal_value=0.517084 0.514549 0.509043 0.518393 0.511252 0.520176 0.512952 0.507855 0.497823 0.523128 0.514988 0.514209 0.517439 0.515703 0.505239 0.493321 0.517898 0.502513 0.510964 0.508251 0.529209 0.514231 0.521977 0.50602 0.516438 0.49554 0.521235 0.498229 0.529791 0.515108 0.502638 0.511896 0.488956 0.511567 0.509666 0.507324 0.517633 0.509189 0.527116 0.516515 0.507054 0.508165 0.520122 0.50095 0.508569 0.485382 0.506112 0.510471 0.514297 0.512556 0.524648 0.512638 0.51945 0.528284 0.493418 0.489945 0.49847 0.499539 0.496669 0.511118 0.522165 0.492381 0.494621 0.50624 0.508651 0.511834 0.509276 0.521908 0.481687 0.50698 0.509243 0.498153 0.500892 0.517477 0.5054 0.522529 0.507448 0.516028 0.517336 0.512553 0.504616 0.51344 0.494533 0.506441 0.522575 0.50062 0.487803 0.507793 0.530709 0.506086 0.504707 0.514046 0.512728 0.505695 0.493955 0.495943 0.512897 0.503792 0.518959 0.4955 0.501516 0.497422 0.500856 0.523412 0.510116 0.514115 0.503614 0.490167 0.519956 0.503486 0.502421 0.496974 0.50697 0.510858 0.516715 0.521848 0.477853 0.5118 0.502378 0.486291 0.491819 0.513155 0.516156 0.51415 0.513127 0.508634 0.504556 0.507284 0.48581 0.513576 0.525254 0.520853 0.492907 0.49541 0.50715 0.504192 0.505047 0.504421 0.513335 0.514835 0.503277 0.500307 0.508622 0.500232 0.524904 0.512377 0.514097 0.519231 0.530162 0.527117 0.507082 0.505013 0.507301 0.497965 0.496709 0.516201 0.49715 0.504641 0.503526 0.474627 0.498179 0.492203 0.512405 0.511123 0.51226 0.510277 0.507889 0.498013 0.497714 0.495219 0.501564 0.506256 0.498044 0.506883 0.502389 0.526881 0.501824 0.499511 0.514588 0.521907 0.514102 0.49932 0.496603 0.494309 0.503385 0.500681 0.510869 0.5181 0.484794 0.496508 0.50014 0.499888 0.495875 0.489505 0.51526
internal_weight=183133 151469 62280 89189.1 52034.9 67182 22007.1 27256.3 10245 32320.5 24778.6 22472 34861.5 13882.1 14801.3 5226.87 33021.1 5018.17 12455 8124.97 31663.9 11306.9 25082.4 13699.7 19935 1101.6 20012.6 2460.83 28079.9 10204.3 1254.21 11200.8 2766.04 10473 6853.95 2291.11 12795.4 1840.45 7238.13 11999 10669.8 1728.52 13086.1 1142.9 2756.13 1352.54 1102.67 6049.2 7139.51 9876.48 3583.95 7716.82 8413.42 10636.1 1001.68 578.651 2727.05 2288.21 2174.91 5195.62 2575.17 1413.5 950.084 1710.72 5426.78 6238.96 752.307 1610.95 762.293 1324.36 4335.99 1666.2 834.175 8634.11 5243.02 11599.1 2054.13 1477.86 4366.63 763.816 972.705 5837.64 400.99 761.488 2306.67 1271.02 463.417 4213.03 17443.9 1564.81 1527.3 3364.89 755.813 5056.82 436.044 372.836 4129.03 1361.44 7821.26 130.689 1161.54 376.928 1852.17 2036.32 3890.57 4747.71 804.752 590.247 7506.28 784.613 710.865 733.064 3324.32 2281.86 6168.65 5264.87 414.775 489.321 3029.88 347.518 508.705 4015.41 6652.3 4680.86 2875.18 193.502 1258.65 556.909 61.8089 1713.21 3866.53 1423.82 438.842 832.03 3282.25 656.068 113.334 741.913 3590.77 1687.47 2307.07 517.781 1017.45 1715.26 5069.81 1045.41 2188.68 6143.15 11830.9 5728.32 596.412 430.491 325.148 105.343 150.706 2966.82 619.024 3251.93 2005.16 270.118 423.025 126.311 3376.36 1820.86 1421.82 780.559 2626.18 671.255 664.182 402.653 261.528 141.486 211.217 1861.4 701.739 1973 1051.07 722.812 1367.52 8543.19 1305.05 350.367 246.801 211.525 748.58 206.775 888.716 4912.53 332.728 542.089 251.148 257.089 264.032 95.5862 907.142
internal_count=436643 372348 163103 209245 132919 154121 55124 72325 30184 71362 60594 55464 82759 33658 40405 16086 77947 14098 31920 21466 64295 27900 56223 37086 47906 3319 45292 7221 56541 24918 3519 28401 8865 26656 17825 6115 30303 4812 15139 28808 28562 4571 30041 3263 7256 4476 2982 15590 17603 24853 7754 19400 19479 21884 3080 1838 7983 6627 6481 13292 5758 4389 2888 4620 14274 15831 1965 3614 2605 3548 11330 4893 2383 20487 14288 25813 5475 3569 10379 1922 2673 14539 1220 2052 5130 3641 1501 11187 34657 4233 4193 8321 1898 13737 1334 1119 10349 3774 18220 394 3297 1115 5293 4479 10067 11731 2235 1871 17268 2182 1999 2178 8907 5855 14774 11821 1464 1242 8524 1141 1588 10034 16041 11561 7187 509 3461 1487 204 4260 8297 3238 1356 2510 8777 1811 310 2043 8954 4134 6430 1488 2677 4933 10931 2636 5409 14262 23694 11981 1596 1178 868 310 449 7150 1836 8934 5574 979 1242 393 8511 4658 3590 2016 6966 1974 1959 1217 742 382 621 4992 1974 4140 2974 2094 3360 19167 3225 1017 736 645 2084 592 2280 11567 1107 1618 723 742 793 305 2211
is_linear=0
shrinkage=1


Tree=1
num_leaves=196
num_cat=0
split_feature=27 2 24 2 2 24 24 24 24 2 24 23 2 24 23 30 29 30 24 15 23 24 2 24 2 2 24 10 2 30 2 2 2 29 15 23 24 30 23 2 23 10 2 10 23 24 2 2 2 2 2 2 24 23 2 2 24 2 2 2 2 23 30 19 10 10 23 2 2 2 2 2 24 2 24 24 3 29 2 2 30 2 2 2 2 2 2 2 2 2 10 2 2 30 2 2 2 30 3 2 2 2 29 10 30 24 22 24 19 23 2 3 2 2 2 2 2 3 2 30 19 2 2 19 23 22 19 10 19 2 2 10 19 20 2 23 2 2 2 2 2 3 12 2 2 2 2 10 10 20 2 7 2 12 24 2 2 2 2 2 2 22 2 2 25 3 30 12 3 2 2 2 2 2 8 19 25 2 2 2 23 29 12 10 2 2 2 2 2 2 19 2 2 7 3
split_gain=15014.8 8665.47 6793.76 2031.57 1618.35 1012.96 898.808 772.77 738.117 478.604 437.752 401.887 258.743 216.759 205.31 190.87 177.42 174.542 170.859 213.528 165.36 153.916 148.223 138.321 135.075 124.098 123.874 116.624 105.485 104.875 103.797 135.523 97.954 97.4473 92.5991 81.0337 80.983 79.898 77.7651 75.1372 73.0725 72.3661 70.6608 70.5293 65.2619 63.9792 59.023 146.821 60.5993 58.0116 69.4563 85.2404 56.6834 56.6221 56.5284 71.3941 54.7983 52.6892 52.5155 93.9651 61.9877 51.6749 50.1405 49.5036 48.4876 47.9453 47.7465 47.7442 119.054 70.8767 110.027 108.277 46.6701 46.4663 43.2259 39.7579 39.5214 39.3929 38.0558 37.9863 36.9445 36.7779 115.565 67.4215 49.9331 38.5957 49.0834 36.3481 35.7955 35.7835 35.6935 35.2348 35.1799 34.9165 33.9594 45.0906 58.6497 33.8021 33.7451 33.3669 33.3056 31.9693 31.8143 31.5213 31.3558 30.8236 30.0378 29.6367 28.8344 27.2404 26.7386 26.4541 26.358 99.1011 48.8972 26.0636 36.4263 26.0152 25.7002 25.6836 25.5165 25.1428 24.8688 24.7539 24.6452 24.6447 24.3317 24.3033 26.1604 24.2421 28.5385 24.2394 23.7214 25.0144 23.4617 23.2367 23.2214 70.4155 30.9497 62.7374 50.0517 23.1553 23.0484 22.8338 32.5779 22.722 32.4824 22.6696 22.6086 22.5917 22.5474 22.5187 22.4774 22.4338 22.4193 22.3829 36.4195 60.8886 66.093 34.6601 22.2022 22.0305 21.7742 21.4889 21.2571 20.9387 23.9912 23.8841 20.648 20.5731 29.7976 38.6122 34.4059 23.2722 20.7283 20.2507 20.1563 20.0463 24.4185 20.0197 19.9535 19.9284 19.9224 19.7285 19.6049 61.6067 22.7139 20.6625 21.0774 27.0194 19.5739 19.427 51.2366 19.4041 23.6457
threshold=26.500000000000004 132.50000000000003 1246.7500000000002 75.500000000000014 75.500000000000014 1419.1500000000003 850.35000000000014 1612.4500000000003 1741.1500000000003 196.50000000000003 877.25000000000011 0.64440905388471192 132.50000000000003 941.75000000000011 0.64830686090225575 5112.5000000000009 4.9380581778699986 4556.5000000000009 682.80000000000007 1.0000000180025095e-35 0.62274354636591489 642.9000000000002 172.50000000000003 1358.3500000000001 56.500000000000007 56.500000000000007 1118.7500000000002 61.500000000000007 60.500000000000007 4970.5000000000009 60.500000000000007 63.500000000000007 63.500000000000007 4.8559213341406453 1.0000000180025095e-35 0.68665808270676698 1118.7500000000002 4556.5000000000009 0.71190347744360916 59.500000000000007 0.68665808270676698 67.500000000000014 59.500000000000007 65.500000000000014 0.59597252506265674 996.70000000000016 67.500000000000014 65.500000000000014 66.500000000000014 56.500000000000007 60.500000000000007 63.500000000000007 1052.6500000000003 0.60775927318295742 67.500000000000014 65.500000000000014 585.70000000000016 59.500000000000007 31.500000000000004 45.500000000000007 43.500000000000007 0.69402283834586476 3906.5000000000005 0.50041666666666684 66.500000000000014 68.500000000000014 0.71296723057644129 94.500000000000014 86.500000000000014 83.500000000000014 82.500000000000014 80.500000000000014 1078.1500000000003 36.500000000000007 1112.1500000000003 1646.7000000000003 7.8500000000000005 4.9089648320872419 56.500000000000007 95.500000000000014 2352.5000000000005 56.500000000000007 60.500000000000007 59.500000000000007 63.500000000000007 67.500000000000014 65.500000000000014 55.500000000000007 92.500000000000014 65.500000000000014 57.500000000000007 162.50000000000003 55.500000000000007 870.50000000000011 60.500000000000007 65.500000000000014 67.500000000000014 2450.5000000000005 5.7500000000000009 26.500000000000004 18.500000000000004 192.50000000000003 4.6491756246494491 74.500000000000014 756.50000000000011 1641.1500000000003 0.86982456140350894 1099.6000000000001 0.64041666666666697 0.61361453634085217 37.500000000000007 6.1500000000000012 67.500000000000014 65.500000000000014 66.500000000000014 32.500000000000007 34.500000000000007 4.5500000000000007 64.500000000000014 5112.5000000000009 0.53625000000000023 89.500000000000014 65.500000000000014 0.66041666666666698 0.56412149122807032 0.87226315789473696 0.63541666666666685 73.500000000000014 0.50875000000000015 88.500000000000014 87.500000000000014 67.500000000000014 0.56791666666666696 0.27692857142857147 66.500000000000014 0.67467935463659157 94.500000000000014 86.500000000000014 83.500000000000014 82.500000000000014 80.500000000000014 6.6500000000000012 56.500000000000007 47.500000000000007 49.500000000000007 142.50000000000003 136.50000000000003 57.500000000000007 59.500000000000007 0.26810714285714293 29.500000000000004 0.77500000000000013 169.50000000000003 45.500000000000007 1168.45 86.500000000000014 80.500000000000014 82.500000000000014 83.500000000000014 94.500000000000014 79.500000000000014 0.89026315789473698 102.50000000000001 86.500000000000014 3997.5000000000005 8.4500000000000011 3660.5000000000005 39.500000000000007 6.1500000000000012 60.500000000000007 64.500000000000014 67.500000000000014 65.500000000000014 59.500000000000007 117.50000000000001 0.46375000000000016 3219.5000000000005 45.500000000000007 43.500000000000007 96.500000000000014 0.61748374060150391 4.5695295849856103 45.500000000000007 57.500000000000007 32.500000000000007 36.500000000000007 37.500000000000007 45.500000000000007 47.500000000000007 49.500000000000007 0.48375000000000018 35.500000000000007 34.500000000000007 0.82500000000000007 7.6500000000000012
decision_type=2 2 2 2 2 2 2 2 2 2 2 2 2 2 2 2 2 2 2 2 2 2 2 2 2 2 2 2 2 2 2 2 2 2 2 2 2 2 2 2 2 2 2 2 2 2 2 2 2 2 2 2 2 2 2 2 2 2 2 2 2 2 2 2 2 2 2 2 2 2 2 2 2 2 2 2 2 2 2 2 2 2 2 2 2 2 2 2 2 2 2 2 2 2 2 2 2 2 2 2 2 2 2 2 2 2 2 2 2 2 2 2 2 2 2 2 2 2 2 2 2 2 2 2 2 2 2 2 2 2 2 2 2 2 2 2 2 2 2 2 2 2 2 2 2 2 2 2 2 2 2 2 2 2 2 2 2 2 2 2 2 2 2 2 2 2 2 2 2 2 2 2 2 2 2 2 2 2 2 2 2 2 2 2 2 2 2 2 2 2 2 2 2 2 2
left_child=1 2 3 6 7 9 18 14 16 13 21 25 26 91 62 38 23 22 19 56 76 34 43 111 58 45 92 36 39 66 42 -32 -30 65 93 72 -11 67 78 -26 49 61 -27 147 -20 125 47 -34 106 107 57 -52 152 -23 55 -33 118 -51 99 60 73 90 81 151 74 132 162 68 69 70 71 135 136 191 126 89 80 145 175 -69 124 -4 83 -83 -84 86 -86 120 121 -28 -24 131 -2 -5 -80 -96 -97 117 -55 100 -16 119 -38 149 -65 -43 -49 153 155 -44 -75 163 113 -53 -115 -109 -117 -67 -1 -19 -46 129 -58 -113 -12 190 -35 -81 -129 130 -70 141 133 -15 -88 -25 137 138 139 140 160 164 -74 -61 -145 146 -45 -7 -126 -93 -101 -29 -14 -13 -56 156 -18 -158 -159 -157 -22 -50 -10 -6 -3 166 167 -106 -42 173 -171 172 -172 -89 -173 -9 -174 178 -118 -165 181 -92 -99 -135 -47 -186 -187 -188 -189 -190 -8 192 -60 194 -151
right_child=12 5 4 10 8 17 11 15 29 27 20 40 52 33 24 -17 108 101 44 -21 35 53 41 37 28 30 75 63 32 -31 31 54 46 64 -36 -37 102 -39 -40 -41 168 105 109 77 87 184 -48 48 161 50 51 112 -54 98 154 -57 122 -59 59 143 -62 -63 -64 104 -66 97 -68 79 88 -71 -72 -73 142 110 -76 -77 -78 -79 94 127 -82 82 84 -85 85 -87 134 169 -90 -91 180 103 -94 -95 95 96 -98 182 -100 150 -102 -103 -104 -105 165 -107 -108 115 -110 -111 -112 123 -114 114 -116 116 177 -119 -120 -121 -122 -123 -124 -125 148 -127 -128 128 -130 -131 -132 -133 -134 183 -136 -137 -138 -139 -140 -141 -142 -143 -144 144 -146 -147 -148 -149 -150 193 -152 -153 -154 -155 -156 159 157 158 -160 -161 -162 -163 -164 179 -166 -167 -168 -169 -170 170 171 174 176 -175 -176 -177 -178 -179 -180 -181 -182 -183 -184 -185 185 186 187 188 189 -191 -192 -193 -194 -195 -196
leaf_value=-0.0067230275877565296 0.025349821572910922 -0.0061806800377206938 0.014207472234755667 -0.013961136061694177 0.0055584505793221696 0.014711116432451422 0.0045526628239279951 0.012910793976548237 0.016155206469620983 -0.014468220847178963 -0.006984699272361357 0.015691324555119717 0.017354931443751807 -0.015899538180597295 0.021651587096290479 0.025277763767178239 0.01351613394496193 0.009806173210701704 0.00045469634083750203 0.018059125970009506 0.0019639122861367557 -0.0037864577585235387 0.0034290657081906322 0.009543425975780449 0.012873580338433747 0.0041686901978262181 0.026941294796493584 -0.0084650823112634391 0.020509587546780152 0.021864386231753789 0.01481701197348478 0.0071021493867480731 0.016545377063679877 -0.0058099256288725813 0.011309576595449421 0.0094444934809116837 -0.012255261785906012 0.016115005467008378 0.022084721884444415 0.0026857460991417639 0.016599241745576244 -0.017331729622383635 -0.016764389396841821 -0.0049614800521165297 0.0053922440107380763 0.014135857424239538 0.016293102205733496 0.0036093106277245183 0.002543309720959066 0.0085554622837699448 0.017961227119790597 0.013532175895217347 0.020858106568063972 0.0033129763817918751 0.0071658382227050964 -0.003148976009718584 5.8709446076753955e-05 -0.0029580909283414536 0.012985862274770442 0.022082914083929716 0.011079212810395325 0.012563895848187873 0.016751254474896896 -0.033291237477975584 -0.0025049739548076004 -0.0020255853373793899 0.019602544950578234 -0.0012343669715487028 0.017695507075823416 0.0036920799695757513 0.01918035976532444 0.0010564833645561697 0.0069144279027110673 0.022531346225061349 0.0063664827488247719 0.028009099250172788 -0.0023606583172785084 0.0060200005203752804 0.014179406926206319 0.0099546946699984561 0.0045908201553923438 0.0073693420281778499 0.018367349409832694 -0.0082671444034955362 0.012468759309827137 0.013647868823109316 -0.0076007554601994314 0.0029856876469453561 0.019383667288111851 0.025101926195752178 0.00085576901546005493 -0.025856540916376486 0.022723732559467327 -0.00052908430613604499 0.021655982561017181 0.0082626704862445808 0.018106880709551524 0.0049042453357402947 -0.0010531328850761894 0.024586973052801584 0.01652878783118306 0.0056014923702112944 -0.0015894158358557538 -0.028707412314734223 -0.0033723186059129869 -0.003867314254565836 -0.012551657506041897 0.017877874561342471 0.015311459959092782 -0.0028965775997057378 0.017337621679962716 0.004555166640166375 0.011852223992400069 -0.010701449765910146 0.0050324760586817809 0.0049953171549319943 0.01406210787505747 -0.013116474147847505 -0.017890547766137757 0.017325665907263161 0.0093801917786376192 0.011380605684372162 -0.0081051855637859979 0.0099163150887766529 0.006803914471237911 0.013839069355254119 0.0066881691018603664 -0.0015682368605398206 0.0077541278508005259 0.020818006871504924 0.0097338991483711702 -0.011742367243421951 -0.00076811106858725635 0.0037287019049692619 0.0053051208502581911 0.014221510781923689 0.0018487919725265417 0.0086034248162461108 -0.0038054447998803593 0.013602082955192499 -0.0061791757342838363 -0.011430808292211991 0.0042529046707843621 0.015663472805903023 0.019643420576988979 -0.0046419254892177053 0.0081576207237433092 0.0072203351131462463 0.00097828984930584052 -0.0042175314951941904 0.019663798440323857 -0.026338396901994014 0.0097387588817908367 0.011857344731825486 0.011818457733075933 0.016401757781332085 -0.0016103154102814665 0.019616576734262328 0.0047209718913446309 0.011895222716569863 0.0098238636475307048 0.011960612619711835 0.012453004900305414 0.012008383725402385 0.0038198895655714351 -0.02659247305742287 -0.0021376374846013057 -0.016093897376332322 0.013930178041681292 0.010516391370642976 0.0059244732528433109 0.0073924160801875057 -0.023680067992273752 -0.0077464645909308084 -0.0033226160977448903 0.020296546666524046 -0.0054965076903240994 0.016249266128115013 0.0068385207105035239 0.007835491513352083 -0.0024658320803603146 -0.01272006693740858 -0.0059602742384750164 -0.0053617105857591708 0.0053310849995082277 0.020057072605894549 0.0099992708302424852 0.017475166331136032 0.0079135488516225011 0.013516522090111361 0.0085657444638943623 0.011057680302796564 0.022040294839987939 -0.015503000316964364 -0.020027983294890445
leaf_weight=418.25193531811237 3141.77309204638 252.13331063091755 4384.9651621878147 600.634640827775 766.21965658664703 184.71944515407085 591.69256155192852 141.88780935108662 2006.5063824206591 592.88228569924831 131.75771769881248 689.83024995028973 313.05197530984879 72.419204637408257 798.82094919681549 3213.026241928339 688.99022196233273 374.89080323278904 763.30989041924477 185.52959267795086 530.81429748237133 1533.0468820929527 258.00882552564144 1199.9069607853889 1505.0142100155354 988.27645929157734 8465.8947101384401 29.064848735928535 1537.7549334615469 1928.3004909455776 906.17448164522648 578.85813070833683 873.82780270278454 210.96452639997005 65.775942251086235 1640.5383472442627 135.82330128550529 932.99549761414528 5050.0200290381908 321.18477383255959 2856.7622288316488 168.03510415554047 77.333379253745079 119.3161403387785 916.40395869314671 1077.8002182841301 3592.0603480786085 74.020597964525223 151.86294665932655 771.75216782093048 742.47959320247173 425.15796165168285 1691.9280341416597 1138.0965384542942 1851.9224694669247 433.9094070494175 922.22466647624969 178.59506419301033 831.73526284098625 956.20420242846012 840.20241189002991 90.793309569358826 1649.2019531130791 36.972730815410614 841.20013879239559 93.0090501755476 1225.7184285521507 131.72939951717854 343.27920405566692 689.58789743483067 450.8322186768055 507.34200881421566 3623.8783002495766 418.24225686490536 686.02177694439888 5345.9942457824945 800.31496387720108 425.88262297213078 803.43365842103958 3574.9286519140005 1624.2500486373901 589.42931397259235 578.86904671788216 121.0951057523489 316.64207573235035 1383.7955244034529 78.582547724246979 418.95704129338264 485.9381830394268 7425.1817716211081 51.217217355966568 46.340128719806671 4812.8051244318485 80.174093574285507 1142.3249609321356 253.19058135151863 1808.5428562760353 70.592448398470879 1496.7312004268169 829.59769846498966 1138.7684975266457 293.53094072639942 408.95504887402058 52.737492263317108 57.011793985962868 98.903887778520584 96.228847354650497 882.27391210198402 2010.728535503149 155.34020960330963 3013.2303055375814 1936.843092545867 1754.1793374270201 112.489591345191 199.39100286364555 152.96833252906799 1003.6947406977415 461.59300296008587 91.75571320950985 301.55533185601234 1638.8262109011412 966.44069270789623 159.50607731938362 375.88076724112034 263.15879729390144 254.25340953469276 77.445189446210861 122.45012803375721 1066.6591139435768 256.91071157157421 320.11245474219322 498.61105938255787 936.77976796030998 100.02918612957001 147.04902777075768 578.29645410180092 1977.5020002424717 972.99698920547962 277.10511037707329 181.3873138576746 240.53343567252159 183.80098955333233 1773.686017498374 966.04011371731758 3592.0914230197668 361.27861574292183 162.13572114706039 742.31870685517788 3175.1391739398241 165.45854967832565 603.02671940624714 270.4137088060379 262.78916037082672 3038.1065041422844 477.26723846793175 971.42472295463085 198.74718880653381 190.31037931144238 254.29492138326168 1771.3468679189682 174.14300139248371 226.2232568860054 831.17201121151447 670.49019393324852 111.75275136530399 59.010904863476753 51.740505009889603 1091.2058647722006 1721.8026176989079 333.30061340332031 72.153117954730988 512.18904842436314 32.184944331645966 89.135136023163795 75.429146736860275 5962.7841572314501 71.408390298485756 1327.2111006230116 207.69536785781384 1139.4692054390907 400.93902146816254 171.42155185341835 470.78808827698231 665.76262694597244 560.47055186331272 128.58666951954365 1346.6574568897486 332.64852994680405 413.10523273050785 1350.1802689582109 1801.3152173906565 536.13209794461727 316.75197419524193 243.91010950505733 43.362284064292908
leaf_count=1244 6418 746 10375 1913 2006 434 1566 341 4634 1897 393 1602 712 235 1717 6570 1644 935 2111 418 1445 4429 691 3002 3620 2627 16903 88 3356 4134 2127 1489 2008 622 161 4109 426 2156 10794 868 6561 552 253 349 2403 2552 8281 198 411 1953 1675 1014 3677 3053 4760 1246 2561 512 1998 2043 2065 219 3780 139 2399 264 2708 371 777 1843 1001 1395 9342 888 1779 10508 2279 1109 1902 8900 4297 1512 1299 366 765 3296 236 1128 1076 15222 141 164 10199 224 2455 643 4074 186 4205 1712 2618 768 1155 191 164 286 303 1993 4693 445 6856 5126 4270 348 525 403 2379 1459 303 686 4107 2366 481 936 679 604 200 346 2724 558 799 1556 2624 267 386 1368 5389 2460 801 432 712 572 4710 2245 7931 1053 412 1907 8733 480 1331 959 656 7396 1162 2236 562 420 672 4310 434 550 2009 1629 298 210 147 3543 4088 824 188 1313 112 268 217 13054 210 3061 536 2907 1143 540 1390 1954 1471 282 3351 755 1053 3221 4557 1318 677 788 146
internal_value=0.0133075 0.0108055 0.0122235 0.00727381 0.0158617 -0.00397495 0.0100764 0.0179077 0.0122234 -0.00758737 0.00273834 0.0115166 0.0253204 -0.00468296 0.0161344 0.0210407 0.0106418 0.0037721 0.00375877 -0.00132097 0.00416201 -0.00229848 0.00163909 0.00961323 0.0170943 0.00906191 0.025804 -0.0142642 0.0151511 0.0181882 0.00684999 0.00826156 0.0162841 -0.00260959 -0.0102879 0.00551411 -0.00958201 0.0107477 0.0201421 0.0110829 0.0135525 -0.00355193 0.00193737 0.00486285 0.00559247 0.0106011 0.0149865 0.0116822 0.00392479 0.0127369 0.0109389 0.0122743 0.0190918 -0.000866362 0.00648226 0.0027107 -0.0035844 0.00639136 0.0181908 0.0175715 0.0159029 -0.00112976 0.0137242 -0.0175992 0.000856115 -0.00480113 0.0164414 0.0102787 0.0114534 0.00917179 0.0105519 0.00884637 0.00485251 0.016694 0.00375749 0.0265681 0.00159217 0.00151488 0.019171 0.00888654 0.00220136 0.0130664 0.0115086 0.00470079 0.0134384 0.011953 0.00762 0.00653504 0.0147454 0.0260826 -0.00254583 -0.0107608 0.0237623 -0.0123808 0.0177143 0.0185985 0.0169001 -0.00794399 0.000833018 0.0202959 0.0186454 0.0108818 -0.00425666 -0.014672 -0.0159688 -0.0123582 -0.00553424 0.0137665 0.0134324 -0.00752965 0.0179736 0.00691441 0.0105764 0.00753433 -0.000649729 0.0150142 0.0140727 -0.0112597 -0.0087464 0.0131678 0.00795118 0.0135464 -0.00114798 0.00542829 0.00111379 0.00817849 -0.00244855 0.00916648 0.00679389 0.015814 0.0138631 -0.00869258 -0.00285899 -0.00519404 0.000803937 0.0110681 0.00337975 0.0046528 0.001913 0.00332018 0.00134203 -0.00590859 0.00604027 0.0193724 0.0188016 -0.0014724 0.00259693 0.00871945 0.00142502 -0.013164 0.0225216 -0.0246193 0.0138897 0.0125686 0.00812133 0.0125036 0.0104612 0.00718237 0.0111105 0.0134938 0.00391065 0.00818571 0.015073 0.00824735 -0.00310842 -0.0154482 -0.0148903 -0.0154638 0.015597 0.0042785 0.00575112 0.00366545 -0.00418703 0.00109764 0.00601545 0.0201259 -0.011225 0.0146186 0.0128267 0.00938396 -0.00501871 -0.00960154 -0.00454064 -0.00417277 0.0118314 0.0112288 0.0121536 0.0118557 0.0130461 0.0122062 0.00757454 0.0140834 0.0154908 -0.0118401 -0.00753717
internal_weight=182512 151053 137830 58392.4 79437.7 13222.7 36090.7 50843.9 28593.9 9017.79 22301.7 29390.2 31459.4 6284.71 32468.7 18375.2 22602.2 4204.95 6700.57 1777.27 17387.2 4914.46 3234.97 16516.3 23219 13325.8 29191.6 2733.08 8378.18 5991.7 5469.08 4248.13 6551.98 4686.61 746.585 11392.6 1137.66 11627.4 15162.2 1826.2 16064.4 1239.32 1220.95 1995.65 4923.3 7856.71 5014.22 1422.16 548.336 11485.8 4184.04 3233.7 2267.77 4167.87 3341.96 1012.77 1591.74 950.347 14840.8 11470.6 5956.29 972.38 9249.63 1595.42 1815.63 2870.97 4063.4 10694.4 5798.65 3425.97 2736.38 2285.55 9752.05 5116.09 974.431 21237.1 5994.62 1068.61 10112.2 4895.77 5194.31 7600.43 3215.46 710.524 2504.94 1926.07 542.274 4159.99 2372.68 15891.1 881.587 1598.11 7954.58 680.809 4007.49 3204.06 2061.73 1095.98 2634.83 3370.21 1937.59 969.977 544.778 551.809 1295.94 266.939 170.249 7301.78 6085.84 232.674 3431.47 4888.9 2491.22 737.039 311.881 3573.84 2691.57 554.602 510.008 676.446 2555.23 1886.74 1081.73 2312.72 3570.06 2647.26 288.41 4764.04 1189.11 920.302 663.392 1046.3 1774.99 838.211 225.632 1778.2 4354.48 2376.98 1403.98 1126.88 945.491 547.687 5397.56 5514.34 4558.13 642.73 281.452 927.038 3438.3 499.071 1432.62 299.479 575.841 3727.94 2329.19 4075.11 1332.34 643.352 444.605 2742.77 704.957 378.086 2837.68 2576.18 363.886 1258.97 1199.96 1148.22 4578.56 1604.76 1096.67 763.365 175.746 508.092 587.618 6104.67 103.593 2538.6 1211.39 1809.96 623.578 222.639 541.381 765.792 5209.45 4131.65 3571.18 3442.59 2095.93 1763.29 2393.01 1684.62 1148.49 452.731 208.821
internal_count=436643 372348 334075 149925 184150 38273 89725 114842 69308 27048 60200 71837 64295 18320 75009 39833 55823 11225 17888 5007 46215 13985 8836 41286 52994 33521 59250 8728 19595 13485 14109 10784 15107 13379 2298 29834 3478 28682 33263 4488 38316 3572 3325 5264 12881 19412 11751 3470 1462 27667 10297 7832 5045 11687 8657 2735 4589 2465 33399 26021 13802 2734 22015 5250 5000 8379 9351 26526 14185 8609 6766 5765 25725 11737 2601 42633 16381 2923 22469 12341 14102 18235 7860 1878 5982 4683 1387 10770 5576 32125 2515 4941 16617 2137 9074 7172 4717 3299 7258 7378 4335 2389 1581 1769 4203 838 501 17370 14537 698 7744 12604 6157 1887 873 8372 6379 1723 1547 1621 6510 4500 3042 6062 9805 6727 822 11970 3070 2134 1576 3172 5080 2456 622 4370 11673 6284 3824 3023 2591 1616 14052 12219 10176 1814 761 2341 9412 1578 3043 1047 1368 8998 5922 9844 3298 1654 1092 6546 1879 961 6643 6542 1044 4064 3854 3707 10649 4260 2864 2040 510 1396 1530 13395 322 5976 2915 4536 1824 681 1576 2221 12685 10133 8662 8380 5029 4274 6123 3993 2675 1414 626
is_linear=0
shrinkage=0.0191138


Tree=2
num_leaves=196
num_cat=0
split_feature=27 2 24 24 2 2 24 24 2 2 24 24 24 24 27 2 23 2 23 23 2 24 2 23 24 24 2 2 2 10 24 60 2 13 2 14 2 2 2 24 24 27 22 2 2 2 2 2 21 10 24 14 2 2 2 2 24 2 2 2 24 2 2 2 2 2 2 2 2 2 2 2 10 2 2 2 2 2 2 2 2 2 2 14 10 10 2 24 2 23 2 21 2 2 13 10 23 23 2 3 2 2 10 2 59 24 10 12 2 2 2 2 2 2 2 2 2 2 2 2 24 2 2 2 26 60 2 2 2 12 14 2 11 24 2 2 10 21 23 24 24 2 21 12 11 2 23 2 2 14 2 2 2 2 10 2 2 22 2 2 11 10 14 3 10 2 2 10 3 7 2 24 13 13 12 10 22 2 2 14 6 24 24 14 3 13 7 2 2 2 2 2 10 2 10
split_gain=14640.2 8379.44 4903.25 2688.82 1227.74 1132.06 1121.55 971.195 765.57 609.197 330.853 315.963 314.145 288.125 262.54 254.735 246.949 231.629 196.153 175.859 155.222 154.497 151.425 122.478 116.679 113.103 109.311 113.323 138.107 95.2181 91.1962 89.7433 86.8945 84.3066 78.4503 77.2738 76.1712 116.741 69.8002 68.7219 68.0145 69.4687 67.345 67.0388 147.608 69.4761 88.9533 91.8692 66.7176 63.2791 62.5663 61.424 61.3988 96.6024 60.1547 103.277 59.1852 58.4679 57.7992 69.3406 54.7714 54.0897 138.692 120.925 53.8924 52.6853 61.5601 52.6555 56.9522 178.64 68.2999 66.2528 51.4464 51.1141 50.6168 49.7727 49.2626 122.294 48.5838 65.5223 140.479 61.6416 48.2311 47.8481 46.8892 44.3623 43.763 43.0213 42.8339 41.5311 39.4188 39.3607 38.9562 90.9013 38.7799 38.2398 37.9331 37.6615 36.8204 36.0014 35.6849 35.5175 35.3934 35.0649 34.6377 33.1265 32.8803 32.7096 31.4502 51.8712 37.4854 75.9743 62.4255 34.6072 31.3812 44.7293 87.3389 76.8252 31.2637 30.6678 30.3093 29.8695 57.7924 37.6712 29.5574 29.3068 29.2734 29.2534 52.2625 28.8803 28.8663 28.6172 28.5876 28.5873 28.1854 27.8927 27.8103 27.6999 27.6543 27.0668 27.0497 26.8903 26.2997 26.1798 26.046 26.0133 25.966 25.6509 39.1779 25.4709 25.2702 25.0071 29.4079 28.9824 24.9152 24.8488 24.8137 24.813 24.6942 33.1215 24.3791 24.226 24.1944 24.0223 23.2953 23.2576 40.631 23.0697 23.1419 23.0498 22.884 22.7463 23.6145 22.6528 22.6528 22.5086 22.4911 22.4262 22.2415 22.2089 27.8989 27.8356 22.1843 22.1688 22.0282 21.6479 21.6311 21.4203 20.8116 32.1373 20.7724 22.7282 20.7613 20.6162 20.6041
threshold=26.500000000000004 94.500000000000014 1282.8500000000001 1246.7500000000002 162.50000000000003 132.50000000000003 920.10000000000002 1734.1000000000001 65.500000000000014 56.500000000000007 1669.7500000000002 761.70000000000016 834.75000000000011 1629.7000000000005 1.0000000180025095e-35 117.50000000000001 0.64575028195488737 198.50000000000003 0.65646381578947388 0.67702246240601516 132.50000000000003 585.70000000000016 65.500000000000014 0.64830686090225575 1047.8000000000004 1188.1500000000003 67.500000000000014 75.500000000000014 86.500000000000014 57.500000000000007 1967.5500000000002 1.0000000180025095e-35 66.500000000000014 81.500000000000014 65.500000000000014 127.50000000000001 76.500000000000014 86.500000000000014 66.500000000000014 2030.0500000000004 616.30000000000007 1.0000000180025095e-35 0.82675438596491235 60.500000000000007 63.500000000000007 92.500000000000014 76.500000000000014 86.500000000000014 1.3594500000000003 60.500000000000007 1461.8500000000001 127.50000000000001 78.500000000000014 86.500000000000014 83.500000000000014 82.500000000000014 1118.7500000000002 55.500000000000007 92.500000000000014 89.500000000000014 1501.3500000000001 83.500000000000014 82.500000000000014 80.500000000000014 132.50000000000003 67.500000000000014 65.500000000000014 32.500000000000007 60.500000000000007 58.500000000000007 45.500000000000007 43.500000000000007 67.500000000000014 192.50000000000003 34.500000000000007 59.500000000000007 83.500000000000014 82.500000000000014 60.500000000000007 65.500000000000014 66.500000000000014 59.500000000000007 196.50000000000003 134.50000000000003 61.500000000000007 64.500000000000014 26.500000000000004 1015.6000000000001 134.50000000000003 0.56412149122807032 162.50000000000003 0.37955000000000011 79.500000000000014 78.500000000000014 83.500000000000014 64.500000000000014 0.54738458646616561 0.61748374060150391 20.500000000000004 4.5500000000000007 129.50000000000003 67.500000000000014 66.500000000000014 89.500000000000014 1.0000000180025095e-35 1453.5500000000004 73.500000000000014 58.500000000000007 32.500000000000007 36.500000000000007 53.500000000000007 60.500000000000007 59.500000000000007 63.500000000000007 79.500000000000014 83.500000000000014 82.500000000000014 80.500000000000014 80.500000000000014 47.500000000000007 1827.4000000000003 31.500000000000004 45.500000000000007 43.500000000000007 4938.6000000000013 1.0000000180025095e-35 52.500000000000007 92.500000000000014 89.500000000000014 50.500000000000007 139.50000000000003 62.500000000000007 161.50000000000003 1646.7000000000003 66.500000000000014 29.500000000000004 56.500000000000007 0.80035000000000012 0.61993959899749385 1052.6500000000003 664.15000000000009 93.500000000000014 0.55720000000000014 51.500000000000007 196.50000000000003 64.500000000000014 0.68962593984962417 88.500000000000014 87.500000000000014 106.50000000000001 36.500000000000007 92.500000000000014 75.500000000000014 60.500000000000007 75.500000000000014 59.500000000000007 66.500000000000014 0.83945614035087746 65.500000000000014 67.500000000000014 198.50000000000003 67.500000000000014 108.50000000000001 6.8500000000000005 59.500000000000007 31.500000000000004 34.500000000000007 68.500000000000014 6.1500000000000012 0.81500000000000006 31.500000000000004 1549.9000000000003 91.500000000000014 124.50000000000001 52.500000000000007 60.500000000000007 0.97342105263157908 67.500000000000014 86.500000000000014 140.50000000000003 25.650000000000002 1816.8000000000004 952.10000000000002 140.50000000000003 6.0500000000000007 98.500000000000014 0.85500000000000009 26.500000000000004 26.500000000000004 18.500000000000004 36.500000000000007 37.500000000000007 75.500000000000014 56.500000000000007 67.500000000000014
decision_type=2 2 2 2 2 2 2 2 2 2 2 2 2 2 2 2 2 2 2 2 2 2 2 2 2 2 2 2 2 2 2 2 2 2 2 2 2 2 2 2 2 2 2 2 2 2 2 2 2 2 2 2 2 2 2 2 2 2 2 2 2 2 2 2 2 2 2 2 2 2 2 2 2 2 2 2 2 2 2 2 2 2 2 2 2 2 2 2 2 2 2 2 2 2 2 2 2 2 2 2 2 2 2 2 2 2 2 2 2 2 2 2 2 2 2 2 2 2 2 2 2 2 2 2 2 2 2 2 2 2 2 2 2 2 2 2 2 2 2 2 2 2 2 2 2 2 2 2 2 2 2 2 2 2 2 2 2 2 2 2 2 2 2 2 2 2 2 2 2 2 2 2 2 2 2 2 2 2 2 2 2 2 2 2 2 2 2 2 2 2 2 2 2 2 2
left_child=1 2 6 4 12 10 11 9 16 23 35 14 40 17 21 25 56 29 26 31 33 145 42 125 48 91 -10 143 61 -7 34 43 -20 89 -9 106 177 76 -24 179 41 -3 94 75 -45 46 65 54 95 -19 90 102 78 114 55 -48 108 162 59 147 121 62 63 92 107 66 -46 86 69 70 71 74 173 85 146 -11 77 118 81 -80 -81 -21 167 87 96 -15 98 -35 -53 -14 -17 -2 93 -29 -13 169 -84 141 -18 -74 194 -82 105 -49 -51 -31 171 149 187 132 126 112 -112 -113 -54 116 117 -116 -38 -72 -87 188 123 150 -56 -4 -111 128 -39 -89 -75 -70 -110 -27 -36 -88 -50 -90 -114 -92 -59 -40 -108 -28 -77 -1 -69 148 -30 -42 -123 152 153 155 -91 -33 -68 -67 -155 -160 -138 -139 -23 193 -66 -62 -167 168 -26 -6 -58 172 -5 -22 175 -170 -106 -34 -154 180 -12 192 -134 186 -85 -144 -101 -8 189 -25 -172 -192 -182 -121 -37
right_child=15 3 7 5 24 13 8 30 18 19 39 22 20 73 -16 50 67 49 32 52 72 57 38 60 82 133 27 28 58 51 -32 151 36 83 134 100 37 127 97 -41 64 -43 -44 44 45 -47 47 103 136 104 -52 88 53 -55 124 -57 170 140 -60 -61 165 -63 -64 -65 164 157 156 68 131 -71 119 -73 99 130 -76 144 -78 -79 79 80 101 -83 84 184 -86 120 135 129 137 154 139 -93 -94 -95 -96 -97 -98 -99 -100 183 -102 -103 -104 -105 176 -107 142 -109 109 110 111 113 138 -115 115 -117 -118 -119 -120 163 -122 122 -124 -125 -126 -127 -128 -129 -130 -131 -132 -133 182 -135 -136 -137 160 161 -140 -141 -142 -143 185 -145 -146 -147 -148 -149 -150 -151 -152 -153 178 158 -156 -157 -158 -159 159 -161 -162 -163 -164 -165 -166 166 -168 -169 174 -171 190 -173 -174 -175 -176 -177 -178 -179 -180 -181 181 -183 -184 -185 -186 -187 -188 -189 -190 -191 191 -193 -194 -195 -196
leaf_value=-0.0065838565968585824 0.02505352848445545 -0.01682306017244144 0.014062576353022388 0.004872852431861226 -0.0021303682653672149 0.011229949076754283 0.0094599487270815696 0.021429541920932119 -0.003146025789699595 0.0085425086532656437 0.01766113033595243 0.002459184180739672 -0.011003736248289488 0.012840557684622805 0.018049504180282734 0.020039415605533767 0.017434595139361773 -0.0030959282257961478 -0.0069557869676310398 0.015085049258587897 -0.0013045382807263689 0.00024206951417049633 -0.014555135651879804 0.021678180917302656 0.0014805886946620379 0.026013561335264692 0.012042135473367821 0.0045435407261172726 0.012420746070016215 -0.0022960705695741915 0.023362619475267608 0.013431275766454462 0.0071133466305641031 -8.4405029099215445e-07 0.0034344216513449823 0.012256594549128077 0.0062131930252905072 0.015195332355840464 0.00019791395391331647 0.021621570054864449 -0.005561985339927771 0.0093106275027601947 0.010357861440559566 0.018770142174766205 0.01265872289243221 0.01803895508182491 0.0055534986015497462 0.014805021635090334 -0.011905250746603232 -0.0057761005054620933 0.023917991540831005 -0.010249599255473901 -0.00020178714238579403 0.016580787919880286 -0.0030530592061437023 0.016833972874456128 0.015337304791228197 -0.00508873536238829 0.013077845254424778 0.0028368685635277546 0.021628278206103531 -0.0024584000024057118 0.013065925319415748 -0.0061735571730633107 0.00045436918059574982 0.011388847126457368 -0.0044803430285748234 0.0047603160647660143 0.020186089048393731 0.0031982126788617799 0.01934239903199618 0.0062959408449679392 0.0017743733010580885 -0.00098628336169333318 0.014044544453712574 -0.0066421496932323344 -0.00087144936099733592 0.018950965217113095 0.020498829192597587 -0.0063971156997754625 0.009750349733960207 0.0038951865512371923 -0.02354837968257403 0.0078025045892577459 -0.015735197897523919 0.0031544204978575735 0.022428252705911939 0.0058221354676961101 0.0079198116027423583 0.0004544579490925537 0.010058450224474099 0.022571161901967614 0.0090164445399264857 -0.0085535508747697376 0.0075429275077697321 -0.016032418330193313 -0.0045479886104192119 0.0050438634631082618 0.011365174092284904 -0.006658126079427445 0.018934054396621394 0.017063507848037094 -0.0048358304406965072 0.0092399307891734249 -0.015826587685482577 0.005622962844991238 0.0088588148103787255 -0.0073540838156563064 -0.008974066243047427 0.010122133306619365 0.0052707106570547236 0.014644894795210443 -0.019582776897226713 0.0063672691653428202 0.016299540272344096 0.0057286648552090343 0.021134917949967073 0.0031056829680860599 -0.00077176019099030129 0.016492418207985415 0.010558112286697617 0.013561690037975652 0.018747588992382793 0.010483969765717189 0.0057416709269215663 0.01708436001204407 0.018806958975428757 0.017825434069867207 0.0065657669737204816 0.0022364420315946214 0.0079478119917644353 0.015004135062138999 -0.006188177142751777 0.02772301265839117 0.018140503612639254 0.016673886877212427 -0.022187987274625686 0.0048714466086114518 -0.0012259323687246625 0.01750987415690812 -0.00027355390575260622 0.016796837601141951 -0.00047527150334005771 0.0079697050190383565 0.0091201127810229786 -0.014401783350035904 0.014708680179812261 0.014682296174359207 0.0032980815003823645 0.00064229707137366404 0.017252540193380652 0.021004230984493617 0.010798827999557132 0.01936398470305243 -0.0064668419677570621 0.0028447183658559427 0.0060621592060336425 0.015238894551801141 0.0071414844537923865 0.016142527192366952 -0.012424807446212051 -0.0019028013538749048 0.004956671796257384 0.012207300469408482 -0.012519137371374563 0.013636794498467272 0.01957876407040161 -0.010402841386242083 0.011881396682723548 -0.011202202215463209 0.0074051816139886198 0.011218793609243008 0.0086098712408652616 0.0076227376163522107 -0.012352757677740201 -0.007525106160413176 -0.001859372578655629 0.013538136115555903 0.015106831522392254 0.017026188051159415 0.011107193729358448 0.015090848865389297 0.0062670395645544165 -0.00085440380469723354 0.003530251753797873 0.0054384721470067668 -0.013385358720140499 0.015390299875638606 0.021801837587080826 0.015280494665504046 0.02128881803314156 0.011662966542202891 0.0025620986784153027 0.012251796325342953 0.0093823133706100129
leaf_weight=418.93264466524124 5191.644037887454 333.89399200677872 3212.6620082110167 838.36094282567501 138.4189043790102 308.27938628196716 463.73980030417442 6284.5380612909794 507.4273803383112 972.38243162631989 445.2361926138401 769.8997869938612 156.11726841330528 630.69363135099411 279.70174743235111 1569.9172787964344 753.56388667225838 482.85535345971584 107.91523833572865 994.82865686714649 1216.4207112789154 648.91310165822506 80.166036933660507 489.77828842401505 246.04856976866722 13165.497196286917 815.74827893078327 1158.1072493940592 348.31861142814159 525.71021196246147 4603.3471052646637 446.25774466991425 220.68761464953423 1905.6806039214134 48.459831342101097 1572.419664233923 790.0290369540453 537.72790734469891 1128.6638038158417 619.854945987463 368.63304345309734 41.514152735471725 2711.2934700250626 961.59585639834404 546.14397902786732 464.14812718331814 1502.3226315230131 810.16080318391323 152.68722222745419 233.50956550240517 1060.6814813315868 80.492561638355255 105.77575919032097 1571.4027383327484 327.5328735858202 369.28654566407204 643.26471817493439 600.08251969516277 599.61261357367039 1026.2210619002581 1815.7401109337807 754.34153072535992 446.89093677699566 573.99627821147442 57.892974972724915 940.05071949958801 122.63526502251625 360.94458410143852 642.2306172400713 614.14755140244961 655.38875161111355 615.32580843567848 179.32571233808994 362.86394621431828 2983.2639330476522 135.13674746453762 388.77124719321728 248.68985833227634 1633.9340750873089 100.39707100391388 264.62973925471306 219.99906773865223 42.935814797878265 999.26720653474331 476.96104669570923 503.63437631726265 583.92612187564373 1303.3486510813236 444.06844203174114 1206.8243678063154 287.30438765883446 4380.412433385849 416.7731296569109 232.01341506838799 1908.4212016016245 555.45830292999744 336.80255424976349 2004.688841804862 717.50168463587761 547.52604457736015 197.03018800914288 3225.3046137839556 918.61662983894348 853.06637172400951 487.25818327069283 304.3199285119772 432.09271438419819 516.8967522829771 68.653665453195572 2192.1365823000669 866.38286510109901 479.14518985152245 53.367972061038017 301.78322398662567 287.85418049991131 469.29236674308777 318.08487638831139 366.43385598063469 332.46716585755348 2343.7283929139376 337.53028453886509 1016.4745506644249 3354.7133018374443 520.8529344946146 242.62914158403873 1874.7277189940214 151.93363969027996 306.14073942601681 491.99261328577995 2217.3634650111198 207.24648588895798 1019.6411411911249 61.427775830030441 5114.5010980963707 3810.6001405715942 673.18159060180187 697.69828559458256 446.24616333842278 67.839803546667099 479.39126279950142 1468.5665049999952 36.364014625549316 366.11715014278889 1992.1999799758196 52.938087373971939 248.37407153844833 130.4673398733139 293.05964325368404 340.19728384912014 700.41605128347874 2111.2602789402008 198.22838300466537 1288.149872392416 712.55620718002319 225.05500836670399 99.29672846198082 241.53049476444721 1798.0225298702717 175.25755800306797 1053.4637537300587 110.21550236642361 339.06175467371941 1026.8690779060125 956.19305729866028 397.15594680607319 458.09323100745678 5842.6703802347183 192.13799291849136 35.841023847460747 394.70486219227314 420.20812845230103 813.65321846306324 2371.7111445218325 113.07784137129784 124.86495834589005 54.346050798892975 46.247239008545876 2130.0546907484531 671.28541333973408 942.03549733757973 727.83315199613571 680.3227154314518 337.19599118828773 151.96498700976372 791.21705576777458 590.73995672166348 257.54472352564335 434.31249810755253 883.79884675145149 712.15708351135254 92.163758471608162 3632.9079179018736 121.53864179551601 518.8662588596344 2200.8107472360134
leaf_count=1244 10674 1091 7622 2212 393 756 1162 13575 1457 2463 1010 2085 484 1518 631 3455 1714 1385 322 2331 3426 1799 257 1054 673 26704 1982 3066 842 1496 9687 1067 568 5296 130 3812 2054 1257 3130 1335 1084 104 6722 2150 1318 1047 3935 1904 477 688 2215 248 295 3613 940 846 1502 1756 1438 2768 3911 2151 1072 1699 160 2303 357 954 1409 1651 1454 1599 489 1019 7080 402 1091 554 3572 298 661 587 149 2551 1543 1354 1243 3402 1132 3338 715 9320 1049 703 4887 1802 980 5278 1759 1627 439 7372 2682 2143 1578 796 1090 1547 209 5450 2276 1128 179 783 664 1227 689 986 932 5395 835 2427 7505 1290 634 4284 339 692 1274 6019 528 2391 182 10122 8593 1546 2388 1177 191 1090 4093 83 1023 5077 133 794 307 689 913 1933 4815 430 3178 1581 668 268 629 4204 451 2436 346 961 2706 2320 1248 1093 12932 592 87 1225 1078 1997 6000 289 392 163 131 5085 1572 2154 1789 1594 876 426 2118 1549 816 1013 1899 1665 199 8870 329 1258 5520
internal_value=0.0130991 0.0106291 0.0131935 0.00270384 -0.00279913 0.00755127 0.0088852 0.0168471 0.0105251 0.0154998 0.0108508 0.00410058 -0.000198421 0.00114897 0.00010728 0.0250051 0.0126567 -0.00149537 0.00715103 0.0134215 0.00114244 -0.00103199 0.00626891 0.0177874 -0.0127992 0.0256084 0.00548297 0.00596975 0.00452435 0.00111341 0.0211253 0.0121282 0.0100048 0.00232949 0.020109 0.00897203 0.0103414 0.00836918 0.00300958 0.0158331 -0.0064516 -0.0139253 0.00823383 0.0111354 0.0116829 0.0108525 0.0104213 0.00848919 -0.0157707 -0.00852054 0.0200563 9.21942e-05 0.0154484 0.0132412 0.00612731 0.00778281 0.0104189 0.000478371 0.00787052 0.00631276 0.0185587 0.002088 0.00330101 0.00146599 -0.00507413 0.0125938 0.00860235 0.0143494 0.0137501 0.0131588 0.0138728 0.0120837 -0.00309581 0.00712653 0.0131077 0.00680224 0.00513336 0.00683564 0.0165164 0.0173187 0.015869 0.0130609 -0.00876307 0.0032068 -0.0117458 0.00900824 0.016728 0.00231245 0.00322126 -0.00165732 0.0182989 0.0239187 0.0038938 0.00235551 0.00608225 -0.0125204 -0.006722 0.00345585 0.0144787 -0.0060812 0.0109981 0.0165103 -0.00225193 0.011954 -0.0119316 0.000608809 0.00748508 -0.00340856 0.00906006 0.00841685 0.0091025 0.00699798 0.00347258 0.0114517 0.00984608 0.0105831 0.0129222 0.00891766 0.00414486 0.0155069 0.0061294 0.0175351 0.0169324 0.0152613 0.000691048 0.0151776 0.0106886 0.0126291 0.0110769 0.00356443 0.00226516 0.0170117 0.00237935 0.0264925 0.0179563 0.019354 -0.0194462 0.00410674 -0.00935172 0.0147253 -0.00167119 0.000722398 0.00494661 0.00915457 -0.00219406 -0.00950159 0.00741278 0.00994373 0.00791841 -0.00149852 0.0160552 0.014337 0.0140377 0.0154217 -0.000635091 0.0115084 0.00251068 0.0139192 0.0165185 0.0148618 -0.0208639 0.00194719 0.00313161 0.0148464 -0.0108698 0.0197039 0.0191478 -0.0048459 -0.00252233 -0.00885068 0.0119724 0.00836067 0.00763473 -0.00054288 -0.00709575 0.000207916 -0.0146185 0.0129365 0.0122779 0.0145998 0.0134388 0.0122049 0.00434277 -0.00755331 0.00591598 0.00317656 -0.00881657 0.0123343 0.0195547 0.0178947 0.0114486 0.0119037 0.00988651 0.0157259 0.0105815
internal_weight=181881 150632 113807 36824.6 17246.3 19578.4 52225.2 61581.9 38894.2 46834.9 12919.8 13330.9 13687.1 6658.63 4691.44 31249.3 23834.8 4616.67 15059.4 24542 11270.7 4411.74 8639.5 22292.9 3559.12 27852.1 9504.91 8997.48 6189.53 3366.8 14746.9 14984.1 5554.48 8804.87 10143.6 9382.94 5446.56 3095.82 3249.88 3536.82 2416.4 375.408 5389.61 10339.6 9179.13 8217.53 7753.38 4105 2049.18 1249.87 3397.29 3058.52 9557.94 3118.84 2441.77 1871.61 10266.5 3744.43 2607.41 2007.8 17205.5 3582.12 2827.78 2380.89 2040.99 3648.38 910.31 13568.4 10840.2 9178.33 8564.18 4090 2465.86 2041.97 3474.68 1160.46 1759.96 1371.19 6439.09 5224.27 3590.33 1214.83 1509.94 7216.88 856.699 1471.86 2728.17 5426.39 1309.87 1588 2336.61 9572.06 1806.89 1390.12 2678.32 1088.58 379.738 3169.72 1471.07 1136.36 3970.26 3489.93 1748.65 1663.23 767.015 830.03 5412.68 1585.95 5477.92 4579.87 4112.59 1768.52 987.591 780.928 1547.44 1441.67 972.373 654.288 1122.5 4474.18 841.165 9089.04 7003.3 3648.59 570.162 5087.39 2344.07 1335.86 1029.72 3520.71 570.11 1661.87 467.277 18280 3859.06 1257.11 960.601 1229.38 121.208 766.696 2068.65 1165.03 1388.95 2807.95 188.075 667.307 491.412 981.576 688.516 1069.05 3127.73 4644.5 4446.27 2486.83 1431.88 545.554 364.166 2738.07 1941.28 1228.72 807.914 785.308 1675.78 3818.79 455.049 8116.5 6300.76 653.239 461.101 533.124 4788.54 4023.73 3210.07 1329.5 215.052 90.1871 533.505 2350.74 1959.44 2916.97 1974.93 1529.69 398.624 957.036 1790.48 956.857 805.071 898.052 2085.73 1201.94 4145.28 3725.07 849.372 2862.59 3773.23
internal_count=436643 372348 272885 99463 49326 50137 131717 141168 96252 109183 31853 35465 38116 18284 13023 64295 57517 13030 38735 58686 30949 12392 22442 50497 11210 56820 24906 23449 16390 9248 31985 36391 13829 23876 22298 23642 13507 7854 8748 8211 7167 1195 13694 25408 22410 20260 19213 10402 6631 3782 7475 8492 22295 7474 6355 4781 25437 10354 6650 5212 38591 9740 7589 6517 5972 8811 2304 32080 25818 22018 20367 9940 7073 5254 8341 2998 4631 3540 14821 11903 8331 2918 4579 19386 2672 3707 6262 14717 3518 4490 5260 19994 4818 3769 6972 3420 1129 8491 3473 3358 9771 8033 4974 4047 2397 2292 13871 4564 13788 11613 10346 4557 2646 1911 3861 3566 2339 1650 2986 10427 2189 20655 16037 8532 1574 11906 5789 3223 2531 9421 1547 3800 1267 36826 8723 2789 3211 3270 370 1805 5849 3213 3662 7059 535 2038 1261 2444 1755 3017 7242 10983 10553 5803 4006 1335 986 6507 4468 2887 2734 2138 4505 8973 1408 17936 14025 1907 1315 1618 11649 10209 8212 3715 642 250 1709 5653 4750 6876 4722 3712 1058 2869 4669 2572 2443 2175 4618 2719 10147 9069 2118 6653 9332
is_linear=0
shrinkage=0.0191138


Tree=3
num_leaves=196
num_cat=0
split_feature=36 2 24 24 2 24 2 24 2 2 2 2 24 23 24 36 0 24 0 24 2 23 2 2 24 36 2 23 2 0 22 29 24 36 36 24 23 22 25 2 2 10 24 2 2 13 24 10 10 0 0 29 2 18 2 2 2 2 2 2 2 2 2 2 2 2 24 2 2 2 2 10 2 2 2 2 2 2 2 2 2 18 29 2 2 29 22 0 2 2 2 18 19 6 2 2 2 2 2 12 2 2 11 2 29 10 23 2 2 2 2 2 2 23 22 24 12 2 23 19 29 2 10 29 2 2 24 10 2 24 29 19 10 4 10 24 22 13 2 2 36 13 2 24 2 2 2 2 2 2 2 11 22 19 26 10 23 2 2 18 13 10 26 23 9 22 2 2 2 2 12 2 10 18 2 19 26 19 2 2 19 18 2 2 2 2 29 19 2 12 2 2 2 19 29
split_gain=8431.51 6744.24 3745.58 2001.55 1598.81 1066.45 1040.46 833.632 825.515 676.675 660.317 445.239 309.045 298.098 277.174 268.514 219.644 211.282 204.836 189.81 187.646 187.59 161.099 155.078 141.765 140.148 132.589 130.719 116.062 110.399 108.128 100.925 99.1779 98.1046 89.5257 86.5669 82.1988 81.3895 81.2354 79.911 94.258 78.715 75.9956 75.6427 108.954 68.3882 59.0902 58.5505 58.4443 57.2834 56.4108 56.2689 55.4131 51.7027 50.9494 92.6178 88.8527 66.9373 51.014 51.3809 56.1887 49.8416 76.5509 71.7239 56.1115 55.8285 49.2301 48.3058 47.1777 100.685 86.1422 46.6942 46.6252 66.7636 67.8153 46.5716 75.6931 61.2504 140.921 127.983 46.4243 46.3784 46.1972 44.866 44.198 43.984 43.9743 42.5243 42.2765 42.1266 41.7025 41.1873 40.4285 39.9477 40.0661 39.2006 42.3895 39.0753 83.2846 38.7586 38.5771 109.608 38.3834 37.5411 36.8816 36.0183 35.8723 34.4192 34.2323 64.6496 47.8638 39.9505 34.2284 33.0017 32.8005 32.511 34.2932 32.4976 32.2677 32.2556 31.8923 31.8124 31.7976 30.5184 30.4071 30.2338 29.0817 28.3254 28.2554 28.0756 27.3234 27.2797 26.9312 26.1802 25.9685 25.7277 25.2551 25.0752 24.9667 26.2833 24.8715 24.5622 24.4702 24.3996 24.37 31.9307 24.2628 34.4592 25.5667 24.2438 59.6544 24.1785 24.1293 23.9318 23.5772 23.4667 23.3945 23.1726 50.888 30.0585 23.1455 22.9846 22.5232 22.3598 22.3313 22.2197 22.0581 21.7169 90.3794 21.6838 21.4794 21.3883 21.3322 26.7333 21.2994 21.2978 20.8174 20.6311 20.3951 20.3384 20.1779 20.1407 20.0949 61.1202 24.0374 51.9699 25.6297 20.0848 19.9422 19.6533 19.6525 20.9497 24.0376 19.5634 19.5297
threshold=1.0000000180025095e-35 94.500000000000014 1239.4000000000003 1246.7500000000002 132.50000000000003 761.70000000000016 162.50000000000003 1612.4500000000003 132.50000000000003 75.500000000000014 65.500000000000014 56.500000000000007 834.75000000000011 0.64575028195488737 1441.9000000000003 1.5000000000000002 68.500000000000014 1347.6500000000003 71.500000000000014 1629.7000000000005 66.500000000000014 0.65473937969924823 198.50000000000003 200.50000000000003 585.70000000000016 1.5000000000000002 132.50000000000003 0.65646381578947388 65.500000000000014 26.500000000000004 0.81296491228070189 4.8559213341406453 1052.6500000000003 1.5000000000000002 1.5000000000000002 977.10000000000025 0.64830686090225575 0.86026315789473695 8378.5000000000018 92.500000000000014 75.500000000000014 57.500000000000007 1807.1000000000001 76.500000000000014 86.500000000000014 81.500000000000014 1073.3500000000001 67.500000000000014 61.500000000000007 26.500000000000004 68.500000000000014 4.6959141240107813 67.500000000000014 0.73083333333333356 75.500000000000014 60.500000000000007 86.500000000000014 59.500000000000007 63.500000000000007 67.500000000000014 65.500000000000014 76.500000000000014 60.500000000000007 86.500000000000014 59.500000000000007 62.500000000000007 1652.2000000000003 55.500000000000007 83.500000000000014 82.500000000000014 80.500000000000014 66.500000000000014 83.500000000000014 82.500000000000014 80.500000000000014 86.500000000000014 89.500000000000014 83.500000000000014 82.500000000000014 80.500000000000014 79.500000000000014 0.73821428571428582 4.8713658868283671 66.500000000000014 56.500000000000007 4.9308638091439496 0.94324561403508778 71.500000000000014 194.50000000000003 134.50000000000003 134.50000000000003 0.75454761904761913 0.50708333333333355 30.350000000000005 129.50000000000003 32.500000000000007 36.500000000000007 56.500000000000007 60.500000000000007 58.500000000000007 83.500000000000014 82.500000000000014 191.50000000000003 55.500000000000007 4.9522934739897151 60.500000000000007 0.68432095864661668 280.50000000000006 31.500000000000004 45.500000000000007 43.500000000000007 36.500000000000007 31.500000000000004 0.71889417293233093 0.90057894736842115 1047.8000000000004 50.500000000000007 59.500000000000007 0.56412149122807032 0.67125000000000024 4.6200466650627661 92.500000000000014 67.500000000000014 4.6586997221347959 62.500000000000007 80.500000000000014 1316.9500000000003 65.500000000000014 169.50000000000003 1549.9000000000003 4.5485858369352732 0.65625000000000033 65.500000000000014 5.4500000000000011 68.500000000000014 1392.1500000000003 0.8626666666666668 75.500000000000014 26.500000000000004 19.500000000000004 1.5000000000000002 118.50000000000001 64.500000000000014 664.15000000000009 88.500000000000014 87.500000000000014 92.500000000000014 76.500000000000014 86.500000000000014 92.500000000000014 89.500000000000014 161.50000000000003 0.8659473684210528 0.49041666666666678 4365.8500000000013 70.500000000000014 0.64748536967418546 60.500000000000007 63.500000000000007 0.75454761904761913 124.50000000000001 67.500000000000014 5068.8500000000013 0.69339520676691746 67.500000000000014 0.75363157894736865 341.50000000000006 60.500000000000007 58.500000000000007 185.50000000000003 51.500000000000007 137.50000000000003 70.500000000000014 0.63183333333333347 142.50000000000003 0.52541666666666698 4809.2000000000016 0.48375000000000018 153.50000000000003 29.500000000000004 0.67458333333333365 0.75454761904761913 60.500000000000007 58.500000000000007 45.500000000000007 43.500000000000007 5.0205801788306017 0.50208333333333355 37.500000000000007 63.500000000000007 160.50000000000003 141.50000000000003 147.50000000000003 0.51541666666666697 4.6681339642869872
decision_type=2 2 2 2 2 2 2 2 2 2 2 2 2 2 2 2 2 2 2 2 2 2 2 2 2 2 2 2 2 2 2 2 2 2 2 2 2 2 2 2 2 2 2 2 2 2 2 2 2 2 2 2 2 2 2 2 2 2 2 2 2 2 2 2 2 2 2 2 2 2 2 2 2 2 2 2 2 2 2 2 2 2 2 2 2 2 2 2 2 2 2 2 2 2 2 2 2 2 2 2 2 2 2 2 2 2 2 2 2 2 2 2 2 2 2 2 2 2 2 2 2 2 2 2 2 2 2 2 2 2 2 2 2 2 2 2 2 2 2 2 2 2 2 2 2 2 2 2 2 2 2 2 2 2 2 2 2 2 2 2 2 2 2 2 2 2 2 2 2 2 2 2 2 2 2 2 2 2 2 2 2 2 2 2 2 2 2 2 2 2 2 2 2 2 2
left_child=1 2 5 6 9 24 12 11 16 14 13 36 29 35 25 17 31 37 28 22 -12 39 41 33 142 30 45 54 113 120 91 119 49 38 87 92 -4 81 47 40 52 -10 86 180 100 118 163 114 -24 -8 85 130 -22 -17 55 57 72 -13 -57 60 -60 62 64 68 -29 -64 71 165 69 70 -63 140 73 74 135 77 144 78 79 80 -42 156 115 -30 162 172 141 106 155 -53 -28 103 133 94 161 -37 151 -98 117 171 101 125 -59 -2 146 154 -16 127 138 110 111 -110 -48 177 -6 -47 -117 -99 -14 129 -3 126 -92 -81 -100 -45 -58 175 132 -5 -43 -49 164 -7 -132 -56 -94 -78 139 -38 -25 -19 -1 -69 145 -77 147 -85 -149 150 -46 -97 -135 -50 -90 -34 -11 -86 -159 -160 167 -33 -32 182 -91 -26 -73 168 -114 -130 -54 194 173 -21 -101 189 -55 -9 -176 -140 -23 -39 183 184 185 186 -15 -107 -113 -51 191 -124 -193 -119 -31
right_child=4 3 7 8 23 10 32 18 19 15 20 27 26 46 34 53 -18 42 -20 50 21 43 48 66 67 -27 90 61 83 99 84 93 88 -35 -36 95 108 181 -40 -41 75 51 -44 44 149 82 112 131 153 107 -52 89 170 176 56 58 121 102 59 -61 -62 63 65 -65 -66 -67 -68 143 -70 -71 -72 166 -74 -75 -76 76 137 -79 -80 123 -82 -83 -84 104 157 -87 -88 -89 105 128 122 -93 136 -95 -96 96 97 98 124 174 -102 -103 -104 -105 -106 187 -108 -109 109 -111 -112 188 160 -115 -116 116 -118 193 -120 -121 -122 -123 190 -125 -126 -127 -128 -129 169 -131 134 -133 -134 152 -136 -137 -138 -139 179 -141 -142 -143 -144 -145 -146 -147 -148 148 -150 -151 -152 -153 -154 -155 -156 -157 -158 158 159 -161 -162 -163 -164 -165 -166 -167 -168 -169 -170 -171 -172 -173 -174 -175 178 -177 -178 -179 -180 -181 -182 -183 -184 -185 -186 -187 -188 -189 -190 -191 -192 192 -194 -195 -196
leaf_value=-0.0063985985008357654 0.018553107792129767 -0.026282354551401241 0.014323037944684609 0.005633704836322943 0.0084291649429599647 -0.0086147962345641295 -0.028968409636356364 0.014019513539817811 0.011272227634014026 0.012157405669343219 -0.0091135897043923275 0.0086990887339888374 -0.010674628750765807 0.011991342925004644 0.020761008332476474 0.024283476808325457 0.019039089241158887 0.01555321660344915 0.024690284598645005 -0.0046500489082311868 -0.0012029661533367556 0.011149083252793814 -0.002895503780146635 0.0018690527760697735 -0.0015451672707045808 0.024038090524031795 -0.011652413406487223 0.01243002433418529 0.0011389602149093066 -0.0051551298025168295 0.020142221878312883 0.012086066044285547 -0.002821651949065231 0.01872940136956578 0.026284685367755387 0.013797868273765033 0.020500855032778195 0.016415280469833711 0.0171590256364678 0.011652754068384686 0.0016214236278400522 4.1636458657475544e-05 0.02119671704409995 0.0049198434139532503 0.015044228114572221 -3.5821305164170902e-06 0.017752315750173601 0.00300795702046903 -0.025650933690532226 -0.018951427589621685 0.012218570091838642 -0.009643828843870975 0.01039552165638114 0.014153304106579367 0.0053095159740177153 0.017910605641082489 0.0058772382321620239 -0.01213418214915901 0.012114335973858914 0.013770077994631719 0.00082538650501408296 0.011664937892749147 0.021392428858827115 0.01489237159263958 0.0019920885930229124 0.015044887738889961 0.010499049518483759 -0.0049035234672744369 0.0043757197449204536 0.020270308747976716 0.00078441769513214535 -0.0091409503252325337 0.00064089707582707441 0.016439904310648554 -0.0018692344342230275 0.011145416532443641 -0.0059227546727469499 -0.0036073522326298606 0.01268873886656381 -0.013257002919994057 0.0090177317449977 0.0052567028442732436 0.005432620202327168 0.017260134313594879 0.015991753591045741 0.0087053313980477685 0.020073061107008044 0.025094742779492977 -0.013877511408026094 0.017592620426343887 -0.00010987038497553591 0.010458897630974698 0.0076955443831475028 0.015819070039298212 0.019538269327797734 -0.0059230340813329393 0.011444640664127656 0.004967066569732571 0.016633206988336206 -0.0074435870681291384 -0.0019334320830436027 0.017941718515272487 0.0081981168736606231 0.015422957433123004 0.018736132868787485 -0.02504645426634074 0.022878081318779272 -0.02001180355615945 0.013316543472114016 0.018560679773223131 0.010510615577504431 0.021906113143484372 0.013643100349227073 0.021991955974951138 0.014412120590247804 0.0065054895431608866 0.0016142303364358394 -0.015622433619751698 -0.00070722980996190297 0.010874746915612176 -0.01310127311526864 0.017323160300652791 -0.0017684371675593948 -0.0039138543959084185 0.0091413036566645785 -0.0025381505152562503 0.012546517185388666 -0.016634012541569963 -0.0064840016415856063 0.0093413666359146389 -0.0040786921590934277 0.010328020988594802 0.0012785068341302449 0.0037477832877661947 -0.013871313452747383 0.011192535017471895 0.014294403718786286 0.0026764992238942709 0.023793035896238136 0.015387187241555142 0.01317957431776472 0.018399642302186124 -0.014091042339003389 -0.00017626691584611142 0.013912280332316061 0.0024663955751522064 0.022215081490978981 0.011426611330153913 0.016233787249404361 0.016809558796004362 0.0050641204785695487 0.0060960841688140035 0.0096808047126925815 -0.011241620743649832 -0.0024498282242306634 -0.013464499524131058 0.015569963970697378 0.023360677394363375 0.018490804738851594 0.0096774802400741763 0.017081062278092661 0.0087657929305170815 0.022309413476090063 0.014535001165763142 0.005464246051736758 0.0041114599495078261 0.0058280844347330498 0.016743108327368226 0.00092333917977244391 0.0036913576651071691 0.0066285313515329373 -0.0085217296403094171 -0.0068260622088847124 0.0055384986676096327 -0.028026971386098724 -0.0084609981331995772 0.020974221642477576 0.019523759794972274 -0.0079370016401535716 0.018520742337850782 0.015750214189682074 0.0094889308258902429 0.014883342740454874 0.0011702806897550607 0.013380552383888496 0.0014086322325125246 0.0054066895517654642 -0.013578230186858428 0.016801858979781176 -0.0078477767600166892 0.0084780522864912437 -0.013189225740653303 -0.004693238618894824 -0.0003652687839233174 0.00050350209428907868
leaf_weight=405.28423704206944 3600.203692317009 84.329750299453735 4281.282498896122 2778.3226011246443 1168.7432361245155 53.710310727357864 114.28404475748539 264.94172102212906 236.07332126796246 4240.6769588440657 296.57995031774044 719.83892254531384 131.08916464447975 1776.1485517024994 5657.2664476335049 1803.0901985168457 938.14007094502449 4472.6025774776936 2407.9403920322657 135.77090223133564 280.35692282021046 1494.084635913372 404.96401265263557 759.34011478722095 318.63060010969639 2275.0149879157543 194.96610051393509 1012.6405451744795 69.457132861018181 355.89716851711273 4984.0231900066137 1323.4702359437943 431.10569643974304 428.73857186734676 2425.3851467221975 1006.7296904921532 686.15551449358463 3241.8184685260057 389.55871005356312 553.42127408087254 1342.9810393452644 240.53817215561867 1999.1360163390636 685.30330774188042 449.28106088936329 1810.5689556747675 1106.4453069716692 907.37883906066418 45.885496467351913 176.916763484478 443.36420702934265 114.65655437111855 781.77285474538803 291.41169017553329 558.42616654932499 693.09098744392395 334.00622351467609 100.1395296305418 393.23067064583302 1694.5154276639223 272.74983550608158 1002.9158046394587 580.56202237308025 1684.5934943258762 231.31575819849968 4110.6540841311216 230.07749482989311 566.37940868735313 484.86450786888599 350.42636774480343 361.7511143386364 204.12945847213268 450.34497478604317 261.2466591745615 316.2986763715744 324.95002102851868 144.93765622377396 726.97703783214092 428.86468230187893 193.91456511616707 402.75444328784943 321.15027269721031 2032.4794104844332 1370.3108306080103 1023.1928273886442 413.02668137848377 1376.8903038203716 1741.4481736272573 103.37856750190258 62.731432318687439 1027.1208561807871 339.97410190105438 2263.2001756727695 661.88695047795773 176.20387777686119 70.739756003022194 3224.7690496742725 582.14151757955551 303.70366349816322 515.63273365795612 325.6943082511425 211.54937136173248 50.791346743702888 2327.4954416453838 1906.5451310575008 66.959179550409317 6264.2220984399319 385.00165316462517 1293.902448028326 4270.8197230696678 660.15981768071651 323.97474755346775 3259.0002337247133 2286.5984775722027 471.22066442668438 835.56165961921215 1402.880079254508 44.773335248231888 1212.2639560997486 792.43983545899391 335.93791480362415 339.15667679905891 305.42623580992222 374.31942331790924 575.49537898600101 279.19540023803711 849.85260356962681 582.5134354531765 204.50641348958015 1022.3522452265024 243.6168217509985 233.74572007358074 746.52210783958435 1289.1049426496029 166.80198134481907 531.21755383908749 234.204838976264 837.5082665681839 639.08585919439793 814.79045578837395 77.935884281992912 1498.1242009848356 241.95541082322598 1346.5278400927782 268.63501289486885 296.14847788214684 181.06041502952576 1107.9432899206877 644.34206831455231 263.93697938323021 427.50200426578522 435.85640563070774 310.81751251220703 505.49347341060638 181.53190439939499 91.46404567360878 896.43199400603771 858.3026682138443 2633.3425337672234 151.07976961135864 764.31069128215313 1817.270731985569 2803.8665261119604 1007.093134701252 463.52221967279911 1240.468656629324 43.304924145340919 622.08281156420708 217.79182271659374 121.71029338240623 1909.4363448917866 197.69369484484196 115.43786577880383 303.94087417423725 38.302168399095535 461.566346347332 388.13433331251144 6144.1891944855452 36.212036982178688 481.80977362394333 459.05861695110798 163.26142379641533 527.98857188224792 222.75352956354618 1475.0812950134277 220.25986003875732 247.10835196077824 353.17198416590691 2343.0915996134281 88.183519139885902 36.815822169184685 203.32171942293644 304.06123472750187 95.685515433549881 594.47381442785263
leaf_count=1201 8091 299 10136 7272 2965 163 414 630 579 10309 903 1821 405 4324 12355 3757 2094 10436 4986 396 789 3673 1159 2070 900 4756 608 2453 191 1042 10973 3218 1233 961 4914 2398 1503 7483 890 1351 3670 668 4341 1808 1053 5032 2510 2445 162 589 1076 351 1938 692 1467 1569 872 314 956 4038 752 2451 1256 3960 630 9648 570 1654 1287 769 998 622 1244 602 897 798 428 2097 1034 614 1014 844 5330 3129 2375 1044 3033 3587 329 142 2857 843 5788 1538 390 209 7900 1535 698 1544 924 478 129 5440 4272 235 13299 1293 3102 9593 1636 696 7780 4912 1114 2165 3834 145 3394 1954 1061 773 864 1083 1448 797 2055 1899 607 2567 706 580 2047 3444 531 1305 554 2263 1339 1905 187 3372 771 3749 638 802 387 2717 1490 605 1126 1135 777 1569 517 290 2091 1809 5922 378 1748 4594 5998 2378 1215 3300 113 1429 600 325 4942 598 344 796 138 1395 845 13634 109 1083 1067 409 1241 612 3531 604 649 1120 5382 265 93 643 886 267 1643
internal_value=0.012895 0.0098969 0.0125013 0.00191661 0.0185641 0.00813559 -0.00305387 0.0160084 0.00695996 0.0194543 0.00919823 0.014266 -0.000457521 0.0112571 0.0209998 0.0166841 0.0102587 0.0158792 0.0195365 0.00064557 0.0059154 0.00624679 -0.0017079 0.00809671 -0.00107289 0.0195517 0.00102642 0.0121547 0.0186478 -0.00698519 0.0190059 0.00929681 -0.0130193 0.0101487 0.0228892 0.00892895 0.0165893 0.013763 0.00898588 0.00462205 0.00415341 0.000759083 0.0178851 0.00938085 0.00727026 0.00221941 0.0133905 0.0078384 -0.0084138 -0.0158664 0.00657487 -0.000292471 0.00688206 0.0225838 0.0102648 0.0117769 0.00863353 0.00627323 0.0133451 0.0120014 0.00749474 0.0136102 0.0147137 0.0119225 0.0104905 0.0158324 0.00247758 0.000458462 0.00964571 0.011134 0.00878193 0.000772438 0.00609889 0.00757263 0.00592014 0.0026351 0.00506437 0.00132386 0.00263125 0.000765079 0.00332973 0.0123136 0.00308153 0.0164077 0.0200381 0.00398585 0.0169829 0.0222856 -0.0088207 0.00152489 -0.00324871 0.0169537 0.0067817 0.0115257 0.0106669 0.0103343 0.00967932 0.0102315 0.00778664 -0.00485716 0.00388574 0.00549744 -0.00528773 0.0173253 0.0166111 -0.0118739 0.0218743 -0.014975 0.0174314 0.0168617 0.0152898 0.016085 0.0147078 0.020007 0.0101518 0.00190087 0.00344099 0.00297633 -0.00168319 0.00736504 -0.0157718 0.0121547 -0.00237306 -0.00711038 0.0117365 0.00276076 0.0106679 -0.0134873 0.00232828 0.00663204 -0.00507443 0.00451093 0.0036144 0.00446151 -0.00806962 0.00818107 0.00831688 0.0014057 0.0193605 0.0177304 0.00292849 0.0162688 -0.00928216 -0.00157677 0.00910147 0.00701201 0.0153823 0.0149829 0.0131981 0.0117226 0.0101833 0.00441391 0.00490283 -0.012461 -0.00661192 -0.00469459 0.0127542 0.018558 0.0192768 0.0180143 0.0140136 0.0101665 0.0209237 0.0119535 0.006924 0.0029553 -0.00651515 0.0134397 0.0128465 -0.0026877 0.00772439 -0.00280889 0.000470303 0.00239095 -0.00883654 -0.0109559 0.0180607 0.0192972 -0.0183716 0.0215352 0.0122339 0.0160845 0.0113703 0.0108981 0.0114806 0.0102289 0.0111885 -0.0154312 0.0174255 -0.0152778 -0.00510752 -0.0057273 -0.00810662 -0.00526365 -0.00161699
internal_weight=181240 118548 89378.4 29169.8 62691.7 39815.4 14691.1 49563 14478.6 57777.5 35696.2 33179.7 11655 21937 37084.8 20692.7 9510.09 18210.1 16383.3 4968.56 13759.2 13462.6 3557.02 4914.17 4119.25 20996.5 9496.56 17384.6 13975.4 2158.48 18721.5 8571.95 3036.08 3599.39 16088.3 10490.9 15795.1 8863.34 3170.65 8866.98 8313.56 2600.68 9346.75 4595.61 2642.46 7424.84 11446.1 2781.09 956.343 1808.47 1411.54 2364.61 2971.57 2482.64 7564.91 3924.36 3640.55 870.77 3053.59 2360.5 665.981 9819.72 5935.17 3884.55 1243.96 4691.22 1314.79 3472.01 2199.96 1715.09 1364.67 1084.71 2117.53 1667.19 1405.94 5341.99 1872.18 3469.81 2742.83 2313.97 1745.74 5458.26 6081.49 5279.66 12453.8 968.176 7347.62 13662.9 1227.61 1713.65 2071.71 6267.67 4151.04 3978.83 3316.94 6339.89 5333.16 4826.57 1601.8 1738.21 1501.74 1176.05 150.931 5927.7 5210.2 705.042 11921.5 1694.18 11513.8 8891.95 4621.13 3960.97 5969.63 8695.73 1639.96 4049.01 2238.44 722.6 1343.35 4593.11 420.268 1523.02 1876.75 568.234 879.199 964.499 1183.86 1309.18 1598.99 3800.67 650.957 1141.12 1272.78 1653.63 410.419 1089.64 2497.41 982.446 2621.84 1500.95 837.276 5970.73 647.24 1912.91 889.734 621.098 3303.66 3122.6 1752.29 1140.72 876.783 506.596 1599.92 551.379 284.91 522.57 5137.11 4665.92 3642.72 2784.42 4863.19 3140.74 7787.89 5476.43 526.254 1559.1 247.434 4098.87 3476.79 326.217 2691.21 1148.06 555.15 439.712 590.147 726.667 679.546 6409.13 74.5142 1120.9 1953.14 3405.08 4469.34 3941.35 3718.6 2243.52 2023.26 420.131 2667.07 265.1 849.625 812.809 507.383 140.459 950.371
internal_count=436643 295774 216306 79468 140869 101337 42124 114969 37344 128352 89762 78621 32545 53867 80740 47612 23627 42318 36348 13717 35895 34992 10061 12517 11575 46585 26111 42246 31362 6434 41829 21533 9579 8955 34155 26461 36375 21136 7994 23461 22110 7171 21182 11531 6791 20160 27406 7104 2890 5855 3656 6592 7669 5294 18794 9579 9215 2264 7315 5746 1708 23452 13987 9465 3083 10904 3562 9603 5505 4218 3449 2992 5515 4271 3669 14441 4929 9512 7415 6381 4684 13244 16361 12186 27455 2580 16841 29241 3724 4687 5951 14374 10726 9740 8202 15735 13337 11993 4093 5074 4007 3083 443 13531 11995 2201 25654 5441 26239 20409 10816 9180 14067 19176 4079 11031 5999 1947 3799 11793 1360 3700 5343 1697 2146 2605 2927 4148 4336 9839 1905 3025 3404 4384 1237 2772 6342 2691 5830 3408 2257 13808 1972 5403 2238 1600 7723 7336 4207 2784 2179 1344 4221 1731 846 1523 12400 10484 8109 6300 11557 7812 16971 13339 1357 4200 735 9809 8380 932 6880 3283 1536 1192 1791 2249 1537 14264 247 2422 4740 7892 10961 9720 9108 5577 4973 1355 6078 854 2486 2393 1529 412 2685
is_linear=0
shrinkage=0.0191138


Tree=4
num_leaves=196
num_cat=0
split_feature=27 28 24 24 28 24 28 24 28 28 24 24 24 24 27 28 23 28 23 23 28 28 24 25 23 24 24 28 28 28 10 60 13 28 28 28 14 28 24 28 28 28 28 28 24 27 25 10 24 14 28 28 28 28 24 13 22 28 28 28 24 28 28 28 28 28 28 28 28 28 28 28 28 28 28 24 28 28 28 28 28 28 28 28 10 14 28 28 14 10 10 28 23 28 28 28 23 28 28 28 28 10 22 59 25 24 28 28 28 28 28 28 28 28 28 28 28 28 28 25 26 28 28 28 25 14 11 6 24 28 28 10 24 8 28 24 23 13 28 23 24 23 59 11 10 28 28 28 28 28 28 10 28 28 22 28 28 28 18 28 28 13 10 22 28 28 14 10 28 28 28 28 28 28 28 28 10 25 14 28 6 14 28 28 25 8 24 28 28 28 28 28 28 28 24
split_gain=14124.5 7884.26 4647.61 2501.92 1139.26 1057.03 1047.79 931.851 720.004 581.649 311.289 293.064 291.897 264.242 243.686 242.125 234.018 216.805 184.046 168.095 157.148 149.08 122.175 120.289 117.348 109.387 108.237 102.53 106.098 129.842 87.978 86.1023 84.0811 81.9723 71.8046 110.189 70.3995 68.2518 66.3949 63.9425 140.911 66.7302 84.3985 87.1627 63.0808 63.9487 60.9565 60.5926 60.2088 60.0155 58.6807 92.5044 56.6729 98.0693 56.477 55.9837 55.172 54.4756 65.2897 54.4135 52.8688 50.5997 58.6382 50.5497 54.8671 50.2737 130.117 112.469 49.9003 48.8112 46.7593 63.2861 136.386 58.9442 46.6275 46.5311 46.3117 115.689 46.1183 45.2311 181.328 42.8823 40.6933 80.4612 40.0488 40.0382 39.8718 39.1718 38.604 38.4299 38.206 37.0562 36.8643 36.5902 87.5534 35.8992 35.6586 34.8408 34.6794 34.1874 33.2542 33.2281 32.414 32.0977 32.0833 31.7926 30.6256 42.8995 83.6135 73.5124 30.0277 108.146 37.9321 33.3243 29.9876 29.136 28.747 55.4876 35.9299 28.4068 28.3119 27.9745 49.5471 27.9037 27.5009 31.1437 27.4729 27.4561 27.4205 27.245 26.4952 27.2787 26.4744 27.2331 26.2922 26.1759 26.1463 26.0704 25.7752 25.1394 25.0547 24.958 24.7428 24.6845 24.6805 24.3484 37.0937 24.1348 27.7876 27.8377 24.1239 24.097 24.0678 43.8705 24.0286 23.8916 31.7132 23.8666 23.7518 23.7491 23.6467 23.5982 23.2873 23.1333 22.6756 39.6073 22.6164 22.1187 22.0215 30.7829 27.5172 24.9702 31.2586 21.8457 21.8282 21.828 21.5868 21.4303 22.3342 21.1736 21.0001 20.8038 20.6715 28.6359 20.2743 28.262 20.251 20.0629 31.0798 19.9249 19.8821 22.1651 19.7481 20.7265 19.704
threshold=26.500000000000004 4.5591125415341898 1282.8500000000001 1250.1000000000001 5.0968083143154814 920.10000000000002 4.8940944640863338 1734.1000000000001 4.1971736807086968 4.0517471391904856 1669.7500000000002 834.75000000000011 739.35000000000014 1634.9000000000003 1.0000000180025095e-35 4.7749040587885982 0.64575028195488737 5.2958110956362647 0.65646381578947388 0.67702246240601516 4.0342014792848504 4.8940944640863338 585.70000000000016 9110.0000000000018 0.64830686090225575 1188.1500000000003 1047.8000000000004 4.2268071048866842 4.3372693810700085 4.4716224665663962 57.500000000000007 1.0000000180025095e-35 81.500000000000014 4.2121001622835372 4.3502571242716384 4.4716224665663962 127.50000000000001 4.1971736807086968 2030.0500000000004 4.1190041246092024 4.166635176627655 4.5379471377116305 4.3502571242716384 4.4716224665663962 616.30000000000007 1.0000000180025095e-35 8781.0000000000018 60.500000000000007 1461.8500000000001 124.50000000000001 4.3757372435704527 4.4716224665663962 4.4367340276668159 4.4248287033199567 1118.7500000000002 84.500000000000014 0.84043859649122821 4.5379471377116305 4.5053345884235583 5.4138732270297307 1501.3500000000001 4.2268071048866842 4.1971736807086968 3.5114340430413216 3.5694334999727624 4.4367340276668159 4.4248287033199567 4.4005842009683471 4.8940944640863338 4.9089648320872419 4.1190041246092024 4.1971736807086968 4.2121001622835372 4.1026092131977068 4.1026092131977068 1127.7500000000002 4.4367340276668159 4.4248287033199567 5.2857353797162627 4.1190041246092024 4.0859410030639109 3.3140206880897671 3.8393944990995772 3.795426061844291 61.500000000000007 137.50000000000003 4.9089648320872419 4.1820210059610323 131.50000000000003 74.500000000000014 65.500000000000014 5.0968083143154814 0.56412149122807032 4.3882378946731615 4.3757372435704527 3.0677824455408698 0.54738458646616561 4.2268071048866842 4.0342014792848504 4.5053345884235583 4.8713658868283671 73.500000000000014 0.79247368421052655 1.0000000180025095e-35 7816.0000000000009 1441.9000000000003 4.3882378946731615 4.4367340276668159 4.4248287033199567 4.4005842009683471 4.0517471391904856 4.1190041246092024 4.1026092131977068 4.166635176627655 3.8815106545092593 4.4005842009683471 3.4811217321331038 3.8393944990995772 3.795426061844291 8061.0000000000009 4938.6000000000013 4.5379471377116305 4.5053345884235583 4.1510089048756029 8753.5000000000018 138.50000000000003 163.50000000000003 25.550000000000004 1646.7000000000003 3.4175922930736511 5.2122109552252045 68.500000000000014 713.50000000000011 119.50000000000001 4.2121001622835372 1052.6500000000003 0.61993959899749385 69.500000000000014 5.3636340903656388 0.68962593984962417 1198.6500000000003 0.69402283834586476 1.0000000180025095e-35 196.50000000000003 66.500000000000014 4.4942230200312032 4.4829865921051741 4.5379471377116305 4.3372693810700085 4.1190041246092024 3.6242520361853052 75.500000000000014 4.9593358439305844 5.0005792898547883 0.83945614035087746 4.1971736807086968 4.2268071048866842 4.2121001622835372 0.60321428571428581 4.1820210059610323 4.1026092131977068 89.500000000000014 67.500000000000014 0.97342105263157908 3.4811217321331038 3.5694334999727624 100.50000000000001 59.500000000000007 4.3372693810700085 4.1190041246092024 4.1026092131977068 4.4248287033199567 4.4005842009683471 4.2268071048866842 3.4811217321331038 3.9415346756528771 68.500000000000014 5971.5000000000009 104.50000000000001 4.4716224665663962 22.250000000000004 105.50000000000001 3.4811217321331038 3.3140206880897671 5583.0000000000009 117.50000000000001 1987.3500000000001 3.3140206880897671 2.9700856263602158 4.4127799275304271 3.6242520361853052 3.6505739029280164 4.4367340276668159 4.5379471377116305 1029.4500000000003
decision_type=2 2 2 2 2 2 2 2 2 2 2 2 2 2 2 2 2 2 2 2 2 2 2 2 2 2 2 2 2 2 2 2 2 2 2 2 2 2 2 2 2 2 2 2 2 2 2 2 2 2 2 2 2 2 2 2 2 2 2 2 2 2 2 2 2 2 2 2 2 2 2 2 2 2 2 2 2 2 2 2 2 2 2 2 2 2 2 2 2 2 2 2 2 2 2 2 2 2 2 2 2 2 2 2 2 2 2 2 2 2 2 2 2 2 2 2 2 2 2 2 2 2 2 2 2 2 2 2 2 2 2 2 2 2 2 2 2 2 2 2 2 2 2 2 2 2 2 2 2 2 2 2 2 2 2 2 2 2 2 2 2 2 2 2 2 2 2 2 2 2 2 2 2 2 2 2 2 2 2 2 2 2 2 2 2 2 2 2 2 2 2 2 2 2 2
left_child=1 2 5 4 11 12 10 9 16 24 36 44 14 17 22 25 54 30 27 31 55 32 159 37 104 98 59 184 140 65 -8 39 92 -20 173 76 101 -9 124 74 -41 42 61 52 45 -3 85 -19 91 105 70 106 53 -44 110 102 137 58 145 89 116 62 -42 81 139 66 67 93 166 180 73 -72 -73 -21 -11 88 77 115 176 80 82 95 83 -66 96 127 -51 -24 -34 142 -71 -17 -13 94 -30 -18 -80 -74 -2 -45 -38 119 -14 -49 -4 158 -52 108 109 -108 -7 112 -112 -113 -84 -36 187 118 150 -5 -54 122 -37 -81 125 -12 -61 -15 -27 -83 131 -129 133 -89 -39 -93 -114 -22 -48 -65 -29 175 -6 -76 -128 146 -31 148 149 160 -118 -94 -92 161 -63 -151 -157 -64 -32 -1 -33 -154 -88 -105 -62 -166 -46 -70 169 170 -139 172 -170 -35 -56 182 -28 178 -69 -150 -23 -116 183 -57 185 -10 -136 188 -26 -111 -176 -192 -173 -194 -67
right_child=15 3 7 6 26 8 13 23 18 19 38 21 20 46 -16 48 63 47 33 50 56 69 87 -25 60 128 78 28 29 57 49 147 75 34 35 121 100 134 -40 40 41 -43 43 99 68 -47 138 103 -50 86 51 -53 120 -55 174 141 -58 -59 -60 126 164 154 157 64 79 194 -68 177 167 90 71 72 97 -75 143 -77 -78 -79 84 123 -82 129 114 -85 -86 -87 162 132 -90 -91 152 135 151 -95 -96 -97 -98 -99 -100 -101 -102 -103 -104 163 -106 -107 107 -109 -110 189 111 113 136 -115 181 -117 117 -119 -120 -121 -122 -123 -124 -125 -126 -127 144 130 -130 -131 -132 -133 -134 -135 186 -137 -138 168 -140 -141 -142 -143 -144 -145 -146 -147 -148 -149 179 155 -152 -153 153 -155 -156 156 -158 -159 -160 -161 -162 -163 -164 -165 165 -167 -168 -169 171 -171 -172 192 -174 -175 190 -177 -178 -179 -180 -181 -182 -183 -184 -185 -186 -187 -188 -189 -190 -191 191 -193 193 -195 -196
leaf_value=-0.0063335955575210068 0.024778112764221098 -0.016149490089419388 0.013990008305377249 0.0075793146012067426 -0.012359147087667732 0.009565069702352668 0.010880887566837017 0.020642415069452257 -0.003549062314484595 0.0081944580150003915 0.011132277580316173 -0.010477528218671654 0.00098565609354789568 0.0098603260412361057 0.017352768109598703 0.01959163700778142 0.016938299017112048 -0.0028635896615810761 -0.0067928040400708524 0.014615642027887876 -0.0042439694968432768 -0.00044076769623097912 0.0016372993447200468 0.023220151790771196 0.021119289705926067 0.025464972620708681 -0.0023804754688989335 0.007838035280391684 0.0043932224120338649 0.012045579054330452 0.0027981585759179165 0.012986913021082232 0.00083899022985149641 0.0067609284285098069 0.0059751662987716225 0.014739516098298494 0.010214457337817215 0.0031263180368002333 0.021084644995344966 0.018240962034351965 0.012225926774076355 0.017543187419819403 0.0052958188768265071 0.014372792543811949 -0.0069636412657159193 0.0089727504924183889 0.013652633094978144 -0.005634612646308255 0.023433575483859981 -0.0093111625009290218 -0.00045988761150853237 0.01609636003292781 -0.0030860726610771019 0.01633248548099879 0.014882112562107698 0.0077316369996980249 0.0057831350508105442 0.012673907548642154 0.0027142709896338831 -0.027390643735419638 0.021072184443257019 0.01097615389273046 -0.0045572634099079069 0.0044286027507930295 0.013598827836476616 -0.0076405431706868593 0.012651369870643511 -0.013958583187831108 0.00057521294201226048 0.00076289160378455179 0.019960497271452899 -0.0065726364079448938 0.0093069995023003279 0.0036494557484529088 -0.0065208543160353016 0.0050895058364475061 -0.00089146908588437544 0.018433432477958034 -0.022896444206742101 0.019667364351280185 0.0030258062422726197 0.021907741812654553 0.018852957550551937 0.0059811769049911197 -0.014936441129258304 0.008539545706471972 0.0059786562717503043 -0.0039365159566527239 0.0047602053556654944 -0.023483294442609305 -0.00089425804730360763 0.0098263943533519488 0.00032058687693420823 0.0087089129894126049 -0.0084566003297644118 0.010921279266826088 -0.0045947562228616963 0.016575107230143486 0.022405860608040132 0.0088597940534785296 0.01833976444193295 0.0046674085521593404 0.0073574988301901506 -0.015345286762478001 0.01798296831630691 0.00095185728208150829 0.015851948772890877 0.0054517638812022181 0.020600384677749897 -0.0010306288618911047 0.002714159135575996 0.014228175531269855 -0.019075107314415602 0.0060843120731903034 0.01034703526847304 -0.0007714101488814878 0.013117557296281687 0.01821454279625058 0.010103703206931819 0.012935762195630194 0.0055297715287674579 0.017335464615020155 0.006313251621672962 0.014527138708141187 0.017202601928356921 0.01591380943427595 -0.015465148163390055 0.0063494450782524319 0.02715091852281307 0.016193869443280533 -0.0053557312330343339 -0.0036622854817557745 0.0018634289865815518 -0.021216964940178461 0.016953439159708761 0.017171145867052085 -0.001249229111890929 0.0016337889567007912 0.0045860085648507954 0.014251874238904869 0.012132208150427702 0.015088669649266861 -0.0029077113328317898 0.0088442558898616172 -0.023730838244167413 0.014257170627527092 0.0031511690179793525 0.020474501551373078 0.010433702569633886 0.018841576057827037 0.016738370119860308 -0.0064595862803383626 -0.020112166222739113 -0.0028726697535984428 0.01477798080028043 0.0068229439526136908 0.015653759633763659 0.0057922077031794554 -0.0057883890035530091 -0.013784989349938251 0.0026406689522815155 -0.0084962080326727966 0.00094355977262945397 -0.0012750567802072969 0.013146595924219451 0.019037897699752726 -0.0018710243183564094 -0.012053103071036951 -0.00010382337482760216 0.005607178022994588 -0.011590188319719311 0.01089245154352163 -0.011029214941862318 0.013118338094610459 0.0071055434764170393 0.012596581459689558 -0.0099220890499899309 0.0015592138619788792 -0.0049245102878695294 0.014652062584944371 -0.014264297950835707 0.014888517685371996 0.0072392025301875719 0.016048840825103491 0.0027311862553690319 -0.019903549047651417 0.020754134881474793 0.021231821223144123 0.014795758488850303 0.0079566374605786541 0.020826651133789915 0.011278545819082029 -0.00022938856884254137 0.0091178080575590684 -0.00057785295731568897
