tree
version=v4
num_class=1
num_tree_per_iteration=1
label_index=0
max_feature_idx=63
objective=binary sigmoid:1
feature_names=age alcohol_consumption_per_week physical_activity_minutes_per_week diet_score sleep_hours_per_day screen_time_hours_per_day bmi waist_to_hip_ratio systolic_bp diastolic_bp heart_rate cholesterol_total hdl_cholesterol ldl_cholesterol triglycerides family_history_diabetes hypertension_history cardiovascular_history cardio_risk_score cholesterol_risk lifestyle_risk diet_activity_balance metabolic_index overall_health_risk age_bmi age_bp bmi_cholesterol family_history_age log_physical_activity log_triglycerides age_squared bmi_squared high_bp_flag high_cholesterol_flag obese_flag sedentary_flag medical_history_score gender_Male gender_Other ethnicity_Black ethnicity_Hispanic ethnicity_Other ethnicity_White education_level_Highschool education_level_No_formal education_level_Postgraduate income_level_Low income_level_Lower-Middle income_level_Middle income_level_Upper-Middle smoking_status_Former smoking_status_Never employment_status_Retired employment_status_Student employment_status_Unemployed bmi_category_normal bmi_category_overweight bmi_category_obese age_group_middle age_group_senior age_group_elderly bp_category_elevated bp_category_high bp_category_very_high
feature_infos=[19:89] [1:8] [1:747] [0.10000000000000001:9.9000000000000004] [3.2999999999999998:9.9000000000000004] [0.59999999999999998:15.800000000000001] [15.1:37.799999999999997] [0.69999999999999996:1.02] [91:163] [51:103] [42:98] [121:286] [21:90] [51:199] [31:290] [0:1] [0:1] [0:1] [0.4792857142857142:0.98438095238095236] [0.31916666666666671:1.0175000000000001] [0:0.76657142857142857] [0.0049000000000000007:7.0217999999999998] [0.52715789473684216:1.3934736842105264] [0.43086146616541354:0.89127230576441108] [352:3001.2000000000003] [1729:13261] [2174.4000000000001:9792] [0:89] [0.69314718055994529:6.6174029779744776] [3.4657359027997265:5.6733232671714928] [361:7921] [228.00999999999999:1428.8399999999997] [0:1] [0:1] [0:1] [0:1] [0:3] [0:1] [0:1] [0:1] [0:1] [0:1] [0:1] [0:1] [0:1] [0:1] [0:1] [0:1] [0:1] [0:1] [0:1] [0:1] [0:1] [0:1] [0:1] [0:1] [0:1] [0:1] [0:1] [0:1] [0:1] [0:1] [0:1] [0:1]
tree_sizes=3089 3347 3249

Tree=0
num_leaves=28
num_cat=0
split_feature=27 21 30 23 21 23 25 21 30 21 21 30 23 30 30 23 21 23 27 27 25 19 23 21 21 27 21
split_gain=6349.97 4538.05 2432.8 991.806 734.657 682.699 409.277 345.118 337.159 308.806 295.521 198.684 126.408 102.283 97.4171 79.3744 76.8001 37.325 15.7025 14.6837 8.6075 6.60076 5.26217 4.92111 4.77747 2.73077 1.70939
threshold=26.500000000000004 0.78225000000000011 2352.5000000000005 0.64354144736842123 1.0361000000000002 0.65046309523809542 6679.5000000000009 0.38205000000000006 2450.5000000000005 0.42860000000000009 0.38205000000000006 4556.5000000000009 0.6061619047619049 4556.5000000000009 3660.5000000000005 0.61155382205513797 0.80975000000000008 0.64915300751879712 60.500000000000007 49.500000000000007 7501.0000000000009 0.53958333333333364 0.58693386591478702 0.99415000000000009 0.37250000000000011 40.500000000000007 0.3222000000000001
decision_type=2 2 2 2 2 2 2 2 2 2 2 2 2 2 2 2 2 2 2 2 2 2 2 2 2 2 2
left_child=1 2 3 10 8 11 12 -5 15 -7 -1 -4 -6 -8 -10 -3 17 19 21 22 24 23 -2 -18 -19 -23 -21
right_child=16 4 5 7 6 9 13 -9 14 -11 -12 -13 -14 -15 -16 -17 18 20 -20 26 -22 25 -24 -25 -26 -27 -28
leaf_value=0.55235519881338857 0.56934482073471193 0.5275255743210403 0.55808241456091223 0.56144920329444381 0.51152805009388336 0.56869227136217493 0.53536300160873707 0.55321539573574974 0.54642909880503787 0.56242038023777108 0.54361350322656932 0.56922418768978422 0.52577938176111594 0.55585401375986232 0.55786601469893116 0.53953148600176748 0.56803343266419537 0.5777803317285084 0.57528809623408039 0.57792104523694987 0.57917221846941214 0.5651132394774625 0.57387564952588865 0.55963737760480481 0.57595494961975946 0.5709191884444077 0.57552218139610689
leaf_weight=17231.741580605507 1085.5452041625977 1950.0887182950974 38016.330898314714 30506.203944712877 2901.8699217438698 59652.121053904295 2166.3558171391487 19942.476659059525 4341.8238430917263 27104.546721965075 19542.306089311838 4237.4981832504272 2986.3013650774956 796.64880949258804 3047.9702352285385 4075.7362980544567 531.46469023823738 14099.63025444746 1077.894885122776 3153.2910542190075 8372.8963733315468 519.51811423897743 9334.2191109955311 497.95014482736588 9766.1871997416019 1801.4060337245464 6056.8513826429844
leaf_count=21504 1041 3254 43750 33365 5630 57915 3327 24596 5854 29198 27285 4075 5072 946 3518 5972 521 11515 925 2567 6640 535 8241 559 8278 1680 5178
internal_value=0.561347 0.557888 0.560035 0.553776 0.537036 0.564267 0.526178 0.558195 0.544196 0.566733 0.547711 0.559201 0.518765 0.540891 0.551154 0.535655 0.576 0.576533 0.569736 0.574791 0.577592 0.567934 0.573409 0.564026 0.577036 0.569643 0.576349
internal_weight=294797 238500 216233 87222.7 22266.8 129010 8851.18 50448.7 13415.6 86756.7 36774 42253.8 5888.17 2963 7389.79 6025.83 56296.9 51868.6 4428.23 19629.9 32238.7 3350.34 10419.8 1029.41 23865.8 2320.92 9210.14
internal_count=322941 275261 241688 106750 33573 134938 14975 57961 18598 87113 48789 47825 10702 4273 9372 9226 47680 43460 4220 17027 26433 3295 9282 1080 19793 2215 7745
is_linear=0
shrinkage=1


Tree=1
num_leaves=30
num_cat=0
split_feature=27 2 24 2 2 24 24 24 24 24 24 2 2 2 24 10 30 24 24 2 24 2 25 2 2 6 19 23 22
split_gain=6051.15 4717.15 3099.46 920.018 789.792 702.828 404.374 386.706 342.012 260.597 254.268 206.498 201.482 82.8599 52.9423 52.5059 44.6363 38.5702 18.5599 11.837 8.7737 7.74845 6.55872 5.09644 3.46862 1.99356 1.48335 1.32039 0.890953
threshold=26.500000000000004 132.50000000000003 1205.5000000000002 75.500000000000014 75.500000000000014 1108.3000000000004 791.05000000000007 1681.6000000000001 1607.3000000000004 1629.7000000000005 699.10000000000002 198.50000000000003 192.50000000000003 117.50000000000001 941.75000000000011 66.500000000000014 4830.5000000000009 1118.7500000000002 1052.6500000000003 169.50000000000003 1646.7000000000003 55.500000000000007 7874.5000000000009 65.500000000000014 156.50000000000003 24.850000000000005 0.53791666666666693 0.61009326441102774 0.84556140350877207
decision_type=2 2 2 2 2 2 2 2 2 2 2 2 2 2 2 2 2 2 2 2 2 2 2 2 2 2 2 2 2
left_child=1 2 3 6 8 12 -1 -6 -4 11 -5 -7 14 17 -3 -14 -11 21 19 28 23 27 24 -19 -20 -23 -21 -2 -15
right_child=13 5 4 10 7 9 -8 -9 -10 16 -12 -13 15 18 -16 -17 -18 20 22 26 -22 25 -24 -25 -26 -27 -28 -29 -30
leaf_value=0.039468711887368384 0.067146023642571717 0.014832627493160829 0.059252363709448058 0.02149285318330018 0.051166140076487635 0.03518643788123494 0.052445046857164113 0.061059962640881739 0.06552783942098149 0.043016092385927657 0.040965343170989786 0.018512266215839367 0.0055620176758422986 0.060215755325143921 0.026273503009310015 -0.013723505096010604 0.055680660857730879 0.072030472519755959 0.066668432198941682 0.045321056767186757 0.073304031753634147 0.066260770424611162 0.070632423778759765 0.070311979242570058 0.062245177421515682 0.068776008406126063 0.055140744108641428 0.070873681068892955 0.066331764107880831
leaf_weight=6546.204647153616 932.0213178396225 1963.3029268980026 58733.858305439353 1686.6493685245514 35662.104096725583 6815.9720880538225 42945.21068932116 12672.885352864861 31712.73146289587 2119.2386204302311 27256.410069033504 2370.2421571165323 1304.9737962037325 629.42155747115612 1909.4443379193544 444.93221066892147 1014.8219142407179 15072.863625332713 2254.2521790862083 147.94308367371559 9221.261820718646 4189.2138651311398 966.83716712892056 12000.961978077888 1188.6072328835726 3469.8155390769243 258.31399935483932 4520.0830264687538 380.99891297519207
leaf_count=9110 854 3564 61880 2865 42507 9999 50284 12962 30002 2823 37278 4157 2579 651 3094 1026 1131 12560 2085 190 7482 3904 828 10354 1189 3084 289 3856 354
internal_value=0.0558375 0.0524439 0.0544183 0.0467093 0.0587747 0.0285398 0.0507298 0.0537613 0.0614533 0.0350267 0.0398325 0.03089 0.0143162 0.0702851 0.0204874 0.000627837 0.0471344 0.0709417 0.0647083 0.059496 0.0717889 0.0685923 0.0663703 0.0712708 0.0651574 0.0674075 0.0516994 0.0702466 0.0625765
internal_weight=290392 235159 217216 78434.5 138782 17942.9 49491.4 48335 90446.6 12320.3 28943.1 9186.21 5622.65 55232.6 3872.75 1749.91 3134.06 49406.2 5826.37 1416.68 36295.1 13111.1 4409.7 27073.8 3442.86 7659.03 406.257 5452.1 1010.42
internal_count=322941 275261 246888 99537 147351 28373 59394 55469 91882 18110 40143 14156 10263 47680 6658 3605 3954 42094 5586 1484 30396 11698 4102 22914 3274 6988 479 4710 1005
is_linear=0
shrinkage=0.0484953


Tree=2
num_leaves=29
num_cat=0
split_feature=27 2 24 2 2 24 24 24 24 24 24 2 21 2 21 13 24 2 24 21 24 2 2 8 24 27 23 24
split_gain=5806.44 4443.04 2979.86 971.891 660.976 653.894 459.513 320.73 284.674 281.904 244.037 191.531 189.573 81.6482 62.0271 52.9132 44.4809 26.3213 20.9069 12.8047 10.3842 6.83688 6.75274 7.18012 3.70103 3.25181 1.69568 0.783935
threshold=24.500000000000004 132.50000000000003 1246.7500000000002 75.500000000000014 75.500000000000014 1108.3000000000004 850.35000000000014 1681.6000000000001 1618.3000000000004 781.60000000000014 1629.7000000000005 198.50000000000003 1.4309000000000003 132.50000000000003 0.99415000000000009 83.500000000000014 1118.7500000000002 205.50000000000003 1042.9000000000003 0.38205000000000006 1457.6000000000001 65.500000000000014 173.50000000000003 105.50000000000001 889.4000000000002 59.500000000000007 0.62910426065162917 1816.8000000000004
decision_type=2 2 2 2 2 2 2 2 2 2 2 2 2 2 2 2 2 2 2 2 2 2 2 2 2 2 2 2
left_child=1 2 3 6 8 12 -1 -6 -4 -5 11 -7 14 16 -3 -14 19 -12 22 26 21 -18 -15 -24 -21 -20 -2 -22
right_child=13 5 4 9 7 10 -8 -9 -10 -11 17 -13 15 18 -16 -17 20 -19 25 24 27 -23 23 -25 -26 -27 -28 -29
leaf_value=0.039891744490993308 0.066171142093399957 0.023265868372238024 0.057741595893614162 0.025788244225529746 0.049937897281739356 0.033811853673327376 0.051639927209070138 0.059157564116192239 0.063686486449445329 0.040529913594453529 0.047931166370728605 0.017702486512120856 -0.022094835649125386 0.058316965029919475 0.011617095864076433 0.002004760656747416 0.069828393335205102 0.036757827018054134 0.06175000724636872 0.062331837253591822 0.070230719884981044 0.067592219786357197 0.038531463602388225 0.054530006991614081 0.065668047869980831 0.066493370254762943 0.068815701480356775 0.071905742192554342
leaf_weight=9525.7216263860464 2471.3567647486925 2487.571092069149 52651.686730489135 3440.0834391117096 31708.133110001683 6750.721083894372 45235.516441017389 12451.549941927195 30039.91332256794 28541.401814162731 2404.5501763522625 2358.753619581461 282.44226598739624 547.01280404627323 1938.1369872540236 875.28591170907021 10157.382320538163 688.31544423103333 1870.1571575403214 2071.1082160770893 13417.995213985443 8781.3468687981367 143.511131554842 216.59785486757755 4435.1037963777781 985.7476381957531 4742.1292477846146 4542.3987382203341
leaf_count=13085 2270 4141 56092 5565 38063 9999 52997 12962 28914 38937 2972 4157 692 576 3622 1782 8687 982 1860 2039 11384 7849 199 242 4112 899 4140 3722
internal_value=0.0540135 0.0506613 0.0526007 0.0456708 0.0573391 0.0273668 0.0495973 0.0525388 0.0599019 0.0389459 0.0336597 0.0296465 0.0136043 0.0682754 0.0181767 -0.00382893 0.0687965 0.0454621 0.0612508 0.0663551 0.0697027 0.0687945 0.0544032 0.0483058 0.0646145 0.0634065 0.0679173 0.0706574
internal_weight=285762 231380 213594 86742.7 126851 17785.8 54761.2 44159.7 82691.6 31981.5 12202.3 9109.47 5583.44 54381.8 4425.71 1157.73 50618.8 3092.87 3763.03 13719.7 36899.1 18938.7 907.122 360.109 6506.21 2855.9 7213.49 17960.4
internal_count=322941 274962 246615 110584 136031 28347 66082 51025 85006 44502 18110 14156 10237 47979 7763 2474 44203 3954 3776 12561 31642 16536 1017 441 6151 2759 6410 15106
is_linear=0
shrinkage=0.0484953


end of trees

feature_importances:
age_bmi=23
physical_activity_minutes_per_week=18
diet_activity_balance=12
overall_health_risk=8
family_history_age=7
age_squared=6
age_bp=3
cholesterol_risk=2
bmi=1
systolic_bp=1
heart_rate=1
ldl_cholesterol=1
metabolic_index=1

parameters:
[boosting: gbdt]
[objective: binary]
[metric: binary_logloss]
[tree_learner: serial]
[device_type: cpu]
[data_sample_strategy: bagging]
[data: ]
[valid: ]
[num_iterations: 700]
[learning_rate: 0.0484953]
[num_leaves: 186]
[num_threads: 0]
[seed: 42]
[deterministic: 0]
[force_col_wise: 0]
[force_row_wise: 0]
[histogram_pool_size: -1]
[max_depth: 5]
[min_data_in_leaf: 84]
[min_sum_hessian_in_leaf: 0.0548101]
[bagging_fraction: 0.575621]
[pos_bagging_fraction: 1]
[neg_bagging_fraction: 1]
[bagging_freq: 5]
[bagging_seed: 400]
[bagging_by_query: 0]
[feature_fraction: 0.683464]
[feature_fraction_bynode: 1]
[feature_fraction_seed: 30056]
[extra_trees: 0]
[extra_seed: 12879]
[early_stopping_round: 0]
[early_stopping_min_delta: 0]
[first_metric_only: 0]
[max_delta_step: 0]
[lambda_l1: 1.10031]
[lambda_l2: 0.0275089]
[linear_lambda: 0]
[min_gain_to_split: 0.751513]
[drop_rate: 0.1]
[max_drop: 50]
[skip_drop: 0.5]
[xgboost_dart_mode: 0]
[uniform_drop: 0]
[drop_seed: 17869]
[top_rate: 0.2]
[other_rate: 0.1]
[min_data_per_group: 100]
[max_cat_threshold: 32]
[cat_l2: 10]
[cat_smooth: 10]
[max_cat_to_onehot: 4]
[top_k: 20]
[monotone_constraints: ]
[monotone_constraints_method: basic]
[monotone_penalty: 0]
[feature_contri: ]
[forcedsplits_filename: ]
[refit_decay_rate: 0.9]
[cegb_tradeoff: 1]
[cegb_penalty_split: 0]
[cegb_penalty_feature_lazy: ]
[cegb_penalty_feature_coupled: ]
[path_smooth: 0]
[interaction_constraints: ]
[verbosity: -1]
[saved_feature_importance_type: 0]
[use_quantized_grad: 0]
[num_grad_quant_bins: 4]
[quant_train_renew_leaf: 0]
[stochastic_rounding: 1]
[linear_tree: 0]
[max_bin: 255]
[max_bin_by_feature: ]
[min_data_in_bin: 3]
[bin_construct_sample_cnt: 200000]
[data_random_seed: 175]
[is_enable_sparse: 1]
[enable_bundle: 1]
[use_missing: 1]
[zero_as_missing: 0]
[feature_pre_filter: 1]
[pre_partition: 0]
[two_round: 0]
[header: 0]
[label_column: ]
[weight_column: ]
[group_column: ]
[ignore_column: ]
[categorical_feature: ]
[forcedbins_filename: ]
[precise_float_parser: 0]
[parser_config_file: ]
[objective_seed: 16083]
[num_class: 1]
[is_unbalance: 0]
[scale_pos_weight: 5.6343]
[sigmoid: 1]
[boost_from_average: 1]
[reg_sqrt: 0]
[alpha: 0.9]
[fair_c: 1]
[poisson_max_delta_step: 0.7]
[tweedie_variance_power: 1.5]
[lambdarank_truncation_level: 30]
[lambdarank_norm: 1]
[label_gain: ]
[lambdarank_position_bias_regularization: 0]
[eval_at: ]
[multi_error_top_k: 1]
[auc_mu_weights: ]
[num_machines: 1]
[local_listen_port: 12400]
[time_out: 120]
[machine_list_filename: ]
[machines: ]
[gpu_platform_id: -1]
[gpu_device_id: -1]
[gpu_use_dp: 0]
[num_gpu: 1]

end of parameters

pandas_categorical:[]
