tree
version=v4
num_class=1
num_tree_per_iteration=1
label_index=0
max_feature_idx=63
objective=binary sigmoid:1
feature_names=age alcohol_consumption_per_week physical_activity_minutes_per_week diet_score sleep_hours_per_day screen_time_hours_per_day bmi waist_to_hip_ratio systolic_bp diastolic_bp heart_rate cholesterol_total hdl_cholesterol ldl_cholesterol triglycerides family_history_diabetes hypertension_history cardiovascular_history cardio_risk_score cholesterol_risk lifestyle_risk diet_activity_balance metabolic_index overall_health_risk age_bmi age_bp bmi_cholesterol family_history_age log_physical_activity log_triglycerides age_squared bmi_squared high_bp_flag high_cholesterol_flag obese_flag sedentary_flag medical_history_score gender_Male gender_Other ethnicity_Black ethnicity_Hispanic ethnicity_Other ethnicity_White education_level_Highschool education_level_No_formal education_level_Postgraduate income_level_Low income_level_Lower-Middle income_level_Middle income_level_Upper-Middle smoking_status_Former smoking_status_Never employment_status_Retired employment_status_Student employment_status_Unemployed bmi_category_normal bmi_category_overweight bmi_category_obese age_group_middle age_group_senior age_group_elderly bp_category_elevated bp_category_high bp_category_very_high
feature_infos=[19:89] [1:8] [1:747] [0.10000000000000001:9.9000000000000004] [3.2999999999999998:9.9000000000000004] [0.59999999999999998:15.800000000000001] [15.1:37.799999999999997] [0.69999999999999996:1.02] [91:163] [51:103] [42:98] [121:286] [21:90] [51:199] [31:290] [0:1] [0:1] [0:1] [0.4792857142857142:0.98438095238095236] [0.31916666666666671:1.0175000000000001] [0:0.76657142857142857] [0.0049000000000000007:7.0217999999999998] [0.52715789473684216:1.3934736842105264] [0.43086146616541354:0.89127230576441108] [352:3001.2000000000003] [1729:13261] [2174.4000000000001:9792] [0:89] [0.69314718055994529:6.6174029779744776] [3.4657359027997265:5.6733232671714928] [361:7921] [228.00999999999999:1428.8399999999997] [0:1] [0:1] [0:1] [0:1] [0:3] [0:1] [0:1] [0:1] [0:1] [0:1] [0:1] [0:1] [0:1] [0:1] [0:1] [0:1] [0:1] [0:1] [0:1] [0:1] [0:1] [0:1] [0:1] [0:1] [0:1] [0:1] [0:1] [0:1] [0:1] [0:1] [0:1] [0:1]
tree_sizes=28237 28743 28723 28836 28906 28852 28780

Tree=0
num_leaves=267
num_cat=0
split_feature=27 28 23 30 30 30 28 28 28 28 21 28 30 30 30 30 30 30 30 28 23 25 30 30 23 15 23 15 22 14 10 22 22 10 23 23 23 30 28 30 23 28 28 23 10 30 28 28 28 28 28 28 22 14 30 15 23 10 23 30 10 30 28 6 30 10 10 23 28 28 28 28 30 22 28 21 12 30 25 30 30 26 27 3 22 30 3 3 28 28 28 12 30 28 11 25 21 28 28 28 14 25 28 23 28 14 28 36 22 19 30 30 25 11 28 5 30 25 25 28 3 28 28 23 3 26 28 10 8 3 21 23 30 25 23 7 18 14 28 19 12 19 10 5 3 6 21 10 6 30 28 19 11 15 30 28 23 22 10 22 13 30 30 23 4 30 28 23 8 13 25 19 27 21 22 25 14 22 21 30 3 26 13 26 28 30 3 21 11 23 18 13 3 22 28 28 3 28 6 22 7 22 22 23 13 25 13 13 25 28 28 28 28 28 22 3 6 18 28 28 26 25 19 21 25 5 3 28 13 18 10 14 22 30 28 28 28 26 28 21 23 21 5 4 12 5 9 4 9 3 4 18 22 14 10 14 21 28 28 6 8 25 14 14 28 14
split_gain=14833.8 9887.42 5667.57 1986.94 1917.99 1087.33 1057.98 937.2 592.927 544.222 495.523 408.217 351.425 314.521 307.708 275.975 274.92 256.03 242.134 226.236 218.228 193.613 169.424 163.567 156.759 155.072 146.976 135.51 128.154 125.403 120.21 116.153 115.982 114.784 106.65 102.529 100.023 99.9342 91.0811 88.6751 87.7893 87.0853 83.4866 80.1197 77.0166 75.6689 73.1083 72.7974 122.546 84.4423 77.8437 127.293 72.4007 69.5398 66.0648 65.3474 61.1276 59.9334 58.2641 56.0577 55.0588 53.3134 51.3934 50.7689 50.3155 48.9736 48.5276 47.5522 47.4868 46.1772 44.6864 44.8909 44.5253 43.9869 43.8148 42.2342 40.9133 40.7356 40.5772 40.3218 40.2259 39.4525 38.5481 38.0237 37.9803 37.3969 36.9861 36.6625 36.6007 82.2001 37.0829 35.9217 35.761 35.615 35.3525 36.4425 35.1836 34.2604 48.2248 34.0688 32.7731 36.8275 32.1622 31.9192 31.1523 31.7052 30.6009 30.5727 30.2521 30.1134 29.905 28.8867 28.6896 28.2592 27.7274 27.3356 27.2364 27.198 26.6974 26.5831 26.5335 26.3285 50.111 26.1141 25.6715 25.3703 25.2666 25.0246 24.9146 24.5791 24.2263 30.5078 24.1418 23.7738 23.66 23.3565 27.7022 23.2618 23.219 23.1655 34.5951 23.1219 23.1214 27.931 22.8272 22.7015 22.6932 23.2331 23.0041 22.6763 22.6556 22.5937 23.7475 22.5551 39.1562 22.3864 21.8725 21.8395 22.2365 21.7846 21.7075 21.6948 21.6425 21.5248 21.5042 21.4522 24.6892 21.3593 21.2971 21.2298 29.338 25.8121 21.0864 20.8782 20.8072 20.7792 20.7548 20.7019 20.6473 20.5742 21.4724 20.1458 20.1095 20.105 20.0736 20.0394 19.9128 19.8991 19.7277 19.6161 19.4692 19.4076 19.4013 24.1701 19.3894 37.266 19.2898 19.1718 19.1323 19.1282 19.1271 29.6877 18.9905 18.9333 22.4507 18.9148 18.8882 18.7537 18.7273 18.6508 70.3457 57.7941 35.963 23.2833 18.5292 18.5174 18.4546 18.3536 18.3227 54.5877 18.3216 18.2507 18.4721 17.9853 17.9806 24.0539 18.6407 17.9339 17.7621 17.7081 17.6071 18.2917 17.5899 17.5559 17.4866 23.1469 47.9587 17.3638 17.3586 17.323 17.2851 22.6467 18.4626 17.2829 16.8745 17.126 16.8666 16.8168 17.8266 17.2288 16.7982 23.8398 16.7579 16.4379 16.3863 16.3225 17.6641 22.2183 25.9879 16.1979 19.2018 19.6579 21.6132 28.3633 18.0211 21.5154
threshold=26.500000000000004 4.8940944640863338 0.64830686090225575 2352.5000000000005 2862.5000000000005 2450.5000000000005 4.3502571242716384 4.3372693810700085 4.3372693810700085 4.3372693810700085 1.1551000000000002 5.2958110956362647 870.50000000000011 930.50000000000011 4692.5000000000009 4556.5000000000009 812.50000000000011 4422.5000000000009 4556.5000000000009 4.8940944640863338 0.68665808270676698 4428.5000000000009 4556.5000000000009 4556.5000000000009 0.63542205513784467 1.0000000180025095e-35 0.59597252506265674 1.0000000180025095e-35 0.88026315789473697 100.50000000000001 61.500000000000007 0.98789473684210538 0.92973684210526331 60.500000000000007 0.71522753759398505 0.68962593984962417 0.64871622807017559 650.50000000000011 5.2857353797162627 2070.5000000000005 0.61429959273182966 4.0517471391904856 4.0342014792848504 0.61223681077694259 66.500000000000014 1122.5000000000002 4.1190041246092024 4.1190041246092024 4.166635176627655 4.1026092131977068 4.2268071048866842 4.1971736807086968 0.82056140350877205 95.500000000000014 812.50000000000011 1.0000000180025095e-35 0.62594859022556404 65.500000000000014 0.57052728696741861 600.50000000000011 66.500000000000014 1722.5000000000002 4.1820210059610323 22.750000000000004 930.50000000000011 65.500000000000014 68.500000000000014 0.68549320175438599 4.166635176627655 3.4811217321331038 4.0517471391904856 4.1190041246092024 600.50000000000011 1.0069473684210528 5.1149908003866509 0.36825000000000002 39.500000000000007 5112.5000000000009 4993.5000000000009 1722.5000000000002 650.50000000000011 4172.6000000000013 49.500000000000007 5.6500000000000012 0.74759649122807037 2352.5000000000005 5.9500000000000011 6.0500000000000007 4.2268071048866842 4.1971736807086968 4.2121001622835372 45.500000000000007 3422.5000000000005 4.166635176627655 208.50000000000003 3166.0000000000005 0.88570000000000004 4.5798392285869785 4.4716224665663962 3.5114340430413216 160.50000000000003 4517.5000000000009 3.5694334999727624 0.61993959899749385 5.0968083143154814 114.50000000000001 4.1026092131977068 1.0000000180025095e-35 0.88110526315789484 0.66208333333333369 3660.5000000000005 3906.5000000000005 6889.0000000000009 176.50000000000003 4.0859410030639109 2.6500000000000008 1640.5000000000002 7914.0000000000009 8161.0000000000009 4.0342014792848504 5.6500000000000012 3.4811217321331038 3.6242520361853052 0.59597252506265674 5.8500000000000005 4465.1000000000013 4.0517471391904856 75.500000000000014 100.50000000000001 6.9500000000000011 0.38205000000000006 0.6061619047619049 5112.5000000000009 3566.0000000000005 0.66202048872180463 0.80500000000000016 0.60121428571428581 60.500000000000007 4.2121001622835372 0.50541666666666696 51.500000000000007 0.66541666666666688 57.500000000000007 8.7500000000000018 8.6500000000000004 22.350000000000005 0.99415000000000009 75.500000000000014 22.050000000000004 3782.5000000000005 4.6395599436855051 0.65625000000000033 179.50000000000003 1.0000000180025095e-35 756.50000000000011 4.9089648320872419 0.62164564536340861 0.76261403508771941 74.500000000000014 1.0304035087719301 71.500000000000014 3540.5000000000005 5112.5000000000009 0.69468941102756909 6.4500000000000011 1056.5000000000002 5.0594204191876377 0.61429959273182966 101.50000000000001 78.500000000000014 3362.0000000000005 0.64791666666666703 58.500000000000007 0.88570000000000004 0.96008771929824566 2453.5000000000005 128.50000000000003 0.7431403508771931 0.73765000000000025 2352.5000000000005 6.0500000000000007 4089.5000000000005 66.500000000000014 4922.9500000000007 3.3140206880897671 5112.5000000000009 5.3500000000000005 0.59425000000000006 161.50000000000003 0.56412149122807032 0.60321428571428581 76.500000000000014 6.3500000000000005 0.8343859649122809 3.5114340430413216 3.8393944990995772 6.9500000000000011 5.4049245766661995 21.750000000000004 0.79015789473684217 0.8650000000000001 0.93559649122807043 0.77177192982456155 0.57335592105263167 60.500000000000007 5264.5000000000009 72.500000000000014 91.500000000000014 3849.0000000000005 4.0517471391904856 4.1190041246092024 4.166635176627655 4.1026092131977068 4.2268071048866842 0.78643859649122827 8.3500000000000032 23.850000000000005 0.59221428571428592 3.8393944990995772 3.795426061844291 4222.6000000000013 4517.5000000000009 0.48375000000000018 0.34210000000000013 5031.5000000000009 7.7500000000000009 5.9500000000000011 4.1971736807086968 104.50000000000001 0.60964285714285726 60.500000000000007 143.50000000000003 0.78394736842105284 812.50000000000011 3.9981586158983733 4.1190041246092024 4.1026092131977068 3797.5500000000006 4.0859410030639109 0.48290000000000005 0.63811027568922318 1.3594500000000003 4.9500000000000011 7.4500000000000011 45.500000000000007 3.6500000000000008 69.500000000000014 6.8500000000000005 68.500000000000014 6.0500000000000007 6.8500000000000005 0.60254761904761922 0.90526315789473699 131.50000000000003 59.500000000000007 100.50000000000001 0.52515000000000012 4.4716224665663962 4.4367340276668159 21.350000000000005 113.50000000000001 6373.5000000000009 88.500000000000014 96.500000000000014 5.7284737652803868 148.50000000000003
decision_type=2 2 2 2 2 2 2 2 2 2 2 2 2 2 2 2 2 2 2 2 2 2 2 2 2 2 2 2 2 2 2 2 2 2 2 2 2 2 2 2 2 2 2 2 2 2 2 2 2 2 2 2 2 2 2 2 2 2 2 2 2 2 2 2 2 2 2 2 2 2 2 2 2 2 2 2 2 2 2 2 2 2 2 2 2 2 2 2 2 2 2 2 2 2 2 2 2 2 2 2 2 2 2 2 2 2 2 2 2 2 2 2 2 2 2 2 2 2 2 2 2 2 2 2 2 2 2 2 2 2 2 2 2 2 2 2 2 2 2 2 2 2 2 2 2 2 2 2 2 2 2 2 2 2 2 2 2 2 2 2 2 2 2 2 2 2 2 2 2 2 2 2 2 2 2 2 2 2 2 2 2 2 2 2 2 2 2 2 2 2 2 2 2 2 2 2 2 2 2 2 2 2 2 2 2 2 2 2 2 2 2 2 2 2 2 2 2 2 2 2 2 2 2 2 2 2 2 2 2 2 2 2 2 2 2 2 2 2 2 2 2 2 2 2 2 2 2 2 2 2 2 2 2 2 2 2 2 2 2 2 2 2 2 2 2 2
left_child=1 2 3 7 6 10 13 12 15 22 24 18 27 55 35 34 25 43 28 36 39 54 40 31 45 52 116 37 60 53 56 33 85 81 41 111 82 62 133 75 137 121 61 110 96 153 106 49 -49 130 51 -50 72 58 107 59 64 74 -18 -4 86 125 84 215 139 -30 118 113 -48 184 194 114 128 120 208 -15 -40 -17 252 83 129 214 -2 253 217 97 188 174 89 -70 -91 -51 108 -73 95 189 155 98 -23 -22 151 -102 -71 186 105 157 -43 141 124 146 144 255 115 -56 -72 -88 220 -83 259 233 -37 -6 -123 -64 -45 -28 198 -60 -9 -54 131 164 -20 240 -87 -106 -137 -5 192 -12 -141 175 181 168 203 -63 148 190 -62 234 205 152 178 154 237 -26 -82 -59 -159 -97 176 209 -19 -34 -44 -156 -167 -138 -144 -55 -171 239 -38 -68 -67 -8 238 -150 -46 180 -101 -66 -86 -116 -42 -16 -93 -99 -7 -78 -148 -74 -53 -194 -41 -196 232 -191 -118 250 -154 224 -130 204 -11 -129 -85 -117 -47 -104 212 -212 -211 227 -13 -31 -135 -1 219 -124 -14 222 -217 -52 225 -202 -226 -213 -199 -158 231 -76 -115 -61 -139 236 -236 -3 -39 -172 241 242 -32 -206 -175 -246 -58 248 -105 -250 251 -162 -21 -65 -81 -10 257 258 -257 -35 264 -262 -263 -264 265 -261
right_child=19 5 4 9 8 11 21 16 14 17 30 23 26 20 185 77 29 162 132 78 99 32 -24 -25 44 -27 42 -29 65 63 38 -33 163 66 -36 73 172 160 76 70 69 46 47 92 100 57 68 48 50 91 223 138 80 169 67 -57 246 104 127 119 109 145 123 79 142 87 173 -69 88 102 71 93 191 -75 230 -77 94 -79 -80 254 156 117 -84 206 182 134 112 -89 -90 90 -92 103 -94 -95 -96 159 -98 187 -100 179 101 -103 161 247 135 -107 -108 -109 -110 -111 -112 -113 -114 196 183 207 126 -119 -120 -121 -122 122 218 -125 -126 -127 -128 150 202 -131 -132 -133 -134 216 -136 136 167 149 -140 140 -142 -143 143 -145 -146 -147 147 -149 177 -151 -152 -153 200 -155 165 -157 229 158 -160 -161 199 -163 -164 -165 -166 166 -168 -169 -170 170 171 -173 -174 244 -176 -177 -178 -179 -180 -181 -182 -183 -184 -185 -186 -187 -188 -189 -190 197 -192 -193 193 -195 195 -197 -198 228 -200 -201 201 -203 -204 -205 243 -207 -208 -209 -210 210 211 213 -214 -215 -216 221 -218 -219 -220 -221 -222 -223 -224 -225 226 -227 -228 -229 -230 -231 -232 -233 -234 -235 235 -237 -238 -239 -240 -241 -242 -243 -244 -245 245 -247 -248 -249 249 -251 -252 -253 -254 -255 -256 256 -258 -259 -260 260 261 262 263 -265 -266 -267
leaf_value=0.49387246916587696 0.58076100665827501 0.41604885541708558 0.51792500830838117 0.53455881184067378 0.57668239559764978 0.4975490957637298 0.48130089367359458 0.47895831564281605 0.54345155218635266 0.48677555565638803 0.40895095100407974 0.4775246530091069 0.52693682627312954 0.55791324911216766 0.57106142425092599 0.57841643867414039 0.50876603091041872 0.56022293340412377 0.54966609310617054 0.55858173732774441 0.57264372593532409 0.53934500060185786 0.57468903630268664 0.54004192380610405 0.50356361844461084 0.55866426695563387 0.5440752677463323 0.56428980006259699 0.54760860860597615 0.52626518687998791 0.4508053731730961 0.5483220597960351 0.55195792789276565 0.51029588690689287 0.57754377553244995 0.56657089342566413 0.58745636795214973 0.51088414680064631 0.51014729945366044 0.5707254829265318 0.56276703195110611 0.55921572275505116 0.46729569390176073 0.54707868926830028 0.53584458363689813 0.50013757782487689 0.57609919920208041 0.56205060539613638 0.54525141289925472 0.55674302709235579 0.55583360626722977 0.50939230873627861 0.5019122559913739 0.49421168383703046 0.54420843369997962 0.57690070951206529 0.48761569682694877 0.50716877681173422 0.53094612101528826 0.54044065556586585 0.53680169661613053 0.54639112594273354 0.41881675174537347 0.53285006789383538 0.48515394679108814 0.53211970578080159 0.5120390973730804 0.54835484392193368 0.56792333535780992 0.54460061733492149 0.55608612081206299 0.57183551458544446 0.46460301572089957 0.57426875539365718 0.50575478557382436 0.55051310357992278 0.39197850562935266 0.58592407298469484 0.57621288982906704 0.54987798787260633 0.50380644214166115 0.516184009546236 0.58616648612419253 0.51433223033962883 0.48027543170955106 0.5434584513065186 0.45997908762149581 0.5185420145405123 0.56833853640176535 0.52032112225998672 0.5508160772088585 0.42798642016736316 0.5515456622911078 0.55820960083468574 0.50267780377314752 0.46166316297018861 0.51930919207331172 0.54353627385884207 0.55313061209316705 0.56648961499674966 0.50120023313996631 0.55124691172977403 0.56062989639994132 0.53330334318743167 0.50921031128285399 0.51470707894628476 0.54024345798713502 0.55014013109589122 0.55264990265705438 0.53171885347169101 0.54730578804015007 0.56020039468260874 0.53305591479394387 0.4950968411363974 0.52365332828699462 0.50269233112397793 0.53632492048520353 0.54719316222672898 0.52076299365500078 0.53397048099691335 0.55807384221578993 0.56242907548075949 0.57243975507571443 0.48403551768607767 0.5394043565586264 0.55215770471454395 0.53165555070896431 0.52896111059836692 0.38168914035437468 0.46202731478242548 0.52964966223244059 0.54687779327831487 0.56721480079762032 0.48256806233821797 0.55281243226371601 0.50509323519871119 0.45360492572382788 0.55459718609346109 0.52037122825346549 0.415536922932215 0.50356361844461084 0.53626015814263972 0.50356361844461084 0.52459510395455577 0.51550509080967166 0.55698848327439254 0.53637359283283581 0.47909918194441364 0.46887420875540348 0.56125658396162315 0.49820661655028214 0.51886604315189133 0.50529005501783031 0.53911685113622743 0.49864329961299447 0.5415081304752728 0.54673126133869765 0.49269219040370177 0.45339736312884077 0.51429261649936575 0.52581712232635214 0.56361243406679817 0.57313008861818893 0.55920278250070399 0.52762264160023875 0.49308887215276459 0.43245997581821499 0.49020868924151079 0.47287723318328978 0.48094386573426484 0.53205579149167359 0.48309402689980013 0.5910023010606007 0.49923075638961417 0.55320594600313022 0.51306160527078315 0.53626742504452707 0.51606018989469127 0.50322711712128854 0.56891275520981099 0.56052217694382644 0.51135757073333765 0.51753600813750078 0.54798895053516317 0.57604741876461418 0.57973369615052095 0.49091056241881115 0.5317102161427294 0.54011569870526377 0.50177558748913054 0.5048388458528591 0.49753471682585032 0.49732595506220195 0.43173459628277333 0.55906617347498644 0.56820790774813101 0.52178804625068009 0.39442750728138032 0.55397802428984444 0.53553310537396637 0.42632548446482998 0.50621426873240916 0.45220812390147724 0.53833104664745479 0.51772855307197452 0.49580084548587239 0.52799079690190709 0.52371109118483417 0.52553698483233557 0.5466073942988815 0.57264058355163083 0.55351222461694105 0.51737422174243375 0.55840513211923137 0.51275824913676504 0.52677535081833415 0.50121046204397735 0.42798642016736316 0.57457848404730261 0.5568242144932255 0.54450126056972947 0.52645288055636952 0.47993675388655238 0.5448035922234804 0.50648362996484875 0.49834536150450059 0.44310082826890818 0.53447877988712511 0.4774640684009841 0.51263825183432055 0.49131207489246886 0.55070012938855617 0.53540379334112076 0.55495100510397566 0.54246266789015474 0.55082990533775833 0.49203410299221079 0.46898291174185286 0.4694483951415428 0.51369144120800359 0.41216327970108729 0.43575626552904378 0.50356361844461084 0.54064005358877842 0.41065346462475516 0.46505404871975442 0.52436352635537864 0.52652581843141921 0.43531242021189787 0.50356361844461084 0.52872077554837926 0.48050149784701029 0.57623272451477314 0.54412524962123299 0.53663103821007807 0.5558423107535071 0.55144491438318033 0.56288546904711367 0.53415386921941788 0.45470606706546718 0.51542348800690474 0.43569149603237656 0.53471676766606324 0.48697129733330163 0.49706600210297713 0.51684151948753321
leaf_weight=44.578125029802322 10681.311374515295 28.790020644664764 362.42375722527504 280.60077980160713 4064.3081123232841 32.787899315357208 86.38268780708313 77.269579976797104 605.9830949306488 41.148391008377075 32.311990410089493 115.22303494811058 1487.4452505707741 10922.5479644835 1940.2565951943398 5778.9529509246349 608.99127817153931 1538.8077963888645 658.89032396674156 929.2292577624321 3503.0727067291737 1866.0388580262661 2259.3749429881573 462.78753516077995 58.5779769718647 145.40518599748611 3725.3504656851292 242.42304840683937 1327.1704629957676 2462.5982919037342 28.557326972484589 171.85143542289734 3163.815736413002 125.70723006129265 7788.3367748856544 2727.2231721878052 21950.318091899157 119.13078218698502 57.028731137514114 2008.190895229578 975.51392105221748 1879.6490778625011 22.827835291624069 2797.7188529372215 97.762061297893524 100.38464406132698 2024.5639787614346 1373.5349131524563 856.05592814087868 44.114841997623444 720.20837119221687 160.98567146062851 233.93454766273499 231.4880191385746 923.42208352684975 170.02969098091125 45.188178926706314 248.40609988570213 2550.7064567804337 614.57628029584885 190.92039865255356 928.12435615062714 27.616030722856522 1753.0777031183243 139.27518665790558 526.19982543587685 30.863397568464279 1352.8704092204571 1093.8712209761143 548.85791942477226 622.06684535741806 891.20040154457092 76.70353963971138 1367.6042924821377 230.46080008149147 3710.0866693854332 40.905175775289536 5096.5661710202694 2727.7495845854282 382.88485085964203 165.58729109168053 593.49881982803345 9354.8600356578827 413.48399007320404 50.777212679386139 1543.7320641279221 27.947273075580597 483.62370771169662 4661.1360131800175 202.56385350227356 466.22779074311256 24.328858941793442 3748.5244505107403 3376.0694366395473 71.636532664299011 951.20522025227547 554.60617291927338 869.77065560221672 1702.0869125723839 6319.1375441253185 72.340926617383957 126.37602770328522 5238.2177359163761 22.972501844167709 96.910896480083466 480.61324316263199 377.5683157145977 86.818791776895523 1339.5875771045685 359.66282084584236 1002.4946461319923 3382.2853587865829 526.71764358878136 31.989165306091309 232.63062137365341 190.2012745141983 408.75874701142311 117.02601757645607 115.6570346057415 761.32730183005333 2879.6721207201481 2113.7682740092278 4330.2360339164734 109.58788332343102 3699.3338302969933 2338.2856505513191 726.70082357525826 366.33150446414948 22.823626667261124 67.919569849967957 651.67436182498932 1166.4048593342304 548.46179738640785 315.84555220603943 2956.6397417187691 84.273714572191238 143.96272909641266 2408.2514182627201 339.87683779001236 22.966188907623291 43.827613204717636 108.09738123416901 97.332270264625549 50.030909478664398 191.85117334127426 4637.7668583095074 76.387027472257614 98.548169434070587 30.813071072101593 969.49720057845116 145.52670511603355 353.40498945116997 219.75022423267365 23.301639884710312 378.14470061659813 724.03843587636948 125.29427352547646 264.32203632593155 62.187973856925964 23.253417700529099 82.116519153118134 3808.1468350291252 769.80124938488007 3164.616751730442 104.52508497238159 62.71000063419342 39.781512349843979 99.114209771156311 315.27530324459076 83.611229866743088 243.43974590301514 70.412216246128082 10477.542851388454 48.242657035589218 257.63879951834679 310.55847743153572 74.319963485002518 789.38978108763695 167.70047295093536 6039.8177201747894 3825.0815732777119 319.95250111818314 511.19782918691635 270.41433504223824 874.52974465489388 2545.5712464749813 73.466694355010986 1318.3401983380318 909.27335640788078 20.198939591646194 487.27350953221321 318.29839366674423 68.91119259595871 28.039508819580078 3321.7660455703735 3234.257767021656 535.1137315928936 25.125488638877869 549.52671706676483 854.48774349689484 55.984677582979202 97.520950376987457 53.263546139001846 3548.2892840504646 238.54668885469437 61.536010712385178 2945.6770024001598 446.51720893383026 811.53216123580933 869.11869245767593 840.32043156027794 461.95530915260315 180.2957456111908 1951.1032433509827 80.282148838043213 38.286801636219025 431.55712193250656 24.328858941793442 7102.6288002133369 984.66262519359589 252.04345282912254 108.56487289071083 90.328135669231415 2741.7529371678829 50.827539175748825 25.976653456687927 20.337293207645416 323.35084745287895 19.446323454380035 100.90456652641296 264.13335621356964 35.65790593624115 1954.6709769964218 684.97183904051781 595.83435079455376 1618.9242355525494 65.95105454325676 145.09480977058411 45.515212655067444 690.31327193975449 17.846751123666763 35.930404543876648 80.139586597681046 241.70602858066559 24.844572782516479 237.48580080270767 271.15222099423409 131.91263064742088 22.215677082538605 31.144313424825668 257.90708950161934 71.821004152297974 290.3512975871563 671.70776873826981 4525.6142509877682 1250.9449365735054 3904.5437679886818 1593.3145977556705 247.05816003680229 134.89784345030785 115.84361040592194 24.423198997974396 45.146269679069519 354.5076097548008 89.110132187604904 18.180097788572311
leaf_count=113 15349 101 799 561 6043 82 231 209 1147 108 116 313 3119 18759 3018 8470 1412 2598 1197 1587 5382 3629 3414 895 139 247 7030 396 2446 5185 88 314 5664 288 11499 4393 29740 272 130 3132 1616 3197 66 5176 193 245 3024 2288 1602 75 1254 371 564 580 1740 251 118 580 5224 1186 376 1724 96 3549 365 1069 69 2481 1743 1031 1081 1377 221 2073 542 6708 155 7000 4071 694 393 1322 12822 930 137 2924 83 1063 7408 440 840 82 6730 5785 173 2759 1214 1646 3022 10187 176 226 8821 45 223 1079 729 156 2386 732 1851 5713 1064 81 496 457 809 215 250 1530 4939 3512 6664 289 7193 4180 1481 758 90 198 1344 2160 878 836 5262 198 433 4233 739 81 105 213 232 105 428 8017 150 266 88 1624 358 775 518 44 926 1388 231 667 188 51 172 6273 1177 5384 217 159 131 254 872 224 494 187 13739 119 456 703 146 1760 402 9557 6446 731 1130 496 1306 3689 188 2687 1759 50 1153 784 171 93 5657 5145 1155 95 969 1701 188 228 162 6946 526 154 6140 953 1715 1612 1290 817 398 3338 181 79 1043 82 10745 1703 473 227 243 5149 118 65 65 647 54 228 671 63 3896 1200 1135 2920 168 409 129 1559 64 117 190 465 89 680 576 276 73 75 534 193 432 1266 8954 2179 7015 2638 495 404 258 80 89 919 221 39
internal_value=0.558892 0.552949 0.556327 0.54496 0.563421 0.514703 0.55687 0.536621 0.570197 0.553789 0.500693 0.527186 0.543777 0.561433 0.56245 0.57382 0.527177 0.546516 0.533919 0.585568 0.562485 0.546304 0.559525 0.508684 0.510376 0.502564 0.545956 0.523256 0.529649 0.529035 0.48322 0.502789 0.5494 0.499293 0.571435 0.559057 0.586578 0.51883 0.474681 0.559244 0.557963 0.569807 0.547837 0.544035 0.521066 0.502611 0.565564 0.543451 0.546697 0.534508 0.542384 0.531003 0.495904 0.521254 0.536757 0.541794 0.496833 0.506594 0.525278 0.539283 0.52334 0.551064 0.502086 0.531962 0.48993 0.539737 0.488721 0.53901 0.56808 0.560213 0.56259 0.558298 0.480251 0.564605 0.514962 0.556045 0.464277 0.581945 0.572122 0.533767 0.508115 0.515095 0.583291 0.53042 0.50887 0.545564 0.529846 0.531405 0.565535 0.558057 0.54175 0.508132 0.546747 0.561082 0.461907 0.459308 0.530766 0.542365 0.545953 0.567186 0.510907 0.532461 0.559047 0.50149 0.498515 0.5037 0.556093 0.518295 0.544437 0.516457 0.538043 0.555523 0.522897 0.535308 0.547637 0.514675 0.534824 0.521452 0.495134 0.542984 0.562227 0.572244 0.570994 0.470071 0.542727 0.547211 0.540204 0.52846 0.453692 0.492561 0.539197 0.543918 0.557733 0.488629 0.549629 0.485349 0.47794 0.551856 0.510409 0.450745 0.472685 0.512595 0.494266 0.48519 0.535837 0.555242 0.513108 0.504646 0.518539 0.552694 0.517203 0.50687 0.501262 0.485273 0.483182 0.53874 0.520388 0.494694 0.484858 0.463035 0.527448 0.559619 0.564577 0.555599 0.515917 0.491966 0.468441 0.468062 0.480137 0.509782 0.513199 0.515998 0.588606 0.469833 0.539196 0.505864 0.510886 0.514149 0.514816 0.565998 0.564251 0.503564 0.513967 0.536961 0.569107 0.576008 0.474085 0.536463 0.538514 0.426027 0.509314 0.490852 0.49772 0.477176 0.565279 0.563594 0.532003 0.449311 0.546567 0.530484 0.493373 0.482476 0.429534 0.536767 0.525907 0.523928 0.526343 0.517255 0.522617 0.558066 0.555138 0.559051 0.541693 0.554835 0.49257 0.524772 0.493181 0.46895 0.572443 0.569568 0.529547 0.508792 0.49476 0.547131 0.466622 0.447764 0.489942 0.54582 0.428084 0.532025 0.502011 0.512206 0.534698 0.548177 0.550899 0.546944 0.537266 0.459557 0.500112 0.518601 0.468392 0.476128 0.490526 0.529496 0.465275 0.459462 0.518756 0.51382 0.493342 0.474015 0.519733 0.50394 0.562878 0.536021 0.537688 0.553427 0.554275 0.557813 0.552341 0.491744 0.488617 0.494956 0.489098 0.492649 0.474955 0.462825
internal_weight=309635 253224 232669 89414.4 143254 20555 72844.6 45986.7 70409.5 43427.7 9680.98 10874 26154.8 50869.7 22444.5 47965 19832 19157.8 7968.42 56411.4 48276.3 21975 24269.8 2905.58 6224.99 1387.4 23639 2515.81 6761.07 18444.6 3455.99 2442.79 16585 2270.94 37089.5 17958.6 52464 2273.38 2118.68 28589.2 22010.5 29301.2 20214.5 16849.2 2625.2 3599.78 10705.6 8584.95 6289.37 2295.59 4915.83 1453.87 1242 5052.36 5389.92 2593.33 1337.31 2921.96 3733.09 2423.3 4166.44 11629.5 768.086 13392.2 1020.97 2594.63 1364.91 4798.07 8448.36 16071.4 13956.6 5392.38 548.359 6974.5 1442.17 14632.6 1208.8 10875.5 3947.33 10692.4 693.64 906.03 20036.2 5783.95 630.882 10256.6 2133.44 1267.46 6423.8 1762.66 668.792 350.156 11585.2 4267.27 1151.77 1080.13 1337.22 5756.24 3568.13 19687.1 1287.98 198.717 14221.4 306.041 1479.79 1055.53 2257.22 591.857 7836.64 2032.99 5264.04 10984.1 1191.38 3445.2 1125.11 664.666 3424.47 710.525 1023.47 2060.88 5606.9 18595.6 14531.3 137.204 6497.05 6063.64 1684.99 3124.1 153.357 301.854 1945.43 1293.76 1207.35 909.877 4500.37 424.262 327.351 5939.06 597.813 99.1058 66.7938 505.039 921.866 462.638 4261.54 5565.89 1673.33 662.209 1011.12 5658.46 573.394 1089.26 735.86 677.823 654.521 782.616 391.786 574.916 326.51 974.459 1505.3 13672.5 2308.61 6328.43 127.353 480.636 102.492 243.077 412.608 1319.26 1087.78 1004.17 32427.9 341.436 783.839 396.941 238.966 820.203 265.463 16184 10144.2 459.228 561.975 503.045 1850.04 4485.83 97.7956 2188.11 942.061 105.676 563.661 395.002 257.936 96.9507 8564.21 6556.02 2521.77 64.7708 958.285 1266.33 470.397 250.647 76.0872 4069.69 521.401 427.868 3359.16 636.718 911.917 9864.36 4626.14 3576.73 1049.41 2736.41 195.505 2699.78 747.403 68.907 12417.5 5314.9 1739.49 237.18 128.615 3461.96 153.126 81.9613 71.1648 785.306 44.5718 226.199 530.252 266.119 1986.66 1299.55 4688.96 2280.71 661.785 173.885 164.646 933.753 162.474 144.627 108.697 480.253 310.573 262.33 316.34 208.245 76.3325 53.36 411.845 153.938 1219.58 2424.79 4908.5 7601.84 6995.86 3091.32 1498 907.816 782.109 539.921 424.077 399.654 242.188 153.078
internal_count=528102 450362 404156 167792 236364 46206 126048 91004 110316 76788 23429 22777 49460 85174 37299 73017 41544 35584 16032 77740 80208 40874 41204 6745 14323 3327 44070 5390 13957 38217 9106 5850 30218 5536 57547 30592 71650 4994 5805 48636 37790 46048 37219 31809 5695 8628 17381 16268 11667 4601 9379 2976 3080 10950 10656 4966 3301 6858 7906 4715 8923 20951 1847 27267 2607 5034 3505 9353 13455 27149 23169 9235 1466 11405 3236 25467 3467 15470 6090 21533 1614 2031 28171 11885 1462 19170 4398 2588 10431 3023 1280 814 21485 7162 3337 3164 2741 10984 6651 31572 2954 402 24227 739 3622 2514 3926 1303 14755 4525 10324 19187 2557 6872 2073 1493 6851 1537 2548 3916 9332 28667 22624 385 12369 11210 3259 6494 461 762 3787 2443 2075 2338 8186 1108 885 10641 1374 302 186 1147 2305 1209 8473 9741 3793 1569 2224 10080 1270 2552 1777 1770 1726 1527 852 1435 855 2810 3147 23196 3775 11048 283 1216 290 687 1104 3044 2464 2240 43479 957 1525 934 547 1848 595 26190 16633 1096 1267 992 2922 6707 270 4333 1841 354 1303 1005 635 264 13934 10802 5132 199 1778 2600 1182 664 252 8045 1099 912 7070 1410 1960 16923 8102 6092 2010 4802 494 5734 1879 195 19112 8367 3592 549 322 6403 436 253 183 1464 149 459 1276 605 3977 2386 8456 4223 1303 510 401 2053 459 395 278 991 888 769 694 469 193 148 899 365 2019 4815 9648 13474 12327 5312 2674 2298 2010 1346 1088 1008 664 443
is_linear=0
shrinkage=1


Tree=1
num_leaves=267
num_cat=0
split_feature=27 2 24 2 2 24 24 24 24 2 24 23 24 2 23 23 24 10 0 24 15 21 23 0 0 15 10 2 2 2 24 24 2 2 2 10 24 29 23 23 10 29 2 2 2 2 23 2 2 2 24 29 0 2 2 2 2 2 2 19 24 0 7 21 2 2 2 29 29 2 2 2 24 2 2 23 29 23 21 24 3 19 2 2 2 2 21 10 2 21 0 0 0 22 24 19 2 2 21 23 5 2 0 0 29 29 0 0 24 2 2 2 2 12 2 2 8 15 0 19 10 20 29 10 24 12 20 2 2 2 2 2 0 19 2 2 2 0 2 2 2 29 2 2 19 6 24 3 23 2 19 3 29 26 19 2 2 26 6 24 19 0 10 2 22 2 2 2 10 19 29 29 2 2 2 23 2 2 2 10 21 10 2 0 2 2 9 5 19 19 2 2 2 2 2 2 2 29 19 2 2 22 2 2 2 2 6 2 2 10 2 4 1 9 22 19 2 2 10 3 2 2 2 56 2 2 5 2 24 29 20 2 19 2 2 2 0 7 10 19 9 12 0 22 3 5 4 29 20 4 2 2 24 2 3 8 29 2 2 19 2 6 9 10 1 8
split_gain=13879.4 9052.1 6568.92 2056.14 1572.89 1205.57 873.496 745.894 724.313 619.523 454.164 387.609 272.37 214.597 207.183 193.348 191.465 178.952 177.175 170.841 203.912 169.999 169.376 150.969 141.246 122.664 112.289 108.884 107.427 131.864 100.572 92.4004 91.1606 87.4604 82.3504 76.953 76.3113 75.7946 74.8728 73.4789 72.4886 70.1137 68.6948 78.3748 112.973 88.1223 66.9909 65.344 75.7752 63.4686 61.9582 61.5511 60.3563 58.2335 57.6291 57.0316 104.759 90.0459 61.4131 54.6444 54.4416 49.8536 49.0503 48.8149 47.5595 124.635 72.8987 46.4977 46.2648 46.1151 120.673 55.2912 44.6036 44.3618 72.7882 44.236 43.8711 43.0294 42.1648 41.6186 41.5277 40.0719 39.4292 57.2798 59.5509 38.7971 38.7315 38.0634 37.2476 36.6512 36.5407 36.0759 34.6962 40.462 34.5672 34.3317 33.7041 33.288 33.2733 34.0858 33.1663 33.1452 32.5969 32.378 39 31.2646 30.6799 29.6161 28.1314 28.0781 60.3984 30.4846 39.9497 27.7154 27.5676 77.7749 26.9572 26.6879 47.1161 26.6404 28.6069 28.7237 26.286 25.6993 25.4349 25.2753 24.9629 24.631 79.5356 49.4544 38.4894 48.0889 24.5582 24.2685 24.1138 28.0027 45.4555 24.0812 24.0685 68.8722 63.7006 23.9946 23.3788 48.1428 23.1682 23.7175 22.8417 27.7585 26.4665 22.7955 22.595 22.5594 24.3963 22.4816 22.3146 22.3063 34.0441 22.0669 21.914 21.8082 21.4333 26.5457 21.0519 21.0269 21.0082 20.77 50.1515 37.0552 26.968 24.7267 23.9474 34.6532 22.6493 25.9816 37.2488 21.5566 20.7058 31.5908 20.6074 20.5706 20.3649 20.3409 26.4528 20.3243 20.2651 21.2549 20.1831 20.1491 20.126 20.0777 20.0753 64.7235 48.2807 68.4455 61.4288 27.387 37.693 21.537 20.0602 20.4739 24.3988 42.0219 21.3197 21.6932 20.0089 19.9051 19.7718 19.7045 33.0734 28.3874 20.7288 19.6911 19.6482 19.5379 19.2 20.6864 19.167 21.0274 18.9898 18.9527 18.9413 18.8493 36.4495 19.5848 19.3433 18.7488 18.7431 18.7102 19.8154 18.71 19.0646 18.5762 18.5493 18.479 39.8041 43.5908 18.4192 18.3455 18.2431 18.2422 18.1383 18.0741 21.3152 32.9718 21.0793 20.6221 21.2875 18.1332 19.6482 17.9687 17.8147 17.8102 17.7745 17.755 17.6389 17.6099 20.5907 17.5815 17.4025 17.3699 17.3679 18.5591 17.3006 17.2985 17.6349 17.1316
threshold=26.500000000000004 132.50000000000003 1239.4000000000003 75.500000000000014 75.500000000000014 1419.1500000000003 850.35000000000014 1681.6000000000001 1618.3000000000004 196.50000000000003 883.55000000000007 0.64440905388471192 936.05000000000007 132.50000000000003 0.65772083333333342 0.65646381578947388 642.9000000000002 61.500000000000007 67.500000000000014 682.80000000000007 1.0000000180025095e-35 1.0893000000000002 0.62274354636591489 71.500000000000014 68.500000000000014 1.0000000180025095e-35 68.500000000000014 56.500000000000007 60.500000000000007 63.500000000000007 1246.7500000000002 1118.7500000000002 56.500000000000007 60.500000000000007 59.500000000000007 67.500000000000014 1358.3500000000001 4.863673427408628 0.68609166666666677 0.61810789473684224 66.500000000000014 4.8559213341406453 56.500000000000007 60.500000000000007 63.500000000000007 59.500000000000007 0.71190347744360916 67.500000000000014 65.500000000000014 63.500000000000007 1001.2000000000002 4.9089648320872419 28.500000000000004 59.500000000000007 64.500000000000014 56.500000000000007 60.500000000000007 59.500000000000007 63.500000000000007 0.50041666666666684 1078.1500000000003 29.500000000000004 0.77500000000000013 0.66335000000000022 67.500000000000014 65.500000000000014 66.500000000000014 4.9380581778699986 4.9522934739897151 67.500000000000014 65.500000000000014 66.500000000000014 1198.6500000000003 67.500000000000014 65.500000000000014 0.61361453634085217 4.6491756246494491 0.67276889097744375 1.1943000000000001 1104.0500000000004 7.9500000000000011 0.50041666666666684 31.500000000000004 45.500000000000007 43.500000000000007 86.500000000000014 0.65380000000000016 57.500000000000007 170.50000000000003 0.38205000000000006 48.500000000000007 66.500000000000014 23.500000000000004 0.74759649122807037 1099.6000000000001 0.61291666666666689 56.500000000000007 55.500000000000007 1.2391500000000002 0.64171995614035104 7.4500000000000011 36.500000000000007 41.500000000000007 49.500000000000007 5.0594204191876377 4.0689902272260703 28.500000000000004 71.500000000000014 1441.9000000000003 31.500000000000004 45.500000000000007 43.500000000000007 36.500000000000007 39.500000000000007 94.500000000000014 86.500000000000014 115.50000000000001 1.0000000180025095e-35 27.500000000000004 0.56791666666666696 58.500000000000007 0.27692857142857147 4.1026092131977068 77.500000000000014 1115.7000000000003 56.500000000000007 0.37360714285714297 94.500000000000014 86.500000000000014 83.500000000000014 82.500000000000014 80.500000000000014 27.500000000000004 0.64791666666666703 60.500000000000007 65.500000000000014 67.500000000000014 27.500000000000004 83.500000000000014 82.500000000000014 80.500000000000014 5.040188859666439 79.500000000000014 78.500000000000014 0.617916666666667 22.050000000000004 585.70000000000016 6.4500000000000011 0.65172500000000022 66.500000000000014 0.62375000000000036 6.2500000000000009 5.0336952619030333 5283.7500000000009 0.62625000000000031 32.500000000000007 34.500000000000007 3797.5500000000006 21.350000000000005 1168.45 0.53208333333333357 20.500000000000004 70.500000000000014 68.500000000000014 0.86905263157894752 82.500000000000014 80.500000000000014 94.500000000000014 75.500000000000014 0.50041666666666684 4.6200466650627661 4.5485858369352732 93.500000000000014 83.500000000000014 86.500000000000014 0.59597252506265674 94.500000000000014 86.500000000000014 37.500000000000007 56.500000000000007 0.80975000000000008 57.500000000000007 169.50000000000003 52.500000000000007 26.500000000000004 18.500000000000004 80.500000000000014 5.8500000000000005 0.46375000000000016 0.65958333333333352 94.500000000000014 86.500000000000014 83.500000000000014 82.500000000000014 80.500000000000014 92.500000000000014 89.500000000000014 4.6586997221347959 0.48875000000000018 98.500000000000014 97.500000000000014 0.89538596491228095 102.50000000000001 101.50000000000001 37.500000000000007 95.500000000000014 23.650000000000002 212.50000000000003 303.50000000000006 57.500000000000007 341.50000000000006 6.0500000000000007 3.5000000000000004 74.500000000000014 0.87226315789473696 0.48375000000000018 45.500000000000007 43.500000000000007 63.500000000000007 6.9500000000000011 134.50000000000003 142.50000000000003 134.50000000000003 1.0000000180025095e-35 159.50000000000003 134.50000000000003 5.5500000000000007 67.500000000000014 585.70000000000016 4.6586997221347959 0.48375000000000012 102.50000000000001 0.53958333333333364 83.500000000000014 82.500000000000014 80.500000000000014 43.500000000000007 0.76500000000000012 69.500000000000014 0.53625000000000023 76.500000000000014 55.500000000000007 47.500000000000007 0.76096491228070196 7.4500000000000011 5.0500000000000007 7.2500000000000009 4.6959141240107813 0.39092857142857157 7.2500000000000009 405.50000000000006 88.500000000000014 1646.7000000000003 212.50000000000003 5.0500000000000007 100.50000000000001 4.7405652883788738 92.500000000000014 83.500000000000014 0.52375000000000027 32.500000000000007 21.550000000000004 83.500000000000014 63.500000000000007 1.5000000000000002 123.50000000000001
decision_type=2 2 2 2 2 2 2 2 2 2 2 2 2 2 2 2 2 2 2 2 2 2 2 2 2 2 2 2 2 2 2 2 2 2 2 2 2 2 2 2 2 2 2 2 2 2 2 2 2 2 2 2 2 2 2 2 2 2 2 2 2 2 2 2 2 2 2 2 2 2 2 2 2 2 2 2 2 2 2 2 2 2 2 2 2 2 2 2 2 2 2 2 2 2 2 2 2 2 2 2 2 2 2 2 2 2 2 2 2 2 2 2 2 2 2 2 2 2 2 2 2 2 2 2 2 2 2 2 2 2 2 2 2 2 2 2 2 2 2 2 2 2 2 2 2 2 2 2 2 2 2 2 2 2 2 2 2 2 2 2 2 2 2 2 2 2 2 2 2 2 2 2 2 2 2 2 2 2 2 2 2 2 2 2 2 2 2 2 2 2 2 2 2 2 2 2 2 2 2 2 2 2 2 2 2 2 2 2 2 2 2 2 2 2 2 2 2 2 2 2 2 2 2 2 2 2 2 2 2 2 2 2 2 2 2 2 2 2 2 2 2 2 2 2 2 2 2 2 2 2 2 2 2 2 2 2 2 2 2 2 2 2 2 2 2 2
left_child=1 2 3 6 8 9 19 15 14 12 16 27 78 30 55 36 25 31 21 20 54 40 80 46 68 61 41 50 34 -30 89 137 82 53 -29 77 85 81 60 213 181 119 94 45 -45 -44 96 48 -31 -35 214 88 253 -34 92 105 57 -57 -58 62 114 116 -54 225 65 -51 164 108 231 70 -46 186 -15 74 -60 254 95 207 87 150 90 123 184 84 101 233 -87 -3 221 -2 122 127 93 -1 219 -33 188 239 -37 162 -101 -84 117 104 241 -4 157 126 -17 -107 111 112 -111 -61 115 138 146 118 -89 120 -14 -122 -12 263 141 -77 -20 128 129 130 131 -38 -99 -39 -98 -136 -137 -11 139 140 142 -115 143 -24 145 159 148 -148 255 -50 151 -43 218 -139 -59 -96 -157 -56 -126 -105 161 -95 -100 -49 -67 166 226 172 170 175 171 180 173 -167 -175 -170 177 258 -114 -81 -169 -7 -183 -147 185 -16 236 -120 -10 -110 191 192 193 194 -62 196 251 -196 -192 200 -200 -202 203 -201 -103 -178 -149 -23 209 -209 -210 -140 -80 260 215 -8 217 -158 -153 -13 -53 222 -42 -223 -225 -28 -124 228 -159 -88 -231 -9 -171 234 235 -6 238 -94 -72 -41 -239 247 243 -243 245 246 -245 248 -65 -246 -212 -193 -32 -19 -36 -5 -257 -130 -83 -233 -21 -262 -181 -18 -265 -184
right_child=13 5 4 10 7 18 11 24 23 17 22 42 26 72 32 67 37 52 107 39 -22 35 38 -25 -26 -27 63 28 29 47 252 76 33 49 75 98 91 133 -40 97 51 79 43 44 69 -47 -48 163 149 64 -52 220 59 -55 106 56 58 154 73 113 190 -63 -64 103 -66 66 -68 -69 -70 -71 71 -73 -74 -75 -76 125 -78 -79 212 179 -82 176 83 -85 -86 86 229 102 -90 -91 -92 -93 237 160 155 -97 134 132 99 100 -102 204 -104 144 -106 109 -108 -109 189 110 -112 -113 178 124 -116 -117 -118 -119 187 -121 121 -123 165 -125 158 -127 -128 -129 257 -131 -132 -133 -134 -135 135 136 -138 153 211 -141 -142 -143 -144 -145 -146 183 147 206 -150 -151 -152 152 -154 -155 -156 156 216 227 -160 -161 -162 -163 -164 -165 -166 167 -168 168 169 232 -172 -173 -174 174 -176 -177 205 -179 -180 262 -182 182 265 -185 -186 -187 -188 -189 -190 -191 198 195 -194 -195 197 -197 -198 -199 199 202 201 -203 -204 -205 -206 -207 -208 208 210 -211 250 -213 -214 -215 -216 -217 -218 -219 -220 -221 -222 223 -224 224 -226 -227 -228 -229 -230 230 -232 259 -234 -235 -236 -237 -238 240 -240 -241 -242 242 -244 244 249 -247 -248 -249 -250 -251 -252 -253 -254 -255 -256 256 -258 -259 -260 -261 261 -263 -264 264 -266 -267
leaf_value=-0.05186289976684913 0.079327496375130799 0.023779142081819533 0.02261473839816951 -0.01687386640560401 0.03328714049032401 0.053839366710130489 0.031502571115158091 0.055792879383127783 0.049714306337811827 -0.055324173714482214 -0.016334665282227753 0.054463331200919202 0.025332775327488455 0.057907283396559345 0.07143069613420043 0.043882019392421964 0.022264512991145669 -0.025501102594309915 0.031920443724224846 0.046101751395440808 0.061768059785782217 0.022043028714032492 0.030334814179877261 0.078841208214041725 0.069486638346570873 0.04944660950660907 -0.012268004179717844 0.031390539226882341 0.056622832278733305 0.037809969686269082 0.081134219265298138 -0.033970443238401891 0.052469095476169555 0.069003944931572275 -0.08132453438033449 0.0064367590482525168 0.044889672244983761 0.025906974778710415 0.043612684326703857 0.035115940316138676 -0.01106270182335667 0.017986696885156091 0.044703050338064571 0.065213481365501452 0.052792790705645888 0.013053003524076014 0.072516078148737478 0.055320200315814791 0 0.060997648861960539 0.049339518416255092 0 0.010920119369716635 0.029555746866926625 -0.054889213919346362 0.044421327055755661 0.064621534796351021 0.0025521252987358335 0.052998678610621193 0.0064996566650078686 0.037809012792918581 0.019905426714294884 -0.053727714604012509 -0.029579661471747717 0.060758029465318462 0.026985642350597281 0.042738238583651632 0.053422051844007154 0.06263508151049188 0.051451400828844911 0.015853209281880408 0.031848115806665356 0.071111566335938001 0.054742116665292447 0.026632693492325974 0.030661615464064668 0.016709586538868317 0.038727046195952318 -0.021026404050287942 0.05464260540593633 0.014002979544047252 0.019807259467088396 0.055569829761660597 0.066280610461077208 0.047351295705567384 0.04376152705893295 0.024119395336995943 -0.035481262102963207 -0.021390307848129401 0.074182940455416929 0.032110225626007308 0.054330011633771456 -0.015624806014751604 0.030585703374750913 0.063716014305328306 0.012820298333309431 0.055070511583488066 0.015954013944564836 -0.023470525004002277 0.0094722884136331353 -0.060080778776201431 0.074370148027556343 0.016372721189217648 -0.0013863121473347713 0.023642315870649272 0.063529188876013304 0.017776452353009849 0.056104296053814444 0.046948380067553259 0.045552077491756451 0.060695253263141041 0.04034503313950142 0.072019552036013942 -0.034307325342117743 0.024845741210889179 0.042440501298723524 -0.071663891369922669 0.041336841615232496 -0.014660010220038764 0.018871914861790171 -0.028735575983327551 0.0061070389299313329 0.013497382049817905 -0.015935851866081725 0.007454447006949398 -0.0062187693707086234 0.05371106553964005 0.039982570706756607 0.051787473777475862 0.023412940890861683 0.062100147520902489 0.020516278101650274 0.035258435367202356 0.044611725508398294 0.070492261137211423 0.042178067987081853 0.063645685636178465 -0.01768592418615628 -0.016601991138184377 0.053793683359173873 0.0014184933922114108 0.0026937253745243149 0.044679250144463008 -0.0088171982607808258 0.021001710956089919 0.0081671426009932487 0.0052517159940743859 -0.0049295054598499592 0.014261461998823749 0.021184728699088138 0.032308346514306155 -0.050272178165999278 0.02942566058398801 0.015353955743927096 0.045166913395461333 0.038271465874742151 0.056150515632764152 -0.079310221756242388 -0.020388872105294858 0.033477303509124388 0.018646587535392414 -0.01582374155740341 -0.081402809716713806 0.039688620446459516 -0.009544066481522671 0.050324162676883034 -0.0075070748118605812 0.028521371625842836 -0.040895040317900436 0.03499865376885445 0.027915155222154375 0.00084121269466045062 0.053364158626376251 0.0091969845681891243 0.032577475566654926 0.0045966555127517159 -0.018634111829267126 0.032180273560615431 0.05563353060546164 0.033047918581688568 -0.0041058256082371946 0.041827019587719068 0.0099378301826989774 -0.016888252734662487 0.073361402042808943 0.060712118315785414 -0.041833114621873731 -0.00038082269368835161 0.068678436677821419 0.054346881457841716 0.013356546028830808 0.045401508709654176 0.016673817921354625 0.060186061655425824 -0.020813012548995372 0.059930973068293772 0.033147514286942466 0.017288313744389223 0.030360504407378384 0.038307623333311044 0.016835191142541141 -0.064702575927863548 0.032836842899096774 0.062471602972637347 0.06260097303557606 0.015107657380048206 -0.047270517525307518 0.019570371224917393 0.036167689897071732 -0.017792078316049849 -0.0043398153395058882 0.017825511844337012 -0.068257656428882596 0.019614674863376778 0.052910681077401829 0.041787187416055784 0.060963473913809685 0.041944358829813774 -0.002074999391628635 0.047402414786111839 0.039708247063348169 0.02442798731423379 0.03517829923921631 -0.01102634936875892 0.027927831592684464 0.027014144551066408 0.032763217676274131 0 -0.0096730046683811324 0.03843557088872035 0.0046907120739611424 0.024304381470337311 0.0018198717917629272 0.016743347294118666 0.053107508529183875 0.0063666481556990742 0.026241689657360342 0.025748248252767735 -0.032564682984135347 0.045274556623462851 0.010096717596311887 0.03437336811077954 -0.04384061058041866 -0.062872437263347902 -0.089805179101721269 0 0 0.0032849362619316478 0.0063175709451687096 -0.0086060309648040342 0.028700712687907356 0.065893468333054803 0.084588085079614031 -0.090332386492945643 -0.017157275402363982 -0.062303882903074634 -0.021865917301742359 0.066060260170529198 0 0.04926092832226707 0.017617563117303586 0.032250736891120076 0.009276663918726882 -0.0046775759311922698 0.011589463745645925 0.037496594774654599
leaf_weight=39.187278032302856 11083.562617346644 140.70189766585827 96.238764747977257 190.28350053727627 912.81017437577248 358.89573113620281 964.97393029928207 3506.4016816169024 233.67700968682766 53.90299379825592 50.549557104706764 6543.8373088240623 242.44021584093571 1560.1462050080299 1297.6104426980019 4813.5270669311285 278.87365679442883 24.290743038058281 561.31559759378433 228.81756062805653 316.68687665462494 461.90866279602051 710.47440487146378 5609.1911931633949 5063.9543672055006 116.41596615314484 40.881645143032074 1545.3465469926596 1479.2763648331165 917.4452618509531 20827.811696827412 118.66496214270592 2209.0802488178015 2337.4133180081844 18.767944812774658 208.81617723405361 1377.0841143876314 1739.8957331031561 2644.5156337171793 949.02707040309906 64.958484560251236 223.08590444922447 1681.4234971255064 1713.0206401199102 903.23474916815758 364.96730682253838 8616.1759687662125 356.97685246169567 284.78830683231354 1306.3819045871496 8287.2835254818201 40.524265184998512 40.538587212562561 470.54076316952705 44.266263067722321 1621.9725771695375 1588.9808936417103 255.8065037727356 910.96072368323803 97.367539316415787 1365.891004472971 131.07758192718029 346.19503858685493 138.79050825536251 5342.6681474298239 80.66486956179142 547.84311532974243 7646.4535581916571 3207.557755947113 3832.6879881173372 42.266260176897049 417.44841384887695 2316.7760275304317 3846.4899298548698 596.08059585094452 140.19452890753746 644.95110602676868 267.18953782320023 375.12689244747162 147.50749625265598 1067.4364033341408 824.75667649507523 2491.024086996913 8507.111073628068 1242.3798037469387 2650.2613947689533 638.95993445813656 222.8961503058672 89.772413045167923 9953.4692615121603 2574.6659647077322 1153.9426840394735 40.241399347782135 52.48258675634861 2208.9189699143171 87.736137494444847 1317.9278441369534 277.41750022768974 53.2835723310709 102.47615887224674 28.691480904817581 669.22469174861908 172.39842362701893 100.65727800130844 139.73108521103859 2382.7955218404531 115.72191739082336 738.16626730561256 3289.381369009614 1508.2952168732882 5103.5797377377748 761.12707898020744 343.27435351908207 766.23928932845592 3062.1648840755224 1548.6632871031761 30.79538831114769 32.22262254357338 595.52030800282955 1473.7062316983938 84.248579904437065 989.05118224024773 361.12866118550301 143.7174926251173 99.563597649335861 101.84401758015156 293.63907986879349 4685.3819927871227 1544.2057482302189 534.28445792198181 333.3294382840395 356.27434821426868 1665.3151929974556 289.22613875567913 1905.3360452055931 405.00963029265404 2973.8753641843796 751.63181442022324 61.344855427742004 299.41155433654785 351.65887001156807 56.646672308444977 281.69173492491245 116.71510103344917 349.35824374854565 190.24230894446373 263.45302498340607 86.934146285057068 46.318925783038139 384.68781983852386 160.78905817866325 50.508753210306168 36.783654794096947 71.226333230733871 50.02426965534687 359.89050643146038 2386.4823857098818 23.382865116000175 795.10660065710545 126.46014747023582 299.58723728358746 172.83927217125893 44.157859399914742 3389.1962195038795 142.37559503316879 197.47024813294411 223.34585097432137 503.60979862511158 52.888842016458511 115.92623649537563 1697.9624619632959 333.06329476833344 171.05628396570683 311.28658673167229 986.45448473095894 88.739401146769524 56.908452093601227 747.38800920546055 2560.9789276868105 1095.9657618254423 65.610613033175468 1135.8445906490088 184.2020580470562 234.84109796583652 2236.8270737826824 1730.4671194404364 38.21704027056694 762.30412673950195 10026.022103741765 2504.233217716217 186.4322794675827 543.66059209406376 521.18835277855396 352.16508269309998 54.457892417907715 449.42303639650345 743.8629374653101 353.3513768017292 451.81663481891155 528.71601164340973 129.40137279033661 24.750481992959976 2200.1525853127241 191.03236785531044 4543.4664022922516 1683.222236558795 72.657110407948494 92.597973734140396 137.34167873859406 231.45469045639038 145.93334156274796 364.96445263922215 34.593012675642967 896.09388257563114 437.52959105372429 3021.5491577386856 3056.6350042670965 488.16790114343166 69.541029989719391 1943.9436620026827 591.42898961901665 149.46945753693581 304.67684726417065 184.90423226356506 54.113355055451393 370.54912185668945 363.84376493096352 184.98643077909946 42.990445479750633 1244.6826246380806 66.021673753857613 119.7978198826313 122.15813100337982 371.12699513137341 252.39628939330578 268.53002148866653 74.032525703310966 1130.1640879809856 58.847326248884201 2375.3860652297735 346.8427961319685 44.506273314356804 86.047161236405373 42.941503003239632 23.959812313318253 176.55586759746075 32.491772279143333 491.95820985734463 72.092621147632599 19.910861358046532 81.914029210805893 243.89505711197853 9453.5973016768694 69.173505485057831 96.156631857156754 96.787450358271599 93.586065068840981 447.50032170116901 188.00212231278419 1266.5679665505886 443.48416617512703 1105.0950149893761 126.69160528481007 335.82747088372707 602.18903191387653 145.39141850173473
leaf_count=120 15571 293 201 495 1799 616 1923 5942 412 167 132 11197 501 2602 1948 8864 587 67 1115 414 512 974 1426 7913 7727 205 105 3083 2491 1757 28798 334 3833 3580 65 480 2518 3590 4878 1849 165 481 3078 2704 1563 809 12827 606 680 2129 14704 97 90 948 137 2975 2519 600 1574 223 2617 279 1057 383 8727 164 1015 13183 5165 6700 91 829 3488 6568 1223 280 1404 508 994 251 2358 1763 4227 13318 2233 4885 1331 631 239 14612 5115 1975 105 104 3527 194 2244 605 144 231 91 980 375 243 291 3810 249 1247 5932 2745 8341 1433 512 2155 6358 2880 102 59 1529 3169 232 2282 799 372 227 252 504 8853 2693 1117 538 757 3243 529 2883 753 4751 1958 160 514 830 132 515 292 741 433 610 214 101 815 318 153 73 155 90 686 4033 80 2099 248 644 447 151 6416 357 347 554 1022 154 225 3461 789 294 705 1954 205 150 1484 4344 2165 161 2120 415 610 3306 2826 112 1823 15400 4288 412 990 1133 577 145 738 1467 765 906 1009 280 80 4351 307 7318 3697 217 197 265 604 357 788 113 1917 756 5642 4985 909 169 3494 1119 310 593 467 109 759 719 442 109 2375 152 248 287 806 435 617 151 2334 165 4333 782 86 253 137 85 422 78 1152 165 51 165 382 12669 244 251 307 250 701 447 2247 959 2193 286 821 1348 278
internal_value=0.0529349 0.0471702 0.050441 0.0386883 0.0585023 0.0105373 0.0453133 0.0501475 0.0630891 0.000749225 0.027679 0.0486655 0.00861523 0.0790426 0.0592122 0.045755 0.0156272 -0.0182228 0.0304374 0.0304782 0.0182029 0.0252134 0.0312447 0.0701666 0.0618474 -0.00626088 0.0140374 0.0429047 0.0378808 0.0412829 0.0800388 -0.00416629 0.0619619 0.0579086 0.0256376 0.0111901 0.0412702 0.019228 0.0345494 0.0348068 0.0330551 0.0194034 0.0533878 0.0492524 0.0521668 0.0391138 0.0682523 0.0370065 0.0270149 0.060484 0.0463401 0.0234149 -0.0287573 0.048488 0.0126222 0.0547372 0.0510748 0.0390029 0.0544105 -0.0267545 0.0329585 -0.0127827 -0.0466587 0.00459101 0.0577845 0.0500817 0.0314348 0.0498854 0.0570575 0.0479811 0.0392363 0.0196447 0.0658275 0.0513583 0.0426458 0.000415047 0.00924435 0.017723 -0.00847348 0.0279468 0.0249052 0.0152801 0.0641759 0.062783 0.0594442 0.0362306 0.0391053 -0.0048363 0.0130802 0.0768989 0.0263072 0.0443534 0.0165262 0.00409603 0.0556027 -0.0135343 0.0660668 0.0387979 -0.00973411 -0.0249982 -0.00488957 0.0613796 -0.00715509 0.00123501 -0.00480911 0.0572749 -0.00685661 0.0472858 0.0473251 0.0575294 0.0561272 0.0515989 0.0535142 -0.0224504 0.0290515 0.0324692 -0.0177759 -0.00974013 -0.0108535 0.0135101 0.00741849 0.00326614 0.0236403 0.00677204 -0.0241574 0.0146774 0.0395382 0.0431002 0.046256 0.0394765 0.0435742 0.0399456 0.0325602 0.0286294 0.0626449 0.0645123 0.0611063 -0.0173171 0.0253538 0.0283772 0.0230886 -0.0316229 0.0298587 0.0246738 0.00900572 0.00240608 -0.0156885 -0.00586371 -0.0251571 0.0120518 0.014068 0.00604913 -0.0102111 -0.0146883 0.00989538 0.0583283 0.0564183 -0.0168821 -0.0171639 0.0175301 0.00849138 -0.00451011 -0.0508985 0.0412087 0.00316236 0.0240218 0.0159429 0.0256463 0.0216908 0.00694582 0.0238005 0.0159314 0.032652 0.030206 0.0270566 -0.0115983 0.0185549 0.0230539 0.0576099 0.0333409 0.0245621 0.0408126 0.0375442 -0.00540931 0.0687716 0.0653432 -0.00370288 -0.00672684 0.0682577 0.0501661 0.0361289 0.0387941 0.0327655 0.0366573 0.0319211 0.0467927 0.0428623 0.0119222 0.0327757 0.0337703 0.0235876 0.00300162 0.0358446 0.0448802 0.064134 0.013939 -0.0249188 0.0127489 0.00635571 -0.00676634 0.0183087 0.0126057 -0.0252942 0.0269012 0.0406956 0.0393263 0.0575002 0.0537778 -0.0233009 0.0528596 0.037101 0.0173117 0.0267462 0.00804296 -0.00173229 0.0228357 0.0233231 -0.00973409 -0.0359298 0.0327174 0.0368221 0.0533776 0.0184517 0.0288408 0.0318931 0.0272638 0.00397725 0.021073 -0.0112095 0.0424089 0.0221496 -0.00843017 -0.0178187 -0.0109053 -0.018101 -0.0111267 -0.0362986 -0.0025729 -0.0167728 -0.0555548 0.00704477 0.0518931 0.0822163 -0.0747041 -0.0286359 -0.0302511 -0.0430243 0.0550519 0.0162066 0.0471864 0.0305109 0.0281334 0.0306774 0.00954704 0.00564513 0.0224395
internal_weight=305191 249995 229501 93377.4 136124 20494.4 58290.1 48254.7 87868.9 13741.3 35087.3 47540 9718.06 55195.4 56781.7 35090.4 8018.32 4023.23 6753.07 10750 2809.38 5159.95 27069 31087.2 13164.3 1128.31 7382.29 21426 8714.68 6812.37 51318.4 1728.11 35155.1 12437 1902.31 1855.77 16836.8 6890.01 17781.8 7940.64 3304.18 4700.32 26114 9126.15 7079.75 2046.39 25478 5333.09 1586.92 9757.35 12711.3 1479.85 2295.12 2679.62 2492.69 21626.6 8870.32 1927.8 6942.51 2201.66 15137.3 1011.89 386.734 2681.98 7419.93 2077.27 770.884 18253.6 8100.33 5366.73 1534.05 630.812 3876.92 5353.53 1507.04 356.963 851.352 1418.34 2335.76 1910.87 9287.2 4860.89 22718.1 17453.2 8946.09 6404.79 4599.93 1926.04 847.895 21037 8219.76 10432 2081.34 564.096 16987.9 206.401 16861.8 5267.15 437.425 228.609 131.168 7703.72 1785.34 2270.54 1268.99 12756.3 411.348 1593.12 10607.1 12660.1 10277.3 5173.68 4412.55 1814.92 6797.09 3734.92 880.816 1612.94 1580.72 2789.45 1315.74 1073.3 5645.09 1360.61 1717.56 242.039 854.955 9278.06 4592.68 2600.97 2066.69 1733.36 1942.73 2029.12 6602.15 5284.22 3378.88 876.761 2186.26 1759.95 1460.54 822.886 1108.88 827.19 1001.56 652.201 850.02 423.044 426.976 669.476 540.708 379.919 156.833 822.858 305.831 8500.09 6291.18 295.626 894.67 227.117 524.909 225.322 97.4414 3746.17 223.04 5594.54 948.318 4646.23 2979.96 379.713 2600.25 902.284 1666.27 1495.21 1297.74 141.628 3500.28 1760.15 2904.25 1370.16 569.22 1824.33 1465.44 425.083 5264.9 3028.08 213.363 1357.82 10259.7 5793.61 8340.2 4627.9 2647.05 2125.87 1773.7 1980.84 1531.42 407.809 3712.3 3525.87 605.968 154.152 2919.9 719.748 5212.69 1740.13 159.591 1151.15 689.242 324.053 365.189 426.309 409.72 2673.49 4424.05 3986.52 5931.29 2874.65 120.05 8487.78 631.953 758.122 369.635 388.487 239.018 411.431 724.972 251.36 66.3733 1949.66 1310.7 4892.77 238.084 1804.86 1433.74 1181.34 175.146 1517.25 101.114 3324.41 1477.01 1129.25 426.413 340.366 295.86 251.989 75.4333 702.841 210.883 43.8707 227.847 787.556 30281.4 93.4642 114.925 380.657 190.374 1991.71 1012.76 1386.37 1777.4 1548.58 1222.66 1216.89 938.017 329.593
internal_count=528102 450362 404156 177981 226175 46206 106332 85148 141027 32645 71649 84754 22139 77740 93844 63819 17568 10506 13561 21578 6065 10695 54081 47183 21329 2780 16322 39721 16696 12765 71650 4212 56909 20753 3931 4167 31552 14788 34800 15513 6528 10080 45033 16202 12315 3887 39270 10274 3252 15972 23025 3099 6294 4781 5553 36935 15549 3665 11884 5983 29922 2575 1147 6242 12392 3665 1536 32267 13602 9611 2911 1348 6090 9365 2797 848 1932 3070 5817 3896 19281 10669 36156 28076 14758 12400 8743 4710 1883 30183 16923 19152 4536 1315 28831 528 26443 10030 1097 617 322 12525 4417 5378 3103 21386 1017 2866 19084 21185 17375 9034 7601 4836 13763 7405 2296 4042 3983 6184 3015 2514 11808 3128 4613 532 1619 17177 8324 4930 3813 3275 3848 4119 10631 8387 5504 2280 4525 3577 3063 2287 2233 1718 2275 1534 2194 1041 1153 1495 1194 876 395 2113 690 14140 10613 768 2326 491 1195 551 295 7022 521 11676 2072 9604 6304 871 5433 1972 3300 3006 2659 359 7541 3694 4856 2702 1183 3429 2813 1043 8080 4774 519 3352 15812 10220 16159 8814 5237 4104 3527 3577 2839 910 7345 6933 1266 360 5667 1316 8298 3847 431 2562 1588 801 787 948 1107 5483 8321 7565 9927 4942 322 14691 1216 1644 758 886 576 864 1518 631 189 3858 2527 8437 512 3657 2851 2416 407 3221 256 6182 3116 2812 1112 859 773 637 215 1700 548 136 522 1372 41467 311 316 1052 557 3394 2210 2495 3566 3152 2451 2756 2169 693
is_linear=0
shrinkage=0.0575182


Tree=2
num_leaves=267
num_cat=0
split_feature=27 2 24 2 2 24 24 24 24 2 24 23 24 2 23 23 24 0 14 10 24 27 21 0 27 24 2 2 2 10 24 2 2 0 24 2 21 2 2 2 2 2 2 2 2 2 10 14 24 23 10 2 23 2 14 2 2 14 2 2 2 0 2 23 0 14 0 21 2 2 2 13 24 0 23 2 2 2 12 10 14 23 2 24 2 2 7 24 2 2 23 26 2 13 2 11 0 26 13 23 2 21 21 21 23 5 0 14 2 2 3 2 2 2 2 2 2 2 0 2 2 2 25 11 2 2 2 2 2 24 11 2 2 5 24 25 21 18 25 8 13 24 10 22 2 2 2 2 2 2 14 2 2 2 8 12 0 11 3 6 2 2 0 21 2 12 26 6 23 10 13 18 0 22 2 2 7 25 13 24 26 2 6 22 9 12 18 10 0 13 10 2 13 24 11 3 21 24 13 18 26 20 2 2 2 2 2 2 10 2 2 11 2 22 8 2 2 24 2 2 24 2 24 14 22 14 13 11 23 2 4 2 18 13 2 2 2 56 2 22 22 12 25 20 18 23 8 18 13 5 3 21 26 23 21 13 5 8 9 13 23 14 6 14 8 5
split_gain=13068.1 8299 6112.55 1998.36 1376.97 1084.21 855.738 652.213 634.025 549.328 444.77 363.323 243.067 205.765 190.842 178.021 171.459 162.163 158.248 157.08 155.359 186.315 153.912 144.386 110.057 109.727 107.216 102.144 136.32 100.854 98.6779 93.7664 86.3828 84.4787 81.8612 80.3255 74.9172 72.798 76.7683 103.999 73.5561 71.4393 110.249 87.7537 74.5653 70.0854 68.7892 68.4718 67.6162 67.1156 66.1945 64.1564 63.6513 63.5008 63.3742 61.1585 78.4137 55.7544 52.5314 120.682 62.4188 52.3432 51.6407 48.1592 47.8274 47.3278 44.2839 43.631 42.9481 117.954 52.774 42.2014 42.1583 40.9632 40.0528 39.7185 66.1688 60.4457 39.5233 39.0432 39.0373 38.898 37.8182 37.6846 37.6305 61.3824 37.6179 36.5334 36.3421 34.5706 34.4487 33.5567 33.2236 32.6977 31.8317 31.7325 31.1427 36.5488 30.6058 35.7729 30.4889 30.3386 29.6498 29.4472 29.8011 29.0816 29.0778 33.3782 29.0135 45.1901 28.9429 28.9384 39.0546 30.4181 51.277 55.4499 28.8494 28.2174 27.3387 26.9801 28.1693 29.4701 26.8988 26.7332 26.0592 109.166 44.2369 67.5771 45.9038 26.0164 25.8542 25.0714 43.6689 24.6874 24.3945 24.2421 24.0952 23.673 23.5718 23.3477 23.7765 25.1862 23.3093 22.8746 22.6991 87.1894 57.2374 34.011 33.4128 41.6965 22.9742 22.6617 26.4233 42.4742 22.4206 22.3594 22.2524 22.1563 22.0464 21.5096 21.415 21.3571 21.2874 21.2838 21.2514 21.0241 24.6034 27.4265 21.2079 23.4916 20.9528 20.9392 20.9231 20.5384 20.3249 44.9672 20.3154 20.1842 24.7804 19.9652 19.9431 19.791 19.7815 19.6107 19.3604 19.2433 18.8584 18.8271 18.7626 19.3129 18.6709 24.047 18.6587 18.6421 22.3429 18.6381 18.6168 25.19 18.5331 19.1313 20.3359 18.4143 18.3532 34.44 18.135 21.6421 17.8393 24.6303 17.8116 17.7212 35.2621 25.643 18.7036 17.6545 17.6306 17.5895 31.4572 17.578 17.2817 23.3407 17.2518 17.2276 17.2181 17.1937 19.1639 25.7338 18.0467 17.1631 17.1585 17.1464 19.9254 17.0232 18.9377 16.9519 16.9015 16.8974 32.9186 17.5319 17.26 16.8616 23.6776 16.8509 16.8281 21.2446 16.823 16.7679 16.5452 16.5171 16.4927 16.4774 21.417 16.4343 16.4055 16.3868 17.0697 16.3827 18.7219 16.2715 18.5561 16.253 16.1159 16.0738 16.0366 16.023 18.6078 25.139
threshold=26.500000000000004 132.50000000000003 1260.2 75.500000000000014 75.500000000000014 1419.1500000000003 850.35000000000014 1734.1000000000001 1618.3000000000004 196.50000000000003 883.55000000000007 0.64440905388471192 936.05000000000007 132.50000000000003 0.65004489348370942 0.65129830827067681 642.9000000000002 67.500000000000014 138.50000000000003 61.500000000000007 682.80000000000007 1.0000000180025095e-35 1.0893000000000002 71.500000000000014 1.0000000180025095e-35 1481.0500000000004 56.500000000000007 60.500000000000007 63.500000000000007 68.500000000000014 1118.7500000000002 56.500000000000007 60.500000000000007 68.500000000000014 1118.7500000000002 59.500000000000007 0.63915000000000011 56.500000000000007 60.500000000000007 63.500000000000007 59.500000000000007 82.500000000000014 80.500000000000014 83.500000000000014 86.500000000000014 63.500000000000007 67.500000000000014 128.50000000000003 1001.2000000000002 0.61810789473684224 66.500000000000014 59.500000000000007 0.71190347744360916 94.500000000000014 127.50000000000001 67.500000000000014 65.500000000000014 134.50000000000003 67.500000000000014 65.500000000000014 66.500000000000014 28.500000000000004 64.500000000000014 0.69811998746867177 67.500000000000014 108.50000000000001 29.500000000000004 0.66335000000000022 67.500000000000014 65.500000000000014 66.500000000000014 83.500000000000014 1198.6500000000003 62.500000000000007 0.61810789473684224 31.500000000000004 45.500000000000007 43.500000000000007 50.500000000000007 67.500000000000014 103.50000000000001 0.67276889097744375 141.50000000000003 1104.0500000000004 92.500000000000014 89.500000000000014 0.77500000000000013 1099.6000000000001 36.500000000000007 95.500000000000014 0.71296723057644129 3430.8500000000008 170.50000000000003 78.500000000000014 56.500000000000007 188.50000000000003 23.500000000000004 4007.5500000000002 72.500000000000014 0.56007158521303269 55.500000000000007 0.38205000000000006 0.91160000000000008 1.2391500000000002 0.64171995614035104 7.4500000000000011 60.500000000000007 110.50000000000001 32.500000000000007 45.500000000000007 5.8500000000000005 102.50000000000001 86.500000000000014 83.500000000000014 82.500000000000014 80.500000000000014 192.50000000000003 75.500000000000014 28.500000000000004 31.500000000000004 34.500000000000007 33.500000000000007 2733.0000000000005 152.50000000000003 94.500000000000014 86.500000000000014 83.500000000000014 82.500000000000014 80.500000000000014 1131.7500000000002 197.50000000000003 94.500000000000014 101.50000000000001 5.8500000000000005 952.10000000000002 7956.5000000000009 1.2942000000000002 0.66735714285714309 5971.5000000000009 116.50000000000001 120.50000000000001 585.70000000000016 75.500000000000014 0.76096491228070196 56.500000000000007 60.500000000000007 59.500000000000007 63.500000000000007 67.500000000000014 65.500000000000014 57.500000000000007 60.500000000000007 65.500000000000014 67.500000000000014 101.50000000000001 59.500000000000007 27.500000000000004 185.50000000000003 6.8500000000000005 22.850000000000005 94.500000000000014 37.500000000000007 71.500000000000014 0.99415000000000009 66.500000000000014 39.500000000000007 5634.3500000000013 21.350000000000005 0.59808038847117817 65.500000000000014 69.500000000000014 0.65288095238095256 27.500000000000004 0.84556140350877207 92.500000000000014 89.500000000000014 0.88500000000000012 4059.5000000000005 78.500000000000014 1176.3000000000004 5283.7500000000009 68.500000000000014 21.350000000000005 0.86982456140350894 80.500000000000014 46.500000000000007 0.62283333333333346 56.500000000000007 43.500000000000007 101.50000000000001 57.500000000000007 169.50000000000003 84.500000000000014 817.40000000000009 171.50000000000003 8.5500000000000025 1.0361000000000002 1250.1000000000001 113.50000000000001 0.58402380952380961 4089.5000000000005 0.29726785714285725 88.500000000000014 87.500000000000014 26.500000000000004 18.500000000000004 34.500000000000007 43.500000000000007 70.500000000000014 223.50000000000003 303.50000000000006 188.50000000000003 341.50000000000006 0.87226315789473696 110.50000000000001 96.500000000000014 98.500000000000014 1180.6000000000001 47.500000000000007 49.500000000000007 1108.3000000000004 134.50000000000003 1029.4500000000003 158.50000000000003 0.86826315789473696 140.50000000000003 74.500000000000014 166.50000000000003 0.62648117167919815 58.500000000000007 5.5500000000000007 53.500000000000007 0.63764285714285729 91.500000000000014 134.50000000000003 142.50000000000003 134.50000000000003 1.0000000180025095e-35 159.50000000000003 0.82857894736842108 0.74759649122807037 54.500000000000007 5602.5000000000009 0.45667857142857154 0.65078571428571441 0.58374987468671691 109.50000000000001 0.63964285714285729 76.500000000000014 5.7500000000000009 6.3500000000000005 1.1943000000000001 4839.1500000000005 0.62218909774436104 0.78225000000000011 76.500000000000014 4.9500000000000011 124.50000000000001 80.500000000000014 132.50000000000003 0.61556281328320817 60.500000000000007 24.850000000000005 113.50000000000001 100.50000000000001 5.7500000000000009
decision_type=2 2 2 2 2 2 2 2 2 2 2 2 2 2 2 2 2 2 2 2 2 2 2 2 2 2 2 2 2 2 2 2 2 2 2 2 2 2 2 2 2 2 2 2 2 2 2 2 2 2 2 2 2 2 2 2 2 2 2 2 2 2 2 2 2 2 2 2 2 2 2 2 2 2 2 2 2 2 2 2 2 2 2 2 2 2 2 2 2 2 2 2 2 2 2 2 2 2 2 2 2 2 2 2 2 2 2 2 2 2 2 2 2 2 2 2 2 2 2 2 2 2 2 2 2 2 2 2 2 2 2 2 2 2 2 2 2 2 2 2 2 2 2 2 2 2 2 2 2 2 2 2 2 2 2 2 2 2 2 2 2 2 2 2 2 2 2 2 2 2 2 2 2 2 2 2 2 2 2 2 2 2 2 2 2 2 2 2 2 2 2 2 2 2 2 2 2 2 2 2 2 2 2 2 2 2 2 2 2 2 2 2 2 2 2 2 2 2 2 2 2 2 2 2 2 2 2 2 2 2 2 2 2 2 2 2 2 2 2 2 2 2 2 2 2 2 2 2 2 2 2 2 2 2 2 2 2 2 2 2 2 2 2 2 2 2
left_child=1 2 3 6 8 9 20 18 14 12 16 26 79 30 73 36 24 22 25 34 21 62 50 52 66 78 48 35 -29 54 101 75 51 90 172 -28 41 87 40 -40 229 42 133 -43 242 -34 81 93 213 170 190 -33 94 84 163 56 -30 92 59 -47 183 -21 96 124 111 257 139 234 69 -41 184 86 -15 119 220 204 77 88 -6 102 95 209 122 198 85 202 -63 185 -77 -55 -9 -84 235 186 248 -36 97 239 99 -91 192 -2 177 -48 208 -106 107 143 -89 206 -80 112 113 114 115 -27 162 -32 173 -4 121 -121 -81 -67 125 126 127 128 -17 -126 -53 -114 -133 -12 -130 -112 154 -98 -44 140 141 263 182 245 150 146 -146 -147 149 -149 -122 -96 -153 -154 -93 -49 -102 -94 -143 -160 -157 -90 -19 -14 260 -73 167 168 169 -167 231 -87 -11 -64 175 -127 -162 178 -3 -145 -174 -57 246 -61 188 -13 -18 -85 189 -71 -7 -192 -51 194 -104 -169 197 -165 199 -56 -201 -180 203 -46 205 -16 -110 -208 -105 -24 211 241 -212 227 262 -100 -217 -183 -78 -220 -37 -59 -42 224 225 226 -109 -8 -148 -39 -231 -22 -233 -72 -31 236 -52 -237 -239 240 -1 -211 243 -45 -195 249 -95 -158 -10 -69 -251 -202 -216 -193 -255 256 -198 -38 -259 -82 -58 -75 -99 264 265 -5
right_child=13 5 4 10 7 17 11 33 23 19 15 37 29 72 31 63 47 116 -20 61 49 -23 46 -25 -26 64 27 28 55 67 117 32 45 -35 80 74 65 38 39 68 222 43 138 44 53 58 103 155 -50 100 57 130 -54 89 83 181 164 221 -60 60 -62 71 118 -65 -66 123 -68 106 -70 70 233 165 -74 261 -76 76 218 -79 110 82 259 -83 91 187 -86 171 -88 108 161 98 -92 136 157 142 151 -97 137 214 215 -101 156 -103 193 104 105 -107 -108 223 109 -111 135 -113 131 -115 -116 -117 -118 -119 -120 120 144 -123 -124 -125 129 174 -128 -129 134 -131 -132 132 -134 -135 -136 -137 -138 -139 -140 -141 -142 158 -144 179 145 147 228 148 -150 -151 -152 152 153 -155 -156 160 247 -159 159 -161 176 -163 -164 196 -166 166 -168 195 -170 -171 -172 -173 180 -175 -176 -177 -178 -179 201 -181 -182 217 -184 -185 -186 -187 -188 -189 -190 -191 191 253 -194 244 -196 -197 255 -199 -200 200 251 -203 -204 -205 -206 -207 207 -209 -210 210 212 -213 -214 -215 252 216 -218 -219 219 -221 -222 -223 -224 -225 -226 -227 -228 -229 -230 230 -232 232 -234 -235 -236 237 -238 238 -240 -241 -242 -243 -244 -245 -246 -247 -248 -249 -250 250 -252 -253 -254 254 -256 -257 -258 258 -260 -261 -262 -263 -264 -265 -266 -267
leaf_value=-0.055754923634654126 0.075831378079413314 -0.029937698774474795 0.058466466838350772 0.0064121774002716255 0.04328679696436017 0.051526344730432182 0.030186341910237412 0.053281482888625852 0.051279272658402444 -0.05152289097276011 0.021972123267156307 0.055501454220372906 0.017178914042535111 0.055525881167340495 0.06897844604255586 0.034178897482668481 0.010574926596930812 0.042317425240483646 0.051041691810957017 -0.069454011641800886 0.023940187756640866 0.0593029079869049 0.020178608701021318 0.076151850331983559 0.047280138216561303 0.04658024246563397 0.030543641193235778 0.055074007990557144 0.036933269697269414 -0.011526488554847546 0.080190451089164935 0.050275907552061766 0.066563418753971232 0.067166210681698632 -0.035326370170990481 -0.038327543445196559 0.014818641945790995 0.047020078063219541 0.062187786145657252 0.050940407585543197 -0.0049134586037473159 0.053333843067561261 -0.0024596836660304845 0.015559611512758935 0.051423100261423917 0.057867125620962717 0.0060766738223366036 0.030512940958945869 0.047732367618500755 0.030384983520247232 -0.010396728105299914 0.0128176843180146 0.069879033210906716 0.0028743436621121556 0.029662791715361504 0.053174556091017303 -0.016236216756739773 0 0.058145868094707114 0.024536844281419497 0.040064587685923581 0.0097689645224454773 -0.029038366487413484 0.04541638126891015 0.05731082047364261 -0.0016248455751658995 0.018859862985084165 0.0013083601345605937 0.04941410910198827 -0.04959688304193019 0.0015087496796494621 0.0043883443742083403 0.068492466924974099 0.029837704389043374 0.016128535730228134 0.052753319765210013 0.070022132537512091 0.044918807226753926 0.040402383250213503 -0.050568951312486225 0.017687669047026681 0.03689459820612298 0.0053544608329923324 0.052296792705731329 0.051990221939287609 0.029555380662949375 -0.046897111892007751 0.061663182154065244 0.071698216860370562 -0.050386134992212332 0.063329173172211151 -0.0068597675468082256 -0.064536080450746228 0.00018618134033652196 0.052754088979204999 0.0090698274416882076 0.021110610819286175 -0.0025188739039792591 0.045865676069377928 0.017876833529641617 0.015102085756948123 0.069942602390453801 -0.038162418134693295 -0.021998706409108806 0.0089496900246870612 -0.055819413926586271 0.026981728487299034 -0.03210521455129791 0.037128613587667704 0.058840259491121871 0.032716086208253267 0.040068337691217315 0.055625147477817972 0.030141469569075825 0.064318670016718607 0.023485110746012238 0.032260450337712077 0.076509069529325999 0.01683535097445707 0.043934927587799037 0 0.0099159379721751838 0.0054793144038959287 0.026988357656994141 0.025636527114653758 0.053593374020240857 0.01527915302139328 0.056140771459517347 -0.028436149197408441 0.035889829986647068 0.040315258654585469 0.041499295249102917 0.071521600671054078 0.033924681127943931 0.017329320780863359 0.049867104002032162 -0.062970616272595759 -0.026056937358020466 0.025519452594805307 -0.06997146055060606 0.023514099753401685 0.0014058710158876902 0.0068474261782723502 -0.032545232058916691 0.038043536885262387 0.060839626262126204 -0.023176183200368489 0.048065304531377695 0.051566298232732018 0.021545350072202703 0.052778202836652799 0.067877097109765916 0.040237780259408461 0.061144518892820861 -0.03295390106026342 0.026466929629662236 0.037220063076743505 0 0 -0.050333575035522431 0.0075506425336202693 0.059910066549616926 0.05948502694528577 0.00035024535269228532 0.020015977992486004 0.0030773829532486801 0.0037377511153689103 -0.026612672648113234 0.022646610717504519 -0.031967466004841322 0.028001553895348984 0.0081972350591919506 -0.016596422712020855 0.00071029008387346257 0.058488031732093715 0.033598377911748196 -0.051682723583645097 0.026767404259435589 -0.030121992811003966 -0.0075841560257643367 0.014529267092945415 0.03595271419275755 0.021006753693888627 -0.0079425224377702771 -0.038096859496971051 0.04875629715663149 -0.0061787582080809018 0.02916139258452281 0.024604517142524054 0.0037348328719198367 0.039889176114983341 -0.0020723807976608076 0.042574189798979652 0.0030088405247993963 -0.007329931012904958 -0.068973052882364633 -0.056842481243770546 -0.053979771109554972 0.032670631552962695 0.025209746115225147 -0.0016342848377399722 0.012465200623754719 0.057267453024477735 0.027011861919756061 0.070387019577845517 0.058348786712628033 0.053290261077961421 0.039124374943136683 -0.075345493318070528 -0.0089389044775462743 0.034420600356884462 0.0053726328335081727 0.0066264719376028167 0.050633014220078439 0.0020900093043574163 0.015006332378689391 0.031744753349000385 0.046785909462351588 0.055642546646658943 0.064344942587978446 0 0.037839865455218294 0.021800837786748184 0.023818627675803818 -0.0050282585623319786 0.052867320907994203 0.0089065186574539025 0.039731368046906065 0.014741707075690415 -0.0084409382771022633 0.03661195223775518 0.0097779172587618528 -0.035608815547530981 0.035557187534412907 0.025644058620156011 0.023173943659475536 0.03347349693013596 -0.010362415781940915 0.026520809630862306 -0.069003026289188585 0.0034910872652549967 -0.054263975575551279 0.02760839258173995 -0.0086299829779294505 -0.048839068310596812 0.012188057518369717 0.021522890468483411 0.023366793488156627 0.06614719914505271 0 -0.077851333900252215 -0.04629715558533351 -0.059320829020515081 0.051497545342661794 0.017412871283680447 0.01204209994188153 0.00041346953553669021 0.035189646296955993 -0.0014584686591866001 -0.030102954645841236 0.010835533537330966 0.058839063937138551 0.023971670546089664 -0.01520810941288611 -0.057962075302336769 -0.048430143526485267
leaf_weight=29.709386751055717 7083.5025605559349 67.343272626399994 1298.3492524772882 50.793689146637917 4982.0629459172487 353.59538426995277 941.21949169039726 3998.2447801530361 324.97635255753994 54.532895773649216 1255.9900937527418 2266.4878911077976 1591.3448133915663 1534.2410746663809 1315.3598697334528 1469.5258882343769 668.27770587801933 601.55666068196297 9685.871719583869 94.795962333679199 264.80040204524994 311.04661300778389 507.39718183875084 5477.1304381340742 114.79691591858864 1599.8785657733679 1627.6639181375504 1550.4295463562012 962.59850865602493 41.006801694631577 24088.083384767175 2372.9917515069246 2464.218084603548 4560.094874933362 103.9737387150526 88.325501441955566 2652.7251263409853 1158.3111197203398 1821.7921141982079 980.79880018532276 99.847825780510902 625.46979294717312 595.22750717401505 501.13124553859234 436.15902368724346 1374.8374248594046 208.47944061458111 1566.475233912468 8909.1682732403278 579.46245917677879 65.139989167451859 243.20520249009132 8432.4411024302244 182.70489083230495 94.801367685198784 364.72852645814419 122.23011814057827 40.524265184998512 5707.5625931322575 103.13437560200691 581.65463177859783 39.422267839312553 169.48694530129433 1682.2411378324032 1322.0433727651834 103.57655870914459 130.40872268378735 74.037882164120674 4128.2172694802284 30.621604666113853 63.290201261639595 94.595507919788361 2268.438394010067 81.184564843773842 230.88765466213226 2620.9481188058853 1555.7554276287556 1314.9539043158293 4294.4913492649794 31.378391087055206 619.47235035896301 264.41288742423058 104.37461268901825 145.32506048679352 640.74095144867897 926.0258324444294 392.30339320003986 2529.7785552442074 698.18404249846935 26.866971150040627 1831.4553419649601 173.37156553566456 26.287265717983246 330.09876143932343 1297.2781110703945 103.09595702588558 1474.9539416730404 93.825556948781013 262.77186952531338 318.09082725644112 276.24725669622421 6444.5251625925303 125.77646799385548 53.57157726585865 102.23065188527107 29.094922006130219 135.7893378585577 36.899733945727348 415.25484111905098 3575.9549103081226 4956.9945928156376 2802.5415745228529 2208.3424279689789 598.58651627600193 411.24723535776138 467.08709660172462 454.60213901102543 12471.027995094657 115.18049232661724 299.25540648400784 29.244116961956024 130.44523938000202 289.09035886824131 3745.8341111540794 1858.9672626554966 821.99883718788624 572.63447499275208 377.30038805305958 40.514204561710358 1687.5912162810564 241.17759330570698 1343.1286823004484 196.87097457051277 1208.5012895315886 436.64949485659599 317.81413096189499 66.186416760087013 33.911072984337807 118.73249046504498 27.503994703292847 47.909609347581863 288.14544332027435 668.77433551847935 190.63371874392033 949.16522768139839 940.94815182685852 57.575003609061241 524.73087806999683 2265.6597095876932 345.3187662512064 5499.1346419751644 1866.0870554745197 400.26367753744125 2919.0941679775715 360.84929640591145 251.24188530445099 1205.6033214628696 63.956934854388237 48.735448315739632 63.617739409208298 174.59169374406338 4772.2414240539074 515.95583625137806 116.22990593314171 406.7764081209898 109.41396883130074 103.46182319521904 1245.1532477587461 57.027871638536453 134.46389049291611 2176.001508384943 200.28032521903515 754.80737647414207 127.1939335167408 485.60854412615299 768.13007013499737 21.425878271460533 147.19509260356426 36.143179684877396 274.58911946415901 70.949728891253471 2825.0992970764637 2650.8718931227922 145.49047780036926 41.592763423919678 6094.4922673255205 323.98560446500778 1212.7764922231436 89.723108276724815 72.530046477913857 1122.9066969454288 69.216717451810837 2706.0679209530354 351.73474916815758 236.23572768270969 39.056971415877342 23.550732553005219 35.672294691205025 128.0112973600626 80.207712948322296 202.97569879889488 328.52040316164494 334.33368980884552 391.84609664976597 2315.1638944000006 1801.8751035630703 2741.7651921212673 558.12697736918926 44.940988808870316 70.366624444723129 136.05211760103703 152.7841259688139 227.40063393115997 431.10532613098621 43.008890062570572 456.95940412580967 2930.2350261211395 712.99453902244568 1525.9026877135038 5790.0463206917048 60.368423476815224 585.12362153828144 302.22597247362137 145.27697558701038 555.73758263885975 42.896808445453644 562.74317222833633 3002.342735439539 121.9569221585989 30.058413207530975 606.17808999121189 177.12777079641819 36.408590659499168 387.39066575467587 367.97337597608566 148.52537061274052 301.86272084712982 185.42036086320877 53.719887435436249 22.457476779818535 77.892261102795601 53.26421169936657 259.38134238123894 151.43866300582886 21.971372306346893 199.7617464363575 199.53033158183098 443.74474430084229 9730.5147751867771 25.994619831442833 25.019753605127335 32.684380799531937 19.48392990231514 76.890636831521988 181.55115284025669 936.24114786088467 76.67694428563118 264.01687370240688 48.211336061358452 22.7529626339674 179.58522294461727 2809.6768081188202 276.99283047020435 205.96558271348476 98.049014493823051 53.480550527572632
leaf_count=93 10262 187 2155 116 9202 616 1889 6893 567 167 2649 3845 3453 2602 2014 2878 1504 1117 16967 311 551 512 1081 7913 205 2889 3261 2638 1852 105 33620 4178 3847 7087 295 254 5831 2085 2941 1718 245 1077 1437 1096 761 2292 480 3140 15968 1161 165 539 12827 427 190 628 317 97 9500 213 1096 88 467 3062 2213 250 279 174 7313 93 148 219 3488 162 503 4535 2362 2401 8084 96 1340 508 241 251 1114 1866 1168 4101 1045 82 2931 430 85 784 2244 233 3128 228 476 686 605 9800 361 144 231 91 277 104 797 5921 9800 5286 3743 1201 652 975 900 17968 249 549 69 293 669 7672 3837 1413 1254 636 112 3270 453 2509 294 2371 945 560 211 93 244 91 99 681 1535 533 1813 1534 155 937 3953 729 9515 2883 753 4751 1009 515 2316 154 116 193 398 7840 849 275 867 256 241 3388 119 376 4429 455 1958 301 805 1509 66 301 101 682 155 5472 5627 362 120 10846 798 2451 185 168 2120 168 5021 825 587 128 74 110 252 165 489 732 559 801 3506 2994 4726 1058 151 177 265 353 522 756 100 1002 5830 1285 2586 9198 143 1119 637 302 1361 73 1279 5676 267 76 1168 399 104 751 759 310 593 467 109 74 181 164 528 378 67 445 421 927 15245 63 85 98 62 133 392 2091 181 513 117 64 403 4652 577 532 307 161
internal_value=0.0506936 0.0450862 0.0482571 0.0374287 0.056517 0.00997207 0.0438129 0.0484766 0.0609443 0.000711391 0.0268374 0.0469476 0.00814426 0.0763561 0.0570885 0.0301674 0.014796 0.0289476 0.0447257 -0.0171009 0.0289794 0.0172468 0.0239429 0.0675632 -0.00589396 0.0423222 0.0414641 0.0365979 0.0398539 0.0132873 0.0773457 0.0593491 0.0553839 0.0611687 -0.00391666 0.0249849 0.0268007 0.0513342 0.0472419 0.0500196 0.0375591 0.0295969 0.0221099 0.0323367 0.0306846 0.0578669 0.0105884 0.0182212 0.0448007 0.0331344 0.0314527 0.0463266 0.0656748 0.0326851 0.018392 0.0355998 0.0261903 0.0222138 0.055144 0.0473224 0.0297243 -0.0269246 0.0119347 0.0363072 0.0467244 0.0219327 -0.0120228 0.0043319 0.046174 0.0380764 0.0194952 -0.0250525 0.0632911 0.0516412 0.000850381 0.0615575 0.0602025 0.0567317 0.0390018 -0.00797121 0.00873649 0.016797 -0.0163948 0.0265535 0.0392754 0.0356657 -0.0414607 0.0535364 0.0586374 0.0280367 0.0564577 -0.0238437 0.0123689 0.0144637 0.0635242 -0.0126784 0.015648 0.00385758 0.0291592 0.0122291 0.0369755 0.0730346 -0.00131716 -0.00914941 -0.0234512 -0.004548 0.00116262 -0.000427956 0.056026 0.0540544 0.036759 0.0452588 0.0473734 0.0423582 0.0452631 0.0414163 0.0451888 0.0789378 -0.0064738 0.050142 0.0491636 0.0338719 0 0.0261891 0.034495 0.0372876 0.0299661 0.0335362 0.0290963 0.0305475 0.0267437 0.0514595 0.0454119 0.0278794 0.0132054 0.0337711 -0.0291077 0.0199752 0.0020358 -0.0167058 -0.0148617 -0.0172753 0.0168763 -0.00985813 0.0497652 0.0468305 0.0324029 0.0507971 0.0477471 0.0376705 0.0525077 0.0601656 0.0619977 0.0586579 -0.0246978 0.0271987 0.0309726 -0.0200517 -0.00665021 -0.0283121 0.0153371 0.0614356 0.0503461 0.0127821 0.011436 -0.021016 -0.0225061 -0.0242904 -0.00812288 -0.015783 0.0255504 0.0258581 -0.0162525 -0.0159047 0.0474494 0.0440064 0.000493467 0.00831577 0.00176602 -0.0180566 -0.0137849 0.0395998 0.0189495 0.00507729 -0.00218942 0.0505985 0.00499075 0.0317212 0.00497234 -0.0110108 0.0389201 0.0357683 0.0404591 -0.0090544 -0.0183564 -0.0279904 0.00679891 -0.011672 0.0133142 0.00700362 0 0.00793246 0.0450712 0.0400084 0.0660952 0.0628709 0.0494171 0.0509289 -0.047496 0.0120658 0.00545548 -0.00976709 0.0173434 0.0388042 0.0120547 0.0307282 0.0295201 0.0381681 0.0638696 0.0625455 -0.0221119 0.0353274 0.0148859 0.00503316 0.00266086 0.00948703 0.00619305 0.0374821 0.00195065 0.0425759 0.0343056 0.0141624 0.0015067 0.0310268 0.0216403 0.0163961 0.0253788 0.0075995 -0.00160253 -0.0225806 -0.011827 -0.0293878 0.0149702 0.00977277 0 0.00153697 0.00843852 0.0335619 0.0656781 -0.0145729 -0.039824 -0.00831275 -0.0152664 0.021299 0.0279951 0.00961522 -0.0119246 0.0163682 0.0291693 0.0158174 0 0.058064 0.0169645 -0.0274198 -0.0392893 -0.0206374
internal_weight=300537 246647 226216 97893.7 128322 20431.1 61070.6 45576.8 82745.1 13734.3 36823.1 50410 9695.03 53889.8 52297.3 28838.4 7984.68 6696.83 35187 4039.28 10660.6 2795.14 5124.72 30447.8 1129.41 25501.1 22415.5 9131.69 7124.44 7354.86 50087.1 36944.7 13234.3 10389.8 1729.59 2007.25 18637.3 27994.4 9812.58 7615.96 2196.62 11822.9 3178.45 8644.44 8018.97 10376.9 1850 6855.27 13283.8 7865.46 3274.72 2857.37 24970.7 7107.01 4676.5 5574.01 1671.19 1470.56 7912.68 2205.12 830.279 2309.69 2484.1 10201.2 10949.7 6814.36 1014.61 2678.36 5794.16 1665.95 685.148 2214.9 3802.68 15352.6 379.582 23710.4 18278 9406.33 14551.4 2340.17 849.295 1411.68 1025.25 1896.78 2929.39 2288.64 431.726 18181.9 8091.37 4177.63 5829.7 704.782 844.913 4841.54 16538.2 207.07 2072.24 563.37 3994.92 344.958 5211.13 13528 1314.92 438.318 229.838 131.326 2269.38 2133.59 9820.88 7291.1 9569.3 9627.68 6825.14 3076.8 2478.21 2066.97 1572.11 36559.1 411.861 12461.8 11163.4 429.701 320.469 3849.41 8518.92 4972.36 2896.62 2323.99 1946.69 3546.56 484.383 3748.34 1540 2464.49 477.164 5274.81 600.407 1508.87 713.96 884.201 856.697 808.787 3849.28 790.037 10733.7 5205.35 1128.7 4076.66 3135.71 870.05 5528.38 6482.72 5185.44 3319.36 534.221 2013.73 1925.6 90.2442 400.499 112.353 447.259 5470.43 1117.51 2779.72 708.592 1783.17 1688.58 1585.12 300.906 243.878 2654.34 1126.31 880.29 296.681 2075.74 1590.13 196.018 579.202 432.007 465.223 825.757 3902.82 3180.5 248.625 234.468 8360.98 992.263 1358.1 192.875 103.152 1804.16 1450.57 3285.53 735.718 362.012 1284.21 1188.37 151.902 538.68 410.669 315.868 364.664 1162.34 828.005 5432.4 3117.23 3715.15 3299.89 98.5126 1147.26 639.868 276.415 363.453 4374.67 433.311 3649.97 3387.19 3538.09 8871.7 7315.95 148.694 625.648 402.074 1343.55 1198.28 642.54 599.643 3943.56 179.532 1794.55 636.237 478.337 213.536 450.681 408.98 754.668 367.003 387.666 239.14 130.059 107.602 123.631 911.951 652.57 373.706 324.814 529.629 1649.35 10055.5 125.052 51.0144 235.66 62.4928 327.659 258.442 1036.47 100.228 2964.95 312.228 642.225 301.815 2890.86 370.818 408.289 202.323 104.274
internal_count=528102 450362 404156 187943 216213 46206 112432 81286 134927 32645 75511 90854 22139 77740 87744 57943 17568 13561 64375 10506 21578 6065 10695 47183 2780 47408 41912 17623 13462 16322 71650 60961 22480 16911 4212 4161 38222 48942 17648 13437 4211 23839 6701 17138 16061 17310 4167 14788 24289 15513 6528 5170 39270 14059 10080 10824 3439 3099 13463 3963 1671 6294 5553 19721 19762 14383 2575 6242 10496 3183 1465 5983 6090 26783 900 38481 29967 15821 27646 5817 1932 3070 2656 3896 5556 4442 1256 31294 13420 8503 9824 1891 1883 10669 26443 528 4536 1315 8076 768 10030 20062 3161 1097 617 322 5378 5101 16603 12502 18444 17549 12263 5717 4516 3864 2866 51588 1017 21969 19814 842 765 7922 16659 9552 5825 4571 3935 7107 992 6546 2803 5020 1057 10360 1650 3221 1681 2296 2205 2106 8367 1982 18972 9388 2235 7153 5619 1666 9584 10631 8387 5504 1439 4119 3848 239 990 309 979 8885 1966 6184 1587 4727 4508 4267 751 632 5483 2321 2280 768 3727 2922 464 1321 1020 1215 2113 7385 6832 575 566 14691 2302 2702 446 261 3429 2813 6182 1840 948 3516 2731 385 1194 942 752 833 2121 1562 8514 5008 6581 5784 295 2562 1481 694 787 8321 967 7308 6832 6757 14146 11784 397 1216 882 3119 2817 1456 1383 7565 422 3329 1244 1054 503 899 864 1644 758 886 576 348 274 341 2002 1474 892 767 1205 3243 15812 322 148 587 162 693 525 2346 255 6461 630 1404 720 4814 805 1116 584 277
is_linear=0
shrinkage=0.0575182


Tree=3
num_leaves=267
num_cat=0
split_feature=2 36 24 16 36 36 2 2 24 24 24 16 24 24 17 24 36 2 23 2 2 2 23 24 23 23 36 24 24 17 0 17 24 24 24 24 24 24 10 0 25 24 2 10 0 24 2 2 2 24 2 10 3 21 2 24 23 11 23 0 14 10 0 2 2 2 0 2 23 23 23 2 2 21 2 2 24 23 2 14 24 2 2 2 2 2 0 14 10 22 2 0 2 2 2 10 19 24 2 2 2 2 22 2 2 2 13 3 13 2 18 14 14 10 18 24 2 24 2 21 0 23 23 21 14 21 3 2 14 2 14 0 49 2 2 0 2 18 13 2 2 10 19 10 10 24 14 18 21 19 10 26 2 23 5 2 25 21 10 21 18 4 3 3 5 0 21 2 24 3 6 0 22 3 2 2 2 0 14 26 12 13 2 24 14 2 4 0 13 19 10 21 2 6 2 14 14 4 18 2 2 62 26 2 22 2 23 22 3 13 2 23 10 2 26 11 23 24 14 18 2 2 2 25 23 13 21 11 24 26 23 13 14 14 14 21 13 9 2 22 2 2 2 2 2 3 10 2 24 10 25 22 14 10 26 6 2 6 24 14 2 2 2 2 2 21
split_gain=7703.64 5941.72 4502.41 2211.83 1465.98 1397.22 1348.91 1184.09 924.016 772.85 720.49 584.654 550.767 523.439 425.431 405.692 369.255 327.424 317.277 273.051 233.556 189.448 184.083 161.495 158.71 154.177 140.744 137.672 132.715 128.343 125.099 121.995 118.955 117.306 106.277 102.167 101.205 99.521 95.3124 92.2398 91.3746 89.4639 84.4604 84.2475 81.7202 76.0877 72.0036 76.233 68.2766 57.1903 55.4555 54.0251 52.7125 52.3701 51.4934 50.1944 48.2276 47.8222 46.792 46.1999 43.7861 42.5474 40.7497 40.567 81.4344 65.9122 39.9579 39.5427 39.4909 39.4549 39.1112 38.4198 38.2943 37.498 41.3984 59.8338 36.8318 35.0065 34.799 34.392 34.2184 33.9046 78.8821 37.2835 38.2817 61.0216 33.6785 34.3875 33.0776 32.3931 32.0957 31.601 31.369 71.4853 50.0997 31.3165 31.2542 31.155 29.842 58.2335 50.8607 29.6949 29.4305 29.4223 51.1775 63.8456 29.3368 29.634 28.9095 28.5282 28.4397 28.3739 28.3664 28.1991 28.3189 28.0228 27.9692 27.8302 29.0235 27.7337 27.612 27.4519 27.3296 26.7117 26.0973 26.0203 25.9135 25.6084 25.5221 25.2852 25.114 25.005 25.7416 24.3608 27.0582 25.5029 24.1186 24.1131 24.0616 24.051 31.3448 23.8126 26.6572 23.7751 23.4809 23.3938 28.6561 23.624 23.2151 22.9813 22.9588 22.748 24.3356 22.4301 22.3717 21.9144 21.8399 21.7344 21.6574 21.5496 21.2359 21.2159 23.0469 32.6002 22.745 38.9508 21.1845 20.7604 20.716 20.6266 20.6072 21.6228 20.5637 20.5183 21.3494 31.3443 22.2694 20.4087 20.4065 21.7494 20.3304 20.2672 20.2211 20.0453 19.9383 19.9153 19.809 19.7686 20.3553 19.7215 21.0885 19.5074 19.4982 19.4524 19.4246 19.3676 20.7164 19.2097 19.136 18.986 24.706 18.9646 18.8699 18.7177 18.578 18.5032 18.4319 23.7109 18.4234 19.5725 18.3579 18.3419 20.804 18.2076 18.1895 18.183 18.138 18.0185 17.8749 22.7616 17.8013 17.761 53.0429 17.6815 17.6351 17.606 17.503 17.4886 17.6187 17.8879 17.4638 17.4634 17.4206 29.9186 20.5312 19.1813 17.6028 17.405 17.3749 20.1898 17.3284 74.6177 18.9292 17.2994 25.9353 17.1392 17.0981 17.0749 16.9405 16.8728 17.7288 16.7472 16.7064 16.6734 16.6136 16.476 22.6596 17.8977 20.6815 16.4475 16.4275 43.3265 53.365 78.6722 26.1387 16.4179
threshold=132.50000000000003 1.0000000180025095e-35 1198.6500000000003 1.0000000180025095e-35 1.0000000180025095e-35 1.5000000000000002 75.500000000000014 75.500000000000014 1441.9000000000003 1201.6000000000001 761.70000000000016 1.0000000180025095e-35 1577.7000000000003 1681.6000000000001 1.0000000180025095e-35 682.80000000000007 1.5000000000000002 75.500000000000014 0.64575028195488737 192.50000000000003 198.50000000000003 75.500000000000014 0.62274354636591489 1339.9000000000003 0.65046309523809542 0.66600548245614044 1.5000000000000002 1581.6500000000003 1078.1500000000003 1.0000000180025095e-35 68.500000000000014 1.0000000180025095e-35 1310.5500000000004 1171.9000000000003 864.10000000000014 1104.0500000000004 1634.9000000000003 585.70000000000016 65.500000000000014 68.500000000000014 8781.0000000000018 1358.3500000000001 53.500000000000007 61.500000000000007 26.500000000000004 1061.1000000000004 56.500000000000007 60.500000000000007 231.50000000000003 1001.2000000000002 62.500000000000007 57.500000000000007 4.5500000000000007 0.36425000000000002 233.50000000000003 1798.1000000000001 0.65343712406015053 198.50000000000003 0.56412149122807032 24.500000000000004 140.50000000000003 69.500000000000014 64.500000000000014 56.500000000000007 60.500000000000007 59.500000000000007 28.500000000000004 58.500000000000007 0.68214307644110284 0.61293612155388477 0.6581383458646618 86.500000000000014 94.500000000000014 0.55720000000000014 82.500000000000014 80.500000000000014 1082.6500000000003 0.65087371553884721 62.500000000000007 126.50000000000001 902.90000000000009 94.500000000000014 86.500000000000014 83.500000000000014 82.500000000000014 80.500000000000014 69.500000000000014 113.50000000000001 68.500000000000014 0.97138596491228091 102.50000000000001 26.500000000000004 60.500000000000007 59.500000000000007 63.500000000000007 67.500000000000014 0.50375000000000025 902.90000000000009 31.500000000000004 45.500000000000007 43.500000000000007 101.50000000000001 0.81492982456140373 83.500000000000014 82.500000000000014 80.500000000000014 84.500000000000014 6.1500000000000012 60.500000000000007 92.500000000000014 0.65888095238095257 169.50000000000003 134.50000000000003 74.500000000000014 0.6334523809523811 883.55000000000007 36.500000000000007 1741.1500000000003 75.500000000000014 0.97505000000000008 26.500000000000004 0.73618756265664176 0.67423095238095254 1.2942000000000002 105.50000000000001 0.53125000000000011 8.4500000000000011 94.500000000000014 153.50000000000003 332.50000000000006 103.50000000000001 48.500000000000007 1.0000000180025095e-35 162.50000000000003 184.50000000000003 37.500000000000007 134.50000000000003 0.59130952380952395 71.500000000000014 56.500000000000007 60.500000000000007 67.500000000000014 0.63208333333333366 69.500000000000014 69.500000000000014 664.15000000000009 108.50000000000001 0.66735714285714309 0.73765000000000025 0.62625000000000031 63.500000000000007 4089.5000000000005 352.50000000000006 0.54738458646616561 5.4500000000000011 75.500000000000014 7804.0000000000009 0.3222000000000001 58.500000000000007 0.53125000000000011 0.64554761904761915 8.7500000000000018 6.0500000000000007 6.5500000000000007 4.0500000000000007 42.500000000000007 0.59425000000000006 198.50000000000003 977.10000000000025 7.0500000000000007 25.150000000000002 25.500000000000004 0.86675438596491239 7.6500000000000012 32.500000000000007 34.500000000000007 26.500000000000004 71.500000000000014 103.50000000000001 4356.3000000000002 45.500000000000007 91.500000000000014 98.500000000000014 1657.7000000000003 66.500000000000014 50.500000000000007 6.7500000000000009 60.500000000000007 114.50000000000001 0.52875000000000016 56.500000000000007 0.83890000000000009 134.50000000000003 22.450000000000003 87.500000000000014 100.50000000000001 93.500000000000014 6.6500000000000012 0.70326190476190498 96.500000000000014 86.500000000000014 1.0000000180025095e-35 4384.2000000000016 65.500000000000014 0.77177192982456155 52.500000000000007 0.58984931077694247 0.74047368421052651 7.5500000000000007 86.500000000000014 92.500000000000014 0.71639501879699263 73.500000000000014 95.500000000000014 4839.1500000000005 177.50000000000003 0.61936077694235603 834.75000000000011 102.50000000000001 0.59307142857142869 31.500000000000004 65.500000000000014 66.500000000000014 2828.5000000000005 0.57578518170426085 103.50000000000001 0.94085000000000008 204.50000000000003 1403.8000000000002 4294.2000000000007 0.6061619047619049 84.500000000000014 105.50000000000001 93.500000000000014 100.50000000000001 0.59425000000000006 80.500000000000014 83.500000000000014 169.50000000000003 0.84212280701754405 67.500000000000014 65.500000000000014 66.500000000000014 79.500000000000014 78.500000000000014 7.6500000000000012 84.500000000000014 37.500000000000007 1358.3500000000001 57.500000000000007 8995.0000000000018 0.88698245614035109 96.500000000000014 71.500000000000014 4763.0000000000009 21.150000000000002 142.50000000000003 25.550000000000004 791.05000000000007 131.50000000000003 86.500000000000014 83.500000000000014 82.500000000000014 80.500000000000014 94.500000000000014 0.36575000000000008
decision_type=2 2 2 2 2 2 2 2 2 2 2 2 2 2 2 2 2 2 2 2 2 2 2 2 2 2 2 2 2 2 2 2 2 2 2 2 2 2 2 2 2 2 2 2 2 2 2 2 2 2 2 2 2 2 2 2 2 2 2 2 2 2 2 2 2 2 2 2 2 2 2 2 2 2 2 2 2 2 2 2 2 2 2 2 2 2 2 2 2 2 2 2 2 2 2 2 2 2 2 2 2 2 2 2 2 2 2 2 2 2 2 2 2 2 2 2 2 2 2 2 2 2 2 2 2 2 2 2 2 2 2 2 2 2 2 2 2 2 2 2 2 2 2 2 2 2 2 2 2 2 2 2 2 2 2 2 2 2 2 2 2 2 2 2 2 2 2 2 2 2 2 2 2 2 2 2 2 2 2 2 2 2 2 2 2 2 2 2 2 2 2 2 2 2 2 2 2 2 2 2 2 2 2 2 2 2 2 2 2 2 2 2 2 2 2 2 2 2 2 2 2 2 2 2 2 2 2 2 2 2 2 2 2 2 2 2 2 2 2 2 2 2 2 2 2 2 2 2 2 2 2 2 2 2 2 2 2 2 2 2 2 2 2 2 2 2
left_child=1 2 6 14 9 8 10 12 17 19 37 29 24 25 35 59 23 28 42 34 27 55 58 54 63 41 32 38 66 76 56 248 68 80 91 120 43 108 79 89 60 71 49 204 -21 73 98 67 62 96 -49 112 158 97 88 -10 -14 128 208 102 181 133 141 184 65 -65 -5 -48 -16 92 230 103 109 74 75 -24 -6 206 -66 119 -19 82 83 84 85 -43 87 144 168 199 101 -2 93 -44 -94 -83 -12 -20 -26 100 116 122 -8 104 105 243 178 -108 -1 194 -59 138 -46 114 123 214 -100 118 -33 -11 -3 -34 -47 154 -55 260 232 -76 131 197 225 161 -133 192 135 172 -81 170 -45 -58 -141 216 191 150 -29 147 -147 203 259 -67 245 -152 227 -131 -93 -37 -87 -139 -36 -122 -96 162 -53 202 165 -165 -70 -90 -13 -170 171 -110 -135 174 176 -176 -99 -32 179 -35 -71 -23 -129 -50 -4 220 252 188 -150 190 -137 -143 -54 -105 -73 196 -182 -56 -18 200 -15 226 -164 -39 -22 -51 207 -68 209 265 -84 212 -89 -97 246 -191 -25 -162 -61 -220 -98 -142 -223 -159 -217 -74 -145 228 229 -153 -30 -186 233 -117 235 -235 -237 -138 -31 -240 241 -80 -243 244 -9 -140 -60 -118 -7 -38 -251 -77 -85 -177 -69 -116 -257 258 -258 -40 261 262 263 -27 -262 -17
right_child=4 3 7 5 11 31 15 13 21 20 18 16 30 39 26 22 198 33 53 44 36 40 45 48 46 125 -28 86 70 238 177 117 121 106 52 155 249 145 148 -41 -42 81 69 111 51 90 47 50 183 205 -52 57 61 124 129 -57 139 110 115 218 -62 -63 -64 64 78 149 77 254 166 180 -72 72 130 -75 127 251 -78 -79 240 136 -82 95 210 186 -86 156 -88 211 167 -91 -92 113 94 -95 160 213 185 173 99 -101 -102 -103 -104 193 -106 -107 107 -109 137 -111 -112 -113 -114 -115 255 126 247 -119 -120 -121 159 -123 -124 -125 -126 -127 -128 182 -130 153 -132 132 -134 134 -136 189 237 157 143 140 221 142 -144 201 -146 146 -148 -149 187 -151 151 152 -154 -155 -156 -157 -158 223 -160 -161 217 -163 163 164 -166 -167 -168 -169 169 -171 -172 -173 -174 -175 175 253 -178 -179 -180 -181 195 -183 -184 -185 231 -187 -188 -189 -190 215 -192 -193 -194 -195 -196 -197 -198 -199 -200 -201 -202 -203 -204 -205 -206 -207 -208 -209 -210 -211 -212 -213 -214 -215 -216 224 -218 -219 219 -221 -222 222 -224 -225 -226 -227 -228 -229 -230 -231 -232 -233 -234 234 -236 236 -238 -239 239 -241 -242 242 -244 -245 -246 -247 -248 -249 -250 250 -252 -253 -254 -255 -256 256 257 -259 -260 -261 264 -263 -264 -265 -266 -267
