tree
version=v4
num_class=1
num_tree_per_iteration=1
label_index=0
max_feature_idx=63
objective=binary sigmoid:1
feature_names=age alcohol_consumption_per_week physical_activity_minutes_per_week diet_score sleep_hours_per_day screen_time_hours_per_day bmi waist_to_hip_ratio systolic_bp diastolic_bp heart_rate cholesterol_total hdl_cholesterol ldl_cholesterol triglycerides family_history_diabetes hypertension_history cardiovascular_history cardio_risk_score cholesterol_risk lifestyle_risk diet_activity_balance metabolic_index overall_health_risk age_bmi age_bp bmi_cholesterol family_history_age log_physical_activity log_triglycerides age_squared bmi_squared high_bp_flag high_cholesterol_flag obese_flag sedentary_flag medical_history_score gender_Male gender_Other ethnicity_Black ethnicity_Hispanic ethnicity_Other ethnicity_White education_level_Highschool education_level_No_formal education_level_Postgraduate income_level_Low income_level_Lower-Middle income_level_Middle income_level_Upper-Middle smoking_status_Former smoking_status_Never employment_status_Retired employment_status_Student employment_status_Unemployed bmi_category_normal bmi_category_overweight bmi_category_obese age_group_middle age_group_senior age_group_elderly bp_category_elevated bp_category_high bp_category_very_high
feature_infos=[19:89] [1:8] [1:747] [0.10000000000000001:9.9000000000000004] [3.2999999999999998:9.9000000000000004] [0.59999999999999998:15.800000000000001] [15.1:37.799999999999997] [0.69999999999999996:1.02] [91:163] [51:103] [42:98] [121:286] [21:90] [51:199] [31:290] [0:1] [0:1] [0:1] [0.4792857142857142:0.98438095238095236] [0.31916666666666671:1.0175000000000001] [0:0.76657142857142857] [0.0049000000000000007:7.0217999999999998] [0.52715789473684216:1.3934736842105264] [0.43086146616541354:0.89127230576441108] [352:3001.2000000000003] [1729:13261] [2174.4000000000001:9792] [0:89] [0.69314718055994529:6.6174029779744776] [3.4657359027997265:5.6733232671714928] [361:7921] [228.00999999999999:1428.8399999999997] [0:1] [0:1] [0:1] [0:1] [0:3] [0:1] [0:1] [0:1] [0:1] [0:1] [0:1] [0:1] [0:1] [0:1] [0:1] [0:1] [0:1] [0:1] [0:1] [0:1] [0:1] [0:1] [0:1] [0:1] [0:1] [0:1] [0:1] [0:1] [0:1] [0:1] [0:1] [0:1]
tree_sizes=6866 6913 7040 7059 7063 7028 6970 7042 6952 7054 7042 6933 7057 7075 7106 7073 6869 7051 6938 6950 7061 7067 7070 6927 7120 7050 7044 7075 7075 6944 7078 6727 7068 7047 7061 7075 6774 6836 7057 7055 7077 6737 6932 6642 7075 6965 6757 6995 7080 6986 7092 6417 6851 6983 6829 6535 6886 6986 6878 6644 6929 6974 6734 6976 6199 6623 6753 6880 6527 6751 6598 6978 6235 6830 6955 6748 6527 6351 6312 6473 6542 6522 6860 5768 6549 6861 6818 6432 6858 5748 6731 6670 6229 6656 6937 5814 5573 5896 6689 6610 7091 6856 5526 6357 6559 6810 6474 5573 6375 5755 4834 6207 6513 6803 5127 6296 6886 4255 5250 5900 6446 5223 5349 6944 5893 4913 4144 5099 5669 6497 5919 4606 6700 5354 5212 4946 6372 6780 6667 5162 5680 6337 5747 6680 5669 6307 5979 6504 6486 6526 5361 6744 5877 6431 5933 6125 5477 6540 4367 6084 4694 7058 6039 6761 5051 6466 6073 5955 6385 6087 4592 6751 6302 5110 5453 5733 4148 6442 5416 6805 7097 5768 5638 7124 5769 5677 6875 5802 5335 6804 6071 6570 5332 6596 5756 6198 7105 5524 6349 5370 4903 4779 4556 4573 4592 4687 6749 5859 5687 3926 5019 5341 5965 5013 6001 5916 4171 6785 5167 5566 5346 5325 5187 4557 5243 6629 6826 6065 5242 6334 4178 4872 5994 5121 5146 4953 6547 6512 6691 5907 6570 3051 6788 6422 6418 6579 5916 5106 6679 6366 6397 6592 5948 6507 6244 5070 6437 6780 2305 6544 5996 6182 6092 5346 5726 3577 6943 5275 1967 6805 6777 4799 4057 6285 3939 5777 5726 6906 6144 6029 4365 6872 4578 4706 4362 5807 5790 6781 6565 4289 6052 5483 6914 4827 4277 4047 5344 5774 4908 4499 2541 3427 6194 7104 3763 6450 3655 4403 3984 5894 6752 6002 4801 5738 3134 6326 6445 6825 6611 6468 6419 4918 6754 5762 4219 2184 4804 2180 1648 4713 6442 6662 6876 6236 5386 3682 4457 4969 3044 4158 6135 6371 5116 6209 6395 5342 3036 3370 6854 4555 5608 6458 6427 6441 5876 4721 5703 4260 3392 6235 4753 5894 5117 5311 4944 5401 1756 3512 3163 2086 5558 5663 6857 5991 5004 5491 4715 3947 6511 5317 5014 6227 6430 3706 6897 3476 6301 5338 6164 5977 4394 5316 2286 5445 4701 5696 6577 3207 5595 5699 4588 5956 4263 6415 5810 5136 4586 4599 4276 5003 6344 6696 4383 5474 6199 5120 6195 4699 4603 6225 3145 3838 3626 4884 5709 3528 2510 4263 3054 3930 4253 5164 5456 5343 4588 5870 3982 4241 5973 3992 3606 3723 5391 3215 2307 5621 5558 4920 5795 5740 5193 5339 6007 4998 6142 3593 3666 5516 4127 5937 4213 5598 5259 4388 5026 6404 5161 2094 2614 3866 3927 4229 6448 6071 5586 6111 4268 4456 4053 3856 2357 2348 2427 4726 3102 3739 4050 3825 3292 5623 3511 3867 3592 4766 6559 6516 5162 5907 4742 5696

Tree=0
num_leaves=64
num_cat=0
split_feature=27 23 21 21 30 30 30 21 30 23 21 30 21 30 21 25 30 21 30 23 23 30 30 30 30 30 30 21 30 27 27 30 21 27 30 21 21 21 21 25 23 21 21 25 21 23 19 23 27 23 10 22 22 10 23 21 3 19 11 19 18 27 25
split_gain=22911.7 10522.9 3905.27 3065.26 2102.04 1744.16 967.899 909.687 653.316 464.449 461.238 440.846 435.233 417.987 407.463 319.154 283.386 267.264 265.68 232.881 232.771 231.151 194.078 182.677 164.326 133.746 120.95 116.15 110.177 97.9828 87.047 78.9134 69.4739 67.3217 63.0417 54.1491 41.8725 35.8862 32.6422 30.585 24.5681 23.5316 23.3868 22.2622 18.7284 17.9571 17.4579 17.2568 15.8591 11.5346 10.8969 10.8149 9.7353 9.31293 8.20041 7.50787 6.75308 6.6006 6.50128 4.87921 3.16583 3.08857 2.43132
threshold=26.500000000000004 0.64830686090225575 0.65380000000000016 0.49005000000000004 2862.5000000000005 2352.5000000000005 3782.5000000000005 0.97505000000000008 4556.5000000000009 0.68721394110275702 0.73060000000000025 3422.5000000000005 0.86160000000000025 4692.5000000000009 0.38205000000000006 4873.5000000000009 930.50000000000011 0.38665000000000005 870.50000000000011 0.64915300751879712 0.71522753759398505 2450.5000000000005 5112.5000000000009 812.50000000000011 1722.5000000000002 5112.5000000000009 4556.5000000000009 0.87325000000000019 812.50000000000011 49.500000000000007 50.500000000000007 4556.5000000000009 1.3594500000000003 58.500000000000007 2352.5000000000005 0.99415000000000009 0.37250000000000011 0.35965000000000008 0.82945000000000013 7874.5000000000009 0.69667249373433593 0.39080000000000009 1.1551000000000002 4428.5000000000009 0.32650000000000007 0.64262214912280713 0.53791666666666693 0.61618624686716805 62.500000000000007 0.56412149122807032 58.500000000000007 0.98257894736842122 0.85391228070175451 59.500000000000007 0.70524351503759408 0.4013500000000001 5.5500000000000007 0.68791666666666695 199.50000000000003 0.68458333333333365 0.69940476190476197 67.500000000000014 8312.0000000000018
decision_type=2 2 2 2 2 2 2 2 2 2 2 2 2 2 2 2 2 2 2 2 2 2 2 2 2 2 2 2 2 2 2 2 2 2 2 2 2 2 2 2 2 2 2 2 2 2 2 2 2 2 2 2 2 2 2 2 2 2 2 2 2 2 2
left_child=1 2 5 4 9 14 12 11 20 16 19 24 15 17 18 -5 -3 -7 -1 30 -6 32 27 -16 -4 -10 -23 -8 -11 35 37 -13 -9 36 -14 45 40 49 -24 42 -21 -15 51 -38 61 53 50 -39 -46 -2 -37 -31 -44 -12 55 -35 58 -48 -41 -47 -58 -32 -56
right_child=10 3 7 6 8 13 22 21 25 28 29 31 34 41 23 -17 -18 -19 -20 33 -22 26 38 -25 -26 -27 -28 -29 -30 39 44 -33 -34 54 -36 46 43 47 -40 56 -42 -43 52 -45 48 59 57 -49 -50 -51 -52 -53 -54 -55 62 -57 60 -59 -60 -61 -62 -63 -64
leaf_value=0.46512859826304853 0.51979376676688338 0.47833625031057392 0.45649143875945686 0.47834274833039653 0.52031722433881167 0.50503455132627828 0.51174032390517532 0.44403001029170552 0.53578315468600679 0.48293248320379034 0.54528523133787399 0.4870995086645773 0.45878338265610857 0.53523432811177318 0.45199427910179091 0.49585394273686023 0.50387220062502547 0.4927000355215076 0.48965465332231606 0.55667333730437407 0.5341913466766347 0.4534997744341458 0.53730024571159807 0.47541529135451283 0.47108165591947687 0.55195283401854911 0.48706010916818576 0.4878416770769165 0.516272444889188 0.53946843771268971 0.55792346366702628 0.51186105513897961 0.42996855701748193 0.56469503850859448 0.47529193386669272 0.51994966371703211 0.54310383280311247 0.53413034421759031 0.51476164835243787 0.52360288910050934 0.56422030356744246 0.52168969173104085 0.51405143858911295 0.55375940843564875 0.54832117474163433 0.53723922583082084 0.51400264631044768 0.54262647709696687 0.55829507649466503 0.54860339251446366 0.49083329264082592 0.56522167598684747 0.53504535036884127 0.52238318452915089 0.56508973393319117 0.55911765377274192 0.5589465114152955 0.53718267771213735 0.55732988363270242 0.55411833907295871 0.54693813449443873 0.56649997838907928 0.569856367850198
leaf_weight=1001.2761033475399 29.037529349327087 940.94116365909576 2512.8199415802956 2874.3720124661922 12283.175920575857 7170.9087898135185 2671.5924201607704 1667.2547754049301 2275.4723549187183 204.93918576836586 40.157434433698654 1119.8144930899143 863.09484896063805 518.17121297121048 732.85801568627357 7819.4380609095097 12993.425887137651 7017.8501404523849 8169.090760499239 2765.2501342892647 3048.5688090026379 2126.8363884687424 644.49411070346832 8214.0407431125641 4115.9753799140453 1896.0405101180077 241.87893632054329 485.04471355676651 8307.7737168967724 642.13703486323357 856.92810523509979 338.1556248664856 1246.3180538713932 1324.8961221277714 1023.431723177433 33.152205258607864 487.4730689227581 843.09163400530815 163.14630773663521 28.578192561864853 1293.467249840498 522.15579959750175 108.7471065223217 2233.0715335607529 1243.0158323049545 187.2976056933403 215.79933124780655 1153.8514080047607 443.02443560957909 1578.224211037159 117.55541574954987 35.206158399581909 76.485123664140701 358.56951025128365 472.80178919434547 823.71434488892555 204.82326418161392 28.180410861968994 20.012614130973816 44.139904171228409 62.81438148021698 103.93385258316994 520.54922613501549
leaf_count=4189 120 3925 10533 11990 50757 29734 11061 7008 9370 854 165 4662 3616 2134 3075 32490 53891 29180 33990 11333 12558 8921 2653 34286 17197 7779 1007 2019 34361 2642 3511 1400 5255 5420 4272 137 2004 3473 675 118 5292 2157 450 9158 5104 771 893 4744 1815 6480 489 144 315 1481 1934 3374 839 116 82 181 258 425 2127
internal_value=0.505502 0.497416 0.481514 0.510116 0.516576 0.489741 0.493737 0.460996 0.527367 0.5072 0.551797 0.47047 0.487636 0.50095 0.480319 0.491147 0.502148 0.498934 0.486976 0.554425 0.523076 0.446492 0.513097 0.473496 0.46555 0.543134 0.456925 0.508067 0.515469 0.532506 0.547628 0.492845 0.438012 0.558707 0.467736 0.522336 0.556181 0.543077 0.532753 0.541344 0.55908 0.528441 0.536943 0.551852 0.553821 0.53051 0.509273 0.539042 0.550946 0.548086 0.497265 0.540818 0.522747 0.524705 0.564155 0.56256 0.553325 0.516703 0.537622 0.540488 0.556153 0.558859 0.567596
internal_weight=123586 105210 46715.4 58495 41950.3 33346.4 16544.6 13369.1 19503.3 22447.1 18376 8086.77 12580.3 15229.1 18117.3 10693.8 13934.4 14188.8 9170.37 16172.3 15331.7 5282.29 3964.28 8946.9 6628.8 4171.51 2368.72 3156.64 8512.71 2203.66 6251.11 1457.97 2913.57 9921.22 1886.53 1024.85 6779.26 3604.2 807.64 1178.8 4058.72 1040.33 862.575 2720.54 2646.9 630.164 394.687 1996.94 1686.04 1607.26 150.708 677.343 185.232 398.727 3141.96 2148.61 316.228 243.98 48.5908 231.438 267.638 960.862 993.351
internal_count=512394 436999 194728 242271 173495 138745 68776 55983 80464 93031 75395 33792 52368 63205 75540 44480 57816 58914 38179 66314 63315 22191 16408 37361 27730 17149 9928 13080 35215 9081 25672 6062 12263 40642 7888 4233 27787 14817 3328 4848 16625 4291 3551 11162 10855 2598 1635 8217 6919 6600 626 2786 765 1646 12855 8794 1297 1009 200 952 1097 3936 4061
is_linear=0
shrinkage=1


Tree=1
num_leaves=63
num_cat=0
split_feature=27 23 2 2 24 24 24 2 2 2 24 2 30 30 24 30 30 30 24 2 24 2 2 2 24 24 2 24 30 2 2 10 30 10 2 24 10 2 24 24 23 2 10 23 19 19 24 24 27 10 2 19 7 25 23 27 8 25 25 22 25 10
split_gain=21147.8 9547.36 3894.48 3322.24 1953.84 1900.2 1239.9 837.505 526.636 478.644 468.9 453.085 434.721 355.191 342.701 324.692 293.664 259.448 253.833 248.431 235.812 202.827 172.874 146.221 139.187 139.131 139.044 102.586 87.3104 86.9223 74.1972 62.9249 59.4189 56.9105 56.2686 52.7794 46.975 38.8271 37.3413 30.7752 23.7007 19.7227 18.2959 17.9973 17.5153 17.3595 16.6721 16.5396 13.6633 13.2378 11.7185 11.6979 10.497 9.60289 7.39044 7.47066 5.89153 4.6726 3.71983 3.49597 2.61697 1.56421
threshold=26.500000000000004 0.64830686090225575 132.50000000000003 76.500000000000014 1082.6500000000003 1469.0500000000002 1554.6000000000001 75.500000000000014 75.500000000000014 117.50000000000001 1024.95 132.50000000000003 5112.5000000000009 4692.5000000000009 1205.5000000000002 4422.5000000000009 2450.5000000000005 3906.5000000000005 751.1500000000002 141.50000000000003 1246.7500000000002 32.500000000000007 56.500000000000007 198.50000000000003 761.70000000000016 642.9000000000002 192.50000000000003 1457.6000000000001 4830.5000000000009 132.50000000000003 55.500000000000007 67.500000000000014 4556.5000000000009 65.500000000000014 162.50000000000003 1646.7000000000003 61.500000000000007 65.500000000000014 896.20000000000016 1078.1500000000003 0.64961403508771942 141.50000000000003 66.500000000000014 0.6581383458646618 0.67541666666666689 0.46875000000000017 930.90000000000009 870.60000000000025 31.500000000000004 66.500000000000014 31.500000000000004 0.50875000000000015 0.84500000000000008 8378.5000000000018 0.68609166666666677 70.500000000000014 114.50000000000001 8342.0000000000018 8540.5000000000018 0.99971929824561423 4540.5000000000009 72.500000000000014
decision_type=2 2 2 2 2 2 2 2 2 2 2 2 2 2 2 2 2 2 2 2 2 2 2 2 2 2 2 2 2 2 2 2 2 2 2 2 2 2 2 2 2 2 2 2 2 2 2 2 2 2 2 2 2 2 2 2 2 2 2 2 2 2
left_child=1 2 4 5 8 10 11 17 18 20 24 14 22 19 -5 -9 26 -6 -1 -8 30 -12 -7 28 -3 -10 31 34 -18 -15 40 -4 -25 -13 47 37 -28 50 45 42 46 57 -36 -40 -39 -32 -2 48 -11 -49 -22 -43 -14 -53 55 -37 -41 59 -56 -29 -42 -59
right_child=9 3 16 6 7 12 13 15 25 27 21 33 52 29 -16 -17 23 -19 -20 -21 35 -23 -24 32 -26 -27 36 41 -30 -31 38 -33 -34 -35 39 54 -38 44 43 56 60 51 -44 -45 -46 -47 -48 49 -50 -51 -52 53 -54 -55 58 -57 -58 61 -60 -61 -62 -63
leaf_value=-0.034242525227119479 0.037959453836197171 -0.025127470694413196 -0.045544861104088327 -0.022304937934628663 -0.0013578102944310293 0.027291072610554561 0.0044845596391666033 -0.018212027748087133 -0.056948973630706841 0.030878237979676496 0.020735219217721541 -0.027624146701397692 0.041065038606639452 0.02843023257841475 -0.0065191940466202474 0.010178515842485409 -0.035447810100365601 0.016305620815740721 -0.015817681980853669 -0.024592643614304178 0.060426045577300989 0.0068861443803711272 0.017170686962496465 -0.055829053689958621 -0.0038269756205093924 -0.03379718289770741 -0.059105278235179276 0.044288060889373461 0.0028383968531284719 0.0019981461769264918 0.01518933198069345 -0.059577863794301543 -0.024733831999648303 -0.04332422024615936 0.0040237902733806074 0.053995588218515751 -0.074613805579335363 0.046217636347806103 0.03883033555471499 0.024404178159223164 0.050728413201675857 0.0031157230676306137 -0.023840041102198676 0.046108812622212399 0.055445479331049111 0.033280576677380415 0.0481952112212502 0.035202915240155057 0.0008754637361628794 0.023740860290543096 0.053615991750631746 0.030741041643794497 0.049589895369534127 0.047969575966564849 0.059262964750919744 0.062000061068832268 0.011427996730753743 0.062532373786028037 0.063845343246257583 0.064000538845338073 0.054966399165802711 0.04726462206960716
leaf_weight=1897.089450225234 505.46152625977993 739.13593439757824 1502.3274652063847 4634.2586422264576 9904.8900565356016 8939.1236108839512 5110.5091170817614 9548.2482233047485 566.98784312605858 47.779731497168541 2515.3160329014063 826.4454146027565 388.11762307584286 1494.0751072466373 6930.2939604520798 888.91212530434132 2019.1654748022556 2021.6593792438507 7404.1170881092548 671.12151503562927 636.78419594466686 14143.426134034991 5512.6370205581188 1131.4092573970556 3826.491322234273 7025.3653798699379 673.7191144824028 189.47344480454922 127.70743082463741 302.31239503622055 126.73820751905441 1139.0515482872725 139.99780364334583 1076.3973536342382 150.46563364565372 858.80261461436749 970.15808679163456 2418.2190552502871 2104.9950565546751 135.35956470668316 611.26782196760178 23.186766117811203 69.414978891611099 1033.8608465790749 509.60276444256306 723.88927829265594 913.67237229645252 362.03166764974594 85.8925611525774 474.1658514291048 2915.648236066103 202.94001920521259 1286.504922285676 98.70574626326561 1022.8132949471474 342.32862865924835 151.1948059797287 67.519464522600174 629.60180869698524 21.473283305764198 693.66441902518272 21.398730993270874
leaf_count=7872 2101 3068 6227 19259 41036 37037 21209 39591 2357 198 10404 3428 1614 6200 28769 3685 8376 8370 30697 2790 2643 58659 22873 4701 15883 29145 2790 787 529 1256 528 4737 582 4482 625 3570 4033 10048 8740 561 2541 97 290 4296 2115 3008 3792 1502 358 1972 12114 844 5340 410 4250 1421 629 280 2616 89 2881 89
internal_value=0.00185751 -0.00585966 -0.0209437 0.00627049 -0.0152113 0.0143157 -0.0080077 -0.00649827 -0.0267452 0.0466582 0.00548092 -0.0161892 0.0259431 0.00653181 -0.0128454 -0.0157937 -0.0501552 0.00163612 -0.0195762 0.0011085 0.0492989 0.0089775 0.023431 -0.0403271 -0.00727641 -0.0355271 -0.0579934 0.0264856 -0.0331688 0.0239841 0.0428725 -0.0515991 -0.0524093 -0.0365084 0.0200207 0.0539206 -0.0682628 0.0516716 0.0389627 0.00786994 0.0485961 0.0417542 -0.00476317 0.0412298 0.0478263 0.0305905 0.044554 0.026361 0.0116351 0.0287099 0.0548389 0.0340352 0.047618 0.0363999 0.0590252 0.0562833 0.0175736 0.0500945 0.0610137 0.0463321 0.0529867 0.0589374
internal_weight=123505 105357 46960.8 58396.2 39257.3 37350.8 21045.4 22363.7 16893.6 18148.4 21224.4 13467.4 16126.4 7578.02 11564.6 10437.2 7703.54 11926.5 9301.21 5781.63 16047.4 16658.7 14451.8 3418.28 4565.63 7592.35 4285.26 2101 2146.87 1796.39 6713.55 2641.38 1271.41 1902.84 1476.3 9333.8 1643.88 6480.25 3989.48 506.435 2724.07 624.697 219.881 3138.86 2927.82 850.627 1419.13 969.87 133.672 836.198 3552.43 324.833 1674.62 301.646 2853.55 1201.13 286.554 299.865 1652.42 210.947 1304.93 88.9182
internal_count=512394 436999 194728 242271 162753 154878 87393 92682 70071 75395 88014 55938 66864 31455 48028 43276 31975 49406 38569 23999 66664 69063 59910 14188 18951 31502 17787 8731 8905 7456 27887 10964 5283 7910 6135 38777 6823 26920 16572 2105 11315 2596 915 13036 12163 3536 5893 4030 556 3474 14757 1351 6954 1254 11857 4991 1190 1245 6866 876 5422 369
is_linear=0
shrinkage=0.0449347


Tree=2
num_leaves=64
num_cat=0
split_feature=27 24 2 2 2 2 24 24 24 24 2 23 2 24 24 2 2 27 2 14 2 24 14 2 23 10 24 24 23 24 21 24 24 2 10 23 24 2 23 2 24 24 2 10 21 24 24 27 10 12 27 27 24 21 24 12 10 4 18 8 2 22 24
split_gain=19533.4 8765.66 4779.3 3221.93 1661.64 1277.89 1109.29 835.397 658.334 490.445 452.612 425.581 279.216 225.008 224.289 217.592 216.137 196.334 178.088 161.469 149.674 148.586 145.223 128.181 126.091 124.784 114.936 108.191 103.281 96.0326 73.0091 67.2042 63.5579 52.0971 51.5784 50.8991 40.4726 36.8766 29.2934 28.7001 28.228 20.1248 18.6764 16.5871 15.9955 15.8437 15.3616 12.6124 12.3745 10.663 10.3034 9.77363 9.70578 9.45614 8.7549 8.50902 5.626 5.56586 5.15798 3.74734 2.65092 2.35382 2.30179
threshold=26.500000000000004 1336.45 75.500000000000014 76.500000000000014 132.50000000000003 132.50000000000003 930.90000000000009 1734.1000000000001 1816.8000000000004 996.70000000000016 117.50000000000001 0.64575028195488737 56.500000000000007 1246.7500000000002 751.1500000000002 196.50000000000003 60.500000000000007 1.0000000180025095e-35 198.50000000000003 140.50000000000003 56.500000000000007 642.9000000000002 127.50000000000001 32.500000000000007 0.64830686090225575 65.500000000000014 936.05000000000007 1987.3500000000001 0.63493662280701768 1457.6000000000001 0.37250000000000011 1634.9000000000003 2030.0500000000004 162.50000000000003 61.500000000000007 0.68897913533834598 896.20000000000016 56.500000000000007 0.65430980576441111 65.500000000000014 1078.1500000000003 1607.3000000000004 141.50000000000003 66.500000000000014 0.70510000000000006 2210.7000000000003 870.60000000000025 31.500000000000004 66.500000000000014 61.500000000000007 68.500000000000014 61.500000000000007 883.55000000000007 0.38205000000000006 1756.9000000000003 42.500000000000007 74.500000000000014 5.8500000000000005 0.70188095238095249 124.50000000000001 97.500000000000014 0.81296491228070189 1669.7500000000002
decision_type=2 2 2 2 2 2 2 2 2 2 2 2 2 2 2 2 2 2 2 2 2 2 2 2 2 2 2 2 2 2 2 2 2 2 2 2 2 2 2 2 2 2 2 2 2 2 2 2 2 2 2 2 2 2 2 2 2 2 2 2 2 2 2
left_child=1 2 6 7 9 8 14 12 22 21 13 20 24 30 17 26 -14 -1 25 -11 -8 -4 -5 -13 -3 -7 -6 37 -16 33 38 -20 -10 46 -17 39 49 -9 52 50 43 -41 59 -35 -38 -29 47 -12 -48 -32 -15 53 -2 -37 56 -42 -44 -40 -56 61 -53 -31 -61
right_child=10 3 4 5 15 18 11 27 32 19 29 23 16 35 28 34 -18 -19 31 -21 -22 -23 -24 -25 -26 -27 -28 45 -30 42 36 -33 -34 40 -36 51 44 -39 57 41 55 -43 54 -45 -46 -47 48 -49 -50 -51 -52 60 -54 -55 58 -57 -58 -59 -60 62 -62 -63 -64
leaf_value=-0.03341901829257387 0.036829318180172252 0.010002670883335911 -0.054120670923121783 -0.007645649539477082 -0.055264113513292502 -0.011387864270821035 -0.0023699090750197572 0.032151118572694273 0.016923420618952509 -0.021583526975320587 0.029740779804911001 0.015466175109530224 -0.0062177224132478597 0.051951377890429903 -0.020553118196558647 -0.053067252841230393 0.011747316898925915 0.020461773809517782 -0.050224393536702557 -0.0088440207669016543 -0.013436307757738269 -0.031656054028498311 0.001980204318287149 0.0033024701198897752 0.021109401572293209 -0.029996146597977325 -0.039728168282345211 0.039524036401632164 -0.0081329113340175337 0.058448345102682861 0.029880514075946295 -0.027402023840914322 0.032148304803462806 0.0038470619198826342 -0.067093748172026083 0.05722562294708472 0.040541809524696895 0.024266222162358606 0.043349794898417102 0.04430068147562035 0.041925345469196615 0.052826378287137085 0.029423385499079694 -0.022634637375866875 0.029238452186163347 0.049649016180169918 0.033950136279748147 0.00083635292712536406 0.022821909991787053 0.016355342202185905 0.060455081645591706 0.060871986727769285 0.044188262783078018 0.050761133048689601 0.047471892355205082 0.01442940098461323 0.0011910540658467833 0.051799545491222614 0.021681214919977224 0.046449299313504229 0.051999400369191089 0.041549201338887135 0.059212031985228487
leaf_weight=2436.8548296242952 491.95580931007862 2638.5117624253035 652.02636440098286 6864.4354522675276 1370.9841431826353 1350.1736896932125 5860.3410153090954 3058.4430003613234 1771.8917287439108 10946.724366411567 47.389922678470612 2076.3709385544062 1721.7866950333118 2754.4951082766056 2686.0867497175932 888.16279754042625 6294.9770706444979 144.53167779743671 750.70800466835499 2461.6775187402964 4263.821566209197 6806.3720658421516 5870.5846934169531 11111.328920319676 9499.8958897143602 1580.2430102527142 3238.830556973815 1481.7186192572117 2724.1974538564682 20.735919997096062 547.66651186347008 400.7144366055727 806.74782472848892 150.31314705312252 1331.3831633329391 1365.6631882041693 2180.619565397501 1979.2444596886635 188.47142499685287 2100.7385983616114 25.030128791928291 773.54710657894611 193.80166836082935 69.820747330784798 289.54610694944859 401.50176690518856 358.60469070076942 85.87327829003334 471.16693557798862 151.85986530780792 330.6976188570261 1065.8135820180178 1482.2372441589832 718.43295034766197 92.683709144592285 260.21578544378281 15.647068142890928 1301.6663168668747 19.673853874206543 52.729168966412544 82.214393600821495 140.83319208025932 81.373574152588844
leaf_count=10048 2066 10938 2682 28450 5637 5560 24239 12774 7373 45238 198 8626 7189 11622 11106 3638 26155 588 3088 10166 17651 28057 24327 46140 39576 6534 13316 6203 11280 87 2295 1653 3365 625 5463 5766 9157 8254 796 8844 104 3264 813 290 1215 1685 1502 358 1972 637 1397 4508 6234 3028 389 1086 66 5487 83 222 348 593 343
internal_value=0.00178053 -0.00558734 -0.0170841 0.00900876 -0.0306806 -0.00497052 -0.00505435 0.0190227 0.000984111 -0.0243836 0.045166 -0.000101523 0.0143972 0.0477595 -0.0195013 -0.0499199 0.00788848 -0.0304005 -0.0273106 -0.019245 -0.00703094 -0.0336209 -0.00320809 0.00521794 0.0186955 -0.0214241 -0.0443502 0.0324924 -0.0143001 0.0254863 0.041449 -0.0422869 0.0216887 0.0192282 -0.0614844 0.0523134 0.0365133 0.0290543 0.0459631 0.0498436 0.007534 0.0465976 0.0403591 -0.00454249 0.0392191 0.0416863 0.0253606 0.0111502 0.0276378 0.026951 0.0528654 0.056865 0.0423576 0.0550006 0.0328212 0.0168639 0.0273308 0.0507352 0.0430021 0.048542 0.0602428 0.0437642 0.0542466
internal_weight=123383 105471 58999.7 46471.6 27696.2 19395.5 31303.5 27076.1 15313.7 20866.8 17911.5 23311.9 20155.2 15825.6 7991.67 6829.36 8016.76 2581.39 4081.84 13408.4 10124.2 7458.4 12735 13187.7 12138.4 2930.42 4609.81 6920.91 5410.28 2085.89 6634.02 1151.42 2578.64 1468.41 2219.55 9191.6 3169.69 5037.69 3464.33 5959.48 505.38 2874.29 617.478 220.134 2470.17 1883.22 963.035 133.263 829.772 699.526 3085.19 3232.12 1974.19 2084.1 321.806 285.246 209.449 1490.14 112.358 295.672 1148.03 161.569 134.103
internal_count=512394 436999 243875 193124 114197 80350 129678 112774 63515 86143 75395 96656 83858 66664 33022 28054 33344 10636 16835 55404 41890 30739 52777 54766 50514 12094 18953 28916 22386 8731 27887 4741 10738 6135 9101 38777 13304 21028 14583 25127 2105 12108 2596 915 10372 7888 4030 556 3474 2932 13019 13650 8300 8794 1351 1190 879 6283 472 1245 4856 680 565
is_linear=0
shrinkage=0.0449347


Tree=3
num_leaves=64
num_cat=0
split_feature=36 2 24 2 24 24 2 2 24 2 2 24 2 36 23 22 24 24 2 36 0 0 22 36 36 24 0 2 24 23 2 2 2 19 18 23 0 29 23 24 2 2 25 2 0 24 0 10 18 25 24 10 24 18 24 20 18 23 5 2 29 36 19
split_gain=9623.35 6316.51 4127.07 2114.98 1512.29 1185.55 901.303 828.59 676.14 662.733 598.108 449.791 407.826 391.167 331.868 283.391 281.58 252.402 246.895 231.003 178.552 176.914 168.603 160.048 154.484 154.274 119.287 112.782 109.34 108.499 105.944 102.802 95.3358 85.9853 83.2227 79.6225 76.9536 72.9117 71.1828 71.1103 69.3524 55.1851 55.0499 48.2732 37.5422 37.5203 36.9929 36.0513 34.062 33.8155 28.5539 27.4695 25.0719 24.7478 23.384 22.5102 19.3714 14.359 14.2744 12.8552 11.263 8.56898 4.05134
threshold=1.0000000180025095e-35 94.500000000000014 1369.0000000000002 75.500000000000014 1246.7500000000002 889.4000000000002 132.50000000000003 65.500000000000014 1764.0500000000002 132.50000000000003 141.50000000000003 1441.9000000000003 56.500000000000007 1.5000000000000002 0.64575028195488737 0.86110526315789493 664.15000000000009 1816.8000000000004 66.500000000000014 1.5000000000000002 28.500000000000004 71.500000000000014 0.81296491228070189 1.5000000000000002 1.5000000000000002 1634.9000000000003 62.500000000000007 202.50000000000003 1816.8000000000004 0.61748374060150391 198.50000000000003 92.500000000000014 196.50000000000003 0.49041666666666678 0.73083333333333356 0.61556281328320817 64.500000000000014 4.8559213341406453 0.68432095864661668 947.4000000000002 55.500000000000007 65.500000000000014 8781.0000000000018 56.500000000000007 24.500000000000004 2084.4000000000001 68.500000000000014 61.500000000000007 0.79735714285714299 9176.5000000000018 1741.1500000000003 57.500000000000007 699.10000000000002 0.75454761904761913 1188.1500000000003 0.28510714285714295 0.70326190476190498 0.64871622807017559 6.7500000000000009 57.500000000000007 4.4484992763719129 2.5000000000000004 0.48541666666666689
decision_type=2 2 2 2 2 2 2 2 2 2 2 2 2 2 2 2 2 2 2 2 2 2 2 2 2 2 2 2 2 2 2 2 2 2 2 2 2 2 2 2 2 2 2 2 2 2 2 2 2 2 2 2 2 2 2 2 2 2 2 2 2 2 2
left_child=1 2 5 11 10 16 13 14 12 17 20 19 33 15 -7 26 44 37 -9 22 52 41 43 27 38 30 -5 36 -17 -18 -11 -14 39 -4 54 -22 -8 -6 46 -12 -24 -10 -27 -2 -1 -19 -13 -29 62 -40 -36 -34 -3 57 -15 58 -57 -21 -25 -23 -55 -50 -26
right_child=3 4 8 6 9 7 23 18 21 25 32 24 31 34 -16 28 29 45 -20 53 35 59 40 55 48 42 -28 47 -30 -31 -32 -33 51 -35 50 -37 -38 -39 49 -41 -42 -43 -44 -45 -46 -47 -48 -49 61 -51 -52 -53 -54 60 -56 56 -58 -59 -60 -61 -62 -63 -64
leaf_value=-0.05113863525260829 0.018017280478473008 -0.061218481280534448 0.0016624206384027367 0.00069587664033639123 -0.013681785787468599 -0.0054907684423546694 -0.013537227101606829 -0.05449104067104403 0.029437453717907534 -0.02927018776029008 -0.056030788475252398 0.02747582280894904 0.0042163188675685883 0.03081154492651271 0.0068333408933767513 0.014931349344129206 -0.028138368767372156 0.012709780303334235 -0.012623097570614498 0.039165368782656612 -0.034980915496295423 0.04966996140451696 0.029059750925759988 -0.011064471009337299 0.04064585927013422 -0.021021704340621946 0.016876385407338712 -0.01878544799362079 0.031393967007356659 -0.015825372190649271 -0.04823967418224584 0.028890885928170015 -0.048622301124009247 0.019827421268899206 0.011692821661161925 -0.025395425885074353 0.0092644775139568356 -0.0036152258636140541 0.036497210985368567 -0.040312686209369057 0.020360293956884167 0.018569990061852792 0.0020812537519863403 0.0078413653698175129 -0.036207225695100799 0.036697152027990614 0.038180143011466362 -0.037079606281101192 0.037128434376426517 0.047692530326072555 0.038578413303834401 -0.06342241937788598 -0.039884898713500538 -0.005285918036096301 0.046112263221996824 0.031526399281676519 0.0055102606383498768 0.049882360668399385 0.032613192697880204 0.040311201309530337 0.032023289015216186 0.058855541474724972 0.055835114518088175
leaf_weight=595.56199049949646 2469.7906748652458 406.28455044329166 564.27471415698528 4838.3869610279799 3373.5623005032539 7707.804668456316 1958.0883723497391 291.37909205257893 2427.853726580739 2059.4889122545719 956.15191972255707 3048.989917203784 9378.3747867196798 276.53120766580105 10316.738000184298 4939.2638058811426 2261.8782815486193 604.58813951909542 11830.654083326459 490.0291300714016 2829.2510299235582 585.65223230421543 4556.1270785480738 76.235121697187424 39.563299804925919 730.18755173683167 1136.0291481465101 393.40463426709175 976.12543815374374 4008.784090846777 837.33274340629578 353.7790784984827 318.93688289821148 7872.8998553156853 318.06727306544781 4604.28286062181 352.45105889439583 2553.4999079406261 3598.1693105995655 1493.7971741259098 3123.4635224342346 1547.8096920251846 290.97102083265781 1523.5319405645132 802.21446152031422 168.63538153469563 832.72106383740902 489.98576503992081 352.38965499401093 645.82289451360703 106.72981444001198 1302.4253087192774 155.53093227744102 17.21994024515152 768.52446590363979 178.40726488828659 85.992645114660263 536.98804414272308 18.749692484736443 620.73498372733593 268.21169935166836 41.811311796307564 914.49246872961521
leaf_count=2442 10372 1661 2356 20161 13933 31847 8092 1219 10218 8436 3894 12862 39006 1172 42901 20670 9290 2527 48774 2089 11591 2488 19209 320 170 3001 4756 1616 4119 16484 3407 1455 1293 32949 1338 18889 1462 10568 15227 6091 13125 6473 1198 6377 3279 708 3533 2015 1496 2751 452 5285 637 73 3284 752 358 2298 78 2625 1133 180 3929
internal_value=0.00170717 -0.00689756 0.00061306 0.0200328 -0.0271488 -0.00855902 0.00803115 -0.00454608 0.0154664 -0.0147803 -0.0380324 0.0290704 0.0113826 0.0133809 0.00156302 0.010677 -0.0243343 -0.00619513 -0.0136301 0.0236378 -0.030892 0.029784 0.0216273 -0.0120817 0.0365159 -0.0294608 0.0037733 -0.0152812 0.0176488 -0.0202676 -0.0347556 0.00511383 -0.0520532 0.018613 0.0352497 -0.0290445 -0.0100575 -0.00934555 0.0341767 -0.0464499 0.0255221 0.0252078 -0.0144359 0.014136 -0.0425739 0.0179485 0.0297737 -0.0289385 0.0506089 0.0382024 0.018461 -0.0605155 -0.0553244 0.0415142 0.0420691 0.0163412 0.0230811 0.0447753 -0.00238976 0.04486 0.0297604 0.0394519 0.0552119
internal_weight=123224 83851.3 61166.4 39372.3 22684.9 37815 16913 30146.6 23351.4 10618.3 12066.7 22459.3 18169.3 13359.7 18024.5 11889.8 7668.44 6700.29 12122 12985.4 7995.35 5182.05 11672.9 3553.31 9473.96 3917.98 5974.42 3193.93 5915.39 6270.66 2896.82 9732.15 4071.31 8437.17 1469.85 7433.53 2310.54 5927.06 8125.7 2449.95 7679.59 3975.66 1021.16 3993.32 1397.78 773.224 3881.71 883.39 1348.26 4243.99 424.797 1621.36 561.815 1312.45 1045.06 359.385 264.4 1027.02 94.9848 1206.39 285.432 394.201 954.056
internal_count=512394 346925 253806 165469 93119 156236 70645 124741 97570 43778 49341 94824 75766 55952 74748 49706 31495 27736 49993 54676 32778 21804 49083 14693 40148 16042 24917 13185 24789 25774 11843 40461 16563 35305 6246 30480 9554 24501 34373 9985 32334 16691 4199 16749 5721 3235 16395 3631 5775 17978 1790 6578 2298 5593 4456 1508 1110 4387 398 5113 1206 1676 4099
is_linear=0
shrinkage=0.0449347


Tree=4
num_leaves=64
num_cat=0
split_feature=27 23 28 28 24 24 24 28 28 28 24 28 24 25 24 24 24 24 60 24 28 28 25 28 24 28 24 25 28 28 25 23 24 28 28 24 25 24 24 28 23 25 23 28 25 24 24 27 28 13 25 27 25 28 28 26 6 25 22 23 11 18 18
split_gain=17371.6 7394.05 3014.13 2360.86 1622.25 1433.22 888.497 639.159 528.484 397.257 381.22 346.945 310.773 294.523 247.308 224.228 213.909 205.199 197.086 182.16 165.076 158.734 132.23 127.654 100.106 99.4238 86.6694 83.7543 79.6561 62.8144 47.7577 46.6327 45.7703 44.2016 43.9113 32.8628 28.3617 26.2446 25.2824 25.1903 21.0724 20.0654 19.3013 16.2417 15.9395 15.364 13.9887 11.6146 11.0507 9.97635 9.71034 9.34035 9.1876 7.54472 7.24341 7.02764 5.60895 4.19357 3.46008 3.45558 2.96801 2.79608 1.45304
threshold=26.500000000000004 0.65129830827067681 4.8940944640863338 4.3502571242716384 1131.7500000000002 1510.4500000000003 1669.7500000000002 4.3372693810700085 4.1971736807086968 4.7749040587885982 1087.0000000000002 4.8940944640863338 1239.4000000000003 8628.0000000000018 1549.9000000000003 1095.1500000000003 791.05000000000007 1246.7500000000002 1.0000000180025095e-35 699.10000000000002 3.5114340430413216 4.8940944640863338 8903.0000000000018 5.2958110956362647 761.70000000000016 4.0517471391904856 1457.6000000000001 8061.0000000000009 5.2652741739841078 4.0342014792848504 8448.5000000000018 0.68897913533834598 1871.5500000000004 5.0968083143154814 4.9089648320872419 864.10000000000014 8995.0000000000018 817.40000000000009 1078.1500000000003 4.1971736807086968 0.64961403508771942 7684.5000000000009 0.63679266917293242 4.9593358439305844 2610.0000000000005 930.90000000000009 870.60000000000025 31.500000000000004 4.6395599436855051 87.500000000000014 7556.0000000000009 68.500000000000014 8578.0000000000018 5.0072908000208587 3.5114340430413216 4480.1000000000013 26.550000000000004 8342.0000000000018 0.99971929824561423 0.72782490601503769 159.50000000000003 0.6516428571428573 0.68173809523809548
decision_type=2 2 2 2 2 2 2 2 2 2 2 2 2 2 2 2 2 2 2 2 2 2 2 2 2 2 2 2 2 2 2 2 2 2 2 2 2 2 2 2 2 2 2 2 2 2 2 2 2 2 2 2 2 2 2 2 2 2 2 2 2 2 2
left_child=1 2 4 5 8 10 11 18 16 17 24 12 -5 25 -9 28 -1 29 -6 -10 -12 22 -8 27 -3 -7 33 -17 37 40 -25 39 -15 46 -13 48 -23 -4 49 51 45 -41 -37 57 -30 -2 47 -11 -31 -35 54 -19 55 -48 -33 -45 -40 58 -28 -52 -42 -54 -59
right_child=9 3 15 6 7 13 21 14 19 26 20 34 -14 32 -16 23 -18 31 -20 -21 -22 36 -24 30 -26 -27 43 -29 44 35 -32 50 -34 38 -36 42 -38 -39 56 41 60 -43 -44 52 -46 -47 53 -49 -50 -51 59 -53 61 -55 -56 -57 -58 62 -60 -61 -62 -63 -64
leaf_value=-0.026049480448612102 0.034544506667115643 -0.020419547599753 -0.053761515724600743 -0.017926217132625346 -0.00053560887869541832 0.024184992244644724 0.0085329763304376298 -0.015871094214980317 -0.044649791867895298 0.028673709917351971 0.020313483639447877 -0.052872462296106294 -0.0034782489262927272 0.02944924608771491 0.0023908460016217143 -0.033252907267213541 -0.0098731522787490374 0.049547050130310341 0.012876385991845906 -0.026324866209695701 0.007503730440316444 -0.01341917858956131 0.026088669907058899 -0.048446376695446741 -0.001959023731271181 0.015146581909598731 0.040883953420561343 -0.0090521289557054952 -0.081880508315403153 0.028706383692561562 -0.022583600429846237 0.05931042502498473 0.040285851032103234 -0.016159364072373866 -0.026854345614591647 0.033843026386807133 0.0049904613579460884 -0.042858384224359516 0.012856312062001463 0.042232947655009886 0.034591740552985493 0.050957774726319148 0.040853426671771859 0.0052137483096098671 -0.058924580974501227 0.044521290023487189 0.024382909567529774 0.00086153867502708373 0.010194457759895302 0.0036689705369270234 0.055826616617908949 0.057781875046164922 0.027569886277161788 0.035398525400540094 0.051222987567148839 0.029959994013949356 0.027136046912072262 0.061119162193487411 0.060799251049434754 0.061184020485884685 0.049409649080345557 0.048953834544481399 0.04826664770636805
leaf_weight=2173.524675577879 491.14966091513634 673.5397029966116 635.39409936964512 4843.4073775559664 8617.5714305788279 6426.0373170673847 2942.5433827638626 8258.9151155650616 1226.1375617831945 47.003612786531448 2392.0538711547852 140.58730658888817 7925.9028659313917 1289.7047533690929 1828.4736875593662 2602.4850980937481 6866.0813381522894 2682.9870920032263 2976.042974293232 10322.609284475446 13483.259081825614 573.68866354227066 1228.2985751032829 1548.7811877131462 4968.7799101471901 3984.1800537258387 183.74205301702023 325.27882297337055 65.507527336478233 581.67061303555965 159.71385149657726 269.52082754671574 2037.2815158516169 80.214703947305679 1981.1708831489086 1461.8263036608696 239.14694356918335 1537.0415299832821 208.0918944478035 2089.5023098289967 30.213853478431702 724.38272042572498 1767.3177994191647 26.448315992951393 1253.7163285166025 882.54079166054726 665.06091822683811 85.879617691040039 74.073281079530716 141.08300064504147 817.16557018458843 319.70234586298466 16.577410385012627 157.48383873701096 1659.3641723841429 209.86097809672356 76.854204669594765 44.863757252693176 20.694775432348251 391.44570705294609 1223.2204593122005 66.102307483553886 40.383995786309242
leaf_count=8866 2101 2752 2567 19868 35737 27207 12303 33948 4974 198 10036 577 32833 5470 7579 10581 28290 11622 12458 42176 56306 2355 5193 6250 20632 16744 787 1332 265 2468 650 1174 8738 332 8062 6224 988 6217 870 8976 131 3132 7566 112 5045 3792 2812 358 314 583 3569 1397 71 662 7196 887 320 194 89 1711 5291 281 175
internal_value=0.0016357 -0.00524647 -0.0176868 0.00612591 -0.0128678 0.0131077 -0.00625862 -0.00428937 -0.0219014 0.0430497 0.00586845 -0.011755 -0.0089587 0.0244468 -0.0125606 -0.0427469 -0.0137632 0.0455245 0.00290699 -0.028271 0.00943416 0.0101637 0.0137042 -0.0362663 -0.00416352 0.0207263 0.0245601 -0.0305656 -0.0513501 0.0394516 -0.0460317 0.0499404 0.0360868 0.0186213 -0.0285816 0.0358162 -0.0079989 -0.0460506 0.0078755 0.0475515 0.044825 0.0444814 0.0376817 0.038812 -0.0600715 0.0409586 0.0243107 0.0107342 0.0266216 -0.0035068 0.0543668 0.0504263 0.0317691 0.0264989 0.052357 0.0272065 0.0167252 0.0465459 0.0429373 0.0575681 0.0490571 0.0447342 0.0551163
internal_weight=123063 105527 50397.3 55129.6 42269.4 35254.8 19874.7 21681 20588.4 17536.4 21517.6 14891.1 12769.3 13737.2 10087.4 8127.92 9039.61 15466.1 11593.6 11548.7 15875.3 4983.68 4170.84 4636.26 5642.32 10410.2 2070.35 2927.76 3491.66 6512.01 1708.5 8954.07 3326.99 1461.67 2121.76 3884.89 812.836 2172.44 506.244 5816.57 2627.12 2813.89 3229.14 608.674 1319.22 1373.69 955.428 132.883 655.744 221.298 3137.5 3002.69 318.989 822.545 1928.88 236.309 284.946 289.685 204.437 1208.61 1253.43 82.6797 85.2478
internal_count=512394 436999 206935 230064 174028 147885 82179 89722 84306 75395 89726 61340 52701 58159 41527 32907 37156 66664 48195 47150 66342 20839 17496 18813 23384 43951 8731 11913 14094 27887 6900 38777 14208 6135 8639 16572 3343 8784 2105 25127 11315 12108 13790 2596 5310 5893 4030 556 2782 915 13650 13019 1351 3474 8370 999 1190 1245 876 5280 5422 352 369
is_linear=0
shrinkage=0.0449347


Tree=5
num_leaves=64
num_cat=0
split_feature=27 23 2 2 24 24 24 2 2 0 2 24 2 0 24 24 0 0 24 24 23 2 2 0 2 2 24 0 0 0 24 2 2 10 15 2 23 2 24 24 2 23 10 2 2 13 21 2 24 25 10 52 23 10 0 24 8 23 26 13 9 14 14
split_gain=16003.6 6779.74 2724.58 2104.01 1531.57 1336.13 768.073 566.105 511.095 428.517 379.643 361.153 261.864 235.35 218.394 213.208 208.558 196.173 185.765 185.484 137.208 134.493 129.443 129.42 108.743 107.466 105.452 75.3321 71.1272 66.8143 65.5735 65.0234 52.8156 52.2528 50.1422 41.3862 34.5138 26.9325 22.8181 22.4724 22.3378 17.8444 16.0131 14.976 13.3538 11.2861 10.5507 9.93456 9.90166 8.74261 9.67278 8.23259 7.87561 7.04287 6.48231 6.39163 6.36671 6.02929 5.5277 4.58374 3.93936 2.48817 0.956618
threshold=26.500000000000004 0.65129830827067681 132.50000000000003 76.500000000000014 1131.7500000000002 1381.9500000000003 1741.1500000000003 75.500000000000014 64.500000000000014 67.500000000000014 102.50000000000001 1201.6000000000001 132.50000000000003 68.500000000000014 889.4000000000002 1421.3500000000001 68.500000000000014 28.500000000000004 1087.0000000000002 791.05000000000007 0.68897913533834598 196.50000000000003 32.500000000000007 71.500000000000014 115.50000000000001 132.50000000000003 1457.6000000000001 71.500000000000014 40.500000000000007 71.500000000000014 1646.7000000000003 162.50000000000003 169.50000000000003 61.500000000000007 1.0000000180025095e-35 53.500000000000007 0.64790748746867177 151.50000000000003 864.10000000000014 1042.9000000000003 141.50000000000003 0.64871622807017559 67.500000000000014 43.500000000000007 192.50000000000003 89.500000000000014 0.46805000000000008 45.500000000000007 809.1500000000002 8378.5000000000018 74.500000000000014 1.0000000180025095e-35 0.69468941102756909 68.500000000000014 70.500000000000014 996.70000000000016 131.50000000000003 0.6624710213032583 3847.8499999999999 93.500000000000014 83.500000000000014 132.50000000000003 132.50000000000003
decision_type=2 2 2 2 2 2 2 2 2 2 2 2 2 2 2 2 2 2 2 2 2 2 2 2 2 2 2 2 2 2 2 2 2 2 2 2 2 2 2 2 2 2 2 2 2 2 2 2 2 2 2 2 2 2 2 2 2 2 2 2 2 2 2
left_child=1 2 4 5 8 14 11 16 19 20 18 24 -13 -9 34 21 -6 -10 36 -1 -7 28 -16 25 -5 -8 31 -11 -4 32 35 38 -17 -23 -3 52 43 -25 48 45 56 -37 -40 55 -31 -33 58 -45 -12 50 -42 -48 -20 -41 57 -2 60 -32 -38 -51 -28 -58 -56
right_child=10 3 15 6 7 9 23 13 17 27 26 12 -14 -15 22 29 -18 -19 30 -21 -22 33 -24 37 -26 -27 40 -29 -30 44 54 39 -34 -35 -36 41 46 -39 42 53 49 -43 -44 47 -46 -47 51 -49 -50 59 -52 -53 -54 -55 62 -57 61 -59 -60 -61 -62 -63 -64
leaf_value=-0.024434014241416887 0.036236836927016194 -0.012612548394439078 -0.047432796385324244 -0.016476105222454272 0.0013259804839006815 0.012990689817524376 0.011753774101997277 -0.013454603139685044 -0.045734251230980807 0.029016557149736368 0.019693843661476935 -0.0027090965117092698 -0.022032334253404267 0.014832537915273407 0.014896904478032245 -0.019609569252598696 0.026648429657832266 -0.025332804792691434 0.048389849285535524 -0.009193493283902834 0.021482117424901841 -0.044685269829255865 0.0031618825246529894 0.030308558308528664 -0.032281644425562618 -0.011887307964096113 0.043931363020620645 0.042403250704775408 -0.035085720358585704 0.017051165555093378 0.046944725299935347 -0.016854330765286692 -0.036624509519840955 -0.058280416468528162 0.030113097668762766 0.039680192993842074 0.019056200245705444 0.0041315146249582598 0.033516083400786184 0.018951914281679465 0.027677620271555112 0.045292549883624994 0.023931062206508834 0.011199446895964599 -0.011574682273564023 0.0048918566804861657 0.036987115034115434 0.030965190405570681 -0.00099209022143579499 0.018493269307837661 -0.0069211490317047843 0.01559747701094218 0.053634105738907784 0.0024434188637678859 0.05648732481693574 0.048238540534323304 0.047462852277548526 0.05394630961400089 0.043991536042052547 0.044946486516353086 0.032376760727726196 0.060315419507358428 0.060686359221588479
leaf_weight=2121.9762883484364 351.03393684327602 1817.1591652929783 1441.7900771796703 3725.2387026250362 10883.671328604221 7237.4273318201303 2417.7224389314651 9503.1925899684429 1044.4727336168289 1887.86929038167 123.2928998619318 9580.1963117420673 1661.7294078171253 633.30115613341331 2250.3853855729103 689.90509139001369 698.84680327773094 10772.110373228788 2582.8951234668493 6720.5279761105776 8198.6854820847511 968.1851062476635 12124.996209725738 789.01929335296154 1151.33660595119 462.31565426290035 429.96154461801052 1547.8692736625671 2737.8011730164289 74.824760168790817 310.86019876599312 81.203500762581825 794.08936400711536 1408.4042632430792 57.095210283994675 1900.351757094264 18.895568862557411 88.583798184990883 636.39826026558876 242.08361294865608 198.96687468886375 2958.3631246984005 800.38326393067837 53.625480577349663 58.504002392292023 117.97725549340248 229.46197898685932 1663.3591776490211 74.72979462146759 16.285278961062431 17.584262952208519 44.020622074604034 775.63676400482655 67.133348047733307 340.26893132925034 124.90090295672417 73.714894995093346 1570.5175307691097 1040.7828253507614 87.314141616225243 73.22059465944767 62.268913149833679 253.61385443806648
leaf_count=8613 1522 7459 5789 15217 45224 30581 10167 38970 4211 8084 520 39659 6747 2645 9453 2801 2962 43790 11364 27629 34764 3873 50563 3372 4671 1896 1880 6758 11042 307 1372 335 3205 5637 234 8252 83 367 2725 1013 847 12948 3431 234 238 488 991 7159 315 70 75 191 3437 282 1517 544 324 6975 4553 377 321 274 1133
internal_value=0.00160282 -0.0049666 -0.0168452 0.00595169 -0.0122637 0.0125634 -0.00573119 -0.0039321 -0.0210225 0.0206961 0.0416348 -0.00999624 -0.00556578 -0.0116869 0.00311807 -0.040599 0.00285429 -0.0271366 0.0447427 -0.0128514 0.0175011 -0.0442044 0.00499923 0.0125628 -0.0202088 0.00795748 0.0273895 0.0350493 -0.0393465 -0.0259801 0.0476935 0.0218423 -0.0287179 -0.0527449 -0.0113081 0.045758 0.0357932 0.0276705 0.0262078 0.0077967 0.0397763 0.0430987 0.0281804 0.0323172 0.00446671 -0.00396065 0.0415064 0.0303503 0.0118737 0.0300426 0.0248519 0.0335612 0.0496031 0.0153797 0.0541158 0.0394004 0.0446427 0.0527931 0.0435513 0.0408357 0.0422615 0.053402 0.0582934
internal_weight=122870 105549 50551.6 54997.6 42378.1 35121.5 19876.1 21719 20659.1 18871.9 17321.1 16118.5 11241.9 10136.5 16249.6 8173.5 11582.5 11816.6 14218.6 8842.5 15436.1 6556.18 14375.4 3757.64 4876.58 2880.04 3102.52 3435.74 4179.59 1617.32 10692.5 2143.2 1483.99 2376.59 1874.25 8217.25 3526.08 877.603 1634.8 508.398 959.317 4858.71 1436.78 2192.92 133.329 199.181 1333.16 1716.98 198.023 320.151 216.551 273.483 3358.53 309.217 2475.26 475.935 639.166 1881.38 1059.68 103.599 503.182 135.984 593.883
internal_count=512480 436928 206936 229992 174044 147896 82096 89801 84243 80187 75552 66294 46406 41615 67709 32892 48186 48001 62275 36242 65345 26341 60016 15802 19888 12063 13277 14842 16831 6551 46998 9109 6006 9510 7693 36001 15277 3739 6991 2118 4168 21200 6156 9459 545 823 5818 7393 835 1369 922 1182 14801 1295 10997 2066 2799 8347 4636 447 2201 598 2650
is_linear=0
shrinkage=0.0449347


Tree=6
num_leaves=63
num_cat=0
split_feature=15 24 21 21 24 24 21 21 21 30 21 23 23 24 23 30 24 24 30 30 24 23 21 21 23 30 24 21 14 24 30 23 35 30 21 21 30 23 24 30 21 19 30 23 30 24 3 30 21 23 21 23 25 22 19 30 23 14 3 21 8 14
split_gain=14775.1 6274.26 3111.09 2150.21 1006.29 776.263 644.853 626.303 510.684 376.919 347.812 289.16 258.092 228.779 211.764 199.142 195.344 190.143 146.195 119.89 112.428 105.621 95.6186 91.8133 87.6041 86.7768 81.3714 74.3322 61.3638 59.2392 46.6197 41.0405 40.5763 38.7437 37.2939 36.4133 34.3025 29.4524 25.9526 24.8721 21.7717 19.6804 17.052 16.826 13.5623 12.4602 11.1701 11.9977 9.6881 9.45044 9.34354 8.95886 8.03809 7.87581 7.19988 5.94034 7.4707 5.44281 4.74074 4.72484 4.5883 1.4504
threshold=1.0000000180025095e-35 1336.45 0.60190000000000021 0.50780000000000014 850.35000000000014 1734.1000000000001 0.87325000000000019 0.36825000000000002 0.97505000000000008 4692.5000000000009 0.61460000000000015 0.6385713345864662 0.67467935463659157 924.90000000000009 0.66202048872180463 5112.5000000000009 1118.7500000000002 682.80000000000007 4556.5000000000009 4556.5000000000009 1082.6500000000003 0.66645986842105276 0.24460000000000004 1.0893000000000002 0.71522753759398505 756.50000000000011 952.10000000000002 0.33545000000000008 108.50000000000001 1646.7000000000003 552.50000000000011 0.61429959273182966 1.0000000180025095e-35 650.50000000000011 1.2391500000000002 0.33310000000000012 5112.5000000000009 0.64915300751879712 1494.1500000000003 5112.5000000000009 0.38205000000000006 0.70958333333333357 4160.5000000000009 0.64871622807017559 702.50000000000011 864.10000000000014 4.7500000000000009 600.50000000000011 0.75245000000000017 0.65430980576441111 0.19695000000000004 0.56412149122807032 8540.5000000000018 1.0248947368421055 0.49041666666666678 4970.5000000000009 0.65004489348370942 141.50000000000003 5.3500000000000005 0.75975000000000004 137.50000000000003 131.50000000000003
decision_type=2 2 2 2 2 2 2 2 2 2 2 2 2 2 2 2 2 2 2 2 2 2 2 2 2 2 2 2 2 2 2 2 2 2 2 2 2 2 2 2 2 2 2 2 2 2 2 2 2 2 2 2 2 2 2 2 2 2 2 2 2 2
left_child=1 2 4 5 17 12 9 11 13 21 16 -6 19 25 -9 24 31 30 23 -3 34 -5 -14 -8 -7 -4 33 -19 -15 35 -1 44 42 -10 46 50 -11 -28 48 -20 49 -17 53 -37 58 -42 59 -48 -34 -33 -18 -46 -40 -22 -36 56 -31 -56 -2 -12 -44 -57
right_child=10 3 8 6 7 15 18 14 26 36 20 -13 22 28 -16 41 29 27 39 -21 32 -23 -24 -25 -26 -27 37 -29 -30 55 -32 40 38 -35 54 43 -38 -39 52 -41 45 -43 60 -45 51 -47 47 -49 -50 -51 -52 -53 -54 -55 57 61 -58 -59 -60 -61 -62 -63
leaf_value=-0.047351543515093582 -0.011860151297666561 0.0044443204318413395 -0.055486719574396222 -0.0089712793948522294 -0.0072209895137878713 0.018493802982280153 -0.019611584504525287 -0.01511175804180308 -0.078400513809994826 0.012271430472491173 0.010347896406414044 0.0039940499798966191 0.020829403249965166 -0.02779530351945703 -0.003831132471845904 0.036964240373670541 0.051068040536937913 -0.013772757026648531 -0.010998308811413823 0.021711403795560958 0.01785215588151844 0.00036054856990030526 0.01208265335223547 -0.035792106383741612 0.029733226725361939 -0.033766873418017609 -0.041514735552416943 -0.024723571336680898 -0.019652592097593694 0.042394519643588903 -0.031695739911856577 0.037321407899858397 0.035619977624271333 -0.05027420333169616 -0.024387098260847038 0.037667674633568758 0.025636902342443993 -0.029143318946858832 0.040136315212724712 0.0075588283273958362 0.023986167599662947 0.048612137881977845 0.034495358711255218 0.043893645746800145 0.013933574424953226 0.035188349776771002 -0.010110310648115479 0.020712336988366317 0.027223186810295202 0.043803114565777256 0.046184157294002937 0.029581691620712728 0.051343075061531837 0.048318019539474448 -0.0037795621266931462 0.054516835852989762 0.052373969052057261 0.024375901758231712 0.015353167515683792 -0.020412237700619784 0.060806652630275647 0.05949099334249236
leaf_weight=553.20866909623146 20.288409575819969 11273.336817532778 435.43586798012257 5143.9374512284994 7189.7126423120499 3920.0344422161579 1410.1544667929411 11507.954153805971 106.52156709134579 742.85804779827595 20.878564894199371 13099.227096408606 3910.1711861491203 2844.10087454319 4747.0093727856874 1513.0654722899199 1204.8659756928682 2394.1464390456676 354.1720008701086 875.00086405873299 470.5477879345417 4673.0280102938414 7127.9482535868883 1425.7350986003876 2181.7462519705296 2557.0776298493147 2552.1289735734463 2627.9339964836836 5471.8696279376745 172.93346454203129 1270.1903290897608 956.13762916624546 659.3118634223938 1510.43195566535 30.906599104404449 1454.5603885054588 814.58986034989357 461.64739213883877 481.97032248973846 247.62557201087475 268.72125621140003 367.30289797484875 99.53332494199276 2270.9210766851902 81.67959862947464 825.60327297449112 26.0795057117939 874.98429983854294 491.02288797497749 898.79358741641045 2481.0022222995758 888.02487690746784 182.77382729947567 17.87824709713459 107.81956017017365 315.22683288156986 1672.7133762389421 15.830099150538443 34.98726686835289 19.253896549344063 16.073907718062401 261.45011988282204
leaf_count=2230 82 47193 1748 21153 29574 16763 5736 47009 427 3127 88 54535 16640 11531 19581 6657 5413 9749 1449 3715 1999 19409 30065 5738 9383 10299 10200 10658 22199 776 5113 4188 2888 6027 127 6406 3481 1857 2136 1024 1148 1623 432 10098 354 3611 104 3742 2126 3992 11107 3866 821 76 446 1436 7574 65 141 80 70 1195
internal_value=0.00153743 -0.00478843 -0.0144442 0.00767027 -0.00820746 0.0143689 -0.00642521 -0.00524559 -0.0314214 -0.00127052 0.0399939 1.96493e-05 0.0102079 -0.0262734 -0.0118177 0.0264552 0.0432069 -0.0240184 -0.0234794 0.0056884 0.0273704 -0.00452889 0.0151815 -0.0277482 0.0225134 -0.0369297 -0.0439916 -0.019504 -0.0224381 0.0466059 -0.0364491 0.0347949 0.0327804 -0.0521327 0.0154224 0.0446075 0.0192649 -0.0396215 0.0361412 -0.00335714 0.0374905 0.0392431 0.0226727 0.0414645 0.0270333 0.0324423 0.0187822 0.0198159 0.0320406 0.0404655 0.0477825 0.0282681 0.043228 0.0189812 -0.00501609 0.0527174 0.0514424 -0.000136325 0.00530407 -0.00434007 0.0382187 0.056785
internal_weight=122632 105309 59328.6 45980.7 43389.4 31168.6 14812.1 36543.9 15939.2 11374.4 17322.8 20288.9 23186.5 11308.5 16255 7982.15 13807.9 6845.48 3437.69 12148.3 3514.86 9816.97 11038.1 2835.89 6101.78 2992.51 4630.73 5022.08 8315.97 9833.67 1823.4 3974.24 2419.11 1616.95 1095.75 7411.35 1557.45 3013.78 1815.08 601.798 2949.26 1880.37 604.033 3725.48 1024.98 1094.32 941.196 901.064 1150.33 1854.93 3685.87 969.704 664.744 488.426 154.556 2422.32 1845.65 123.65 55.2757 40.1325 115.607 576.677
internal_count=512480 435893 242737 193156 178449 132039 61117 150699 64288 47170 76587 84109 97613 45777 66590 34426 61387 27750 13947 50908 15200 40562 46705 11474 26146 12047 18511 20407 33730 44005 7343 17382 10548 6454 4652 33024 6608 12057 7971 2473 12939 8280 2577 16504 4443 4759 4014 3846 5014 8180 16520 4220 2957 2075 638 10981 8350 511 223 168 502 2631
is_linear=0
shrinkage=0.0449347


Tree=7
num_leaves=64
num_cat=0
split_feature=27 23 2 2 24 24 24 2 2 2 24 2 24 24 2 24 30 24 24 24 30 2 25 30 24 30 24 24 23 2 24 24 2 2 21 23 24 2 21 24 2 21 23 13 13 21 13 24 24 6 25 23 14 11 27 8 23 1 6 9 9 14 14
split_gain=13709.8 5692.77 2542.34 1517.67 1285.08 1003.43 567.995 529.631 385.741 350.798 335.061 323.536 311.458 277.586 247.044 220.547 190.92 172.321 146.026 138.295 125.929 119.185 118.086 113.521 108.71 96.7964 94.8745 91.0369 79.1009 75.6748 67.5266 62.5435 56.5404 39.3415 35.6175 32.2173 20.6774 20.617 20.2875 19.1503 18.8121 17.1145 16.6637 12.5425 12.4929 10.9783 9.92934 9.15557 8.28496 8.15862 7.91911 7.83872 6.67655 6.56747 6.30471 6.14664 6.00986 5.43962 5.43385 4.67195 3.83777 2.4732 0.937338
threshold=26.500000000000004 0.65772083333333342 102.50000000000001 76.500000000000014 1131.7500000000002 1607.3000000000004 1741.1500000000003 162.50000000000003 56.500000000000007 102.50000000000001 1239.4000000000003 56.500000000000007 1250.1000000000001 1481.0500000000004 132.50000000000003 1228.6500000000003 5112.5000000000009 1087.0000000000002 682.80000000000007 864.10000000000014 5112.5000000000009 31.500000000000004 7816.0000000000009 4692.5000000000009 850.35000000000014 5112.5000000000009 1457.6000000000001 781.60000000000014 0.71522753759398505 132.50000000000003 952.10000000000002 1646.7000000000003 162.50000000000003 53.500000000000007 0.88570000000000004 0.61429959273182966 864.10000000000014 141.50000000000003 0.75975000000000004 1042.9000000000003 55.500000000000007 1.3594500000000003 0.64871622807017559 115.50000000000001 134.50000000000003 0.72385000000000022 89.500000000000014 809.1500000000002 963.25000000000011 26.850000000000005 8378.5000000000018 0.69468941102756909 138.50000000000003 174.50000000000003 70.500000000000014 131.50000000000003 0.68549320175438599 4.5000000000000009 21.050000000000004 84.500000000000014 83.500000000000014 132.50000000000003 132.50000000000003
decision_type=2 2 2 2 2 2 2 2 2 2 2 2 2 2 2 2 2 2 2 2 2 2 2 2 2 2 2 2 2 2 2 2 2 2 2 2 2 2 2 2 2 2 2 2 2 2 2 2 2 2 2 2 2 2 2 2 2 2 2 2 2 2 2
left_child=1 2 4 5 11 10 14 12 23 17 24 19 27 -10 15 -5 28 35 -13 -1 -14 -12 30 -6 -3 29 32 -4 -7 -8 -9 33 36 51 -16 45 47 55 -27 46 57 -24 -35 -38 -18 48 -34 -11 -2 -42 52 -19 -39 -47 56 60 -33 -37 -41 -52 -28 -57 -56
right_child=9 3 7 6 8 16 25 22 13 26 21 18 20 -15 34 -17 44 31 -20 -21 -22 -23 41 -25 -26 38 37 -29 -30 -31 -32 54 39 42 -36 40 43 50 -40 58 49 -43 -44 -45 -46 53 -48 -49 -50 -51 59 -53 -54 -55 62 61 -58 -59 -60 -61 -62 -63 -64
leaf_value=-0.017663578865531895 0.024415070429574415 -0.012286501786286869 -0.042227346328636117 -0.014542439824006303 0.0056936187302127073 0.019057478859794277 0.011380875332609943 -0.052170530969568314 -0.0092445838445208619 0.018084147447213813 0.022749790169648846 -0.03699575906247729 -0.015895491556908656 0.0050384519818298347 -0.016541008545489688 -0.0013926730065041148 0.038231679864299928 0.045797286779823469 -0.019747814641323767 -0.0048791192837464754 0.022291620374236588 0.010290246029982445 -0.01199486157714646 0.027950645490372426 0.0025976022615867836 0.029704895962995876 0.041376883928908897 -0.027586402865554506 0.02849857680545774 -0.0093024842790845573 -0.04009649605795948 0.046863017362031148 -0.015919579074362915 0.037230815282353717 -0.028860600693495532 0.041009484615094197 0.023898230937751942 0.017145047541555925 0.012330325926203719 0.034062334344498409 0.030516178775676191 -0.028609945749700088 0.042734321265247649 0.034312660702872443 0.049441608481102371 0.022337331613201152 0.0044618071769049819 -0.0018877732776670911 0.033657609578297096 0.038491601761047586 0.042745144671022854 0.051125219689137504 0.034052681609517119 -0.013386924677880762 0.053927578021606346 0.044844147282025917 0.05229654152885721 0.02205083775035057 0.012202367485555173 0.016672336324319859 0.029826627491918254 0.057869416233527156 0.058159568177252464
leaf_weight=2641.9779663383961 606.33378130197525 1135.7780770510435 1011.7274074405432 3797.7480179816484 7556.042607948184 5265.4177714884281 2285.0595006793737 1316.1779711991549 10003.148796200752 121.81992763280869 1800.3887407183647 1093.7460947036743 4089.418745547533 3787.3046948462725 898.28086741268635 8002.4248306006193 1167.1085097044706 2492.5131941735744 10620.102889254689 4838.1324980705976 181.99681197106838 11180.940574377775 242.28966873884201 492.92921063303947 7757.7261430323124 626.90702271461487 416.56042818725109 5675.9457959681749 2720.7438341379166 423.10580863058567 3266.0558409690857 697.84084048867226 81.53999200463295 1848.895116969943 1008.2533645778894 1101.6093066930771 1111.3535314500332 140.71441130340099 174.2753923535347 25.18670442700386 1007.8445655703545 261.37821811437607 2863.8011843264103 298.76872877776623 246.78144545853138 19.868319481611252 117.6868854612112 74.31468877196312 295.15197017788887 356.77520716190338 83.414476484060287 745.81456173956394 72.321779265999794 21.538233071565628 325.65703946352005 71.154764637351036 1109.2815992832184 32.485070928931236 281.14660820364952 17.32838186621666 71.236870408058167 59.727714776992798 241.7250642478466
leaf_count=10690 2657 4628 4040 15430 31538 22637 9671 5231 41079 520 7684 4375 16646 15824 3625 33130 5245 11364 43013 19885 764 47257 979 2136 32386 2738 1880 22806 11795 1727 13016 3200 335 8252 4051 4958 4849 609 739 106 4449 1050 12948 1307 1113 86 488 315 1302 1584 370 3437 313 94 1517 324 5147 147 1189 77 321 274 1133
internal_value=0.00147478 -0.0045269 -0.0141446 0.00679395 -0.0082143 0.012692 -0.00392039 -0.0293103 -0.000759267 0.0391631 0.00741557 -0.0166966 -0.0237478 -0.00532176 -0.00805038 -0.00562511 0.0249704 0.0422158 -0.0213588 -0.00939516 -0.0142673 0.0120186 -0.0412953 0.00705732 0.000696322 0.0122093 0.0253558 -0.0298023 0.0222745 0.00814809 -0.0435661 0.0451194 0.0200802 0.0432043 -0.0230587 0.0335027 0.0242058 0.0372981 0.0259311 0.00696436 0.0361778 -0.0206266 0.0405765 0.0261088 0.0401931 0.0264076 -0.00386664 0.0105026 0.0274473 0.0326057 0.0278721 0.0470265 0.02291 0.00368665 0.0515294 0.0420696 0.0502021 0.0404708 0.0140181 0.0383082 0.0397016 0.0508426 0.0557437
internal_weight=122381 105569 57078.4 48490.9 41033.4 31274.9 17216.1 16045 21839.4 16811.4 21874.8 19194 10959.1 13790.5 13706.7 11800.2 9400.05 13767.1 11713.8 7480.11 4271.42 12981.3 5085.9 8048.97 8893.5 3509.35 3044.28 6687.67 7986.16 2708.17 4582.23 10325.5 2111.82 7951.02 1906.53 3441.61 1606.26 932.459 801.182 505.56 2498.71 503.668 4712.7 1410.12 1413.89 942.892 199.227 196.135 901.486 1364.62 313.779 3238.33 213.036 41.4066 2374.5 618.68 1807.12 1134.09 306.333 100.743 487.797 130.882 567.382
internal_count=512480 436928 233072 203856 168540 132745 71111 64532 90577 75552 91955 77963 44256 56903 56236 48560 40790 62275 47388 30575 17410 54941 20276 33674 37014 14875 13277 26846 34432 11398 18247 46998 9109 36001 7676 15277 6991 4168 3477 2118 11138 2029 21200 6156 6358 4139 823 835 3959 6033 1369 14801 922 180 10997 2799 8347 5105 1295 447 2201 598 2650
is_linear=0
shrinkage=0.0449347


Tree=8
num_leaves=63
num_cat=0
split_feature=27 21 25 0 25 21 0 21 22 14 0 21 22 0 21 0 25 22 0 0 19 21 14 21 0 0 21 0 0 22 35 10 25 25 21 19 14 14 21 21 19 25 0 22 19 22 19 0 14 0 21 21 19 14 22 25 25 3 0 10 25 5
split_gain=12701.2 4963.73 2583.48 1217.45 794.478 694.919 563.143 513.561 381.757 354.212 334.815 313.629 277.939 234.638 198.937 184.416 168.984 163.024 148.967 141.679 139.17 122.433 114.589 94.8203 86.2039 80.4399 65.5891 64.017 57.3524 56.7942 42.8587 39.7279 38.4756 37.2652 29.0852 28.7849 27.0523 25.3674 23.2988 22.5132 21.8458 17.6544 16.889 14.5258 12.9284 12.4147 11.7943 10.4732 10.245 9.30652 8.20234 7.95484 7.24477 6.00143 5.97647 4.86567 4.73738 6.5629 3.85754 3.2926 2.51628 2.22175
threshold=24.500000000000004 0.52810000000000012 6649.5000000000009 53.500000000000007 4746.5000000000009 0.9265500000000001 68.500000000000014 1.0361000000000002 0.86110526315789493 127.50000000000001 67.500000000000014 0.69425000000000014 0.8714210526315791 41.500000000000007 0.31505000000000005 28.500000000000004 5835.0000000000009 0.89454385964912297 28.500000000000004 27.500000000000004 0.57625000000000026 0.3080500000000001 127.50000000000001 0.25095000000000006 67.500000000000014 71.500000000000014 1.1943000000000001 60.500000000000007 71.500000000000014 0.87307017543859666 1.0000000180025095e-35 57.500000000000007 3265.5000000000005 7742.0000000000009 0.30390000000000006 0.53958333333333364 140.50000000000003 166.50000000000003 0.36425000000000002 0.25375000000000009 0.70625000000000027 4951.5000000000009 71.500000000000014 0.8760877192982458 0.69625000000000037 0.84307017543859664 0.46375000000000016 41.500000000000007 126.50000000000001 27.500000000000004 0.44865000000000005 1.1943000000000001 0.54291666666666683 121.50000000000001 0.85640350877192994 7366.5000000000009 8578.0000000000018 7.9500000000000011 70.500000000000014 62.500000000000007 7020.5000000000009 3.8500000000000001
decision_type=2 2 2 2 2 2 2 2 2 2 2 2 2 2 2 2 2 2 2 2 2 2 2 2 2 2 2 2 2 2 2 2 2 2 2 2 2 2 2 2 2 2 2 2 2 2 2 2 2 2 2 2 2 2 2 2 2 2 2 2 2 2
left_child=1 2 4 5 8 13 12 10 18 14 22 16 21 19 -6 -10 29 -15 -1 -3 -11 -4 -5 -14 31 37 36 30 -12 34 35 -9 -28 39 49 43 -7 -8 52 53 -27 -36 -26 -13 48 -41 -40 -37 -32 -2 58 56 -31 -18 -52 -53 57 -29 -35 -57 -46 -58
right_child=11 3 6 7 9 26 25 24 15 20 28 27 23 17 -16 -17 33 -19 -20 -21 -22 -23 -24 -25 42 40 32 51 -30 38 44 -33 -34 50 41 47 -38 -39 46 45 -42 -43 -44 -45 60 -47 -48 -49 -50 -51 54 55 -54 -55 -56 59 61 -59 -60 -61 -62 -63
leaf_value=-0.032423337332158596 0.015478572353358431 -0.046810586351956299 0.011688934096642453 -0.011218294378064111 0.0020611024429443149 -0.036205210324475517 0.022086871651413671 -0.015453063518066336 -0.022015264100292 0.0011143498942289456 0.0068754188250214777 -0.0093579970418948884 0.023047039281595728 -0.019492539580833478 -0.0078369159195268243 -0.0016023175408390233 0.044433594642531653 -0.0066212787198170284 -0.014763882617308922 -0.024616309393836099 0.01072762632747278 0.0011061409607571392 -0.00079250825505251799 0.013657171630551438 -0.015557240279136958 0.033616233637386937 -0.060615268529911503 0.032760271940560699 0.022553861786781131 0.038828519497933749 0.019638264955341954 -0.034267466353621177 -0.04237069977176796 0.050337247734011284 0.025799785042694451 0.0054081430594185914 -0.024150928269150277 0.043774940269006316 0.017093163490876025 0.037832023688125167 0.045136351042237108 0.033570051315705812 0.0041948635080063688 0.017803429595543027 0.037075490749712815 0.043285930358317772 0.036633759361468531 0.020791579774323145 0.028269734894309749 0.03751808761777211 0.040681938632440934 0.003469012768661369 0.045522713910606895 0.050513497060809411 0.049459985697225609 0.041491701617536611 0.032210512665890326 0.051093664074601308 0.055402535301219587 0.022566690691737393 0.058214422589676275 0.049146987215599701
leaf_weight=1082.9486189782619 40.438577011227608 643.27233892679214 4001.0974103659391 5399.9838385879993 7806.1634185612202 2254.9234412610531 1899.1354270279408 267.05246292054653 1006.7496614307165 5084.5699623376131 1110.4167418777943 170.44628661870956 3285.9692845791578 6954.5573629885912 8634.5933232754469 7952.2989416271448 596.57141982018948 2782.9052080959082 8847.1369261145592 6017.3073622882366 7567.0532224178314 4925.0769926309586 3514.7198546379805 6414.4722888469696 210.16411174833775 1759.0294132679701 261.64153008162975 199.89800941944122 819.35787896811962 467.58493140339851 732.08327674865723 1528.6383949965239 2272.5301668941975 1157.47095733881 1496.5709597170353 122.7229770720005 454.09491023421288 115.89821441471577 66.372063040733337 1408.3326361328363 413.47241660952568 986.24818456172943 149.20311594009399 51.723903313279152 78.006163567304611 2181.8356639295816 1302.0234767049551 335.50531676411629 453.76211214065552 1414.525662779808 282.6586956679821 16.671927437186241 1192.1858539432287 794.87841342389584 381.90291640162468 32.667209595441818 19.93183159828186 50.587982773780823 450.69420203566551 46.947769612073898 14.42287255823612 126.01367118954659
leaf_count=4331 173 2563 16957 22077 32599 8985 8262 1059 4055 21181 4658 714 14231 28118 35574 32774 2779 11376 35978 24148 31812 20598 14496 27370 850 7887 1040 896 3537 2144 3213 6108 9015 5449 6638 514 1811 508 297 6421 1885 4445 613 219 347 10088 5890 1435 2009 6452 1309 72 5520 3728 1795 144 92 230 2157 207 65 582
internal_value=0.00141493 -0.00434776 0.00247215 -0.0182858 -0.00344677 -0.0248146 0.0149206 -0.00741632 -0.0106226 0.00121224 -0.00343447 0.0378599 0.0115729 -0.0202609 -0.0031371 -0.00389669 0.0404191 -0.0158144 -0.0166903 -0.0267608 0.00686442 0.00585023 -0.00710822 0.0168384 -0.0274511 0.0298104 -0.0390552 0.0230117 0.0135346 0.0354172 0.0193649 -0.031472 -0.0442574 0.0452214 0.0318533 0.0102444 -0.0341865 0.0233375 0.0400496 0.0430387 0.0358117 0.0288886 -0.00734839 -0.00301611 0.0242162 0.0411482 0.0356893 0.0166802 0.0229454 0.0369086 0.0500026 0.0374968 0.0436406 0.0479117 0.0457363 0.0257802 0.0403291 0.03649 0.0517613 0.0304042 0.0404536 0.0468738
internal_weight=122108 105436 70795.7 34640.8 47981.5 21641.2 22814.2 12999.5 18889.1 29092.4 10844.5 16671.7 18626.6 16398 16440.8 8959.05 14220.3 9737.46 9930.09 6660.58 12651.6 8926.17 8914.7 9700.44 2155.06 4187.54 5243.19 2451.39 1929.77 6965.95 1958.67 1795.69 2534.17 7254.34 3937.78 680.398 2709.02 2015.03 3028.17 4981.62 2172.5 2482.82 359.367 222.17 1278.27 3590.17 1368.4 458.228 1185.85 1454.96 2272.73 492.718 1659.77 1391.45 664.562 96.2869 396.431 250.486 1608.17 79.615 92.429 145.946
internal_count=512480 436456 296002 140454 198304 87056 97698 53398 77138 121166 44768 76024 79156 66205 68173 36829 65285 39494 40309 26711 52993 37555 36573 41601 8630 18542 20851 10739 8195 31559 8516 7167 10055 33726 17708 2882 10796 8770 13851 23016 9772 11083 1463 933 5634 16509 6187 1949 5222 6625 10710 2223 7664 6507 3104 423 1800 1126 7606 351 412 674
is_linear=0
shrinkage=0.0449347


Tree=9
num_leaves=64
num_cat=0
split_feature=27 24 21 21 21 24 24 21 0 21 21 0 14 14 24 19 0 14 24 15 0 21 14 24 21 21 21 24 24 24 0 21 24 0 21 21 21 19 0 15 0 21 13 14 22 19 24 21 10 14 10 22 21 13 4 10 0 21 18 24 12 19 14
split_gain=11761 4837.35 2081.6 1976.09 729.668 705.19 608.287 434.791 425.163 300.603 280.787 231.087 174.77 167.861 164.515 151.575 129.593 118.93 113.091 134.11 107.388 89.8456 86.7904 85.631 76.9542 70.4825 69.7946 54.6803 47.9121 43.2897 42.532 32.5342 32.4382 32.3552 31.6313 31.0127 25.1486 23.7645 23.1195 17.4829 16.5538 16.4691 15.1977 11.616 11.3096 10.2845 10.1822 9.67126 9.48598 8.96749 8.95359 8.56106 8.52946 7.14983 6.83976 5.73342 5.62649 5.58644 5.30011 4.5557 3.70993 2.49307 1.44456
threshold=24.500000000000004 1257.7 0.44645000000000007 0.62670000000000015 0.86160000000000025 1612.4500000000003 850.35000000000014 0.35965000000000008 68.500000000000014 0.61460000000000015 0.97505000000000008 71.500000000000014 140.50000000000003 128.50000000000003 1300.1000000000001 0.52875000000000016 67.500000000000014 134.50000000000003 682.80000000000007 1.0000000180025095e-35 27.500000000000004 1.1943000000000001 140.50000000000003 1082.6500000000003 0.18345000000000003 0.32880000000000004 0.22840000000000002 996.70000000000016 826.10000000000014 889.4000000000002 71.500000000000014 0.91160000000000008 1652.2000000000003 64.500000000000014 0.80975000000000008 0.29945000000000005 1.4309000000000003 0.48375000000000018 71.500000000000014 1.0000000180025095e-35 26.500000000000004 0.32880000000000004 134.50000000000003 103.50000000000001 0.81492982456140373 0.67541666666666689 1037.7000000000003 1.5289000000000004 66.500000000000014 101.50000000000001 58.500000000000007 0.84638596491228091 0.14510000000000003 58.500000000000007 7.5500000000000007 72.500000000000014 70.500000000000014 1.0141500000000001 0.6549761904761906 914.45000000000016 69.500000000000014 0.51875000000000016 131.50000000000003
decision_type=2 2 2 2 2 2 2 2 2 2 2 2 2 2 2 2 2 2 2 2 2 2 2 2 2 2 2 2 2 2 2 2 2 2 2 2 2 2 2 2 2 2 2 2 2 2 2 2 2 2 2 2 2 2 2 2 2 2 2 2 2 2 2
left_child=1 3 5 6 8 13 18 15 12 14 20 22 -4 24 29 -8 21 -9 19 -1 39 -6 -7 31 -3 -20 -15 -22 40 37 -10 51 41 34 49 46 -30 53 -18 -5 -12 52 -13 -37 -39 -43 -31 50 -36 -25 -33 59 -16 -2 -49 -53 60 61 -59 -11 -34 -35 -58
right_child=9 2 4 10 16 11 7 17 30 23 28 42 -14 26 32 -17 38 -19 25 -21 27 -23 -24 33 -26 -27 -28 -29 36 35 -32 47 56 57 48 43 -38 44 -40 -41 -42 45 -44 -45 -46 -47 -48 54 -50 -51 -52 55 -54 -55 -56 -57 62 58 -60 -61 -62 -63 -64
leaf_value=-0.032516477434287747 -0.012593200007509055 0.01225418195786563 -0.0063043490221761696 -0.049841720711232572 -0.019240061363351518 0.015550671256134475 -0.0077679303426838545 -0.014194296506165079 0.011304859937600182 0.011711135432804309 -0.06237397185546472 0.034902381263772105 0.0044411936867702808 0.017959076902377653 0.052095612873179993 0.0018393621057673684 -0.009669496657762457 -0.0049257534595038028 -0.011495510362652056 0.020400953786745342 -0.028272266429203378 -0.033381779090052972 0.024487984388414336 0.023288344491723598 0.0023519491594530687 -0.021982567584225236 0.0094674670854860837 -0.020792161285682668 -0.03407222062268931 0.035763735396567693 0.024294996052306513 0.028603456059099145 0.048199614060049321 0.031921599621166814 0.025070344878121306 0.028557743798105446 -0.042520738965001373 0.025094554314236399 0.0078176746102692034 -0.0089015835554254585 -0.045973876793432088 0.03841677268953033 0.046996166790469716 0.035135531227266446 0.034803239290181344 0.046331098806410446 0.042780125428292522 -0.017408861865721173 0.015445717667286713 0.034074677509568545 0.0041364860536427916 0.022474300730495306 0.044148209490351115 0.016672303818531527 0.01156884089146014 0.038478624851312898 0.050980232043630599 0.018240150661219475 0.040159851358049149 0.020750903939922707 0.031652597666932673 0.045529780761355547 0.056105639374922807
leaf_weight=1910.4526109397411 18.02954089641571 1892.751965880394 12540.127149537206 384.02248726785183 2446.8322824388742 6099.5696457177401 4766.4436997771263 10992.810466587543 982.71843411028385 228.74071153998375 154.79951080679893 1478.2210997194052 4040.5544418692589 2833.961801558733 329.73887859284878 10893.710970908403 374.86814458668232 3750.2480151504278 2339.3602657616138 101.73060591518879 3388.7068330347538 1443.9688551127911 3430.7307586669922 191.59464274346828 9742.7635880112648 2901.7546352893114 6309.1556775867939 4744.0653986930847 2129.5949906557798 599.54853609204292 1059.0133796334267 34.632907211780548 1659.1610328257084 32.947226762771606 444.72642916440964 715.54667264223099 1078.96118247509 467.51007604598999 257.25868202745914 22.526257082819939 679.13706959784031 1862.494932860136 247.56847004592419 2358.6390737891197 514.839295566082 412.16315492987633 1465.0281230062246 64.191920086741447 392.5314739048481 901.95624825358391 237.5254133194685 167.97927686572075 1842.7017201185226 226.49906425178051 21.905514284968376 63.421121284365654 291.01601389050484 38.044871374964714 56.958346083760262 227.45776022970676 29.561353370547295 277.08993926644325 242.2834535241127
leaf_count=7609 80 8039 51650 1525 9837 26417 19613 44608 4191 993 616 6758 16785 12117 1579 45182 1526 15309 9450 410 13506 5734 14956 868 40910 11652 26640 19035 8442 2780 4662 146 7991 154 1946 3256 4271 2089 1071 89 2691 8682 1155 10828 2323 1937 6885 265 1734 4113 1007 740 8759 1006 90 281 1420 171 259 1004 142 1303 1193
internal_value=0.0013574 -0.00415193 0.0050325 -0.0142399 -0.00523497 0.0124509 -0.00908837 -0.00629869 -0.00130284 0.0367357 -0.0296575 0.0215092 -0.00368556 0.00754371 0.0398333 -0.0010846 -0.0214239 -0.0118369 -0.020781 -0.0298389 -0.0250374 -0.0244898 0.0187684 0.0247944 0.00396309 -0.0173025 0.0121 -0.0239095 -0.0394155 0.0346628 0.0180449 0.0141009 0.0447675 0.0295803 0.0271509 0.0364758 -0.0369152 0.0270648 -0.00254751 -0.0475833 -0.0490274 0.0425439 0.0366411 0.0336063 0.0301883 0.0398537 0.0407455 0.00310969 0.0205637 0.0321895 0.00726886 0.0198219 0.0453577 0.0144981 -0.00999512 0.0268857 0.0492147 0.0411459 0.0314372 0.016228 0.0479133 0.0441021 0.0533224
internal_weight=121835 105418 55180.1 50238.3 23145.3 32034.7 37656.5 30403.2 18622.4 16416.5 12581.8 11256.1 16580.7 20778.6 13034.8 15660.2 4522.93 14743.1 7253.3 2012.18 8539.32 3890.8 9530.3 3381.7 11635.5 5241.11 9143.12 8132.77 4042.49 6365.64 2041.73 1045.85 6669.12 2335.85 1930.81 5138.76 3208.56 1226.88 632.127 406.549 833.937 4447.1 1725.79 3074.19 982.349 2274.66 2064.58 358.256 837.258 1093.55 272.158 687.599 2172.44 244.529 86.0974 231.4 2222.02 405.04 95.0032 456.198 1688.72 310.037 533.299
internal_count=512480 436456 232448 204008 95456 136992 153833 124712 77288 76024 50175 49286 68435 87706 60950 64795 18168 59917 29121 8019 34155 15571 41373 15074 48949 21102 38757 32541 16020 29247 8853 4526 31703 10548 8661 23749 12713 5498 2597 1614 3307 20957 7913 14084 4412 10619 9665 1508 3680 4981 1153 3018 10338 1086 355 1021 10746 1887 430 1997 8133 1457 2613
is_linear=0
shrinkage=0.0449347


Tree=10
num_leaves=64
num_cat=0
split_feature=27 23 28 28 24 24 24 28 28 0 28 24 0 24 28 0 0 24 0 28 28 24 28 28 0 0 24 23 0 0 28 24 28 28 28 28 24 0 28 28 21 28 24 19 28 23 19 21 14 31 31 24 25 8 19 28 25 22 22 19 47 22 9
split_gain=10808 4528.27 1657.67 1556.29 931.632 926.595 596.005 431.101 319.213 273.708 261.63 210.233 192.897 189.951 186.035 170.573 139.381 137.332 135.102 129.877 116.485 113.705 111.077 81.7 71.8543 71.16 68.1147 63.873 48.0953 47.1462 44.4866 41.8589 37.4695 36.2533 36.1816 34.8228 33.8693 33.2768 27.1805 25.3065 21.8116 18.9893 15.6665 14.1602 12.4819 12.0339 10.6115 9.24244 8.37024 12.081 8.0657 7.67978 7.62892 7.44252 7.14282 6.21727 5.63575 5.33838 4.69556 3.73468 3.49775 1.95753 1.31163
threshold=24.500000000000004 0.64915300751879712 4.8940944640863338 4.3372693810700085 1453.5500000000004 1073.3500000000001 1554.6000000000001 4.3372693810700085 4.7749040587885982 67.500000000000014 4.3372693810700085 1073.3500000000001 68.500000000000014 1300.1000000000001 4.8940944640863338 60.500000000000007 67.500000000000014 1139.5500000000004 58.500000000000007 3.5114340430413216 4.0517471391904856 682.80000000000007 4.9593358439305844 5.1089666311285624 27.500000000000004 28.500000000000004 1469.0500000000002 0.64871622807017559 71.500000000000014 67.500000000000014 4.7749040587885982 1646.7000000000003 5.0005792898547883 5.0968083143154814 4.9089648320872419 5.1561734468561555 889.4000000000002 37.500000000000007 4.0342014792848504 4.166635176627655 0.35295000000000004 5.7791979195074932 963.25000000000011 0.48125000000000012 5.0530509062989237 0.67702246240601516 0.66958333333333353 0.14510000000000003 112.50000000000001 430.56500000000005 657.92500000000018 1788.5500000000004 7234.0000000000009 129.50000000000003 0.54541666666666699 4.3372693810700085 8753.5000000000018 0.76096491228070196 1.0148596491228072 0.73208333333333353 1.0000000180025095e-35 0.9344035087719299 72.500000000000014
decision_type=2 2 2 2 2 2 2 2 2 2 2 2 2 2 2 2 2 2 2 2 2 2 2 2 2 2 2 2 2 2 2 2 2 2 2 2 2 2 2 2 2 2 2 2 2 2 2 2 2 2 2 2 2 2 2 2 2 2 2 2 2 2 2
left_child=1 2 5 4 11 10 14 16 13 20 21 25 22 27 17 -9 -7 -5 23 -13 -6 -1 -8 32 -12 -3 33 36 -11 35 -14 40 -4 48 -16 -20 43 -25 57 -38 47 -31 50 -2 56 -42 -40 -15 49 -10 -35 53 -50 -46 -44 59 60 -29 -57 -33 -28 -53 -58
right_child=8 3 18 6 9 7 12 15 26 28 24 19 30 31 34 -17 -18 -19 29 -21 -22 -23 -24 37 -26 -27 44 38 -30 41 -32 55 -34 42 -36 -37 39 -39 46 -41 45 -43 54 -45 51 -47 -48 -49 52 -51 -52 61 -54 -55 -56 58 62 -59 -60 -61 -62 -63 -64
leaf_value=-0.026675738551864656 0.01259212873456717 -0.017074007627565543 -0.033982792298408768 -0.015557666216044009 0.019085941766048619 -6.2938556143647207e-06 0.0036117071669363424 -0.013904904372708714 0.034634542434889816 0.025516505599237026 -0.038863556991673383 0.017140432023120527 0.02257800691609798 0.050835924907855844 -0.045514357833513278 -0.00049970460351227207 0.019689586413384499 -0.005094385411796137 -0.016996255385720888 0.005107470601839019 0.010009039397401536 -0.011386758993528487 -0.015693650125980067 -0.047379808523311591 -0.023070847788851788 -0.0015074776642349326 0.037323642503769232 0.021865438968052563 0.036552595325335765 -0.00255945105963908 0.0060540530131140352 0.048699541574834034 -0.02347285384132651 -0.012980417887226732 -0.021607192383119735 -0.03236549220203299 0.035838002319287847 -0.037362372821891393 0.031673061945650331 0.027435474068849459 0.035256389705701122 -0.035260175808442644 0.00034915386199705891 0.024840578944466663 0.011480885596641678 0.042036181063422974 0.040226023740799172 0.042548903096068104 0.021180488295313559 0.010462912000333949 0.013309091269667568 0.028241848910964113 0.047687977159921908 0.035815559503415181 0.013770691606106876 0.043216086589045716 0.061310370523587565 0.042536545084608739 0.055263214063320173 0.055725294882105987 0.025459669900849757 0.044920350737665315 0.045111227076757653
leaf_weight=1115.1457628011703 258.56629344820976 675.74717473983765 1643.1657993346453 3642.200516089797 7640.0658878982067 11688.109049469233 5196.1022328138351 8686.7970165908337 48.016572326421738 1814.4952358901501 634.3641120493412 2135.5103617459536 1301.7244976311922 321.83631514012814 137.95728921890259 2459.7953837960958 773.37916710972786 8320.6169417798519 581.08036489784718 11936.007274717093 4561.2457211613655 8262.2649178504944 680.48601332306862 880.94644767045975 7117.38761895895 4841.5911048203707 203.83670257031918 26.610143408179283 1429.1499853879213 316.75042895972729 441.09550741314888 1457.716415733099 1181.217968955636 125.40772879123688 1790.5476444959641 613.82042223215103 1338.1772284209728 2855.5990649014711 1298.7762705534697 1594.5880459547043 1576.8239817768335 40.407668516039848 123.32541830837727 741.24233455955982 106.75186605751514 812.36634527146816 385.0006737858057 2034.1041556298733 540.65805394947529 326.75573265552521 28.833211585879326 31.453464537858963 23.053154423832893 33.598508402705193 230.83704146742821 671.28017807006836 14.909273162484167 1365.6416199356318 75.988699957728386 183.39453247189522 70.398750066757202 30.074901059269905 59.034176677465439
leaf_count=4432 1150 2714 6527 14667 33354 48433 21772 35115 209 8057 2511 9130 5748 1578 553 10159 3376 34184 2321 50175 19594 33452 2736 3494 28395 20020 945 127 6711 1289 1867 7232 4675 518 7131 2432 6273 11301 6053 7287 7425 163 524 3327 475 3874 1795 9847 2397 1442 119 145 103 151 991 3276 72 6544 373 916 327 137 285
internal_value=0.00127083 -0.00397282 -0.0139936 0.00468432 0.0105257 -0.0102995 -0.00482923 -0.0045267 0.0355141 0.018778 -0.0182555 0.00401896 0.00526974 0.0378891 -0.0103688 -0.010947 0.00121592 -0.00828038 -0.032542 0.00693392 0.015693 -0.0132054 0.0013755 -0.0353631 -0.024364 -0.00341481 0.0186925 0.0326324 0.0303807 -0.0206132 0.0183982 0.0430529 -0.0295892 0.0135706 -0.0233208 -0.0248957 0.0288335 -0.0397259 0.0374873 0.0312713 0.040604 -0.00627477 0.003898 0.0216773 0.0321559 0.0375642 0.0336323 0.0436839 0.0188063 0.0135748 -0.008041 0.0232081 0.0222765 0.0173454 0.00910724 0.0479156 0.0373286 0.042145 0.0444509 0.0494892 0.0342976 0.0364915 0.04848
internal_weight=121534 105395 48850.2 56544.5 35033.8 40737.2 21510.7 23608.1 16139.1 15445 17129.2 19588.9 7619.41 14142.1 13891.3 11146.6 12461.5 11962.8 8112.99 14071.5 12201.3 9377.41 5876.59 6560.93 7751.75 5517.34 1996.94 7008.6 3243.65 1552.06 1742.82 7133.51 2824.38 1446.89 1928.5 1194.9 3932.57 3736.55 3076.03 2932.77 4745.13 357.158 508.403 999.809 550.058 2389.19 1683.78 2355.94 938.484 374.772 154.241 201.879 563.711 140.35 354.162 2388.38 348.179 1392.25 747.269 1641.11 274.235 61.5284 73.9434
internal_count=512405 436488 198075 238413 149755 165873 88658 97083 75917 67716 68790 82039 32123 67077 56535 45274 51809 48851 32202 59305 52948 37884 24508 25997 30906 22734 8840 32556 14768 6205 7615 34521 11202 6303 7684 4753 18037 14795 14519 13560 22724 1452 2152 4477 2537 11299 7848 11425 4151 1651 637 908 2500 626 1515 11797 1629 6671 3649 8148 1272 282 357
is_linear=0
shrinkage=0.0449347


Tree=11
num_leaves=63
num_cat=0
split_feature=15 24 2 2 2 24 24 2 2 24 2 29 24 24 24 2 0 0 2 2 29 29 10 24 29 10 2 2 2 24 10 2 10 0 2 0 21 24 24 26 13 13 29 2 10 24 10 7 29 31 26 12 7 2 21 8 12 0 21 2 2 29
split_gain=10014.8 4121.73 2480.46 1356 773.045 639.722 526.264 328.825 306.494 300.764 264.38 198.005 185.399 173.623 167.166 157.103 156.188 117.384 109.226 107.189 103.348 91.6509 91.265 88.5943 82.551 76.1253 70.3226 67.868 66.8586 65.4783 60.1466 52.0321 51.8642 38.3155 34.3866 34.0392 28.715 27.8337 23.8698 22.418 17.6084 17.1412 17.0817 16.9987 14.1309 13.7007 13.4004 11.0945 11.6432 10.2163 9.48525 9.36181 8.92002 8.25311 8.00589 7.91815 7.13574 5.53282 5.3108 4.52095 3.99374 1.84556
threshold=1.0000000180025095e-35 1392.1500000000003 75.500000000000014 96.500000000000014 132.50000000000003 1001.2000000000002 1741.1500000000003 56.500000000000007 102.50000000000001 1073.3500000000001 142.50000000000003 4.6200466650627661 682.80000000000007 1087.0000000000002 1816.8000000000004 32.500000000000007 71.500000000000014 25.500000000000004 196.50000000000003 60.500000000000007 4.9522934739897151 4.8559213341406453 67.500000000000014 1473.5000000000002 4.5695295849856103 68.500000000000014 65.500000000000014 31.500000000000004 192.50000000000003 1646.7000000000003 61.500000000000007 162.50000000000003 73.500000000000014 68.500000000000014 53.500000000000007 25.500000000000004 0.52515000000000012 2084.4000000000001 870.60000000000025 4588.2500000000009 133.50000000000003 58.500000000000007 4.923617305492666 155.50000000000003 67.500000000000014 963.25000000000011 70.500000000000014 0.83500000000000008 4.7140145363037149 657.92500000000018 3864.3000000000006 50.500000000000007 0.90500000000000014 32.500000000000007 0.21845000000000003 122.50000000000001 42.500000000000007 70.500000000000014 0.50780000000000014 75.500000000000014 139.50000000000003 4.9593358439305844
decision_type=2 2 2 2 2 2 2 2 2 2 2 2 2 2 2 2 2 2 2 2 2 2 2 2 2 2 2 2 2 2 2 2 2 2 2 2 2 2 2 2 2 2 2 2 2 2 2 2 2 2 2 2 2 2 2 2 2 2 2 2 2 2
left_child=1 2 5 6 9 12 7 27 13 17 14 24 35 36 32 -13 26 -4 25 -9 -11 -14 28 31 -7 -6 -8 -3 -12 34 -20 38 -5 -24 53 -1 39 -16 50 41 -18 -2 -36 55 -40 49 52 51 -49 -33 -10 -38 -45 -15 -41 58 -47 59 -25 -31 -57 -59
right_child=8 3 4 10 18 11 16 19 23 20 22 15 21 29 37 -17 40 -19 30 -21 -22 -23 33 43 -26 -27 -28 -29 -30 57 -32 45 -34 -35 42 -37 47 -39 44 54 -42 -43 -44 46 -46 56 -48 48 -50 -51 -52 -53 -54 -55 -56 60 -58 61 -60 -61 -62 -63
leaf_value=-0.034315267275536965 -0.0079921371402149975 0.022188332705865205 -0.043400680118236105 -0.0031783429546594858 -0.024183000243380798 -0.0028156737923654791 0.022562469340932697 -0.0080006685004976527 0.019875630155948711 -0.013227976586732883 -0.0055492487716898367 0.013914351982054918 -0.012236856610861461 0.04601333468461688 0.0092820542634854345 0.0021542425407200462 0.031288442960327574 -0.020473926247249224 -0.031419886828890298 0.0052814678871541806 -0.0030908194624345497 -0.0031229974277687789 -0.034982527239501106 0.045945016451552814 -0.016284990976318216 -0.035358735131551453 0.012846657636410585 0.012946259714603394 -0.022552725825707224 0.047416867128863852 -0.0457092875803565 -0.012491822420385403 -0.013559919339256333 -0.010535364703742217 0.034018725483510953 -0.020000193969772952 0.026506993938758373 0.025796721786491249 0.027791995396979238 0.042059828469003108 0.043087782360434521 0.027915763333124836 0.040175050384877384 0.02191167364782352 0.0186178599169914 0.03030639125223723 -0.0081173185953629188 0.014081091911300777 0.031456399030623569 0.015694423527700573 0.0011005547145689193 0.0083445315970390975 0.049196594466689177 0.04064266245742048 0.033283734843812515 0.044412935475984981 0.0070405561702755999 0.049603860544885421 0.029505859389951431 0.041985798292538741 0.030865303854871275 0.056006352790899813
leaf_weight=646.04436650872231 27.1051225066185 2032.729096353054 472.58405555784702 4060.7898816466331 3185.3612429946661 3182.8554274141788 3705.5175102353096 1389.3889400959015 81.950725018978119 10726.379767686129 1035.557285040617 2665.6652495265007 6468.7018505334854 811.15696670114994 916.90801514685154 16441.629315882921 1675.4687723964453 9956.8323900401592 996.88881389796734 10470.501299768686 2505.9852858185768 3400.0550912767649 734.91621808707714 48.065998673439026 1291.9810625463724 2010.6005996912718 2536.2780078202486 7640.8454085439444 851.33373284339905 1216.7223033308983 1485.6567652225494 129.07368662953377 1277.7947173267603 157.70078471302986 3101.1236217767 702.15708731114864 79.747746288776398 266.30146560072899 612.65177738666534 287.51374183595181 304.17444351315498 1688.5103781223297 1305.2778913527727 142.76791568100452 769.87200216948986 29.04469045996666 25.584522932767868 120.58050203323364 225.20115394890308 32.34337218105793 162.13999734818935 206.88808900117874 29.488709136843681 2187.170261234045 837.54629999399185 273.59425263106823 326.35798534750938 368.5959989875555 264.45971667766571 443.18818370997906 55.425199091434479 144.48004668951035
leaf_count=2564 122 8868 1874 16664 12600 13139 16530 5922 349 43344 4159 11276 26203 4029 3918 68416 7837 39701 3938 43946 10212 13874 2940 232 5366 7972 10963 33067 3382 6154 5897 531 5266 651 14812 2782 360 1177 2785 1376 1458 7809 6300 648 3492 126 116 544 1027 133 698 934 134 10764 3924 1338 1399 1891 1255 2207 260 750
internal_value=0.00121951 -0.00382262 -0.0106576 0.00775199 -0.0198272 -0.00239931 0.0124332 0.00874043 0.0343007 -0.0158067 -0.007223 0.00180242 -0.0112331 0.0372712 -0.00227669 0.00379512 0.0221048 -0.0215134 -0.0322161 0.00372515 -0.0113084 -0.00909726 -0.0188274 0.021302 -0.00670548 -0.0285086 0.0186153 0.0148888 -0.0132232 0.0403932 -0.0399737 0.0164519 -0.00566394 -0.0306682 0.038377 -0.0268638 0.0286598 0.0130031 0.0203986 0.0305902 0.0331046 0.0273462 0.0358438 0.0336807 0.0226869 0.00402306 0.0221108 0.0199811 0.025411 -0.00681948 0.00742145 0.0134146 0.0266207 0.0420978 0.035532 0.0372406 0.00895699 0.0472608 0.0320549 0.0459707 0.0421481 0.051421
internal_weight=121229 105196 66139.4 39056.2 31340.3 34799.1 29754.9 21533.5 16033.6 23661.8 9301.3 23582.1 11217 13050.8 6521.79 19107.3 8221.44 10429.4 7678.51 11859.9 13232.4 9868.76 2779.51 2982.82 4474.84 5195.96 6241.8 9673.57 1886.89 9577.72 2482.55 2143.43 5338.58 892.617 7404.73 1348.2 3473.09 1183.21 1626.61 2840.68 1979.64 1715.62 4406.4 839.386 1382.52 516.82 197.841 632.417 345.782 161.417 244.091 286.636 172.257 2998.33 1125.06 641.545 355.403 2172.99 312.526 1659.91 329.019 513.076
internal_count=512405 435906 269158 166748 125538 143620 128591 91803 76499 95131 38157 98197 45423 63003 27025 79692 36788 41575 30407 49868 53556 40077 11132 13496 18505 20572 27493 41935 7541 46907 9835 9513 21930 3591 35905 5346 16096 5095 7324 13231 9295 7931 21112 3983 6277 2189 898 2865 1571 664 1047 1294 782 14793 5300 3085 1525 11002 1487 8361 1598 2641
is_linear=0
shrinkage=0.0449347


Tree=12
num_leaves=64
num_cat=0
split_feature=15 23 28 28 28 24 24 24 24 23 24 24 25 28 28 0 0 24 24 24 28 0 0 28 0 28 23 28 0 23 23 0 10 10 23 23 25 24 28 26 28 24 28 28 28 0 21 25 10 28 14 12 10 23 21 0 0 28 21 8 11 23 18
split_gain=9275.35 3899.26 1687.63 982.229 682.655 671.696 605.289 438.816 383.1 293.874 213.323 182.047 167.909 155.502 152.376 139.838 136.375 133.797 130.981 116.147 107.393 90.3435 84.4455 80.9935 72.1767 71.7988 70.7824 70.1029 64.9452 62.4647 54.6188 51.4638 47.6706 46.3323 31.8844 28.323 25.8996 24.7214 20.0175 19.4031 19.268 18.8329 18.4908 17.6439 17.0172 16.6449 13.625 11.3677 11.2436 11.0982 9.79099 9.34472 8.47573 8.47519 6.85968 6.21316 5.87966 4.29777 4.25556 4.10646 5.59087 3.49954 3.11381
threshold=1.0000000180025095e-35 0.65857312030075199 4.3372693810700085 4.3502571242716384 4.8940944640863338 1567.9000000000003 1042.9000000000003 1260.2 1741.1500000000003 0.64871622807017559 1269.0500000000002 1453.5500000000004 8628.0000000000018 4.886575525404063 4.8940944640863338 68.500000000000014 25.500000000000004 1430.0500000000002 883.55000000000007 1362.2500000000002 3.5114340430413216 28.500000000000004 49.500000000000007 5.2857353797162627 67.500000000000014 4.5798392285869785 0.62164564536340861 3.5114340430413216 70.500000000000014 0.71763831453634097 0.71406610275689231 58.500000000000007 67.500000000000014 68.500000000000014 0.69667249373433593 0.71190347744360916 4833.0000000000009 889.4000000000002 4.1820210059610323 4007.5500000000002 4.6395599436855051 1706.5000000000002 4.0342014792848504 4.945201156493737 3.9981586158983733 58.500000000000007 0.53405000000000014 8578.0000000000018 68.500000000000014 5.2390944889447963 126.50000000000001 39.500000000000007 61.500000000000007 0.60278621553884715 0.37250000000000011 67.500000000000014 68.500000000000014 4.3372693810700085 1.2942000000000002 123.50000000000001 211.50000000000003 0.65129830827067681 0.73083333333333356
decision_type=2 2 2 2 2 2 2 2 2 2 2 2 2 2 2 2 2 2 2 2 2 2 2 2 2 2 2 2 2 2 2 2 2 2 2 2 2 2 2 2 2 2 2 2 2 2 2 2 2 2 2 2 2 2 2 2 2 2 2 2 2 2 2
left_child=1 2 6 5 7 10 16 18 14 13 21 20 29 22 19 -9 39 23 -4 -5 -8 -3 37 -6 -13 31 -18 -12 30 -7 -10 34 -19 -16 42 -14 48 46 55 -1 -30 43 -11 50 -39 -40 -2 52 53 -50 -27 -45 -38 -15 -36 -24 57 -33 -49 60 -43 -58 -61
right_child=9 3 4 8 17 12 11 15 28 25 27 24 35 36 33 -17 26 32 -20 -21 -22 -23 38 -25 -26 41 -28 -29 40 -31 -32 56 -34 -35 54 -37 47 44 45 -41 -42 59 -44 51 -46 -47 -48 58 49 -51 -52 -53 -54 -55 -56 -57 61 -59 -60 62 -62 -63 -64
leaf_value=-0.047349292892325957 0.02206960559289315 -0.017419658805402638 -0.026543048045917658 -0.0087035227406538993 -0.028401879369432326 0.013978231151643605 0.010325872190290969 -0.008041716737057324 0.0022922287212219223 0.039124806359256359 0.019402422215129878 0.0067456878256465349 0.025878674324958491 -0.0020417949510902851 -0.01223533205074529 0.012450460875670099 -0.015054856626672651 -0.013286797820160734 -0.016655643775877704 0.00029413929821254598 -0.0023105678703272633 0.0022091495689196298 0.038522856637877932 -0.038520181054159698 0.020752038219812367 0.02344638961178017 -0.0071490127934843517 0.0089520603436794403 0.026076411400589167 0.023100862004434668 0.016578570223419638 0.045891340710553508 -0.029066453050558133 -0.026623235894662894 0.045593163064633756 0.035109683446164629 0.021892466262451241 0.033197655289918096 0.027601023756695493 -0.028629434610974842 0.012995278424902047 0.036782856103027874 0.032735214646546801 0.042155882772934458 0.024503263488696549 0.037457966734366861 0.011234225428390908 0.049544057407982352 -0.0052570185644098258 -0.042468490169633402 0.033328091416944858 0.013048793142205499 0.0097716821880552661 0.014396705108673019 0.038904188326312004 0.049769840912715892 0.024782690465453269 0.040219876397103414 0.019649059708243311 0.044850436126443231 0.011649002290064764 0.050339141492505186 0.027746966176453634
leaf_weight=165.11508218944073 802.5399999320507 499.35375551879406 3673.5844155102968 5787.7158360630274 4557.3810347616673 5247.0327186733484 1541.1156267076731 7599.7813407033682 1683.8710154294968 1732.7668717950583 1518.7437488883734 3313.2384919971228 1722.6416670978069 148.25609911978245 1136.7888049632311 737.45924367010593 4378.6009804457426 1238.3525585532188 10284.72675909102 5797.8793365210295 11420.434049323201 9094.2678946107626 1005.007072776556 2465.7916782647371 958.08578413724899 323.74541781842709 4791.3739131242037 8870.8928643614054 558.07048483192921 2133.9651575535536 796.06935648620129 1289.8239390105009 563.11162599921227 751.85889165103436 1029.9372088313103 1107.4384957104921 168.91687640547752 649.24122555553913 853.73330847918987 354.4976499825716 386.31728830933571 99.449309393763542 1972.450199007988 24.884331837296486 1549.5143868178129 589.57738944888115 333.39135301113129 25.230649381875992 82.498753935098648 20.156693235039711 559.30946508049965 219.81201396882534 382.04175661504269 110.09114782512188 462.07888007164001 113.60858179628849 11.745558425784109 363.1056132465601 16.477577358484268 186.05614872276783 22.379988312721252 612.15132318437099 26.043360754847527
leaf_count=655 3646 1996 14562 23400 18016 23109 6441 30965 7128 8642 6655 14078 7964 620 4519 3168 17602 4933 41079 24066 47221 37977 4974 9781 4278 1534 19393 37900 2552 9536 3395 6616 2257 2993 5220 5194 745 3144 4041 1402 1691 486 9567 111 7232 2874 1466 121 355 83 2655 985 1688 476 2277 586 61 1828 77 930 109 3219 131
internal_value=0.00117029 -0.00365202 -0.0114468 0.00595507 -0.0185734 0.0108099 -0.00320883 -0.0143861 -0.00271935 0.0332871 0.00601883 0.00184321 0.0201857 0.0262828 -0.00613024 -0.00622863 -0.0121941 -0.0291522 -0.0192582 -0.00420049 -0.000807808 0.00118699 0.0290057 -0.0319552 0.00988847 0.0386562 -0.0109244 0.0104801 0.0107009 0.0166164 0.00687986 0.040439 -0.0182221 -0.0179656 0.0379656 0.0294928 0.00944243 0.0242881 0.0351442 -0.0345902 0.0207302 0.0295363 0.0357249 0.0267477 0.027073 0.0316315 0.0188933 0.0152212 -3.70127e-05 -0.0126207 0.0297112 0.016034 0.0134961 0.00495294 0.0435258 0.0396713 0.0460819 0.0446493 0.0378673 0.0389361 0.0322022 0.0498662 0.0427761
internal_weight=120922 105136 58042.7 47092.9 31120.2 30194.3 26922.5 22295.6 16898.6 15786 19983.3 17232.9 10211.1 6850.28 13474.2 8337.24 9689.59 8824.64 13958.3 11585.6 12961.5 9593.62 5896.61 7023.17 4271.32 8935.74 9169.97 10389.6 3424.33 7381 2479.94 7474.06 1801.46 1888.65 5197.23 2830.08 953.67 3334.69 2561.93 519.613 944.388 1461.68 3705.22 1127.75 2198.76 1443.31 1135.93 592.667 361.003 102.655 883.055 244.696 550.959 258.347 1492.02 1118.62 2276.83 1652.93 41.7082 333.929 121.829 623.897 212.1
internal_count=512405 435906 235831 200075 124761 130331 111070 89774 69744 76499 84528 72018 45803 32128 54978 34133 39052 34987 55641 47466 53662 39973 27963 27797 18356 44371 36995 44555 14766 32645 10523 37430 7190 7512 25706 13158 4165 15488 12475 2057 4243 6941 18209 5285 10376 6915 5112 2631 1534 438 4189 1096 2433 1096 7497 5560 11724 8444 198 1656 595 3280 1061
is_linear=0
shrinkage=0.0449347


Tree=13
num_leaves=64
num_cat=0
split_feature=27 24 21 21 24 21 25 21 21 21 24 24 21 24 24 14 14 15 19 14 14 25 25 24 24 19 24 21 24 24 21 24 10 24 21 21 35 25 19 14 5 21 35 22 19 14 19 31 21 18 21 19 10 21 3 3 25 20 18 18 21 21 21
split_gain=8592.85 3431.13 1897.29 1068.16 652.78 356.42 321.226 315.441 279.906 259.939 255.285 208.142 180.855 170.149 141.353 129.248 109.952 82.4249 76.7056 73.4021 73.2354 69.8543 55.9431 53.925 49.9991 46.417 46.1778 44.8817 42.9576 41.9049 35.1429 34.0703 33.7632 28.2453 24.7007 21.468 21.261 20.8506 20.5596 17.7614 17.1109 14.8487 14.1444 14.0116 13.1165 12.4475 11.3817 9.87505 9.69195 9.43878 8.08543 7.58631 6.82382 6.79292 6.65948 8.48199 4.84093 4.83468 5.53582 4.67374 3.14326 2.89883 2.78309
threshold=24.500000000000004 1392.1500000000003 0.60190000000000021 0.43415000000000004 1073.3500000000001 0.87325000000000019 8628.0000000000018 0.99415000000000009 0.30180000000000007 0.73060000000000025 1816.8000000000004 761.70000000000016 0.33545000000000008 1300.1000000000001 924.90000000000009 141.50000000000003 105.50000000000001 1.0000000180025095e-35 0.53041666666666687 108.50000000000001 100.50000000000001 8753.5000000000018 8781.0000000000018 889.4000000000002 1213.8500000000001 0.61708333333333354 952.10000000000002 1.1551000000000002 1646.7000000000003 1816.8000000000004 0.30630000000000007 682.80000000000007 60.500000000000007 2030.0500000000004 0.36825000000000002 1.3594500000000003 1.0000000180025095e-35 8161.0000000000009 0.48125000000000012 136.50000000000003 5.9500000000000011 0.53405000000000014 1.0000000180025095e-35 0.84808771929824578 0.67541666666666689 112.50000000000001 0.54541666666666699 737.12500000000011 0.14510000000000003 0.58159523809523828 0.26405000000000006 0.5604166666666669 58.500000000000007 1.3594500000000003 5.7500000000000009 6.4500000000000011 8540.5000000000018 0.33935714285714297 0.71145238095238106 0.65245238095238112 0.43630000000000008 0.64360000000000006 0.7671
decision_type=2 2 2 2 2 2 2 2 2 2 2 2 2 2 2 2 2 2 2 2 2 2 2 2 2 2 2 2 2 2 2 2 2 2 2 2 2 2 2 2 2 2 2 2 2 2 2 2 2 2 2 2 2 2 2 2 2 2 2 2 2 2 2
left_child=1 2 4 6 11 10 15 14 18 13 21 17 -13 23 31 20 -10 -1 -6 -16 -3 -5 27 38 36 -17 35 -7 34 40 51 -4 -28 -12 48 -9 46 42 50 -31 -8 -40 47 -32 -36 -24 52 -26 -15 -44 -2 -25 -11 -48 62 -56 61 59 -59 -39 -58 -30 -38
right_child=9 3 7 5 8 22 29 26 16 24 33 12 -14 28 19 25 -18 -19 -20 -21 -22 -23 45 30 37 -27 32 -29 56 39 43 -33 -34 -35 44 -37 54 57 41 -41 -42 -43 49 -45 -46 -47 53 -49 -50 -51 -52 -53 -54 -55 55 -57 60 58 -60 -61 -62 -63 -64
leaf_value=-0.021632092803340813 0.023723003642196233 0.0012637884754914015 -0.036683692874758672 -0.002132706196354093 -0.0013371884718880616 -0.013093782092920728 0.014279294169354584 -0.033862420306554959 -0.010446939141462009 0.010596523303704881 0.011616958002245003 -0.0040435375674719 -0.013343826493054468 0.048007758398110535 -0.021421075668292492 0.012811763733031981 -0.0021105029556850196 0.018150518205391049 0.0072213672488972971 -0.01316628462290869 0.010376218383932378 0.011670299449178679 -0.01171447076943854 0.033087566619061232 0.0080370736319675187 0.021205969466608406 -0.021551265409667675 -0.025343961257138843 0.043678329665791799 0.026229557720274708 0.026047346759036118 -0.024651325798452743 -0.031854149965177547 0.02214200685744621 0.032047718997284681 -0.044602043752578063 -0.018397380266674025 0.0099755417091563336 0.026955718643919012 0.034252621948829505 0.024791037202166501 0.013622220298558521 -0.008827642232924841 0.031898086272013911 0.041417550068797951 0.0042927973124246982 0.015004463832620231 0.024202242328423156 0.039293597486359043 0.02658244422289498 0.0054212692830137412 0.038735949529603173 -0.011409564197316723 -0.0015836217938153764 0.02971386924885927 0.014135840653263296 0.049479053600362886 0.046701127512185824 0.023310837954548309 0.034679236433213925 0.04340792491112859 0.033904463192108658 0.0087439038556127863
