tree
version=v4
num_class=1
num_tree_per_iteration=1
label_index=0
max_feature_idx=63
objective=binary sigmoid:1
feature_names=age alcohol_consumption_per_week physical_activity_minutes_per_week diet_score sleep_hours_per_day screen_time_hours_per_day bmi waist_to_hip_ratio systolic_bp diastolic_bp heart_rate cholesterol_total hdl_cholesterol ldl_cholesterol triglycerides family_history_diabetes hypertension_history cardiovascular_history cardio_risk_score cholesterol_risk lifestyle_risk diet_activity_balance metabolic_index overall_health_risk age_bmi age_bp bmi_cholesterol family_history_age log_physical_activity log_triglycerides age_squared bmi_squared high_bp_flag high_cholesterol_flag obese_flag sedentary_flag medical_history_score gender_Male gender_Other ethnicity_Black ethnicity_Hispanic ethnicity_Other ethnicity_White education_level_Highschool education_level_No_formal education_level_Postgraduate income_level_Low income_level_Lower-Middle income_level_Middle income_level_Upper-Middle smoking_status_Former smoking_status_Never employment_status_Retired employment_status_Student employment_status_Unemployed bmi_category_normal bmi_category_overweight bmi_category_obese age_group_middle age_group_senior age_group_elderly bp_category_elevated bp_category_high bp_category_very_high
feature_infos=[19:89] [1:8] [1:747] [0.10000000000000001:9.9000000000000004] [3.2999999999999998:9.9000000000000004] [0.59999999999999998:15.800000000000001] [15.1:37.799999999999997] [0.69999999999999996:1.02] [91:163] [51:103] [42:98] [121:286] [21:90] [51:199] [31:290] [0:1] [0:1] [0:1] [0.4792857142857142:0.98438095238095236] [0.31916666666666671:1.0175000000000001] [0:0.76657142857142857] [0.0049000000000000007:7.0217999999999998] [0.52715789473684216:1.3934736842105264] [0.43086146616541354:0.89127230576441108] [352:3001.2000000000003] [1729:13261] [2174.4000000000001:9792] [0:89] [0.69314718055994529:6.6174029779744776] [3.4657359027997265:5.6733232671714928] [361:7921] [228.00999999999999:1428.8399999999997] [0:1] [0:1] [0:1] [0:1] [0:3] [0:1] [0:1] [0:1] [0:1] [0:1] [0:1] [0:1] [0:1] [0:1] [0:1] [0:1] [0:1] [0:1] [0:1] [0:1] [0:1] [0:1] [0:1] [0:1] [0:1] [0:1] [0:1] [0:1] [0:1] [0:1] [0:1] [0:1]
tree_sizes=8911 9136 9115 9668 9334 10288 10086 10311

Tree=0
num_leaves=84
num_cat=0
split_feature=27 28 23 0 0 0 28 28 28 28 0 0 21 0 0 28 0 0 0 28 0 23 23 23 23 23 23 15 15 23 14 22 23 23 10 10 10 10 0 23 15 25 23 28 28 0 0 6 0 10 0 12 0 28 28 14 0 20 0 28 28 19 25 0 9 28 22 28 0 28 14 21 4 21 23 12 0 26 22 25 10 26 28
split_gain=15990.8 9653.6 5787.24 2065.22 2030.97 980.885 922.326 890.944 855.631 543.281 425.091 419.711 418.452 365.823 344.899 341.813 268.843 265.611 257.846 246.767 179.309 165.403 162.78 155.571 150.019 144.429 134.106 131.764 131.537 126.614 121.693 106.395 97.4217 92.4891 90.92 87.6962 84.5002 81.0731 75.7007 75.6285 67.9585 64.9333 58.7975 50.5583 50.5541 49.5392 46.3148 44.343 37.4918 33.2087 32.292 31.7586 31.0547 30.9492 29.9224 26.3506 23.7256 22.7016 22.295 19.0818 18.5975 17.7502 17.2904 15.655 12.7856 11.5536 8.94851 7.35911 7.21825 7.17564 6.79156 6.71347 6.37294 6.06501 6.83334 5.9197 5.81245 5.23696 4.6548 4.28216 4.16961 0.925774 0.753851
threshold=26.500000000000004 4.8940944640863338 0.64830686090225575 48.500000000000007 48.500000000000007 49.500000000000007 4.3372693810700085 4.3372693810700085 4.3502571242716384 4.3372693810700085 67.500000000000014 68.500000000000014 1.1551000000000002 67.500000000000014 29.500000000000004 5.2958110956362647 30.500000000000004 66.500000000000014 28.500000000000004 4.7749040587885982 67.500000000000014 0.70040617167919816 0.68721394110275702 0.59597252506265674 0.68214307644110284 0.67325034461152899 0.65646381578947388 1.0000000180025095e-35 1.0000000180025095e-35 0.60775927318295742 134.50000000000003 0.98789473684210538 0.64915300751879712 0.61429959273182966 66.500000000000014 64.500000000000014 61.500000000000007 60.500000000000007 28.500000000000004 0.61223681077694259 1.0000000180025095e-35 4029.0000000000005 0.6275470551378447 5.0968083143154814 5.2857353797162627 49.500000000000007 71.500000000000014 29.950000000000003 49.500000000000007 66.500000000000014 71.500000000000014 40.500000000000007 30.500000000000004 5.0968083143154814 4.9089648320872419 160.50000000000003 71.500000000000014 0.38583928571428577 71.500000000000014 5.2652741739841078 4.9089648320872419 0.53791666666666693 4497.0000000000009 58.500000000000007 69.500000000000014 5.1387309967764621 0.80492982456140372 3.9981586158983733 60.500000000000007 5.344720891341141 107.50000000000001 1.4309000000000003 6.6500000000000012 0.53125000000000011 0.56412149122807032 50.500000000000007 71.500000000000014 4533.7500000000009 0.84556140350877207 4449.0000000000009 71.500000000000014 4374.5000000000009 5.4701654074033046
decision_type=2 2 2 2 2 2 2 2 2 2 2 2 2 2 2 2 2 2 2 2 2 2 2 2 2 2 2 2 2 2 2 2 2 2 2 2 2 2 2 2 2 2 2 2 2 2 2 2 2 2 2 2 2 2 2 2 2 2 2 2 2 2 2 2 2 2 2 2 2 2 2 2 2 2 2 2 2 2 2 2 2 2 2
left_child=1 2 4 8 7 12 10 14 16 20 21 24 26 15 28 30 40 39 27 32 33 -5 -18 -16 -8 38 35 -9 -1 -20 34 37 48 -6 -7 41 42 -17 -10 -11 -4 -3 52 -37 62 53 -12 -27 73 60 57 -46 -14 78 -32 -51 -19 65 -13 80 -28 70 -38 67 -44 -15 -59 -34 69 81 71 -55 -33 74 -2 -61 -22 -72 -21 -63 -52 -47 -71
right_child=19 5 3 6 9 13 11 18 25 17 46 58 36 50 23 31 22 56 29 45 76 -23 -24 -25 -26 47 49 -29 -30 -31 54 72 63 -35 -36 43 44 -39 -40 -41 -42 -43 64 -45 51 68 -48 -49 -50 55 59 -53 -54 61 -56 -57 -58 66 -60 75 -62 79 -64 -65 -66 -67 -68 -69 -70 82 77 -73 -74 -75 -76 -77 -78 -79 -80 -81 -82 -83 -84
leaf_value=0.49968636087517987 0.58296741768854643 0.46686068106097472 0.53495480131676698 0.58868001658945945 0.55866699069402215 0.52361950812201441 0.56124809406155107 0.46182357727113987 0.48427533584173199 0.53424631864023397 0.60900999114857712 0.59431931644135694 0.40077607397704013 0.5494974426500312 0.5269747964549687 0.49308312222081196 0.56870751829767408 0.57447391481380294 0.50548248385709627 0.58955501030849078 0.59511053409315395 0.60167953879642166 0.58446136984676533 0.55111549054572029 0.57773604417470781 0.5473383351793818 0.46959885956309727 0.56678376857182533 0.58036595318498196 0.52371424517055354 0.48822036236794136 0.57698524873151302 0.63173095749196007 0.57436397298636199 0.4949252957485793 0.4748617320214904 0.43463181725122746 0.45358353560929981 0.53380899929830183 0.54948975378311637 0.60394157462889531 0.50669295858681085 0.45704795689917271 0.4439370129171375 0.48648678980146703 0.59551101745774582 0.62452812732491214 0.56637077047078066 0.62565991683028233 0.48753797851014424 0.59375057861563607 0.4126019140785403 0.45816477592998067 0.54611453831792545 0.54305565617822105 0.53204465323162264 0.5995854664314324 0.52998536919087424 0.6121630939923477 0.57012381491243569 0.53263663825771412 0.56666258173331086 0.46412610617094496 0.63496553639676467 0.51207582955254638 0.52125088090857574 0.58303965245982148 0.62503706589690811 0.62098753727906086 0.55472105978114306 0.54462788865052247 0.49498104186994807 0.53236515346685043 0.60712842239379028 0.6177158367977823 0.53177346368268685 0.61216155169610043 0.58787605086711614 0.60691812562498271 0.594406425840877 0.55958175328322768 0.61362065586613146 0.58813849822193376
leaf_weight=1665.7386365532875 107.55336803197861 457.95212084054947 1737.7254321277142 24459.979501873255 4160.7457518875599 1781.8634803891182 9454.8923182189465 936.57228103280067 247.71244338154793 3751.4615019857883 3904.5960530340672 1315.6514389514923 81.810711801052094 224.56845617294312 2451.1386147737503 660.52518394589424 13802.073352128267 1073.7269411087036 4446.5436958372593 567.79005458950996 956.77214911580086 11676.017600297928 8405.1733743846416 14248.803396821022 8180.2627203762531 3950.9438880085945 33.958456814289093 97.521038711071014 167.06806084513664 8864.8512031137943 78.665270358324051 46.996626108884811 6047.3969721794128 11117.6996088624 1645.5943876504898 1451.3283488452435 345.34187105298042 1050.2748016119003 5028.183998465538 8186.0079542398453 114.18403494358063 1007.8700039684772 33.145388960838318 584.3569994866848 51.040542393922806 325.19053137302399 3428.4536846280098 1318.9459864497185 5938.746790677309 436.05192428827286 293.16862571239471 905.3144955933094 709.54929998517036 41.052902966737747 1399.8328276276588 128.80549398064613 523.7643680870533 39.776055872440338 1708.9514058530331 56.239154487848282 506.09975489974022 155.87337505817413 346.1414615213871 6706.192459076643 188.75672632455826 245.24812898039818 140.40579172968864 8061.4586445093155 915.1936117708683 46.544480323791504 93.925295412540436 31.369862258434296 74.404006272554398 1657.8738342225552 5093.658606916666 99.674937665462494 581.75975516438484 41.728213280439377 676.70383277535439 229.10736420750618 77.415662974119186 797.24883627891541 138.05781188607216
leaf_count=4494 226 1339 4271 51220 9558 4517 21557 2769 695 9240 7634 2701 280 528 6158 1812 30771 2349 11821 1182 1958 23418 17839 33468 17735 9380 100 216 356 22470 219 99 10893 24359 4493 4161 1087 3164 12400 19317 223 2671 101 1800 143 662 6341 2959 10942 1213 600 2981 2116 96 3363 318 1054 98 3302 122 1251 347 1019 11933 493 625 296 14889 1711 106 223 86 183 3260 9659 246 1121 84 1329 467 175 1530 286
internal_value=0.571652 0.560555 0.566856 0.580194 0.546023 0.493335 0.589567 0.530833 0.562813 0.562469 0.596871 0.574174 0.469962 0.514806 0.543599 0.506865 0.571996 0.549278 0.51433 0.623813 0.573065 0.592897 0.574691 0.547582 0.56892 0.541834 0.486083 0.472046 0.507279 0.517628 0.518999 0.474433 0.626332 0.570114 0.509852 0.477643 0.442164 0.468739 0.531463 0.544718 0.539535 0.494145 0.462632 0.465827 0.429783 0.602795 0.616363 0.552171 0.619888 0.512822 0.56003 0.416407 0.451465 0.59112 0.540085 0.49789 0.583053 0.546126 0.604607 0.576487 0.528326 0.57277 0.448905 0.630258 0.502797 0.535183 0.57262 0.627962 0.612173 0.605466 0.549552 0.525052 0.552417 0.614783 0.617095 0.547661 0.601976 0.561093 0.599471 0.584374 0.587672 0.608918 0.581685
internal_weight=214819 177146 161964 98733.7 63230.2 15182.2 64128.8 32878.2 34604.9 30351.9 43469 20659.8 7267.52 7914.65 18532.7 6738.16 24059.2 13535 14345.5 37672.7 16817 36136 22207.2 16699.9 17635.2 10545.8 4606.42 1034.09 1832.81 13311.4 4905.96 1832.2 33612.9 15278.4 3427.46 3501.51 2661.1 1710.8 5275.9 11937.5 1851.91 1465.82 1013.26 2035.69 1647.84 4059.79 7333.05 5269.89 12797.8 1104.92 1176.5 956.355 791.36 1837.55 1478.5 564.857 1597.49 649.998 3024.6 526.498 540.058 593.057 691.483 20815 221.902 469.817 180.182 14108.9 2222.24 1307.04 208.076 72.4228 121.401 6859.09 5201.21 155.914 1538.53 135.654 1244.49 384.981 370.584 1122.44 184.602
internal_count=474678 404767 363154 212446 150708 41613 133908 81752 78538 68956 88613 45295 21073 20540 44476 17850 53104 31960 37276 69911 36996 74638 48610 39626 39292 25434 12853 2985 4850 34291 12592 5258 61802 33917 9010 9971 8220 4976 13095 28557 4494 4010 2990 5961 5230 8109 13975 12339 24087 2882 2690 3124 2396 3814 3582 1531 3403 1547 6003 1143 1351 1303 2106 37715 594 1153 394 25782 4295 2584 489 182 282 13145 9885 368 3079 307 2511 814 775 2192 392
is_linear=0
shrinkage=1


Tree=1
num_leaves=84
num_cat=0
split_feature=27 2 24 24 2 24 2 24 2 2 24 24 24 15 0 23 0 2 2 2 23 2 2 21 10 23 24 24 14 23 10 0 13 23 2 24 15 2 0 2 2 24 22 10 2 2 24 2 2 23 23 12 2 20 2 21 2 14 6 10 23 2 7 0 19 24 24 2 26 24 14 21 18 20 23 19 13 20 23 2 21 18 20
split_gain=14295.1 8363.81 4867.33 2715.64 1226.44 1161.52 1084.77 947.778 773.075 501.34 400.852 320.239 314.438 265.578 259.221 237.788 236.717 227.2 210.587 201.245 200.543 196.663 167.58 151.788 138.528 134.576 127.754 109.067 104.576 101.961 81.6503 78.5329 76.3474 75.8451 75.1728 74.0683 79.154 66.6959 66.5262 65.2105 64.529 56.0399 55.9679 55.3966 55.0782 53.9277 52.1986 47.5176 44.9444 41.8489 39.9691 36.6398 35.7402 34.4216 32.3744 30.2721 27.8777 24.0808 22.225 21.9541 21.8158 17.0084 14.3972 13.8096 9.96986 9.44331 8.59718 8.478 8.17597 7.54892 5.99969 5.9057 5.61204 5.5668 4.95186 1.91639 1.86808 1.5294 1.33299 1.22675 1.07571 0.585133 0.400725
threshold=26.500000000000004 94.500000000000014 1282.8500000000001 1246.7500000000002 162.50000000000003 920.10000000000002 141.50000000000003 1618.3000000000004 65.500000000000014 56.500000000000007 1711.5000000000002 682.80000000000007 834.75000000000011 1.0000000180025095e-35 71.500000000000014 0.64354144736842123 67.500000000000014 132.50000000000003 66.500000000000014 55.500000000000007 0.65943117167919807 198.50000000000003 65.500000000000014 0.78225000000000011 65.500000000000014 0.67656907894736851 936.05000000000007 1118.7500000000002 127.50000000000001 0.64830686090225575 60.500000000000007 24.500000000000004 78.500000000000014 0.63590131578947384 92.500000000000014 616.30000000000007 1.0000000180025095e-35 196.50000000000003 68.500000000000014 132.50000000000003 66.500000000000014 1070.0500000000004 0.8343859649122809 60.500000000000007 32.500000000000007 132.50000000000003 1052.6500000000003 132.50000000000003 31.500000000000004 0.71522753759398505 0.6988565476190477 52.500000000000007 76.500000000000014 0.26810714285714293 132.50000000000003 0.38205000000000006 75.500000000000014 57.500000000000007 18.450000000000003 74.500000000000014 0.66426744987468689 169.50000000000003 0.85500000000000009 71.500000000000014 0.53625000000000023 1646.7000000000003 1527.8500000000001 214.50000000000003 3967.3000000000006 1457.6000000000001 103.50000000000001 0.40875000000000006 0.6499761904761906 0.317857142857143 0.61618624686716805 0.46375000000000016 58.500000000000007 0.32410714285714298 0.63305203634085216 162.50000000000003 1.8355500000000002 0.57583333333333342 0.27692857142857147
decision_type=2 2 2 2 2 2 2 2 2 2 2 2 2 2 2 2 2 2 2 2 2 2 2 2 2 2 2 2 2 2 2 2 2 2 2 2 2 2 2 2 2 2 2 2 2 2 2 2 2 2 2 2 2 2 2 2 2 2 2 2 2 2 2 2 2 2 2 2 2 2 2 2 2 2 2 2 2 2 2 2 2 2 2
left_child=1 2 5 4 12 11 10 9 15 29 28 13 35 31 22 41 21 27 62 33 -20 24 49 32 -8 34 53 55 45 57 -23 -1 -14 -13 -11 36 -3 51 50 -37 -24 -7 -21 -39 -17 -5 61 -25 -31 -9 -12 -28 -27 58 -30 76 69 -4 -6 -55 63 72 -10 -18 73 -58 79 -62 -15 -29 -40 78 81 80 -57 -76 -2 82 -16 -48 -63 -19 -66
right_child=17 3 7 6 26 8 16 14 18 25 38 19 23 68 71 44 60 46 20 42 -22 30 40 47 -26 52 37 56 54 48 -32 -33 -34 -35 -36 39 -38 43 70 -41 -42 -43 -44 -45 -46 -47 66 -49 -50 -51 -52 -53 -54 59 -56 74 65 -59 -60 -61 67 64 -64 -65 77 -67 -68 -69 -70 -71 -72 -73 -74 -75 75 -77 -78 -79 -80 -81 -82 -83 -84
leaf_value=-0.034415582868004613 0.06701289501608293 -0.068136536621488664 0.0088016311310815734 0.039142560790330232 -0.012405443240009559 0.043738569889228404 0.029849218317777936 0.090599544272402688 -0.013819000465094855 0.055797106725590864 0.055815395608785054 0.031745982168148799 -0.0031313379557159154 0.044290862898365341 0.092391199134187127 0.078952312140017647 0.02495580974651004 0.054685773718791839 0.032385455635424484 0.012656265860356126 0.052600884084633821 -0.00017227456631491731 0.010472061097879005 0.0064750128621831665 -0.0056903194230863308 0.076054384379990736 -0.0010309086191968701 0.11814969970819353 0.055289271970788971 0.093983632412958956 -0.03948932541325087 -0.0010239742890785337 0.021637421352321301 0.051987794142528548 0.086874703260706787 -0.0067264492225868099 0.046259408656480566 -0.02667042024294658 0.070598420155514333 -0.04206445225388946 0.079072400619965635 0.05673764309165627 0.028715017437459842 -0.062427475207102706 0.065761318499648058 0.01271317281516739 0.095572458496579069 -0.012231038279034691 0.082071567685595093 0.10183180310224062 0.080528429946783692 -0.033268015919554285 0.063649599596119502 -0.052407176406179784 0.032678270425933582 0.094203174468213802 0.11124488964358133 0.070906702842927535 -0.09011294568137751 -0.10391470481937323 0.071860581517859401 0.044534928610046161 -0.050064596852741457 0.05273765042943903 0.053905734869226979 0.12127113740475262 0.10641688757030673 0.028918741427290919 0.088534636911755338 0.12426245014627341 0.093555488078834154 0.10316644895385786 0.039602575341816486 -0.0052180105751708297 0.073924132469359555 0.10499259394677388 0.11262883231621622 0.039417101491494619 0.11512548803333705 0.082078521018727771 0.018480369051151121 0.08700262207760627 0.084665874509455855
leaf_weight=829.33961686491966 39.383865922689438 376.70815721154213 50.929069608449936 6572.0560542345047 32.475968778133392 4396.7452035099268 1736.6449455469847 9506.089855208993 235.07691085338593 14123.586206495762 1325.2916222661734 2836.840335726738 1106.2416672706604 63.428429052233696 183.10482361912727 3282.3711519092321 347.71759761869907 48.175776198506355 11209.338420644403 3746.6009350419044 5829.4835310280323 675.40510226786137 110.07810445129871 2384.0714155435562 1665.4952324330807 5187.543267890811 471.17938846349716 8291.559647500515 4933.4535124450922 3598.5827707201242 1041.1044033616781 1588.949772939086 7617.4021083116531 3022.0679731220007 649.18159359693527 1820.4739516228437 49.118053093552589 567.35643535852432 210.56189104914665 517.36244498193264 8343.9977672845125 6828.1593786627054 3090.702240884304 881.09679685533047 13140.474185824394 668.85939821600914 682.64558252692223 1884.2427450865507 12191.363649681211 4424.8448846638203 942.61382779479027 650.20708104968071 3283.7216678410769 840.59894603490829 583.44681558012962 1580.4652190059423 6377.4147810637951 5238.9390238821507 550.00739853084087 72.451678603887558 293.45431514084339 56.850519940257072 134.16062773764133 254.76358695328236 84.866316348314285 2028.9572563916445 647.69768461585045 54.165400668978691 202.76810745894909 7918.6732631325722 1344.1876188963652 1488.2705715894699 43.377256914973259 30.902005761861801 82.933230802416801 2743.0185131430626 4765.1924175918102 55.428188115358353 3212.4733790755272 625.02828930318356 32.874460801482201 270.8896990865469 44.954279944300652
leaf_count=2411 85 1183 133 15842 90 10458 4290 19653 652 32478 3044 6976 2980 149 373 7033 870 109 27518 9696 13524 1805 287 6269 4515 11232 1262 15644 11356 7352 3061 4257 19247 7021 1351 4948 114 1619 461 1531 17886 15649 7664 2729 29341 1729 1386 5190 25902 8815 2007 1885 7375 2546 1429 3230 12325 11511 1809 249 640 133 407 589 194 3783 1268 133 418 14620 2750 2952 103 84 178 5412 9163 132 6121 1325 83 563 91
internal_value=0.0633063 0.052813 0.0637602 0.0187764 -0.00505561 0.0453274 0.0396281 0.0793154 0.0524693 0.0713305 0.0512979 0.0243929 0.00608921 -0.00326762 0.0922747 0.0616385 0.00772478 0.113522 0.0378896 0.0302402 0.0393187 0.000201536 0.0881838 0.0118345 0.0124727 0.0623552 -0.0481906 0.115486 0.0437529 0.0812056 -0.0240765 -0.0125354 0.0184965 0.0422316 0.0571994 -0.0208846 -0.0544574 -0.0361132 0.076365 -0.0146391 0.0781877 0.0516734 0.0199352 -0.0485983 0.0684271 0.0367145 0.0879712 -0.00178858 0.0848229 0.0942118 0.0662822 -0.0198046 0.0712969 -0.0687043 0.0529382 0.106887 0.118676 0.07032 -0.0859604 -0.0571805 0.0479868 0.0653691 -0.0276098 0.0371292 0.0481559 0.113754 0.0954608 0.0658056 0.0792642 0.121183 0.0907448 0.110887 0.0788214 0.0263363 0.100785 0.104248 0.112343 0.061026 0.114073 0.0895485 0.0368344 0.0832802 0.0679934
internal_weight=210951 174499 132029 42470.2 19821 60436.5 22649.2 71592.7 45055.8 44323.8 16580.5 15380.7 15755.6 2684.49 27268.9 27647.7 6068.75 36451.3 17408.1 12696.2 17038.8 5118.65 22385 12992 3402.14 23244 4065.37 33827.6 12757.8 21079.8 1716.51 2418.29 8723.64 5858.91 14772.8 2763.66 425.826 2569.84 3822.65 2337.84 8454.08 11224.9 6837.3 1448.45 16422.8 7240.92 2623.69 4268.31 15789.9 13930.9 2267.91 1121.39 8471.26 1495.53 5516.9 9210.99 24616.6 5289.87 582.483 913.051 950.101 668.319 369.238 602.481 305.876 8406.37 1955.37 347.62 266.197 16210.2 1554.75 4883.85 362.443 120.627 4406.42 2825.95 4804.58 185.249 3395.58 1307.67 89.725 319.065 129.821
internal_count=474678 404767 296595 108172 53651 143174 54521 153421 104582 97334 38618 38592 41462 7235 56087 62481 15903 69911 42101 31357 41042 13671 46641 33686 8805 52436 12189 64440 30356 44898 4866 6668 22227 13997 33829 7776 1297 7495 8262 6479 18173 26107 17360 4348 36374 17571 5471 11459 33254 28468 5051 3147 18607 4694 12785 18068 46372 11644 1899 2795 2232 1492 1059 1459 717 16108 3979 773 567 30264 3211 9446 775 300 8820 5590 9248 417 6494 2711 216 672 285
is_linear=0
shrinkage=0.0881663


Tree=2
num_leaves=84
num_cat=0
split_feature=27 23 2 2 24 24 24 2 2 24 24 2 24 0 0 2 0 2 24 24 21 2 0 2 24 15 0 24 2 2 10 2 15 10 21 0 2 14 24 2 14 10 25 15 24 24 13 14 21 2 21 25 0 0 25 18 23 2 2 21 0 25 10 0 24 6 24 0 23 10 19 24 19 20 23 23 21 2 26 24 2 19 2
split_gain=12909.3 7252.98 3479.16 2450.54 1527.4 1276.73 1093.74 509.999 478.965 367.613 346.993 331.597 312.637 236.021 228.678 226.779 224.725 214.292 210.626 183.314 168.314 164.464 147.095 144.185 140.655 136.585 100.1 96.8673 95.794 97.226 91.3673 83.7977 76.6474 74.8235 71.6451 71.4944 69.6728 69.5158 69.3678 67.9631 61.4723 58.4517 57.7264 54.7712 52.883 49.7976 46.809 44.0144 43.1973 42.675 41.6077 35.6899 35.1481 34.9386 34.5218 32.4733 31.9343 31.1446 28.7191 28.5742 27.8931 27.5418 21.1957 19.908 19.8262 18.151 16.4092 15.2093 13.856 13.4562 7.77277 7.25071 6.25058 4.85799 4.65941 3.99025 3.50162 3.17678 2.09463 1.6418 1.17997 0.884524 0.601363
threshold=26.500000000000004 0.64354144736842123 132.50000000000003 76.500000000000014 1082.6500000000003 1469.0500000000002 1441.9000000000003 75.500000000000014 65.500000000000014 1073.3500000000001 1108.3000000000004 132.50000000000003 1816.8000000000004 60.500000000000007 68.500000000000014 132.50000000000003 28.500000000000004 117.50000000000001 1151.1000000000001 761.70000000000016 1.3594500000000003 198.50000000000003 61.500000000000007 32.500000000000007 761.70000000000016 1.0000000180025095e-35 64.500000000000014 1246.7500000000002 56.500000000000007 60.500000000000007 68.500000000000014 132.50000000000003 1.0000000180025095e-35 60.500000000000007 0.7671 68.500000000000014 34.500000000000007 105.50000000000001 682.80000000000007 56.500000000000007 140.50000000000003 66.500000000000014 8161.0000000000009 1.0000000180025095e-35 914.45000000000016 1461.8500000000001 84.500000000000014 138.50000000000003 0.35515000000000013 164.50000000000003 0.73765000000000025 3265.5000000000005 68.500000000000014 71.500000000000014 3639.0000000000005 0.59545238095238107 0.73382017543859657 26.500000000000004 162.50000000000003 0.35965000000000008 71.500000000000014 7816.0000000000009 57.500000000000007 71.500000000000014 1052.6500000000003 27.450000000000003 889.4000000000002 71.500000000000014 0.68897913533834598 64.500000000000014 0.53625000000000023 870.60000000000025 0.46875000000000017 0.32692857142857151 0.65430980576441111 0.71522753759398505 0.70510000000000006 65.500000000000014 4995.7500000000009 809.1500000000002 184.50000000000003 0.54541666666666699 66.500000000000014
decision_type=2 2 2 2 2 2 2 2 2 2 2 2 2 2 2 2 2 2 2 2 2 2 2 2 2 2 2 2 2 2 2 2 2 2 2 2 2 2 2 2 2 2 2 2 2 2 2 2 2 2 2 2 2 2 2 2 2 2 2 2 2 2 2 2 2 2 2 2 2 2 2 2 2 2 2 2 2 2 2 2 2 2 2
left_child=1 2 4 5 8 9 11 22 19 24 20 18 15 37 28 47 25 27 38 43 49 26 39 57 32 -10 30 59 56 -30 -12 53 -3 61 -18 -15 -25 -9 -5 -6 -20 -17 -35 -1 69 58 -21 -8 -26 54 -46 65 -24 -14 -4 -51 -7 -11 71 74 75 -23 -53 -28 70 -22 72 -33 77 -13 73 79 -61 -60 -2 -16 -68 -29 -72 -19 -66 -82 -79
right_child=17 3 10 6 7 14 12 13 16 23 21 44 31 35 60 41 34 45 40 46 51 33 52 36 48 -27 63 68 29 -31 -32 67 -34 42 -36 -37 -38 -39 -40 -41 -42 -43 -44 -45 50 -47 -48 -49 -50 55 -52 62 -54 -55 -56 -57 -58 -59 64 66 -62 -63 -64 -65 80 -67 76 -69 -70 -71 78 -73 -74 -75 -76 -77 -78 82 -80 -81 81 -83 -84
leaf_value=0.0062062016925792766 0.10482270907590038 0.014310659514660828 -0.040170680786749791 -0.027809861637090042 0.058662744244012792 0.085150423149823976 0.053326849854848923 0.019740240648430801 -0.040133510949393207 0.074741450984040864 0.0087292067583729076 -0.011064654568393817 0.077721806835538892 0.047320186054075071 0.09064009042126854 0.038649076630135719 0.012498749128503978 0.076305750077444362 0.037757761855895106 0.029396319594165776 -0.11202467440474399 -0.014646522648396873 0.067662434208432959 0.037910477379833267 0.055881365533508115 0.05643108394757574 0.029719738052715133 0.11470156741382959 0.056512290824484238 0.07985058497204052 -0.023508178169976107 0.042643886007217191 0.088144627421868071 -0.049169003677957998 -0.0076546651446504233 0.076697687248002286 0.065698421788540379 0.034187705059322109 0.023848007421068799 0.045769742236369239 0.052636646561711659 0.0074890462951446466 0.0047853245487839641 0.067251356267842746 0.024950365644943656 0.10327156252546914 0.043016850480272879 0.065087376872144956 0.042089551471918764 -0.023469124587144854 -0.0021449271957440863 -0.034411865299403849 0.088360447336843992 0.096004744205513221 -0.013339290415956866 -0.053649046561966153 0.097594492494945853 0.090793920436514672 0.037513242666787933 0.067397228250149585 0.1080589793216703 0.025942372693164684 -0.06680917199733187 0.072193004324181423 0.06296577348586152 -0.018974604099419166 0.10307633081410106 0.069697039362730528 0.11864399181620071 -0.05333535013276719 0.063406987835328124 0.089800166388543559 0.091440370656008144 -0.0013986284676027342 0.11315799792714099 0.10352274104525232 0.089318608175086897 0.072651230892000318 0.030604105360568557 0.050095133597119298 0.064135754565751477 0.088571742823188693 0.10904837374442063
leaf_weight=2205.4734661132097 3632.1733614206314 1200.6228411048651 517.16740168631077 203.73043383657932 7777.1781939566135 12855.981126815081 7001.4052096754313 4274.2907602339983 1081.6084953099489 2361.8067356199026 2005.4925027638674 99.227089136838913 2956.5733907073736 2571.7423965632915 1964.322644457221 1038.128902181983 10164.645305275917 139.70185062289238 6758.7636836469173 3401.0768010169268 174.84841167926788 682.40727724134922 2538.8636941164732 753.22895964980125 6675.4040073156357 121.61473745107651 396.13661405444145 6205.1566105633974 1806.9751902222633 7313.3423302918673 1028.7313791662455 545.98052170872688 114.4823310226202 1043.880362406373 1580.4969294816256 891.80720745027065 23542.818492472172 6705.0189611166716 6251.1925592571497 5680.3611809164286 3276.8120087981224 854.56127397716045 179.40821471810341 114.32245716452599 584.96346811950207 1187.8915420621634 4889.6948620975018 4193.9786939918995 2562.480518206954 462.24954655766487 1724.7697432637215 218.04732345044613 993.08856980502605 1380.6271604001522 1335.7629941403866 751.3831349760294 2239.7507228851318 2067.7542688697577 100.01622848212719 192.678382858634 3355.8608852177858 154.1409972012043 878.46463942527771 111.74305474758148 179.65556067228317 21.075847893953323 4553.6368336826563 271.44482846558094 6570.8087916821241 152.19622890651226 162.20994162559509 1540.2035088390112 1103.3334605544806 31.989885330200195 2826.7881782650948 708.90479958057404 541.40780487656593 54.257971405982971 37.206561252474785 93.552646398544312 113.49087372422218 252.28466102480888 5603.1967399567366
leaf_count=5805 7290 3097 1524 584 17815 27317 16295 10877 3185 5174 5243 273 6409 6075 4105 2505 26331 302 16405 8437 606 1891 5667 1835 15418 278 979 12081 4186 15774 2913 1304 237 3140 4307 1938 52933 16410 15730 13492 7626 2242 474 253 1464 2390 11683 9433 6150 1310 4635 635 2087 2841 3689 2284 4578 4303 241 431 6665 384 2751 243 406 60 9186 600 12621 464 364 3230 2306 86 5524 1419 1138 118 91 219 254 526 11107
internal_value=0.0589413 0.0489794 0.0257424 0.0631067 0.0344265 0.0728898 0.0448598 0.0471466 0.0174474 0.062382 -0.0221912 0.0300689 0.0602908 0.0349379 0.0865202 0.0529922 0.00606226 0.107644 0.0346512 0.031329 -0.0408278 -0.00765999 0.0575083 0.0675641 0.0482441 -0.0301294 0.00386469 0.110091 0.0826256 0.075269 -0.00222671 0.0787349 0.0211289 -0.0274292 0.00978411 0.0550103 0.064847 0.0285779 0.022192 0.0532447 0.0426461 0.024652 -0.0412719 0.00938914 0.000551828 0.0875543 0.037456 0.0577668 0.0520871 -0.0294767 0.00476648 -0.0674861 0.0736296 0.0836729 -0.0209393 -0.0423353 0.0870368 0.0823535 0.0802808 0.103903 0.10206 -0.00702905 -0.060601 0.0398372 0.0659586 -0.102922 0.0990758 0.0520934 0.114368 -0.0373336 0.0472356 0.0871028 0.0882103 0.0284487 0.108578 0.0942925 0.101727 0.111937 0.0584154 0.0673923 0.0766638 0.082208 0.108781
internal_weight=206892 171770 64952.2 106818 54991.3 69523.7 37294.4 31432.4 23558.9 39278.6 9960.94 19051.7 18242.7 14442.9 30245.1 13088.1 12948.4 35121.6 16490.5 10610.6 4359 5601.94 16989.5 28725.6 10553 1203.22 3542.1 31283.4 24216 9120.32 3034.22 5154.63 1315.11 2059.84 11745.1 3463.55 24296 10979.3 6454.92 13457.5 10035.6 1892.69 1223.29 2319.8 2561.16 3838.2 8290.77 11195.4 9237.88 3066.56 2309.73 1292.44 3531.95 4337.2 1852.93 1213.63 15095.7 4429.56 2650.31 12850 6029.09 836.548 1096.51 507.88 876.854 195.924 6391.06 817.425 18433.4 251.423 331.423 1773.46 1296.01 132.006 6458.96 2673.23 5095.04 11862.6 199.417 233.254 545.431 365.776 5657.45
internal_count=474678 404767 162766 242001 134640 153191 88810 74361 60279 89147 28126 47181 41629 35300 64044 30475 34101 69911 40345 26178 12859 15267 39061 64245 24902 3463 9378 61802 51855 19960 8156 11154 3334 5889 30638 8013 54768 27287 16314 31307 24031 4747 3614 6058 6836 8109 20120 25728 21568 8807 6099 4052 7754 9250 5213 3594 31895 9477 5719 25875 12189 2275 3386 1222 1968 666 13061 1904 35927 737 782 3751 2737 327 12814 5524 10324 23306 455 521 1186 780 11225
is_linear=0
shrinkage=0.0881663


Tree=3
num_leaves=89
num_cat=0
split_feature=27 2 24 24 24 21 2 24 2 2 24 24 24 2 2 23 2 0 2 15 21 0 2 24 10 0 23 2 19 21 23 0 10 24 14 2 13 23 12 2 2 13 23 24 24 13 2 10 2 14 2 0 15 10 24 21 21 2 10 0 13 23 2 5 13 9 21 2 0 24 21 23 13 23 26 18 19 3 23 13 2 22 26 2 22 6 2 24
split_gain=11746.8 6389.19 3932.01 1995.94 1043.56 861.631 770.598 688.312 676.577 437.921 299.945 266.964 252.294 235.104 233.497 216.026 205.602 171.188 150.793 133.298 131.992 122.39 117.155 111.038 105.453 97.6973 96.9464 87.6346 85.2565 82.4256 79.6201 79.0654 75.3556 65.752 65.3564 64.7041 60.8265 54.678 54.6356 54.4253 53.1766 52.6625 49.0232 46.6203 45.7169 42.5023 41.4896 38.4978 37.8251 35.9176 35.6315 33.2973 32.5429 30.3351 28.9599 27.834 27.1109 26.0275 21.3024 20.9507 18.2446 17.6164 14.3392 13.7693 10.1435 9.60523 8.10044 7.84211 7.83738 7.25319 7.22535 6.83501 6.72719 6.00633 5.76468 5.73081 4.73848 4.52397 4.05767 3.49166 3.45249 3.16736 2.78328 2.59234 1.64604 5.27496 0.985905 0.554657
threshold=24.500000000000004 94.500000000000014 1328.5500000000004 1264.9000000000003 920.10000000000002 0.97505000000000008 141.50000000000003 1741.1500000000003 65.500000000000014 56.500000000000007 1669.7500000000002 682.80000000000007 864.10000000000014 67.500000000000014 75.500000000000014 0.64575028195488737 132.50000000000003 67.500000000000014 55.500000000000007 1.0000000180025095e-35 1.1943000000000001 71.500000000000014 164.50000000000003 1118.7500000000002 57.500000000000007 26.500000000000004 0.68214307644110284 60.500000000000007 0.52875000000000016 0.65380000000000016 0.64830686090225575 68.500000000000014 68.500000000000014 585.70000000000016 127.50000000000001 56.500000000000007 80.500000000000014 0.71522753759398505 59.500000000000007 66.500000000000014 32.500000000000007 78.500000000000014 0.6988565476190477 1052.6500000000003 1082.6500000000003 69.500000000000014 31.500000000000004 73.500000000000014 132.50000000000003 103.50000000000001 65.500000000000014 67.500000000000014 1.0000000180025095e-35 68.500000000000014 1646.7000000000003 0.38205000000000006 0.43905000000000005 65.500000000000014 67.500000000000014 34.500000000000007 124.50000000000001 0.66426744987468689 169.50000000000003 2.7500000000000004 87.500000000000014 70.500000000000014 0.40875000000000006 214.50000000000003 60.500000000000007 889.4000000000002 0.58665000000000023 0.6149447681704262 74.500000000000014 0.61009326441102774 4526.5500000000011 0.65716666666666679 0.45708333333333345 7.1500000000000012 0.64830686090225575 61.500000000000007 102.50000000000001 0.83096491228070191 4959.3500000000013 216.50000000000003 0.8819473684210527 23.150000000000002 208.50000000000003 642.9000000000002
decision_type=2 2 2 2 2 2 2 2 2 2 2 2 2 2 2 2 2 2 2 2 2 2 2 2 2 2 2 2 2 2 2 2 2 2 2 2 2 2 2 2 2 2 2 2 2 2 2 2 2 2 2 2 2 2 2 2 2 2 2 2 2 2 2 2 2 2 2 2 2 2 2 2 2 2 2 2 2 2 2 2 2 2 2 2 2 2 2 2
left_child=1 2 4 5 11 12 10 9 15 30 34 19 25 39 -15 35 23 20 36 33 24 37 49 55 -8 52 27 -11 59 41 51 42 -22 -1 47 -6 -13 50 -27 -10 -17 -14 -12 -30 62 -20 -32 -5 -31 53 -9 -4 -3 -7 57 73 -28 -25 -36 -24 -51 63 75 -19 65 -64 -39 -63 74 76 -33 -21 -23 79 86 84 -57 82 -59 -2 -78 -74 -66 -67 85 -18 -46 -81
right_child=16 3 7 6 8 22 17 21 13 26 31 18 29 14 -16 40 44 61 45 71 32 72 28 54 -26 38 56 -29 43 48 46 70 -34 -35 58 -37 -38 66 -40 -41 -42 -43 -44 -45 68 -47 -48 -49 -50 60 -52 -53 -54 -55 -56 69 -58 78 -60 -61 -62 67 64 -65 77 83 -68 -69 -70 -71 -72 -73 81 -75 -76 -77 80 -79 -80 87 -82 -83 -84 -85 -86 -87 -88 -89
leaf_value=-0.032525893601810921 0.053200602224020815 -0.056662940878228492 0.061445389405198045 0.035050311062085802 0.049389612680286868 -0.016348674231757333 0.057860287257159963 0.083094982210766707 -0.031752980831645024 0.034679387500274848 0.045731480626200353 0.017606407324739573 -0.0027070493649667105 0.049831156276205234 0.028759056990626638 0.070642380628851503 0.079569630907222133 -0.019401014053804372 -0.0085492005696623814 0.036337065330437027 -0.0098901029699184108 0.054708271691309651 -0.088421885649077853 0.10917231681367144 0.0057274529987969783 -0.00059543793024784738 0.069633359830219191 0.055741839595028216 -0.046626194752096083 0.0098331032897284298 0.086125179289787246 0.090533454338490998 -0.056298722750238839 -0.0013482796574314164 0.051865733869033627 0.034930724673001338 0.040326337282272424 0.093501770753738569 -0.028819674816460007 0.0089652561166691496 0.0582558306876561 0.023131837126668147 0.07041280934459837 -0.020902769817671044 0.070976594704892496 0.018156509877949804 0.075179685682197253 0.018944537465921323 -0.0045930768984903704 -0.011604960953209374 0.069859981239187324 0.086281953631313121 0.025189872335958628 -0.057261113455904941 0.11382771195697279 0.061274711034858001 0.058904429405211081 0.096869102203346505 0.039541543321377146 -0.057327964981198042 0.027736091020274484 0.063829088342712378 -0.016614212081939753 0.035218847861888287 0.067029767142013183 0.015229202595535325 0.080827304122620861 0.023040608742783162 0.096483175612259789 0.092908859488794154 0.074240363073342905 0.08265054637445661 0.090693403245019344 0.10290915787602652 0.084854325417735396 0.029597643920126742 0.088206163065164891 0.027200584070095526 0.10394172661509002 0.058315496113011463 0.069577090708078826 0.10306130462019331 0.028201241328262846 0.050163531665295261 0.091579428201183324 0.048682084496782164 0.048108834029347187 0.093499496928752313
leaf_weight=763.00459703803062 49.224176183342934 485.04211294651031 4125.5081944018602 4797.4049990177155 9553.1630381494761 317.33894045650959 333.10214684903622 4289.016529366374 410.04840435087681 1771.6558871120214 1723.5637739598751 1166.200430855155 698.08741009235382 6136.7615456283092 12374.444992169738 3546.4049522131681 136.22938059270382 34.439512252807617 496.77564769983292 51.375265076756477 1464.7628669440746 48.454444542527199 243.36580203473568 9048.4425508379936 2726.2119822651148 1810.5723499655724 4969.618464961648 13878.639881551266 1175.7186290174723 4680.5131914913654 3884.9044295698404 567.81445424258709 328.86413830518723 1663.0732796192169 2050.7647235393524 3322.3353953510523 4527.2634089589119 3262.6963426619768 749.4916036427021 653.94595265388489 14305.575114220381 4958.7949480414391 1053.4353277981281 1054.4681166559458 284.18863941729069 6232.4030388593674 13292.285542160273 1553.1777341812849 2017.9974097907543 1166.3004973679781 3087.6577662229538 513.76419527828693 37.389777362346649 257.97946290671825 5671.5046094208956 159.71083700656891 3521.7144526690245 3228.7248932570219 2728.7550175189972 893.52583222091198 93.430131494998932 282.68892559409142 34.784724742174149 555.29497866332531 138.05001977086067 37.029527738690376 911.10169644653797 52.935136392712593 550.45218348503113 2837.7014045119286 997.63109086453915 110.77803318202496 698.2837153673172 3736.3393259048462 847.04920166730881 37.474978029727936 942.66637088358402 55.626386016607285 4732.2999604046345 43.190470829606056 258.40790855884552 3354.6666494905949 30.797828838229179 41.803246781229973 85.256081387400627 134.83367829024792 81.88264761865139 725.4120639115572
leaf_count=2208 115 1486 9461 11756 22571 884 759 9306 1190 4384 4117 2990 1880 14475 30818 7942 294 98 1359 125 4016 113 804 18418 7188 4848 11166 32297 3527 12224 8349 1200 1007 4460 4806 8166 10944 6871 2151 1724 33115 12510 2353 2971 637 15938 29478 3977 5455 3210 6934 1099 93 792 11389 367 8150 6800 6627 2743 231 640 98 1359 308 95 1981 133 1153 6023 2219 236 1492 7723 1830 93 2021 139 9765 99 582 6921 76 96 176 321 194 1539
internal_value=0.0549282 0.045411 0.0552646 0.0155519 0.0401861 -0.00397603 0.0345141 0.0712438 0.0462742 0.0657816 0.0447707 0.0197733 0.00648321 0.0334435 0.0357594 0.0544396 0.102264 0.00703088 0.025138 -0.00597372 0.000384772 0.0872492 -0.0349852 0.10422 0.0115113 -0.0160596 0.0575594 0.0533725 -0.0447476 0.0121127 0.0748609 0.0644419 -0.018567 -0.0112128 0.0370638 0.0456777 0.0356973 0.0824517 -0.00890913 -0.00682157 0.0607406 0.0199437 0.0552328 -0.0345572 0.0774215 0.0161788 0.077686 0.0311341 0.0054868 -0.0169804 0.0776197 0.0643095 -0.0505735 -0.0351173 0.107582 0.0954389 0.0652307 0.105458 0.0448911 -0.064436 -0.00856316 0.0416465 0.0578396 0.031857 0.042973 0.0199371 0.0908614 0.057941 0.0853125 0.0895484 0.0804904 0.069891 0.100612 0.100738 0.07977 0.0697228 0.0821436 0.0537668 0.101152 0.090104 0.0845833 0.101075 0.0612211 0.0361038 0.0733532 0.0656648 0.066765 0.0920142
internal_weight=202743 168814 126924 41890.9 65313.6 20640 21250.8 61610 50302.7 45958.1 15472.5 15010.9 15437.9 19575.2 18511.2 30727.5 33929.1 5778.3 12422.6 2588.23 4852.94 15651.9 5202.13 31433.6 3059.31 3082.5 24141.6 15650.3 3367.08 12355.4 21816.5 4342.44 1793.63 2426.08 11130.1 12875.5 5693.46 11550.5 2560.06 1063.99 17852 5656.88 2777 2230.19 2495.46 6729.18 17177.2 6350.58 6698.51 1835.05 7376.67 4639.27 522.432 575.318 22681 8752.65 8491.33 17009.5 4779.52 1136.89 1259.73 925.359 731.886 589.734 338.092 113.617 4173.8 335.624 1763.57 4198.49 1565.45 162.153 4101.4 4554.17 1213.12 393.794 1360.79 224.474 7961.02 817.827 1201.07 4052.95 168.848 78.8328 356.319 271.063 366.071 768.603
internal_count=474678 404327 296263 108064 158261 55809 52255 138002 120001 104384 37055 38260 40647 48207 45293 71794 70351 15200 31231 7029 12970 33618 15162 64841 7947 8578 55997 36681 10045 32069 48387 9889 5023 6668 27166 30737 13934 25092 6999 2914 41057 14390 6470 6498 5510 17297 37827 15733 17679 5117 16240 10560 1579 1676 46372 18469 19316 34983 11433 3547 3441 2230 1696 1457 812 289 8852 773 3814 8993 3419 361 8526 9476 2661 884 2970 523 16565 1753 2603 8413 384 191 791 615 831 1638
is_linear=0
shrinkage=0.0881663


Tree=4
num_leaves=86
num_cat=0
split_feature=27 23 2 2 24 24 24 2 2 0 24 0 2 0 24 2 0 2 24 2 0 24 2 2 24 24 14 10 10 2 2 2 24 2 0 2 23 24 22 10 25 14 27 10 24 10 2 25 0 0 21 10 23 0 14 2 2 2 21 0 2 19 24 0 14 24 0 21 23 22 13 19 24 12 23 23 24 2 6 2 2 12 0 2 19
split_gain=10744.1 5713.04 2697.37 1729.47 1297.91 972.694 735.518 435.429 431.652 266.126 249.002 248.391 218.215 207.831 199.376 197.831 191.985 163.081 155.333 145.999 132.648 123.759 109.576 101.82 93.9381 90.4357 81.9557 77.5327 76.6995 76.513 94.1764 69.5687 68.4968 67.3212 67.3119 62.193 61.3821 58.562 58.5324 56.8072 51.6644 50.0521 48.5779 45.8163 44.6973 42.3713 40.7727 38.9231 38.0203 37.874 36.9816 32.9145 32.7993 32.6954 31.2411 29.1555 28.0814 25.7036 24.8444 24.1658 24.1252 19.28 18.9239 18.3637 18.0376 15.7808 14.0636 13.0801 9.93925 9.30968 8.39546 6.98794 6.4624 5.40327 5.1052 4.84269 8.96798 4.6776 4.53266 2.47724 2.3629 2.19168 1.65257 0.602356 0.544485
threshold=26.500000000000004 0.64830686090225575 132.50000000000003 76.500000000000014 1118.7500000000002 1453.5500000000004 1453.5500000000004 75.500000000000014 75.500000000000014 49.500000000000007 1024.95 68.500000000000014 132.50000000000003 67.500000000000014 791.05000000000007 117.50000000000001 65.500000000000014 132.50000000000003 1201.6000000000001 162.50000000000003 62.500000000000007 642.9000000000002 200.50000000000003 32.500000000000007 1188.1500000000003 761.70000000000016 100.50000000000001 67.500000000000014 57.500000000000007 56.500000000000007 60.500000000000007 53.500000000000007 1358.3500000000001 32.500000000000007 64.500000000000014 34.500000000000007 0.67423095238095254 616.30000000000007 1.0069473684210528 57.500000000000007 8097.0000000000009 140.50000000000003 1.0000000180025095e-35 68.500000000000014 1461.8500000000001 65.500000000000014 26.500000000000004 3849.0000000000005 27.500000000000004 71.500000000000014 0.89895000000000025 61.500000000000007 0.70282669172932344 68.500000000000014 128.50000000000003 55.500000000000007 223.50000000000003 55.500000000000007 0.85035000000000005 71.500000000000014 162.50000000000003 0.52541666666666698 1646.7000000000003 71.500000000000014 89.500000000000014 963.25000000000011 71.500000000000014 0.35295000000000004 0.71522753759398505 0.85310526315789492 91.500000000000014 0.51541666666666697 870.60000000000025 56.500000000000007 0.61009326441102774 0.60011647869674201 799.9000000000002 94.500000000000014 22.550000000000004 184.50000000000003 205.50000000000003 61.500000000000007 33.500000000000007 141.50000000000003 0.46041666666666686
decision_type=2 2 2 2 2 2 2 2 2 2 2 2 2 2 2 2 2 2 2 2 2 2 2 2 2 2 2 2 2 2 2 2 2 2 2 2 2 2 2 2 2 2 2 2 2 2 2 2 2 2 2 2 2 2 2 2 2 2 2 2 2 2 2 2 2 2 2 2 2 2 2 2 2 2 2 2 2 2 2 2 2 2 2 2 2
left_child=1 2 4 5 7 10 12 14 20 19 25 17 18 29 37 24 32 38 36 27 33 42 34 46 57 55 -23 47 61 54 -31 -16 -10 -6 39 -25 -5 -1 -8 -11 51 -20 -9 -19 60 56 -12 -4 -30 68 66 -24 -27 -22 -7 -3 -14 74 -47 -18 72 -21 67 -36 -29 71 -13 -26 -15 77 -42 78 75 -52 -2 76 -17 -59 -62 -67 -81 -79 -73 -46 -69
right_child=15 3 9 6 8 13 11 21 16 22 23 50 45 49 31 44 59 43 41 28 53 26 40 35 62 52 -28 64 48 30 -32 -33 -34 -35 63 -37 -38 -39 -40 -41 70 -43 -44 -45 83 58 -48 -49 -50 -51 73 -53 -54 -55 -56 -57 -58 69 -60 -61 65 -63 -64 -65 -66 79 -68 84 -70 -71 -72 82 -74 -75 -76 -77 -78 81 -80 80 -82 -83 -84 -85 -86
leaf_value=-0.012300926959771519 0.08760614665202171 0.027450277996713634 -0.024326823316888714 0.01466950190692796 0.064984771701715599 0.071436833008016967 0.049736630767506652 -0.037139974502769194 0.022495936431578486 0.041178084439284939 0.062928154793541857 0.07115476174212132 0.020177216084315004 0.080317142854112719 0.037804850493232005 0.056397464176181272 0.051852765043087681 0.03403705790399756 0.034429016665080345 -0.035368867841437765 0.061029625774115304 -0.005027123502263961 -0.012753272615769723 0.030003034861743893 0.1053033963467255 0.041876247567727641 0.011212302972216565 -0.0029251746981327478 -0.092290286557607626 0.046892441307713528 0.070640960818494303 0.024328337055558421 0.03568010336086265 0.045760222139716041 0.025284626066225991 0.057154357211009622 0.031660227117845413 0.014210281681418887 0.069593118206212612 -0.0032601419398133268 -0.016139986213892975 0.049439236728602377 0.039537261415466596 0.0052131624907485888 0.10020102389178198 0.0048735877490273466 0.081406098313282341 0.0095401206745176284 -0.046207953275310951 0.098706107107279797 0.054453241121108283 -0.040226623514413397 0.062327901817856794 0.080443188731456422 0.080604482223155541 -0.0022130230379330844 -0.028522112395079836 0.087398595760493789 -0.019864566131899734 0.07637826995031792 0.029895208650383736 -0.0018936039374569085 0.10945130248638242 0.063971017068785357 -0.036283820656151787 0.052275659500419305 0.085987431019040217 0.081382037656841599 0.093617455288822274 0.094155542322597985 0.018361833426060702 0.060914816203433225 0.079935372452700784 0.026652826899577941 0.10099252591932988 0.071161259447955844 -0.00036380384613048089 0.079578934863236819 -0.011688458278736392 0.086512922291910196 0.062670025939606425 0.059988757888863875 0.035831734376213675 0.085573901145459708 0.098766883044377057
leaf_weight=835.49398970603943 671.49260529875755 720.01774369180202 356.75981210172176 4164.2137849926949 1639.2750881910324 5623.8910949081182 9829.3846612125635 694.29686023294926 7993.3398622274399 240.45919850468636 2194.5505619496107 1215.0037715882063 898.72443678975105 2549.200479760766 6574.0445884019136 65.051706433296204 1281.8728773742914 1242.637010499835 5138.0842416733503 199.18141211569309 2260.9412756711245 3445.5089334100485 618.59002195298672 699.13759049773216 6861.3294132202864 5358.3497725427151 8052.16480268538 147.34827879071236 148.73801901936531 1677.9014373421669 6713.7792923599482 5549.7319546639919 5030.8589422851801 12583.583446517587 446.41802559792995 21433.381431132555 2759.3558951765299 2813.3637934029102 1357.3694595843554 2376.2141700536013 64.272591143846512 2694.2411069869995 65.572093039751053 656.67006468772888 541.1474027633667 562.09735172986984 1905.6068296730518 958.35195903480053 2580.4438741207123 2996.3313195109367 262.50697396695614 766.6993927359581 719.46036514639854 1116.2928476929665 8169.3592467308044 397.68873769044876 96.906995698809624 2667.7385406792164 707.25561101734638 471.23097798228264 40.761117577552795 385.26231995224953 5199.085921138525 122.49142226576805 914.11517933011055 193.23341724276543 1520.0679672211409 216.9578814804554 936.63344769179821 2346.1953259110451 252.67538702487946 58.057390287518501 1441.728674992919 93.315691560506821 3434.7157330513 126.31654684245586 30.92442861199379 665.04851557314396 31.235629439353943 117.39434893429279 288.99893893301487 169.0763351470232 109.21795117855072 557.22826342284679 6477.0344953685999
leaf_count=2309 1485 1804 1014 10768 3743 12833 23468 2035 20275 576 5105 2755 2282 5683 16082 152 3037 3049 12691 584 5245 9342 1707 1764 14599 13024 20954 397 499 4069 15258 14034 12380 30298 1121 50306 6832 7276 3074 6408 180 6400 159 1736 1154 1485 4205 2498 7745 6452 617 2265 1650 2485 18180 1074 279 5905 1987 1054 100 1037 10966 278 2669 461 3350 490 2019 5102 645 131 3230 237 7360 284 85 1499 87 251 669 401 269 1236 13995
internal_value=0.0512155 0.0421727 0.0232347 0.0562775 0.0304262 0.0649647 0.040019 0.0165312 0.04245 -0.0178276 0.0547222 0.0534819 0.0272085 0.0768936 0.0262155 0.0977355 0.0313156 0.0481246 0.0311181 -0.0307777 0.0517841 0.00406256 -0.0027313 0.0587171 0.100209 0.0401193 0.00634573 -0.0140485 -0.0427265 0.0727716 0.0659314 0.0316518 0.0276034 0.0480039 0.00691809 0.0563055 0.0214638 0.00812908 0.0521839 0.000912767 -0.0207482 0.0396281 -0.0302515 0.0241219 0.0778782 0.00172247 0.0716281 0.000280257 -0.0489268 0.0909163 0.0760191 -0.0280724 0.0443594 0.0675848 0.076901 0.0169425 0.0152871 0.0929724 -0.00893992 0.0586959 0.0708871 -0.0135587 0.104017 0.0342256 -0.031698 0.0575856 0.0795775 0.101883 0.0840538 0.0886789 0.011186 0.0367682 0.0773497 0.0477552 0.0989414 0.0588332 0.0392134 0.0848466 0.012364 0.0654222 0.0707768 0.076089 0.0464386 0.0933124 0.0982807
internal_weight=198589 166279 70985.6 95293.1 60407.6 62095.3 33197.8 28030.2 32377.4 10578 33428.2 16177 17020.9 28667.1 15772.6 32310 14777.3 13086.1 14755.9 5690.2 17600.1 12257.5 4887.82 26232.7 28708.7 7195.52 11497.7 2376.58 3313.63 22184.9 8391.68 12123.8 13024.2 14222.9 3185.58 22132.5 6923.57 3648.86 11186.8 2616.67 1702.24 7832.33 759.869 1899.31 3601.3 2264.98 4100.16 1315.11 2729.18 6482.17 3090.89 1385.29 6077.81 3377.23 13793.3 1117.71 995.631 9954.27 1269.35 1753.1 2502.92 584.444 18754.4 568.909 1061.46 838.899 2735.07 13555.3 3485.83 5848.06 316.948 239.272 1664.02 355.823 4106.21 222.293 95.9761 3501.86 71.9967 599.627 406.393 834.125 167.275 1098.38 6693.99
internal_count=474678 404767 180331 224436 150708 143426 81010 72191 78517 29623 78932 38286 42724 64494 39701 69911 36746 31327 36691 16443 41771 32490 13180 61380 61802 17552 30296 6578 9865 50340 19327 30116 32655 34041 8383 52070 17600 9585 26542 6984 4797 19091 2194 4785 8109 6033 9310 3512 8244 14154 6959 3972 14674 7730 31013 2878 2561 21752 3472 4091 5719 1621 40050 1399 3066 1968 6105 29084 7702 12907 825 587 3751 854 8845 521 237 7805 187 1381 920 1900 400 2390 14485
is_linear=0
shrinkage=0.0881663


Tree=5
num_leaves=95
num_cat=0
split_feature=27 23 2 2 24 24 24 2 2 24 0 24 24 24 0 2 0 24 24 21 2 21 24 2 10 2 2 2 2 13 2 2 2 23 24 10 21 0 0 14 2 15 22 6 24 0 10 2 0 0 14 14 0 0 25 2 23 8 2 11 21 24 25 2 18 24 2 23 23 23 9 11 24 0 2 23 3 24 9 7 24 23 20 13 2 8 21 2 2 2 2 10 24 12
split_gain=9865.78 5016.39 2401.8 1420.97 1234.27 839.751 598.833 481.814 344.217 231.232 219.493 206.217 204.381 203.565 195.042 192.233 168.827 157.741 133.52 125.798 115.324 115.199 100.403 99.9215 99.3792 98.1118 87.7456 87.2516 85.3837 79.2491 72.4356 82.3161 69.2361 67.717 65.2074 62.6962 59.8812 54.1272 53.2262 52.2659 50.4734 50.1945 46.6834 46.0845 43.0067 40.8951 38.0032 36.6127 36.4346 35.4628 33.8836 31.2776 31.1507 30.8572 29.8141 26.8031 26.3699 24.5149 24.1758 24.0967 22.2105 22.0747 20.3959 17.8647 17.4638 16.1412 10.9735 9.80148 8.83531 8.04858 7.92799 11.2326 6.63406 6.55306 6.45931 6.31939 5.61637 4.35113 4.15271 3.84959 3.11016 8.68717 2.2226 2.19347 1.96275 1.88361 1.64146 1.56324 9.85409 1.04437 0.961951 0.865975 0.428139 0.270501
threshold=24.500000000000004 0.65129830827067681 132.50000000000003 76.500000000000014 1073.3500000000001 1441.9000000000003 1554.6000000000001 75.500000000000014 63.500000000000007 1108.3000000000004 27.500000000000004 1485.1000000000001 870.60000000000025 1201.6000000000001 67.500000000000014 117.50000000000001 68.500000000000014 1450.6000000000004 761.70000000000016 0.86160000000000025 198.50000000000003 1.3594500000000003 1118.7500000000002 115.50000000000001 72.500000000000014 141.50000000000003 32.500000000000007 56.500000000000007 60.500000000000007 71.500000000000014 56.500000000000007 60.500000000000007 86.500000000000014 0.68609166666666677 1501.3500000000001 60.500000000000007 0.64360000000000006 68.500000000000014 71.500000000000014 140.50000000000003 26.500000000000004 1.0000000180025095e-35 0.99352631578947381 22.150000000000002 1461.8500000000001 60.500000000000007 65.500000000000014 132.50000000000003 71.500000000000014 33.500000000000007 128.50000000000003 139.50000000000003 28.500000000000004 26.500000000000004 2453.5000000000005 192.50000000000003 0.68609166666666677 112.50000000000001 162.50000000000003 197.50000000000003 0.38205000000000006 889.4000000000002 7816.0000000000009 55.500000000000007 0.62416666666666687 1052.6500000000003 65.500000000000014 0.71522753759398505 0.73618756265664176 0.68268289473684229 70.500000000000014 187.50000000000003 864.10000000000014 58.500000000000007 102.50000000000001 0.65430980576441111 7.2500000000000009 870.60000000000025 82.500000000000014 0.83500000000000008 791.05000000000007 0.60011647869674201 0.30210714285714296 58.500000000000007 110.50000000000001 114.50000000000001 0.83890000000000009 148.50000000000003 142.50000000000003 66.500000000000014 141.50000000000003 60.500000000000007 771.60000000000014 62.500000000000007
decision_type=2 2 2 2 2 2 2 2 2 2 2 2 2 2 2 2 2 2 2 2 2 2 2 2 2 2 2 2 2 2 2 2 2 2 2 2 2 2 2 2 2 2 2 2 2 2 2 2 2 2 2 2 2 2 2 2 2 2 2 2 2 2 2 2 2 2 2 2 2 2 2 2 2 2 2 2 2 2 2 2 2 2 2 2 2 2 2 2 2 2 2 2 2 2
left_child=1 2 4 5 8 12 13 17 18 21 41 36 52 23 30 22 25 27 54 39 24 49 60 32 34 42 40 -6 -20 -12 50 -32 -5 -28 -11 62 -9 -19 -13 -15 -14 -10 -8 -26 58 -37 -27 68 67 64 -7 -51 57 91 -1 -21 66 -3 77 -55 75 -25 -22 -54 -4 70 -24 -16 -18 -49 71 -60 74 89 93 83 -72 80 85 -74 -17 -82 -80 -2 -76 -67 -81 88 -79 -68 -46 -23 -85 -62
right_child=15 3 9 6 7 14 16 11 10 20 29 38 26 19 48 44 47 37 28 55 35 53 56 61 43 46 33 -29 -30 -31 31 -33 -34 -35 -36 45 -38 -39 -40 -41 -42 -43 -44 -45 90 -47 -48 69 -50 51 -52 -53 63 59 -56 -57 -58 -59 65 -61 72 -63 -64 -65 -66 78 73 -69 -70 -71 76 -73 79 -75 84 -77 -78 87 82 86 81 -83 -84 92 -86 -87 -88 -89 -90 -91 -92 -93 -94 -95
leaf_value=-0.015450834736706743 0.049174140428448948 0.020951354710555949 -0.031191652017875913 0.008959808323403708 0.048688820712326816 0.066820902261676848 0.047416331639924772 0.026900075833914211 -0.039056563352704486 0.0026075596624668095 -0.011101716513467834 0.041434448024657268 0.055860253427928296 0.033904588774639276 0.07584080478104642 0.06832463487191609 0.074171383503875185 0.055964179457923438 0.027847008522774493 0.015164087509295519 -0.009314946085487677 -0.062044880438778434 0.099649213851269292 -0.025731727106112792 0.024762750265370802 0.036740766820104478 0.047398718746167988 0.035234635082775204 0.059071076116197677 0.010212161867778145 0.0439010937231777 0.06626933320328722 0.029550000702798514 0.057428478776410621 0.030433883165186866 -0.043191346359200265 0.014513483622958772 0.078219068364407784 0.073065639149880623 0.04698919484495561 0.075455728417161194 0.035112188742954527 0.065069106832612467 -0.040243810486901413 0.095905245180160512 -0.009002145374765215 0.001695090086753812 0.035144095157395396 0.094419344122587512 -0.020028701136596345 0.076365968745898224 0.012185705549651288 0.041559993409868996 -0.054085031295300921 0.011271254416162458 -0.019013982065389904 0.10423077126639828 -0.014311689026643476 -0.006589448671595592 -0.018886792274575341 0.078192421872838619 0.001940008054344124 0.024585533229266637 0.02125383918123026 -0.064912151218843903 0.076107570345369815 0.052826844648289781 0.089148157757040172 0.094895792703144896 0.060620529366789203 0.053562481805703395 0.050580060636872134 0.076871961060270444 0.098544568648700287 0.031301504212016197 0.09789594220703611 0.016797881437236477 0.075601694562914892 0.051367486793631401 0.088597561229621077 0.0030905248392339144 0.057162628797392673 0.016933173622780517 0.077719898108081095 0.061039833294455857 0.056373786738674714 0.049568694957724542 0.086985607569364937 0.04569556793425051 0.090154909203472425 0.081249367524613564 -0.1271655941359332 0.089958086473930679 0.060837281911836238
leaf_weight=382.23008844256401 37.547186106443405 729.05366013944149 637.90586829185486 1980.217781111598 9202.1015589535236 5436.325646713376 6443.7955490201712 8706.8621229082346 985.69713853299618 2601.9991307407618 1526.8290286362171 3587.0945104658604 2381.3653622716665 6750.1442896574736 2380.619221046567 129.19560070335865 2136.5214546918869 4337.7926293313503 7755.0864237099886 1124.0839209109545 723.76537752151489 23.827949613332748 6807.0837864428759 261.22196368873119 97.658998742699623 523.85786657035351 14541.3445315063 6498.012177452445 747.230936601758 11795.559970110655 1655.7051448374987 6579.8469895422459 3567.6152660548687 8573.8435397744179 869.00207504630089 931.91410151124001 4697.8332545161247 1123.1330352723598 477.56298957765102 3784.0095266401768 2002.833513468504 71.589951112866402 1493.4358105808496 492.49513278901577 516.92914120852947 388.54644069075584 441.44355575740337 235.19612835347652 2807.6880663633347 2244.1649513542652 8099.2609376013279 257.28994433581829 972.64751148223877 1094.1782454997301 1979.7943415492773 206.18145170807838 6842.0751219391823 188.77106642723083 67.031381458044052 185.62597338855267 678.45442439615726 1375.6192906796932 163.84818837046623 550.18751801550388 152.53123065829277 216.69684837758541 36.573087200522423 898.91997826099396 272.10291627049446 227.69037035107613 171.69214002788067 36.780375018715858 965.38352018594742 2157.169496268034 61.87333832681179 1595.4862713366747 48.643171086907387 987.17286618053913 41.83449213206768 1575.8198790550232 33.419944271445274 74.400658503174782 33.853071466088295 411.6573374569416 57.304528653621674 211.32713659107685 35.089901283383369 272.68772234022617 133.30101034045219 4030.954930588603 536.43847082555294 41.008227244019508 2129.8329054862261 148.02993945777416
leaf_count=1065 91 1859 1851 5221 22208 12787 15624 21917 2903 6916 4205 8775 5716 16799 5491 296 4951 10326 19556 2912 1980 78 15282 746 244 1278 35342 16163 1717 30822 4086 15383 8888 20345 2160 2780 12202 2575 1101 9125 4572 177 3472 1454 1154 1066 1177 588 6326 6316 18625 667 2371 3366 5156 579 15197 528 185 526 1563 3669 411 1407 480 489 90 2019 592 532 404 86 2252 4840 160 3567 126 2292 100 3566 91 176 90 958 135 507 86 605 333 9196 1236 154 4843 355
internal_value=0.0477647 0.0391012 0.0222815 0.0532914 0.0288101 0.0614468 0.0379892 0.0387168 0.0136442 -0.0159508 0.00469156 0.0278619 0.0511713 0.0283115 0.0724761 0.0932928 0.0536231 0.047667 0.025484 0.0354048 -0.00490055 -0.0308652 0.0957949 0.0165771 0.00391927 0.0475557 0.053344 0.0431368 0.030633 0.00776534 0.0685157 0.0618095 0.0222192 0.0511336 0.00961687 -0.0210872 0.0225679 0.0606264 0.0452585 0.0386301 0.0649078 -0.0338556 0.0507869 -0.0293378 0.0735102 -0.0332221 0.0208294 0.0722879 0.0865546 -0.0219112 0.0725653 -0.0166928 0.026616 -0.052581 0.00691724 0.00980175 0.0992048 0.0136502 0.0666736 -0.0490978 0.0869155 -0.00255792 -0.00292737 0.0343418 -0.0381621 0.0534079 0.0965169 0.0796528 0.0767548 0.0483237 0.0367804 0.0154032 0.0810243 0.0929938 0.0724307 0.0917558 0.0461413 0.0731781 0.0635195 0.0839937 0.0575183 0.041503 0.0384594 0.0877274 0.0479552 0.0673266 0.0879445 0.0755705 0.0723201 0.0899018 0.0889706 -0.110869 0.0881735 0.0755693
internal_weight=194483 163402 74780.2 88621.5 63874.4 57798.4 30823.1 38630.4 25244 10905.8 14379.7 17469.4 29940 19049.1 27858.4 31081.7 11774 21161 10864.3 11864.4 6269.23 4636.53 27570.3 7184.67 4061.16 8902.53 27499.4 15700.1 8502.32 13322.4 21771.1 8235.55 5547.83 23115.2 3471 2208.07 13404.7 5460.93 4064.66 10534.2 4384.2 1057.29 7937.23 590.154 3511.4 1320.46 965.301 2871.51 6087.23 3291.89 13535.6 2501.45 2440.66 1344.64 2362.02 1330.27 19873.9 917.825 2458.04 1279.8 7696.48 1636.84 887.614 1522.84 790.437 827.859 13031.8 3279.54 2408.62 462.886 324.147 103.812 3521.96 6224.7 945.662 4174.52 220.335 1630.18 503.712 2576.29 237.016 107.821 75.6876 2579.04 119.178 428.024 1610.91 1393.16 1120.47 4067.53 1053.37 64.8362 2541.49 826.484
internal_count=474678 404327 191317 213010 160868 136857 76153 95267 65601 30449 38107 43995 72140 47939 64717 70351 28214 51272 27494 29415 17011 13438 62181 18524 10774 21551 65975 38371 21273 35027 50881 19469 14109 55687 9076 6237 34119 12901 9876 25924 10288 3080 19096 1698 8170 3846 2455 6663 13836 9314 31412 6983 6165 4124 6221 3491 44605 2387 5780 3892 17576 4415 2391 3778 2331 1987 29408 7510 5543 1120 801 271 8117 14126 2213 9459 530 3793 1186 5904 563 267 190 5892 295 996 3652 3230 2625 9286 2390 232 5801 1918
is_linear=0
shrinkage=0.0881663


Tree=6
num_leaves=93
num_cat=0
split_feature=27 23 2 24 24 21 2 2 2 24 24 2 24 0 2 24 24 24 21 2 24 2 14 24 24 0 10 2 0 10 3 10 2 2 24 15 2 2 24 23 24 0 2 19 2 25 7 2 6 24 23 15 0 2 2 2 2 14 24 7 24 23 2 0 2 8 24 24 2 2 10 24 21 19 2 11 3 23 19 3 21 14 13 26 13 25 2 14 2 19 19 19
split_gain=9003.25 4446.07 2044.6 1224.07 1091.62 687.216 572.556 396.611 359.066 285.969 207.865 202.308 192.783 171.522 164.916 138.531 136.7 133.418 131.713 123.668 116.191 115.616 110.342 89.8431 88.7395 83.0301 79.9975 74.6256 72.1564 65.6663 65.4977 55.8001 54.7667 54.6954 54.4884 54.2471 51.6249 49.183 48.5853 44.6903 44.1896 43.3672 43.0652 42.8808 42.7792 40.9032 37.5797 35.0357 33.425 32.6699 31.6759 31.0071 35.2651 30.8974 28.8518 28.6943 28.0518 27.75 27.5806 25.1606 23.6272 17.2954 16.646 13.8651 13.8393 11.5082 11.1206 11.1007 10.5429 9.57781 9.01399 6.46824 6.11053 5.9861 5.10713 4.82053 4.51532 3.70462 3.26587 3.14604 2.8999 2.84936 2.84246 2.80568 2.6243 1.97602 1.88271 1.18816 1.02627 0.291695 6.18059 0.238597
threshold=26.500000000000004 0.65129830827067681 132.50000000000003 1381.9500000000003 1135.4000000000003 0.50780000000000014 76.500000000000014 56.500000000000007 75.500000000000014 1734.1000000000001 1446.2000000000003 102.50000000000001 664.15000000000009 67.500000000000014 196.50000000000003 1385.4500000000003 850.35000000000014 864.10000000000014 0.87325000000000019 56.500000000000007 1489.7500000000002 132.50000000000003 100.50000000000001 1087.0000000000002 1070.0500000000004 71.500000000000014 68.500000000000014 32.500000000000007 68.500000000000014 61.500000000000007 6.9500000000000011 72.500000000000014 164.50000000000003 86.500000000000014 1457.6000000000001 1.0000000180025095e-35 56.500000000000007 82.500000000000014 952.10000000000002 0.70889066416040103 682.80000000000007 68.500000000000014 60.500000000000007 0.50208333333333355 26.500000000000004 8061.0000000000009 0.82500000000000007 49.500000000000007 23.150000000000002 914.45000000000016 0.58984931077694247 1.0000000180025095e-35 27.500000000000004 65.500000000000014 132.50000000000003 31.500000000000004 162.50000000000003 170.50000000000003 1646.7000000000003 0.83500000000000008 1123.2500000000002 0.61429959273182966 53.500000000000007 70.500000000000014 172.50000000000003 102.50000000000001 864.10000000000014 1042.9000000000003 191.50000000000003 141.50000000000003 76.500000000000014 809.1500000000002 0.72385000000000022 0.53791666666666693 53.500000000000007 166.50000000000003 8.2500000000000018 0.64871622807017559 0.65291666666666692 8.9500000000000011 1.3594500000000003 101.50000000000001 58.500000000000007 4100.0500000000002 80.500000000000014 6122.5000000000009 51.500000000000007 102.50000000000001 113.50000000000001 0.54541666666666699 0.53041666666666687 0.46375000000000016
decision_type=2 2 2 2 2 2 2 2 2 2 2 2 2 2 2 2 2 2 2 2 2 2 2 2 2 2 2 2 2 2 2 2 2 2 2 2 2 2 2 2 2 2 2 2 2 2 2 2 2 2 2 2 2 2 2 2 2 2 2 2 2 2 2 2 2 2 2 2 2 2 2 2 2 2 2 2 2 2 2 2 2 2 2 2 2 2 2 2 2 2 2 2
left_child=1 2 4 6 7 9 16 17 20 19 14 23 35 18 26 37 51 50 39 55 36 24 -14 61 40 53 38 44 -17 60 -29 32 63 -26 56 -9 -6 -10 -4 -7 -8 -22 -21 -31 -18 -34 -28 -19 -33 65 -1 52 -3 -11 70 -5 66 -20 62 -51 -16 72 -25 -12 -50 -23 71 73 -56 -36 -15 88 82 75 -63 -58 78 -64 -68 -78 -75 -27 -2 -73 -74 -71 -53 -76 -13 90 -69 -79
right_child=11 3 10 5 8 13 21 12 15 25 31 34 22 54 29 28 27 47 57 42 41 49 -24 58 33 81 46 30 -30 43 -32 48 45 -35 69 -37 -38 -39 -40 -41 -42 -43 -44 -45 -46 -47 -48 -49 64 59 -52 86 -54 -55 68 -57 67 -59 -60 -61 -62 74 77 -65 -66 -67 76 89 -70 85 -72 83 84 80 87 -77 79 91 -80 -81 -82 -83 -84 -85 -86 -87 -88 -89 -90 -91 -92 -93
leaf_value=-0.0030260535234949773 0.040642436941731544 0.004657021440315965 -0.019455317380134875 0.073708421993967169 0.046709865618894342 0.036926977684258039 -0.03219819947008578 -0.028389581706747925 0.0061616305047055087 0.075950992287132896 0.028072398467682367 0.041858165961073709 -0.00058268797440969261 0.069828528361094946 -0.033076438951670672 0.033338199388449286 0.050356648469440733 0.032129166508280509 0.0077736054306246213 0.038725295880028293 0.053529935777851693 0.0031138980029872983 0.01420899574864478 0.097925128692199118 0.020526192632008455 0.071811788922683584 -0.010438493149956421 0.048320699479222316 0.059343079479470699 -0.075230045891389638 0.035967217728261711 0.043978381207964504 -0.010626609701349416 0.036404889893796998 0.092523090231316232 0.031518430047741769 0.03554309009528827 0.023418642050478309 0.0026694702196489737 0.052843741094058191 0.016424042311275942 0.07471607759211886 0.054951523370914544 -0.040830295043150257 0.069844302167610922 0.024381078681566987 -0.034731786294285964 0.046937998992199505 -0.028915039917880907 0.032050190826232935 0.018660633620306233 0.085335629257385429 0.029718147030789441 0.064614588322351701 0.048504900142710104 0.063159565450011626 0.035621964037814466 0.045927295417147518 0.10269703249520347 0.00090856816163013691 -0.0091658895598520588 0.091039980305369916 0.086597049132034601 0.06418554892180077 -0.083674704870161501 -0.046994679096232277 0.071753816789935185 0.057441369269257782 0.015255759563806632 0.038926155799616537 0.050469615861488772 0.014160837928021756 0.061127889725585555 0.057634470045422201 0.070643528297200539 0.0017509568709870606 0.035602027030624435 0.057027956810004263 0.085099069913915804 0.069916429718124409 0.02993013176399531 0.090996898689531563 0.075817400458113207 0.044449048546734586 0.021582966655511113 0.075911649499381173 0.042680986330116175 0.083720542153200322 0.068687030194131665 0.063676079215657128 0.01214483522466785 0.093187559068806394
leaf_weight=636.52694170176983 41.692870035767555 644.48733177781105 1093.6528602838516 2900.6486846655607 7923.5136615931988 6615.2272194027901 146.40509334206581 1354.4559091627598 1579.5325135439634 6305.2432987838984 687.33277440071106 56.750490143895149 5612.3744646310806 1664.1103567928076 686.67288358509541 5502.5321288853884 2060.3859419971704 4969.2831988930702 1349.5914078503847 1555.9684423357248 3289.7733881175518 47.487061128020287 12992.187554389238 5832.392426609993 2501.3733257949352 207.89603005349636 808.85470946133137 15109.816658139229 988.2329666018486 365.75780554115772 4417.2962407916784 33.328888162970543 690.30121894180775 5379.0933209657669 1094.6672349125147 123.41422346234322 5669.1552412211895 6980.619772747159 2579.7939414680004 1788.1746351569891 3228.2471479177475 1049.405426800251 9313.9529408812523 1396.2318453788757 1697.8910169452429 407.15859009325504 1299.8306117504835 1715.5190420895815 134.54650421440601 232.75080917775631 2901.1413888186216 56.894026979804039 1363.6439992189407 3197.3734190315008 391.62542393803596 9924.2724710553885 66.049546882510185 160.83678533136845 4356.8974724858999 1291.9335155785084 611.21637082099915 1895.705014526844 3213.6923938542604 94.280171245336533 49.936731085181236 127.76587526500225 1826.8668014854193 127.9983022660017 100.32493162155151 32.832918763160706 305.07893469929695 48.747281894087791 26.164246112108231 99.113979905843735 346.35609546303749 60.805545225739479 80.934332981705666 37.233383759856224 409.08431170880795 50.239243805408478 78.093357309699059 2658.6228858083487 1473.3824693262577 63.610774621367455 41.100289791822433 493.77348238229752 35.809069350361824 2112.8651187866926 145.54467462003231 333.59949098527431 33.189309611916542 5035.485922768712
leaf_count=1724 106 1712 3084 6865 19447 16585 425 3893 4211 14895 1716 144 15105 3972 2013 13785 5079 12495 3579 3926 7990 126 33706 13699 6462 512 2226 37023 2382 1188 11188 78 1901 13296 2584 312 14197 17754 6857 4337 8341 2489 22553 4176 4010 1028 3790 4135 388 571 7467 124 3436 7625 956 23991 161 383 10186 3452 1673 4476 7663 216 166 385 4427 307 263 85 767 131 62 233 848 164 214 94 956 119 198 6247 3547 159 112 1187 88 5018 342 799 90 11893
internal_value=0.044566 0.0363573 0.0205131 0.0499071 0.0265963 0.0592267 0.0381252 0.0145118 0.0376948 0.0653835 -0.0146767 0.0893274 0.00731149 0.0412597 -0.0205927 0.0276327 0.0458231 0.0286438 0.0360437 0.0596656 0.0461276 0.0230257 0.00974814 0.0926992 0.026261 0.076301 -0.0118116 0.0477693 0.0373514 -0.0371275 0.0455387 0.0102563 0.0151734 0.0313853 0.0730983 -0.0232738 0.0420712 0.0202413 -0.00393952 0.0403511 0.0142583 0.0587549 0.0526527 -0.0482144 0.0592631 0.00242629 -0.0254724 0.0359703 -0.031395 0.00158727 0.0147601 0.0241731 0.021715 0.0721821 0.0621244 0.0655806 0.0665478 0.0120109 0.0958232 0.00577526 -0.0219153 0.0828863 0.0936571 0.0329084 -0.0460183 -0.03378 0.0710202 0.0510939 0.0420041 0.0868483 0.0670004 0.0528381 0.0737401 0.0364035 0.0860978 0.0202413 0.0732899 0.0905806 0.0744284 0.0513545 0.0468771 0.0897665 0.0750223 0.0327634 0.0408952 0.0740948 0.0726353 0.0820646 0.0626571 0.0595486 0.0489256 0.0929935
internal_weight=190522 161007 74226.6 86780.2 63287.7 48438.9 38341.3 30304.9 32982.8 36064 10938.9 29514.9 20082.4 12375 8842.01 15050.9 25386.2 10222.5 9913.83 23694.8 17931.8 12955.1 18604.6 24413 11255.1 12369.1 5782.13 23285.4 6490.77 3059.88 19527.1 2096.88 1879.07 7880.47 5101.9 1477.87 13592.7 8560.15 3673.45 8403.4 3374.65 4339.18 10869.9 1761.99 3758.28 1097.46 2108.69 6684.8 217.812 1699.94 3537.67 2100.83 2008.13 9502.62 2461.14 12824.9 3480.63 1510.43 18475.7 1524.68 1297.89 5937.27 14118.8 781.613 184.483 175.253 2681.78 798.85 491.95 1621.27 1969.19 314.653 1582.34 304.062 4354.93 126.855 2367.12 8286.41 2235.95 131.174 177.207 2866.52 1515.08 112.358 67.2645 526.606 92.7031 2459.22 202.295 494.787 161.188 5072.72
internal_count=474770 404766 191592 213174 161092 117456 95718 78837 82255 86614 30500 70004 53016 30842 25007 38132 62660 25821 24884 57335 44123 33058 48811 57704 28524 29279 15957 57300 16167 9050 48211 5493 4861 19758 12300 4205 33644 21965 9941 20922 8766 10479 26479 5364 9089 2929 6016 16630 632 4534 9191 5360 5148 22520 5958 30856 8444 3962 43535 4023 3686 14169 33349 1932 554 511 6492 1952 1219 3856 4739 776 3827 756 10342 325 5716 19650 5383 333 431 6759 3653 290 174 1272 212 5866 486 1196 397 11987
is_linear=0
shrinkage=0.0881663


Tree=7
num_leaves=95
num_cat=0
split_feature=27 24 2 21 24 2 2 24 2 2 2 30 2 30 2 2 2 24 14 2 24 14 15 30 24 19 24 2 14 2 14 2 2 23 2 10 3 24 24 2 14 6 15 30 21 14 2 22 19 15 30 30 26 10 2 23 25 14 10 24 26 2 14 21 25 2 24 21 3 19 24 13 20 24 8 3 19 21 3 19 8 22 24 2 2 2 11 3 24 14 2 2 24 19
split_gain=8287.18 3938.03 1827.22 1751.58 718.329 455.61 432.598 415.556 320.563 271.491 255.408 219.076 197.756 178.4 172.19 319.054 168.253 156.923 115.35 111.664 108.703 100.39 96.0052 123.297 95.0012 93.7223 90.5782 90.1933 84.628 84.3242 73.6665 66.8674 63.5108 62.5962 58.7903 57.0303 54.3927 52.4306 51.9787 51.8775 44.1448 43.781 42.099 75.4252 36.2616 36.095 35.8714 32.922 31.738 31.0232 44.5444 30.9428 27.4454 27.4366 26.212 25.4126 21.771 21.6581 18.3259 16.4269 12.6899 12.1883 11.291 11.1092 9.97679 9.71445 9.49796 7.7598 7.52228 7.02953 5.9976 9.14425 5.20749 4.89785 4.73848 4.29355 4.21398 3.82542 3.69923 3.04105 3.03505 3.02569 3.00193 2.68097 2.60584 4.68901 2.52873 2.41874 2.33973 1.80509 1.0589 0.940716 0.845838 0.493334
threshold=26.500000000000004 1239.4000000000003 96.500000000000014 0.53125000000000011 1618.3000000000004 141.50000000000003 162.50000000000003 850.35000000000014 65.500000000000014 56.500000000000007 66.500000000000014 4556.5000000000009 102.50000000000001 5112.5000000000009 60.500000000000007 63.500000000000007 59.500000000000007 699.10000000000002 127.50000000000001 65.500000000000014 1634.9000000000003 100.50000000000001 1.0000000180025095e-35 600.50000000000011 952.10000000000002 0.53375000000000028 1246.7500000000002 86.500000000000014 100.50000000000001 32.500000000000007 95.500000000000014 66.500000000000014 196.50000000000003 0.61748374060150391 132.50000000000003 60.500000000000007 7.7500000000000009 1457.6000000000001 996.70000000000016 147.50000000000003 93.500000000000014 31.050000000000004 1.0000000180025095e-35 702.50000000000011 1.1551000000000002 134.50000000000003 32.500000000000007 0.86982456140350894 0.50375000000000025 1.0000000180025095e-35 756.50000000000011 5112.5000000000009 4504.5500000000011 58.500000000000007 157.50000000000003 0.61618624686716805 8753.5000000000018 141.50000000000003 68.500000000000014 1646.7000000000003 3847.8499999999999 55.500000000000007 104.50000000000001 0.40875000000000006 4746.5000000000009 155.50000000000003 864.10000000000014 0.32880000000000004 5.1500000000000012 0.46625000000000016 947.4000000000002 58.500000000000007 0.42117857142857157 809.1500000000002 104.50000000000001 7.1500000000000012 0.67708333333333359 0.72385000000000022 8.2500000000000018 0.46041666666666686 110.50000000000001 0.86905263157894752 1446.2000000000003 57.500000000000007 277.50000000000006 358.50000000000006 148.50000000000003 8.9500000000000011 857.55000000000007 85.500000000000014 99.500000000000014 113.50000000000001 850.35000000000014 0.67541666666666689
decision_type=2 2 2 2 2 2 2 2 2 2 2 2 2 2 2 2 2 2 2 2 2 2 2 2 2 2 2 2 2 2 2 2 2 2 2 2 2 2 2 2 2 2 2 2 2 2 2 2 2 2 2 2 2 2 2 2 2 2 2 2 2 2 2 2 2 2 2 2 2 2 2 2 2 2 2 2 2 2 2 2 2 2 2 2 2 2 2 2 2 2 2 2 2 2
left_child=1 3 4 7 8 17 11 22 21 25 47 18 26 19 16 -16 -11 49 34 45 35 40 23 52 42 46 55 -12 30 -23 -19 -21 39 -25 -4 57 -27 54 -30 -26 -3 -20 43 -7 -37 -6 -9 -10 -34 50 -5 58 -1 68 66 70 -55 -8 -13 67 -24 -57 -53 76 69 -39 73 -28 -22 -56 71 -2 -51 91 -75 -71 -15 90 82 -69 -67 -65 -68 -62 -66 -86 -73 -80 92 -90 -72 -14 -63 -81
right_child=12 2 6 5 13 24 20 9 10 14 27 51 37 63 15 -17 -18 28 41 31 53 29 60 33 32 36 59 -29 38 -31 -32 -33 48 -35 -36 44 -38 65 -40 -41 -42 -43 -44 -45 -46 -47 -48 -49 -50 72 -52 62 -54 56 64 61 -58 -59 -60 -61 83 88 -64 81 84 80 78 79 -70 75 77 86 -74 74 -76 -77 -78 -79 87 93 -82 -83 -84 -85 85 -87 -88 -89 89 -91 -92 -93 -94 -95
leaf_value=-0.039307113621254892 0.015160302442334338 0.047501455504827053 0.021779721633242339 -0.045483256771334003 0.062740880343181871 -0.088742223234218376 -0.0026214663544670076 0.042522795063361908 -0.017713487691850563 0.01397731730108218 0.034563405027432957 0.056120592128657387 0.039249303563976753 0.082844096481961046 0.061706048864692831 0.023309310556038233 -0.04430103658185254 0.0036325896094842884 0.031027881906752777 -0.017969017077973749 0.067746797608553455 0.066542417594213477 0.010259059351775537 0.0029107312124309489 -0.032365558101498923 0.046081242333226906 0.094966538714911189 0.048356971766470185 0.0043025751616848403 0.05229424652108778 -0.024231567244347 0.054577509140084732 -0.056110487685060287 0.01902182698003925 0.0033937792085038999 -0.0079723006254655698 0.027512067143561619 0.087550837507069712 0.016031647692124149 0.001800483180140495 0.029058905829847461 0.054816446997787538 0.055806313749863487 -0.032595082476129078 -0.033141169939083392 0.073099599636499091 0.0266114711599853 -0.077438152509672731 -0.021807817122706328 0.047746819099300071 -0.0095458210727326406 0.044639996912441499 -0.0073487997897708768 0.0010418451008325621 -0.00087784356428292389 0.089689225608290235 0.030462878035142076 0.030212425610839835 0.033668135223837936 0.099396279865172729 0.078594071659335296 0.072046401705006161 0.072200417507588932 0.066515276046015037 0.060539542004678294 0.032426443106217541 0.071296041245377195 0.067171565685568063 0.032158279339017076 0.045571281268608488 0.080494793804095688 0.031140345476174686 0.0010951292274659719 0.0057330452063300173 0.044839520861935968 0.017445782416642696 0.094679286813130842 0.045371819914389065 0.034429393507550407 0.086937903114150644 0.069865925190547962 0.080238172879930056 0.033342597460890425 0.050824526145375658 0.021263391019245782 0.058765629516292481 0.068895682684978393 0.066123226101570953 0.058463916501642073 0.08280189854751778 0.047338617434570032 0.065005559752300407 0.038347371924140637 0.095682547380291444
leaf_weight=400.75641928613186 30.428397744894028 2498.5570998191833 6030.4190949648619 595.52659814059734 6253.5476078987122 200.57704512774944 677.6017399430275 1483.7094226181507 176.89681972563267 2046.1634525507689 12540.312041163445 615.31664557754993 55.657713919878006 1778.2190251201391 1905.4862842261791 14236.162490591407 467.72455406188965 2840.3584481328726 5972.6270077377558 97.291195809841156 80.343297824263573 4016.0186004042625 36.425740480422974 3102.527298271656 417.3698777705431 11070.629181444645 4473.7918188124895 5311.1582273244858 4855.6157316714525 19082.78753747046 989.31366744637489 7554.9386724978685 258.10351675748825 4740.2572713643312 1745.3913548886776 781.38723805546761 1417.5488499552011 1197.2526307106018 7450.3178586065769 1867.8635480552912 1767.6102605313063 677.86767563223839 32.768424570560455 2153.9311230182648 1043.2003305852413 5339.9677389711142 4580.8682049959898 120.55036987364292 1116.2502242326736 39.601039990782738 491.03402704000473 184.2250994592905 436.484628662467 532.14774622023106 37.038175448775291 3404.4508563578129 303.18435740470886 196.28896671533585 604.60753154754639 4115.8681339919567 137.76335249841213 454.92901493608952 767.42673106491566 555.55191518366337 406.59275364875793 34.961355358362198 2061.9555305242538 156.84829637408257 154.90342499315739 223.1864846944809 1172.9093903154135 29.103284329175949 31.787443622946739 38.779257237911224 67.749264538288116 65.236322924494743 838.84013473987579 54.754426881670952 78.663326635956764 3904.3797026872635 316.77451016008854 685.88686391711235 32.541976988315582 108.63228131830692 66.202282905578613 53.650800466537476 956.66680990159512 48.075504004955292 92.212717413902283 3469.4709683805704 39.180488884449005 136.52346080541611 29.376461654901505 844.11058881878853
leaf_count=1182 84 6224 15596 1789 15517 677 1827 3689 514 5452 31988 1499 144 4411 4469 36472 1433 7557 15159 288 178 9792 97 8278 1209 27478 11079 12899 12903 47375 2822 18698 804 12222 4644 2139 3683 2967 19331 4977 4644 1638 74 6323 3043 13007 11814 405 3186 94 1346 470 1191 1429 101 8434 765 485 1566 10186 312 1141 1856 1396 997 95 5143 405 384 553 2910 79 87 108 170 172 2027 144 211 9743 794 1690 89 262 178 129 2405 118 240 8606 103 331 79 2066
internal_value=0.0415523 0.0337205 0.0460032 0.0179941 0.0528865 -0.00169016 0.0228035 0.0279438 0.0464445 0.0320489 0.0373292 0.0289246 0.0856323 0.0655608 0.0245228 0.0278643 0.00305032 0.00559478 0.0249742 0.0620387 -0.00415541 0.0524798 0.0108915 0.00921934 -0.0225086 0.0396057 0.0890662 0.0386829 0.00784766 0.054789 -0.00359351 0.0536411 -0.0135454 0.0126559 0.0176589 -0.013581 0.0439884 0.0693292 0.0114082 -0.00451145 0.0399144 0.0335023 -0.0361768 -0.0376029 -0.0224273 0.0675493 0.0305444 -0.0430266 -0.0284773 -0.0256703 -0.0293918 0.0550193 -0.0228261 0.0195427 0.0628477 0.0823349 0.011869 0.00491718 0.0452239 0.0938805 0.0608879 0.0850332 0.0671949 0.082998 0.0486273 0.0831255 0.0675214 0.0913947 0.0457674 0.0351712 0.0733187 0.0665085 0.0287545 0.0501536 0.0317234 0.0397207 0.0868565 0.0784243 0.069708 0.0880191 0.0667829 0.0744651 0.0708085 0.0679282 0.0564301 0.0401543 0.0679866 0.0490219 0.0809817 0.0822765 0.0796742 0.0590338 0.0705228 0.0886175
internal_weight=186646 158497 88985.1 69511.6 68618.1 23340.4 20366.9 46171.1 45513.9 37208.3 18148.9 16597.9 28149.3 23104.2 18655.5 16141.6 2513.89 17293.6 14426.3 19245.7 3769.06 27365 8962.85 8680.03 6046.86 18552.8 23228.5 17851.5 16135.6 23098.8 3829.67 7652.23 3659.59 7842.78 7775.81 2698.48 12488.2 4920.84 12305.9 2285.23 4266.17 6650.49 2387.28 2354.51 1824.59 11593.5 6064.58 297.447 1374.35 1157.95 1086.56 2171.58 837.241 1070.58 3371.85 9733.48 835.332 873.891 1219.92 13495 282.821 7450.44 951.652 3858.5 851.907 1548.99 2519.95 9379.13 235.247 325.461 2283.04 1016.2 71.3885 298.71 106.529 288.423 2617.06 1266.84 2221.24 4905.34 351.736 1241.44 2094.5 246.396 526.446 119.853 985.77 126.739 4045.99 3561.68 1212.09 192.181 484.305 4748.49
internal_count=474770 404766 223553 181213 170875 63179 52678 118034 113841 94490 45806 42428 70004 57034 47826 40941 6885 45929 37037 47510 10250 68035 23544 22873 17250 46664 57704 44887 42613 57167 10379 18986 10176 20500 20240 7494 31161 12300 32234 6186 10868 16797 7074 7000 5182 28524 15503 919 3990 3316 3135 5391 2373 2756 8444 24225 2194 2312 3065 33479 671 18500 2326 9524 2130 3856 6314 23293 562 826 5725 2568 181 753 278 725 6438 3157 5561 12214 889 3086 5232 574 1304 307 2484 329 10066 8846 3013 475 1220 11809
is_linear=0
shrinkage=0.0881663


end of trees

feature_importances:
physical_activity_minutes_per_week=169
age_bmi=116
age=75
overall_health_risk=58
heart_rate=37
diet_activity_balance=37
triglycerides=31
cholesterol_risk=23
log_physical_activity=17
ldl_cholesterol=16
family_history_diabetes=16
age_bp=15
metabolic_index=11
diet_score=10
bmi_cholesterol=9
family_history_age=9
bmi=8
lifestyle_risk=8
hdl_cholesterol=7
age_squared=6
systolic_bp=5
cardio_risk_score=5
waist_to_hip_ratio=4
diastolic_bp=4
cholesterol_total=4
sleep_hours_per_day=1
screen_time_hours_per_day=1

parameters:
[boosting: gbdt]
[objective: binary]
[metric: binary_logloss]
[tree_learner: serial]
[device_type: cpu]
[data_sample_strategy: bagging]
[data: ]
[valid: ]
[num_iterations: 500]
[learning_rate: 0.0881663]
[num_leaves: 127]
[num_threads: 0]
[seed: 42]
[deterministic: 0]
[force_col_wise: 0]
[force_row_wise: 0]
[histogram_pool_size: -1]
[max_depth: 7]
[min_data_in_leaf: 73]
[min_sum_hessian_in_leaf: 2.92766]
[bagging_fraction: 0.847566]
[pos_bagging_fraction: 1]
[neg_bagging_fraction: 1]
[bagging_freq: 6]
[bagging_seed: 400]
[bagging_by_query: 0]
[feature_fraction: 0.946964]
[feature_fraction_bynode: 1]
[feature_fraction_seed: 30056]
[extra_trees: 0]
[extra_seed: 12879]
[early_stopping_round: 0]
[early_stopping_min_delta: 0]
[first_metric_only: 0]
[max_delta_step: 0]
[lambda_l1: 0.00238142]
[lambda_l2: 6.31718]
[linear_lambda: 0]
[min_gain_to_split: 0.233499]
[drop_rate: 0.1]
[max_drop: 50]
[skip_drop: 0.5]
[xgboost_dart_mode: 0]
[uniform_drop: 0]
[drop_seed: 17869]
[top_rate: 0.2]
[other_rate: 0.1]
[min_data_per_group: 100]
[max_cat_threshold: 32]
[cat_l2: 10]
[cat_smooth: 10]
[max_cat_to_onehot: 4]
[top_k: 20]
[monotone_constraints: ]
[monotone_constraints_method: basic]
[monotone_penalty: 0]
[feature_contri: ]
[forcedsplits_filename: ]
[refit_decay_rate: 0.9]
[cegb_tradeoff: 1]
[cegb_penalty_split: 0]
[cegb_penalty_feature_lazy: ]
[cegb_penalty_feature_coupled: ]
[path_smooth: 0]
[interaction_constraints: ]
[verbosity: -1]
[saved_feature_importance_type: 0]
[use_quantized_grad: 0]
[num_grad_quant_bins: 4]
[quant_train_renew_leaf: 0]
[stochastic_rounding: 1]
[linear_tree: 0]
[max_bin: 255]
[max_bin_by_feature: ]
[min_data_in_bin: 3]
[bin_construct_sample_cnt: 200000]
[data_random_seed: 175]
[is_enable_sparse: 1]
[enable_bundle: 1]
[use_missing: 1]
[zero_as_missing: 0]
[feature_pre_filter: 1]
[pre_partition: 0]
[two_round: 0]
[header: 0]
[label_column: ]
[weight_column: ]
[group_column: ]
[ignore_column: ]
[categorical_feature: ]
[forcedbins_filename: ]
[precise_float_parser: 0]
[parser_config_file: ]
[objective_seed: 16083]
[num_class: 1]
[is_unbalance: 0]
[scale_pos_weight: 2.48761]
[sigmoid: 1]
[boost_from_average: 1]
[reg_sqrt: 0]
[alpha: 0.9]
[fair_c: 1]
[poisson_max_delta_step: 0.7]
[tweedie_variance_power: 1.5]
[lambdarank_truncation_level: 30]
[lambdarank_norm: 1]
[label_gain: ]
[lambdarank_position_bias_regularization: 0]
[eval_at: ]
[multi_error_top_k: 1]
[auc_mu_weights: ]
[num_machines: 1]
[local_listen_port: 12400]
[time_out: 120]
[machine_list_filename: ]
[machines: ]
[gpu_platform_id: -1]
[gpu_device_id: -1]
[gpu_use_dp: 0]
[num_gpu: 1]

end of parameters

pandas_categorical:[]
