tree
version=v4
num_class=1
num_tree_per_iteration=1
label_index=0
max_feature_idx=63
objective=binary sigmoid:1
feature_names=age alcohol_consumption_per_week physical_activity_minutes_per_week diet_score sleep_hours_per_day screen_time_hours_per_day bmi waist_to_hip_ratio systolic_bp diastolic_bp heart_rate cholesterol_total hdl_cholesterol ldl_cholesterol triglycerides family_history_diabetes hypertension_history cardiovascular_history cardio_risk_score cholesterol_risk lifestyle_risk diet_activity_balance metabolic_index overall_health_risk age_bmi age_bp bmi_cholesterol family_history_age log_physical_activity log_triglycerides age_squared bmi_squared high_bp_flag high_cholesterol_flag obese_flag sedentary_flag medical_history_score gender_Male gender_Other ethnicity_Black ethnicity_Hispanic ethnicity_Other ethnicity_White education_level_Highschool education_level_No_formal education_level_Postgraduate income_level_Low income_level_Lower-Middle income_level_Middle income_level_Upper-Middle smoking_status_Former smoking_status_Never employment_status_Retired employment_status_Student employment_status_Unemployed bmi_category_normal bmi_category_overweight bmi_category_obese age_group_middle age_group_senior age_group_elderly bp_category_elevated bp_category_high bp_category_very_high
feature_infos=[19:89] [1:8] [1:747] [0.10000000000000001:9.9000000000000004] [3.2999999999999998:9.9000000000000004] [0.59999999999999998:15.800000000000001] [15.1:37.799999999999997] [0.69999999999999996:1.02] [91:163] [51:103] [42:98] [121:286] [21:90] [51:199] [31:290] [0:1] [0:1] [0:1] [0.4792857142857142:0.98438095238095236] [0.31916666666666671:1.0175000000000001] [0:0.76657142857142857] [0.0049000000000000007:7.0217999999999998] [0.52715789473684216:1.3934736842105264] [0.43086146616541354:0.89127230576441108] [352:3001.2000000000003] [1729:13261] [2174.4000000000001:9792] [0:89] [0.69314718055994529:6.6174029779744776] [3.4657359027997265:5.6733232671714928] [361:7921] [228.00999999999999:1428.8399999999997] [0:1] [0:1] [0:1] [0:1] [0:3] [0:1] [0:1] [0:1] [0:1] [0:1] [0:1] [0:1] [0:1] [0:1] [0:1] [0:1] [0:1] [0:1] [0:1] [0:1] [0:1] [0:1] [0:1] [0:1] [0:1] [0:1] [0:1] [0:1] [0:1] [0:1] [0:1] [0:1]
tree_sizes=15177 15661 16193

Tree=0
num_leaves=143
num_cat=0
split_feature=27 28 23 30 30 30 28 28 28 21 28 28 30 30 30 30 30 30 30 25 28 23 15 30 10 23 23 23 23 15 22 22 23 22 30 10 28 22 28 10 23 30 28 23 28 23 23 30 30 30 15 19 30 30 10 10 13 30 10 30 14 28 28 6 22 19 3 10 25 30 23 21 25 3 30 27 13 22 10 21 6 30 13 18 19 21 5 28 21 25 4 21 9 14 30 30 28 23 30 27 22 7 10 23 14 28 21 27 14 14 23 30 14 23 4 23 5 28 19 10 6 26 28 11 22 25 27 27 28 19 6 28 10 9 23 6 21 14 28 18 6 28
split_gain=10913.8 8089.62 4326.49 1617.64 1447.49 1015.14 780.111 649.119 625.707 503.994 425.021 360.03 294.305 292.33 280.886 234.24 202.058 197.404 193.976 156.453 151.008 139.894 134.728 126.502 123.246 120.377 119.899 118.678 114.743 113.082 110.296 109.965 108.319 96.5558 93.3201 91.4821 89.4964 82.3949 81.9077 76.9685 75.2884 71.4942 69.7681 68.9178 68.2104 65.3957 65.3435 59.4999 56.171 53.6516 53.3425 51.9167 51.8541 50.079 49.3345 46.9807 42.9234 42.9198 42.9135 40.5931 39.4628 38.889 38.6734 37.2086 35.0891 34.2316 33.419 31.4736 31.2333 30.6415 30.548 30.4667 30.4004 28.8834 28.3524 28.0485 27.9561 27.4766 27.4117 26.1856 25.7305 23.8012 23.1289 23.0339 22.646 22.1931 22.1313 21.8968 22.8179 21.8889 21.7143 20.0831 19.0551 17.5407 17.4111 16.9957 16.6692 16.2257 15.7872 15.6675 15.4403 13.4224 12.5593 12.1548 11.6408 11.5445 10.9979 9.25644 8.80272 8.70574 8.4821 7.26505 6.94073 6.91723 6.19426 5.87203 5.70088 5.6009 8.35612 5.53508 5.35504 5.34631 5.19891 4.71615 3.54663 3.17642 3.04011 2.82406 2.80586 4.88664 2.62692 2.37246 2.28879 2.81102 2.14233 1.99882 1.67403 1.35123 1.21529 1.08944 0.812801 0.782749
threshold=26.500000000000004 4.8940944640863338 0.64830686090225575 2352.5000000000005 2352.5000000000005 2450.5000000000005 4.3372693810700085 4.3502571242716384 4.3372693810700085 1.1551000000000002 4.3372693810700085 5.2958110956362647 870.50000000000011 4692.5000000000009 4556.5000000000009 812.50000000000011 4422.5000000000009 4556.5000000000009 930.50000000000011 7816.0000000000009 4.8940944640863338 0.64171995614035104 1.0000000180025095e-35 4556.5000000000009 61.500000000000007 0.59597252506265674 0.68665808270676698 0.67325034461152899 0.70040617167919816 1.0000000180025095e-35 0.80908771929824574 0.88026315789473697 0.68214307644110284 0.98789473684210538 650.50000000000011 67.500000000000014 5.2857353797162627 0.82056140350877205 4.0517471391904856 61.500000000000007 0.61429959273182966 756.50000000000011 5.2652741739841078 0.64871622807017559 4.0342014792848504 0.61223681077694259 0.6275470551378447 1722.5000000000002 702.50000000000011 756.50000000000011 1.0000000180025095e-35 0.49041666666666678 930.50000000000011 600.50000000000011 57.500000000000007 65.500000000000014 87.500000000000014 3660.5000000000005 65.500000000000014 3660.5000000000005 160.50000000000003 4.0517471391904856 3.4811217321331038 29.950000000000003 1.0069473684210528 0.48708333333333348 6.1500000000000012 72.500000000000014 4975.0000000000009 5112.5000000000009 0.57335592105263167 0.60190000000000021 4635.5000000000009 8.7500000000000018 3422.5000000000005 49.500000000000007 70.500000000000014 0.77177192982456155 60.500000000000007 1.0893000000000002 27.050000000000004 1640.5000000000002 83.500000000000014 0.60321428571428581 0.54625000000000024 0.19155000000000003 9.1500000000000004 4.9089648320872419 0.88570000000000004 8448.5000000000018 7.0500000000000007 0.73765000000000025 69.500000000000014 60.500000000000007 5112.5000000000009 5112.5000000000009 4.4716224665663962 0.73382017543859657 5112.5000000000009 58.500000000000007 0.90526315789473699 0.81500000000000006 58.500000000000007 0.6988565476190477 99.500000000000014 4.5591125415341898 0.33310000000000012 60.500000000000007 141.50000000000003 88.500000000000014 0.71522753759398505 5112.5000000000009 140.50000000000003 0.70524351503759408 6.6500000000000012 0.57335592105263167 6.7500000000000009 5.1387309967764621 0.53791666666666693 68.500000000000014 25.450000000000003 4526.5500000000011 4.3107766033702406 173.50000000000003 0.84043859649122821 4635.5000000000009 58.500000000000007 24.500000000000004 5.3729582179059152 0.54125000000000023 19.850000000000005 3.9981586158983733 71.500000000000014 84.500000000000014 0.69667249373433593 24.250000000000004 0.75245000000000017 104.50000000000001 5.1089666311285624 0.62235714285714294 21.950000000000003 5.1901713283654836
decision_type=2 2 2 2 2 2 2 2 2 2 2 2 2 2 2 2 2 2 2 2 2 2 2 2 2 2 2 2 2 2 2 2 2 2 2 2 2 2 2 2 2 2 2 2 2 2 2 2 2 2 2 2 2 2 2 2 2 2 2 2 2 2 2 2 2 2 2 2 2 2 2 2 2 2 2 2 2 2 2 2 2 2 2 2 2 2 2 2 2 2 2 2 2 2 2 2 2 2 2 2 2 2 2 2 2 2 2 2 2 2 2 2 2 2 2 2 2 2 2 2 2 2 2 2 2 2 2 2 2 2 2 2 2 2 2 2 2 2 2 2 2 2
left_child=1 2 3 6 7 9 12 18 14 21 23 17 29 32 28 22 45 31 50 33 43 35 37 40 46 81 61 41 38 34 51 54 57 39 -1 42 76 -8 -6 77 93 96 47 75 -27 70 52 -3 -38 90 53 -17 82 -4 116 87 -50 -10 103 -56 91 -20 -42 71 -34 -41 -60 84 100 110 -12 -29 -62 -32 -47 105 101 -13 -44 -51 -43 -14 -11 -78 89 -28 -54 -23 -89 -21 -37 -57 -48 -5 104 123 -9 -30 113 106 117 -26 -86 -33 109 115 134 121 -94 -19 -16 130 -65 -15 -35 -2 -7 -22 140 -106 -31 128 -77 -18 -100 -108 -124 -24 -70 -130 -25 -117 133 -96 -45 -107 -127 -97 -123 -102 -119 -140
right_child=20 5 4 10 8 11 15 27 13 24 16 19 25 98 69 30 95 94 26 67 68 55 127 111 36 44 85 63 97 120 73 58 64 114 -36 49 48 -39 -40 65 62 80 78 99 -46 74 92 -49 56 79 -52 -53 86 -55 59 60 -58 -59 66 -61 72 -63 -64 112 -66 -67 -68 -69 107 -71 -72 -73 -74 -75 -76 122 83 -79 -80 -81 -82 -83 -84 -85 102 -87 -88 88 -90 -91 -92 -93 108 -95 132 137 -98 -99 124 -101 139 -103 -104 -105 119 135 125 -109 -110 -111 -112 -113 -114 -115 -116 131 -118 118 -120 -121 -122 138 126 -125 -126 136 -128 -129 129 -131 -132 -133 -134 -135 -136 -137 -138 -139 141 -141 -142 -143
leaf_value=0.52072575896531348 0.57271438236863104 0.52376698468527794 0.53360648784993869 0.54699032052629326 0.57179202391019868 0.54932122153838814 0.50248291598968586 0.49956151338217186 0.55839975537957798 0.44008499891773845 0.53950360295100908 0.50940824179632138 0.54271227630577257 0.57028335343100023 0.57604735858293854 0.53115039260295105 0.57022643694764241 0.55493504056103704 0.56448714347017126 0.50518820010094989 0.56734507692368796 0.51594751548280038 0.55542630508786606 0.560140036772517 0.50356361844461084 0.55854095692444317 0.57192035379568107 0.55706894425981557 0.57370421169779851 0.56098221728475395 0.54592627719137388 0.55389797917893513 0.56506849865852038 0.56850420785399314 0.54121407861806259 0.49619182923891259 0.42963966958589361 0.52735370627373035 0.56719879282212549 0.4781163233374181 0.57144660430480509 0.54659624590695732 0.52330180281155259 0.58357504546294703 0.55302947705797378 0.55386224666303496 0.50461364488730309 0.54005386280740353 0.47516332767540859 0.51742146612728623 0.57692038657687006 0.5402511470223873 0.51153404033543615 0.55282857532936835 0.53334564825507147 0.53605075674911018 0.49644475666465443 0.56418520922721782 0.54971213277265818 0.54417354865087642 0.52611518752335396 0.56015837449108064 0.56427180381483855 0.55831875024602562 0.57195290361291395 0.51019276980049899 0.53347443928691651 0.50504118014629307 0.57198240184308247 0.58223466202755803 0.55053090831746099 0.54946940089019525 0.56258162983610949 0.52904055804181216 0.55888860877613356 0.58344982993609096 0.49867729546815165 0.53124362010760284 0.49676077793818535 0.49521464131383836 0.55237842221065014 0.55072554053020284 0.49284435022569822 0.51639675173518751 0.56003690763803304 0.56740992055834905 0.53875448554975947 0.55277501420872743 0.5375698593299274 0.54350593987374451 0.44476326542089706 0.52192738858516063 0.53099596793517778 0.55953310641955301 0.5734369764635614 0.57020841959552615 0.52936381061125681 0.57696493854756037 0.57346446831609199 0.58539268067639239 0.58032613782626963 0.46153738988445253 0.54495109865075309 0.56569769789876512 0.56424184626462559 0.57337290264512542 0.58003985204336161 0.58008951273963205 0.5493070857071628 0.52557091323904059 0.58043511555942395 0.57855361789408843 0.56477496121784199 0.57709136206344991 0.5465558552452775 0.58116065914065818 0.56305376130840246 0.54116187268174232 0.56484808720011181 0.55313477655847754 0.57723401392717022 0.57818980584735535 0.57941052558636197 0.56329829362148853 0.57915900139353527 0.58277685575456328 0.58272238024410949 0.57212045568236114 0.55067027848660111 0.57066067714646629 0.57306016275813187 0.57894706794508577 0.56137612852180507 0.55958890071621881 0.58554827542131116 0.57739978430829031 0.57869427874883173 0.5764163887678353 0.56534869707449154 0.57016178043860211 0.55321164198751782 0.5746837837924067
leaf_weight=935.71476331353188 469.46626326441765 1339.5644647181034 457.02828660607338 359.52755239605904 30291.189314395189 261.98336532711983 648.1951932311058 63.799164533615112 12436.77091678977 34.658984959125519 840.59424462914467 206.04397985339165 2215.5935657918453 1832.1018804609776 5730.1573911011219 2322.690887182951 515.66469064354897 72.304456502199173 16194.699694633484 73.596898168325424 670.75750789046288 73.569563150405884 92.595206052064896 83.718441009521484 35.281373858451843 15272.850681960583 4608.7875569164753 5041.4522493779659 16457.149787694216 192.15234658122063 12959.151599824429 1403.250767827034 13155.787432849407 79.03159299492836 1920.2801038622856 61.46940803527832 44.041792660951614 869.19614586234093 17644.057046920061 100.79701766371727 2501.0609040260315 5088.7686173319817 196.37170413136482 10177.394096910954 11137.947097152472 10220.940484046936 51.635227710008621 1216.2955229282379 368.14149478077888 1619.1801132261753 228.17245557904243 7846.6011195480824 1037.8588926792145 2686.9431135952473 3403.0103524923325 452.08841726183891 984.64807179570198 5346.1358859837055 1063.32078820467 1404.6546550691128 107.63138872385025 9757.2137752771378 18875.57519698143 943.83104851841927 2625.7302117049694 1177.6029352247715 563.70226004719734 58.877518534660339 714.9408763051033 7059.9794453382492 5933.0200909674168 2247.97114777565 177.45119029283524 303.48793852329254 4922.1973076760769 7155.6865958869457 283.01005485653877 845.96936875581741 241.8951780796051 161.27256372570992 4112.2375569343567 2171.3583225011826 79.241161465644836 722.38503977656364 239.73222684860229 12055.448462665081 92.415078103542328 709.81597834825516 497.80813699960709 104.53345656394958 39.101923316717148 826.1594323515892 170.1745582818985 7425.3433688879013 499.05781546235085 448.52578979730606 246.05565458536148 6890.1889931559563 616.30470436811447 14508.933587819338 239.09862077236176 48.439172655344009 608.97761332988739 345.77259421348572 493.15352466702461 1386.9249386489391 3247.9237786829472 1254.4687452912331 161.90195879340172 57.901879906654358 2157.2514939010143 1182.9871344864368 1567.1067990362644 780.07382985949516 107.08889937400818 4635.0519692897797 184.91005575656891 60.204301387071609 319.90136307477951 249.81942850351334 130.98151823878288 899.3701189160347 3220.9605626761913 1544.5682980418205 2844.3789734840393 11064.087230175734 2444.3974854052067 96.5047667324543 80.946423560380936 112.36168959736824 1801.6237008571625 6535.0132623910904 148.07621273398399 83.953238993883133 4982.6854136884212 1547.0809776484966 740.17850136756897 600.39311146736145 114.01438716053963 146.86577612161636 155.81543454527855 555.6763653755188
leaf_count=1759 514 2457 770 533 33628 379 1398 141 16319 108 1342 422 3431 2075 5993 4002 584 98 19763 155 789 143 125 107 75 20008 5107 6716 17795 244 19443 1936 15939 91 3017 139 144 1547 20810 255 2789 7583 361 9489 15517 14111 109 1932 946 3125 235 12444 2095 3751 5751 745 2213 6548 1534 2144 193 12544 23096 1239 2908 2401 951 124 791 6725 8489 3252 221 532 6422 6685 627 1456 543 366 5769 3100 183 1405 308 14180 148 991 809 160 119 1538 293 9616 541 508 430 7111 668 13130 234 135 922 415 603 1506 3201 1235 234 104 2113 1192 1905 803 159 4490 229 94 388 347 134 911 3205 1912 2841 10449 2310 106 115 126 1965 6549 187 108 4497 1586 744 624 137 166 216 592
internal_value=0.564013 0.559853 0.562236 0.554188 0.567134 0.531306 0.548043 0.560736 0.570454 0.519918 0.560531 0.541041 0.553277 0.56494 0.572987 0.540968 0.555345 0.546111 0.564159 0.526624 0.581912 0.527892 0.521987 0.564557 0.504944 0.554862 0.56513 0.552581 0.571598 0.537904 0.542348 0.542927 0.562999 0.519351 0.534517 0.522429 0.497543 0.516701 0.570102 0.516396 0.563472 0.54834 0.528185 0.582552 0.556218 0.553545 0.516273 0.531535 0.488667 0.513244 0.551879 0.538177 0.51034 0.550048 0.538107 0.537239 0.490621 0.560142 0.550417 0.536518 0.530998 0.562861 0.565113 0.556692 0.566217 0.50763 0.544113 0.543443 0.573241 0.579609 0.549169 0.554731 0.548967 0.545543 0.555499 0.580424 0.508886 0.527008 0.508554 0.515386 0.549185 0.546688 0.476407 0.511366 0.545603 0.56866 0.513798 0.54482 0.546543 0.527918 0.475764 0.526957 0.535398 0.558959 0.563213 0.56802 0.523088 0.574668 0.575659 0.583854 0.566817 0.479629 0.549264 0.556256 0.557879 0.578768 0.583114 0.575971 0.540054 0.542211 0.577253 0.574854 0.562366 0.572333 0.55611 0.579585 0.555101 0.56366 0.558967 0.560566 0.567705 0.573868 0.582303 0.565054 0.578158 0.581991 0.580847 0.564177 0.570016 0.562516 0.57251 0.57987 0.569523 0.571518 0.584226 0.575511 0.582525 0.573803 0.576071 0.576572 0.550055 0.57316
internal_weight=410649 333208 307538 116371 191167 25670.6 59115.3 65299.5 125867 11833.5 57255.7 13837.1 33976.9 39637.3 86230 25138.4 25025.9 10234.9 45988.3 3602.25 77440.2 7719.67 1706.49 32229.8 4113.83 30797.7 42616.1 19311.2 71282.6 3179.13 23431.9 8630.6 33564.4 2516.53 2855.99 4875.15 2485.95 1517.39 47935.2 2330.41 29161.5 9510.86 2994.13 72115.8 26410.8 21916.8 1627.89 2555.86 1396.83 1881.02 3372.14 10169.3 1244.17 3143.97 5254.56 2844.52 1352.79 17782.9 3376.05 4807.67 1563.33 25951.9 21376.6 9800.36 15781.5 1278.4 1627.02 1085.72 5324.42 14947.4 6773.61 7289.42 285.083 13262.6 15143.1 27394.6 1089.12 1052.01 438.267 1780.45 9201.01 4386.95 113.9 1005.4 1026.84 16664.2 1130.27 1281.19 1207.62 178.13 100.571 1278.25 383.712 7784.87 1604.27 3109.15 309.855 23347.3 6072.86 44721.2 1592.64 83.7205 848.71 1749.02 873.179 14573.5 30212.3 3731.78 332.077 130.206 7887.41 3068.33 2510.94 2612.18 186.12 11639.5 446.893 1206.68 535.921 742.973 323.134 2477.31 12821 2060.23 3460.68 15052.2 5665.36 189.1 908.249 193.308 1885.34 11170.1 731.087 583.011 15160.1 2934.01 11804.3 1048.92 1569.06 385.964 216.02 669.691
internal_count=504084 429935 385758 160097 225661 44177 86807 83385 142276 22397 73290 21780 47210 48101 94175 39597 33992 15327 56350 6453 74149 13682 3176 39298 8715 42056 51594 27035 79344 5154 36421 13339 41714 4784 4776 9042 5545 2945 54438 4534 36034 13923 5293 68355 35525 30364 3170 4389 3303 3749 4756 16446 2534 4521 8503 4640 3159 22867 4836 7895 2697 32307 25885 13112 18847 2656 2485 1669 5794 14831 9831 9968 414 19975 20533 26845 2242 1878 904 3491 13352 6531 291 2032 1545 19287 2243 1943 1800 315 258 2283 636 10149 1988 3628 571 24906 6387 41510 1887 210 1230 2351 1152 14645 28380 3907 527 202 8106 3264 3144 2878 250 11553 608 1487 698 950 378 2672 12200 2496 3509 14394 5515 231 1032 241 2072 11039 836 649 13986 3092 11193 1132 1640 400 310 729
is_linear=0
shrinkage=1


Tree=1
num_leaves=145
num_cat=0
split_feature=27 2 24 2 2 24 24 2 24 24 24 23 24 10 24 24 15 23 0 23 2 2 23 15 0 10 0 2 2 24 10 19 24 23 2 2 0 24 23 29 7 10 29 24 24 0 23 2 2 23 2 19 2 2 2 29 22 3 10 3 29 2 10 0 29 24 29 29 25 24 19 24 2 0 2 20 7 0 0 24 2 2 26 19 10 2 2 23 2 8 19 2 9 3 0 2 29 2 2 24 29 0 24 22 2 19 2 20 12 25 10 19 3 29 22 2 22 29 8 8 26 24 2 29 19 22 2 22 23 3 2 10 23 22 25 24 23 2 10 2 22 2 19 7
split_gain=10337.1 7539.77 5180.32 1714.84 1188.66 1118.83 714.665 624.808 566.47 527.319 410.489 299.931 273.736 179.971 175.897 152.921 165.749 151.61 150.36 150.139 144.28 142.826 137.001 111.502 109.343 106.014 105.261 97.1488 99.3152 91.2507 88.4531 72.7738 69.1522 68.7931 67.0614 70.3157 66.3055 64.4344 63.4686 62.7033 62.2874 61.0398 57.457 51.6443 51.2422 50.7632 48.754 48.2219 91.4034 47.3311 46.3203 42.4049 42.3909 42.1489 42.0079 41.7133 39.6535 39.142 39.1033 38.0631 36.4865 36.3222 36.1257 36.8202 36.0232 35.9464 35.7431 35.7227 34.8969 33.9583 33.593 33.567 33.0889 31.7319 30.496 30.4221 30.2355 29.2407 27.1972 26.2616 25.3661 25.071 24.8627 24.8245 24.4193 24.0075 23.9053 23.141 22.3863 21.4619 20.9843 19.5275 18.581 17.0902 16.5007 15.8191 15.4977 13.7074 13.6855 13.1305 12.4938 12.4365 12.3696 12.1574 11.838 11.4089 11.0804 11.0047 10.744 10.2548 9.82025 9.39482 8.7688 8.25134 12.5058 7.73587 7.72199 6.59767 6.24591 6.12205 5.85183 5.54952 5.25663 5.09163 5.02662 4.80814 4.68354 4.46707 4.39351 3.81323 3.6289 3.43512 3.18607 2.83442 2.8323 2.57819 2.44863 2.25213 2.16911 2.05138 1.69311 1.45462 1.02754 0.794466
threshold=26.500000000000004 132.50000000000003 1239.4000000000003 75.500000000000014 75.500000000000014 1419.1500000000003 850.35000000000014 196.50000000000003 1681.6000000000001 1618.3000000000004 883.55000000000007 0.64440905388471192 936.05000000000007 61.500000000000007 642.9000000000002 664.15000000000009 1.0000000180025095e-35 0.6568602443609024 67.500000000000014 0.65772083333333342 132.50000000000003 172.50000000000003 0.62218909774436104 1.0000000180025095e-35 71.500000000000014 68.500000000000014 68.500000000000014 56.500000000000007 60.500000000000007 1118.7500000000002 67.500000000000014 0.49041666666666678 1246.7500000000002 0.61810789473684224 56.500000000000007 60.500000000000007 26.500000000000004 1358.3500000000001 0.68665808270676698 4.863673427408628 0.77500000000000013 66.500000000000014 4.8559213341406453 1641.1500000000003 1001.2000000000002 26.500000000000004 0.68609166666666677 56.500000000000007 60.500000000000007 0.71190347744360916 65.500000000000014 0.50041666666666684 65.500000000000014 94.500000000000014 164.50000000000003 4.9089648320872419 0.95840350877192992 7.8500000000000005 74.500000000000014 4.4500000000000011 4.6491756246494491 86.500000000000014 57.500000000000007 33.500000000000007 4.9089648320872419 1104.0500000000004 4.9380581778699986 4.9522934739897151 7816.0000000000009 1198.6500000000003 0.61291666666666689 1115.7000000000003 55.500000000000007 48.500000000000007 31.500000000000004 0.26810714285714293 0.83500000000000008 66.500000000000014 27.500000000000004 1441.9000000000003 56.500000000000007 55.500000000000007 5283.7500000000009 0.56791666666666696 72.500000000000014 142.50000000000003 31.500000000000004 0.64617058270676697 192.50000000000003 113.50000000000001 0.64791666666666703 135.50000000000003 74.500000000000014 6.8500000000000005 71.500000000000014 102.50000000000001 4.9308638091439496 162.50000000000003 96.500000000000014 1646.7000000000003 4.6200466650627661 71.500000000000014 896.20000000000016 0.98512280701754396 65.500000000000014 0.65958333333333352 169.50000000000003 0.38992857142857157 50.500000000000007 8652.0000000000018 67.500000000000014 0.53958333333333364 6.1500000000000012 4.9089648320872419 0.76096491228070196 134.50000000000003 1.0069473684210528 4.6586997221347959 110.50000000000001 136.50000000000003 3993.1000000000008 1693.45 154.50000000000003 4.6586997221347959 0.45708333333333345 0.90526315789473699 97.500000000000014 0.80708771929824574 0.64961403508771942 7.3500000000000005 94.500000000000014 62.500000000000007 0.6581383458646618 0.80377192982456158 4654.0000000000009 930.90000000000009 0.64871622807017559 203.50000000000003 67.500000000000014 203.50000000000003 0.84461403508771948 164.50000000000003 0.47625000000000017 0.8650000000000001
decision_type=2 2 2 2 2 2 2 2 2 2 2 2 2 2 2 2 2 2 2 2 2 2 2 2 2 2 2 2 2 2 2 2 2 2 2 2 2 2 2 2 2 2 2 2 2 2 2 2 2 2 2 2 2 2 2 2 2 2 2 2 2 2 2 2 2 2 2 2 2 2 2 2 2 2 2 2 2 2 2 2 2 2 2 2 2 2 2 2 2 2 2 2 2 2 2 2 2 2 2 2 2 2 2 2 2 2 2 2 2 2 2 2 2 2 2 2 2 2 2 2 2 2 2 2 2 2 2 2 2 2 2 2 2 2 2 2 2 2 2 2 2 2 2 2
left_child=1 2 3 6 9 7 15 12 17 19 14 27 54 29 23 16 50 37 21 47 32 41 57 45 49 42 67 44 -29 78 56 40 81 92 74 -36 -33 61 53 51 -15 93 83 84 -8 -5 52 86 -49 80 -1 -16 -13 -24 62 85 68 73 75 97 70 -6 122 -64 -61 -44 79 95 -23 106 -31 -38 -35 -12 -21 -56 -60 -39 -9 -19 -11 128 -80 -14 -32 -43 -4 -58 94 -42 -41 -57 -17 115 107 -10 -45 -27 -40 104 -59 119 124 -62 -34 -68 125 110 131 -51 -20 123 -48 114 -110 -7 -69 -103 -95 -28 -18 141 -3 139 -83 -22 132 -109 135 -128 -126 -90 -104 -26 -113 -2 -106 -125 -96 -108 -132 -71 -135 -115
right_child=20 5 4 10 8 18 11 13 26 24 22 46 25 31 39 33 120 66 88 34 69 30 38 -25 133 59 101 28 -30 60 43 36 99 72 35 -37 71 77 98 90 89 55 65 96 -46 -47 112 48 -50 109 -52 -53 -54 -55 58 91 87 100 76 64 103 -63 63 -65 -66 -67 105 116 -70 121 -72 -73 -74 -75 -76 -77 -78 -79 82 -81 -82 102 -84 -85 -86 -87 -88 -89 108 -91 -92 -93 -94 118 138 -97 -98 -99 -100 -101 -102 117 126 -105 136 -107 111 127 113 -111 -112 134 -114 143 -116 -117 -118 -119 -120 -121 -122 -123 -124 137 130 -127 129 -129 -130 -131 140 -133 -134 142 -136 -137 -138 -139 -140 -141 -142 -143 -144 -145
leaf_value=0.029118225326721984 0.073039285831010103 0.030937948024250206 0.065655292920768674 -0.00090580669148185235 0.040558631305293802 0.037080530155005079 0.049583655308708452 -0.0312545105695788 0.060213616748804197 0.068724243537277616 0.036852398751444526 0.058235718560899478 0.024309325637929098 0.027327433548640312 0.022825391896651549 0.041503911691493485 0.050294364589522592 0.051673734564729477 0.053560303435974718 0.069061799820892014 0.063516960721928639 0.023159363334433612 0.045878807036659926 0.055833824598301496 0.072091298917842023 0.039750888120232843 0.065284678472077945 0.037656034164407534 0.049878371270205189 -0.0098483822444933641 0.0031120192556440582 -0.066256263143098376 0.078232987801254622 0.050578328720076351 0.054957584058380367 0.063502340820686981 -0.0085978875858966752 0.051347610650402824 0.054063447718254456 0.037974418018592339 -0.047234482480267362 0.038865057327541759 0.029274750158612473 0.012557502820678494 0.05584695752039729 0.021622918145669679 0.062992162666078461 0.047788413990301086 0.059340513726997127 0.070545123421278777 0.00867588962844708 0.032836435363443349 0.052321713750326182 0.040883882425585522 -0.028872158079398597 0.018708746287779136 0.016640163578279243 0.023497748562630996 -0.0055443980444938711 0.015646913813087526 0.028411946942568406 0.048490033368214586 0.0042247064086639733 0.019550346338037979 0.029359899222743818 0.043878148357472072 0.057281640946501219 0.062789123633530425 0.040914821077211269 0.071103032809032213 0.029440443576340004 0.0043076583875443697 0.042979338258713494 0.043349676142806118 0.064981132963447832 0.0074873801682213605 -0.07455791824559023 0.059277534207240461 0.0023208960562982111 0.056462460293135834 0.064955046800336341 0.063070046745650352 0.031795542135855649 0.033412679167719651 -0.030267110150087054 0.023066511124708002 0.06039225739910719 0.052312826720114926 0.06274921266787023 -0.019246058491629286 0.051922142735368451 0.048880865702118345 0.033217484238951225 0.025307889786649003 0.067457517195176606 0.054078231026815415 0.043284057245374236 0.016981856721346639 0.046476253107314791 0.079341973760718859 0.033726584900440698 0.065610941095533087 0.073608096808068887 0.052713651115967562 0.074540015875203647 0.061442141977539916 0.048413732753970588 0.045201368712188363 0.056195757535546398 0.074659742980714164 0.037463034780264304 0.056844385789729467 0.059426712271763271 0.057922097848850766 0.02643314097905974 0.053593407139243786 0.067920145429277462 0.072561903716122686 0.043668932843033394 0.072899594884473756 0.067812925413624367 0.07547533204519298 0.053877915043344812 0.044723195174237125 0.072233140547497326 0.073936589850796514 0.07275050120792699 0.064785397106583265 0.077711263310643153 0.066761392335334624 0.064727133750851776 0.046811318489434248 0.07614008070992799 0.066892056237508532 0.066525367720540282 0.076252180430613187 0.076630074971814663 0.059368581070439227 0.059164075927631225 0.030451435489876753 0.072086439746068529 0.066970897008059985 0.076370643633076177 0.043413835390273874
leaf_weight=2172.7652087658644 2042.8113966733217 87.418312504887581 3218.128648608923 775.71650515496731 2332.5660035312176 102.4029194265604 5772.4736234247684 61.291476786136627 4663.1336405426264 13873.333180651069 6889.4652059972286 20213.562048092484 1630.7483121305704 48.825273975729942 1673.9473872333765 2465.9389688074589 94.878684654831886 6208.6382555067539 309.43984791636467 7144.9456868618727 942.69023871421814 1048.8265569061041 10932.374260112643 148.50987526774406 970.79964050650597 399.12103499472141 2351.9576913714409 2403.0962205827236 8848.0479245185852 139.78081630170345 190.6009508818388 45.750091820955276 15436.38495709002 4570.5173078477383 3515.2271636724472 13093.793488517404 1081.6603584289551 12249.670577466488 2268.2270884364843 2192.2226348221302 202.26790609955788 512.83452565968037 675.19691622257233 97.614550113677979 10934.521477267146 435.5851041674614 6285.1014692932367 2482.835272103548 9211.2127707749605 9055.3045564591885 369.67551626265049 4382.4240107536316 4287.6610517948866 8828.8014957904816 70.481790378689766 70.728031247854233 63.649866536259651 606.5114581733942 42.924735501408577 2069.8705103248358 731.13520106673241 6021.9573106765747 809.12491679191589 982.93172009289265 740.71599553525448 1765.2153952866793 7028.0697351694107 2557.7648563832045 456.23426528275013 1356.6398865133524 106.86198832094669 1176.7120237350464 2649.1016080081463 3201.2634049057961 23417.531712323427 718.00352808833122 32.283445686101913 1548.5369956344366 894.40357099473476 7583.6232194006443 8877.2797891050577 372.10859221220016 88.657161846756935 1863.3939099013805 89.306508108973503 616.5058806091547 13818.260440722108 362.63640816509724 112.3459535241127 134.39930240809917 374.71502211689949 731.82102490961552 1199.7304907590151 72.498474925756454 409.42415496706963 1826.1841231137514 96.578330546617508 99.991356700658798 1106.7459370940924 13090.243990287185 879.75821642577648 600.6683856844902 6737.8560050576925 67.913444519042969 4854.3006731420755 3077.6017802506685 51.317349821329117 57.851233512163162 55.044371515512466 2673.5775135606527 201.40395157039165 295.81598301231861 3763.5268077999353 63.45154744386673 192.21391020715237 1596.751914948225 1741.0616437196732 3438.2537673562765 453.040004119277 475.59408162534237 288.72600719332695 751.44701144099236 57.278667166829109 78.348845288157463 2315.7105564922094 217.17892499268055 2671.6472714245319 235.69625706970692 5625.9077121019363 572.86971335113049 596.49396644532681 114.19178672134876 3736.7210211455822 107.57987290620804 272.07685181498528 3837.6381331086159 8440.5619131624699 149.99411927163601 288.75127185881138 62.724793076515198 290.66910015046597 1049.6409436166286 6689.2458477914333 62.825513482093811
leaf_count=3676 2082 145 3646 1668 3534 160 7956 161 5672 15069 10843 25192 2878 84 2991 3703 129 8359 407 7725 1098 1870 15698 190 1003 611 2677 3745 12160 320 397 145 14517 6231 4551 15266 2457 16560 2972 3411 579 791 1141 189 14031 787 7375 3485 11326 9581 739 7163 5729 13344 182 130 119 1076 96 3927 1246 8405 1676 1808 1251 2591 8863 3011 689 1423 180 2439 3917 4718 26764 1452 106 1904 1879 9656 10152 435 146 3032 232 1098 16767 485 132 328 503 1018 1951 126 452 2390 142 187 1577 12089 1425 680 6812 90 4838 3686 71 83 70 2661 314 374 4619 79 332 2106 1912 3531 665 486 317 738 75 113 2389 218 2736 270 5335 638 683 162 3633 119 304 3725 8143 184 355 104 300 1167 6481 92
internal_value=0.0581895 0.0541211 0.0564478 0.0479609 0.0620952 0.0264718 0.0527842 0.0185095 0.0562629 0.0652396 0.0397242 0.0551939 0.024935 0.00230825 0.0302509 0.0418753 0.031085 0.0531673 0.0419274 0.0625962 0.0758013 0.0379587 0.0424473 0.0125078 0.0699878 0.0293292 0.0643352 0.051106 0.0472717 0.0139655 0.0276456 -0.00673431 0.0764339 0.0447719 0.0644446 0.0616965 -0.00315208 0.049995 0.0448094 0.0330438 -0.0280329 0.0439166 0.0335753 0.00704411 0.0536855 0.00715989 0.0585006 0.0595599 0.0568915 0.0686961 0.0261629 0.0300766 0.0572026 0.0436494 0.0104144 0.0369471 0.0326803 0.0377231 0.000654797 0.0217023 0.0250228 0.0462808 0.0147443 0.0126549 0.0192764 0.0398556 0.056106 0.0610415 0.0285705 0.0672476 0.00699901 -0.00185437 0.0477961 0.038918 0.0659365 0.00418215 -0.035748 0.0522407 0.00285257 0.05431 0.0672554 0.0744035 0.00502327 0.0291765 -0.00738368 0.0302791 0.061389 0.0470883 0.0542925 -0.0361905 0.0400275 0.0462759 0.0388037 0.0499492 0.0578504 0.0584938 0.0280626 0.0352764 0.0515883 0.0778311 0.0295817 0.0695037 0.0730709 0.030532 0.0771412 0.058553 0.0618114 0.0523804 0.0453109 0.0714868 0.0472991 0.0570561 0.0616611 0.039374 0.0332352 0.0526238 0.0648774 0.071539 0.0412187 0.066581 0.0635937 0.0707977 0.0403198 0.0494594 0.0700517 0.0655057 0.0738544 0.0610743 0.0764028 0.0717065 0.0708492 0.0549079 0.0745155 0.0757158 0.0615594 0.0751435 0.0758702 0.0545344 0.0640901 0.0389159 0.0671876 0.0693187 0.076227 0.0510492
internal_weight=404209 328359 302870 121016 181854 25489 76319.3 16824.4 63705.3 118149 44696.3 62508 12044.7 4779.66 9983.12 13811.3 2926.05 46050.7 8664.67 75901.9 75849.8 6562.03 34713.1 1359.81 42247.1 9244.25 17654.6 27958.1 11251.1 2090.04 2405.45 2689.61 70621.9 10885.3 47171.5 16609 2304.12 22152.7 23136.1 8623.31 385.492 4156.58 5934.55 474.1 16707 1211.3 34549.9 28730.4 11694 34479.5 2542.44 6056.37 24501.2 19761.2 2800.45 1931.89 1931.35 11577 863.693 3309.7 1045.69 8354.52 1936.75 1792.06 2810.59 2440.41 23897.9 10788.1 1505.06 5227.87 246.643 2258.37 7219.62 10090.7 30562.5 788.485 75.2082 13798.2 1044.35 13792.3 22750.6 28800.4 983.061 3494.14 279.907 1129.34 17036.4 426.286 2102.64 336.667 2566.94 802.549 3665.67 2224.69 1502.57 6489.32 194.193 499.112 3374.97 41821.5 1486.27 6866.47 17294.1 799.049 28731.2 10105.7 2070.15 804.391 600.073 11728.9 510.844 910.278 10048.6 373.535 247.258 1699.15 4298.83 4038.92 525.538 2827.55 383.605 3157.73 144.697 342.385 3574.98 1159.87 13719.1 293.547 11506.4 3244.52 3202.87 226.538 10474.6 7767.63 567.893 5880.45 13294.9 228.343 698.175 114.042 887.163 2406.28 6796.83 126.277
internal_count=504084 429935 385758 169836 215922 44177 101470 31212 81326 134596 68366 80807 21158 10054 16713 20663 4861 60967 12965 89530 74149 10217 51653 2645 45066 15618 20359 37892 15905 4022 4123 6032 68355 15802 54306 19817 5041 30403 33591 14068 991 6094 9642 960 21987 2455 42915 35224 14811 37463 4415 10154 30921 29042 5540 3037 3163 18062 1836 5976 1836 11939 3704 3484 5178 3732 30564 12985 2559 5794 500 4896 10148 15561 34489 1634 202 18464 2186 18015 25221 28768 2025 5910 629 1889 20413 604 2748 907 3914 1148 5654 3057 1881 8062 331 798 4549 39587 2501 7374 17626 1336 27498 12549 2466 1074 867 12242 721 1150 11994 573 402 2266 4923 4211 791 3163 446 3328 220 472 3807 1316 13819 353 11142 3374 3372 294 10445 7603 678 5807 12981 297 807 175 983 2590 6600 171
is_linear=0
shrinkage=0.0529269


Tree=2
num_leaves=150
num_cat=0
split_feature=27 2 24 2 2 24 24 2 24 24 24 23 24 10 24 23 23 24 27 0 21 2 23 0 27 0 10 2 2 24 10 24 23 2 2 0 24 23 14 13 14 7 24 10 21 0 2 2 23 2 2 14 0 23 24 21 18 25 21 23 3 2 2 23 10 12 24 14 11 0 2 24 0 2 2 2 5 14 21 21 24 2 0 10 14 24 10 26 13 2 0 12 2 2 21 23 24 23 0 2 0 10 2 22 3 2 14 3 2 25 2 6 2 10 23 2 13 14 23 8 10 22 24 26 25 24 24 22 21 13 26 24 23 12 13 25 24 9 21 13 26 11 2 2 2 25 23 22 24
split_gain=9861.74 7048.08 4898.68 1606.8 1131.83 1029.73 671.269 567.463 537.475 504.84 380.465 283.636 249.966 161.925 161.109 143.649 143.16 141.967 154.365 140.613 149.11 139.284 127.653 105.577 102.281 100.754 97.3661 92.5479 92.5735 82.7944 78.3324 67.0304 64.1759 64.0157 66.6361 63.8637 62.7923 58.9669 57.9536 57.2009 53.0612 50.9769 50.825 47.7926 47.5303 45.8882 45.7223 86.1377 45.5277 45.4999 62.441 45.0994 43.5032 42.7722 41.669 41.0531 40.671 38.2245 37.509 48.1795 37.4426 37.1635 35.5393 34.5689 33.45 33.3967 33.2886 33.2851 33.7447 33.0041 32.9673 32.4861 31.0109 30.9477 29.1088 28.878 28.8301 28.2107 27.8519 26.4689 25.7621 24.2799 24.265 24.2427 24.1058 23.0807 22.9899 22.537 21.9164 21.5142 21.3627 20.0417 16.2883 15.2373 15.0338 14.0142 13.8073 13.158 13.1539 12.821 11.9644 11.7637 14.4816 11.2418 10.8953 10.4958 10.3882 10.3238 9.89776 9.87124 9.81644 9.60383 8.01045 7.59134 7.02191 6.39509 6.38854 6.33058 6.23119 5.84195 5.60667 7.46263 5.57069 5.53107 5.38884 4.83686 4.74063 4.59481 4.50533 3.51268 2.83029 2.81103 2.42638 2.39154 2.43696 2.01819 2.01876 1.86201 1.73618 1.72863 4.27431 1.71856 1.53277 1.36196 6.50325 1.21157 1.1132 0.794802 0.786265
threshold=26.500000000000004 132.50000000000003 1239.4000000000003 75.500000000000014 75.500000000000014 1419.1500000000003 850.35000000000014 196.50000000000003 1681.6000000000001 1618.3000000000004 883.55000000000007 0.64575028195488737 936.05000000000007 61.500000000000007 642.9000000000002 0.66202048872180463 0.65772083333333342 664.15000000000009 1.0000000180025095e-35 67.500000000000014 1.0361000000000002 132.50000000000003 0.62274354636591489 71.500000000000014 1.0000000180025095e-35 68.500000000000014 68.500000000000014 56.500000000000007 60.500000000000007 1118.7500000000002 67.500000000000014 1246.7500000000002 0.61810789473684224 56.500000000000007 60.500000000000007 28.500000000000004 1358.3500000000001 0.68665808270676698 128.50000000000003 78.500000000000014 127.50000000000001 0.77500000000000013 1001.2000000000002 66.500000000000014 0.88570000000000004 26.500000000000004 56.500000000000007 60.500000000000007 0.71190347744360916 56.500000000000007 60.500000000000007 134.50000000000003 25.500000000000004 0.67276889097744375 1078.1500000000003 0.66335000000000022 0.61383333333333345 4135.0000000000009 1.2391500000000002 0.64171995614035104 7.9500000000000011 170.50000000000003 212.50000000000003 0.71190347744360916 75.500000000000014 39.500000000000007 1104.0500000000004 103.50000000000001 179.50000000000003 60.500000000000007 86.500000000000014 1198.6500000000003 48.500000000000007 55.500000000000007 31.500000000000004 94.500000000000014 4.1500000000000012 138.50000000000003 1.1943000000000001 0.37250000000000011 1099.6000000000001 56.500000000000007 27.500000000000004 69.500000000000014 57.500000000000007 1358.3500000000001 58.500000000000007 5283.7500000000009 69.500000000000014 223.50000000000003 71.500000000000014 59.500000000000007 135.50000000000003 137.50000000000003 0.44385000000000002 0.61084407894736847 896.20000000000016 0.68897913533834598 26.500000000000004 96.500000000000014 71.500000000000014 57.500000000000007 198.50000000000003 0.98512280701754396 9.2500000000000018 169.50000000000003 171.50000000000003 8.9500000000000011 192.50000000000003 8652.0000000000018 155.50000000000003 26.450000000000003 65.500000000000014 68.500000000000014 0.68214307644110284 233.50000000000003 86.500000000000014 104.50000000000001 0.65430980576441111 136.50000000000003 60.500000000000007 0.76096491228070196 1489.7500000000002 3993.1000000000008 8378.5000000000018 1741.1500000000003 987.95000000000016 0.90526315789473699 0.70510000000000006 125.50000000000001 4823.4500000000016 857.55000000000007 0.61084407894736847 60.500000000000007 70.500000000000014 4654.0000000000009 1147.3500000000001 84.500000000000014 0.77475000000000016 116.50000000000001 4649.7000000000016 209.50000000000003 117.50000000000001 227.50000000000003 358.50000000000006 3639.0000000000005 0.63542205513784467 0.75919298245614042 952.10000000000002
decision_type=2 2 2 2 2 2 2 2 2 2 2 2 2 2 2 2 2 2 2 2 2 2 2 2 2 2 2 2 2 2 2 2 2 2 2 2 2 2 2 2 2 2 2 2 2 2 2 2 2 2 2 2 2 2 2 2 2 2 2 2 2 2 2 2 2 2 2 2 2 2 2 2 2 2 2 2 2 2 2 2 2 2 2 2 2 2 2 2 2 2 2 2 2 2 2 2 2 2 2 2 2 2 2 2 2 2 2 2 2 2 2 2 2 2 2 2 2 2 2 2 2 2 2 2 2 2 2 2 2 2 2 2 2 2 2 2 2 2 2 2 2 2 2 2 2 2 2 2 2
left_child=1 2 3 6 9 7 17 12 15 16 14 27 44 29 24 36 46 18 52 20 43 31 60 48 45 63 40 42 -29 82 53 79 88 74 -35 62 70 54 64 41 86 -37 -8 101 57 -5 84 -48 81 80 -51 61 -1 89 -24 93 78 83 111 -60 72 -45 -15 94 -16 -41 -42 68 -31 -57 -6 105 -12 -34 -18 -38 -58 85 -46 118 -13 -11 -9 -3 -4 -17 -14 -84 -19 -22 95 -40 -53 -28 -10 120 133 112 -64 -39 119 129 -103 -69 -62 127 -55 -79 137 -50 -59 -32 -33 115 -115 -97 126 -102 148 -27 -21 -122 142 -20 132 -65 131 -23 146 -7 147 -107 143 134 -81 145 -137 141 -135 140 -110 -92 -114 -73 -145 -118 -98 -25 -2
right_child=21 5 4 10 8 19 11 13 25 23 22 49 26 35 38 77 33 32 123 90 30 71 37 130 -26 100 55 28 -30 67 58 97 73 34 -36 39 75 99 91 65 66 -43 -44 51 56 -47 47 -49 109 50 -52 92 -54 106 -56 69 76 110 59 -61 104 -63 98 125 -66 -67 -68 103 -70 -71 -72 124 -74 -75 -76 -77 -78 107 -80 96 -82 -83 87 -85 -86 -87 -88 -89 -90 -91 108 -93 -94 -95 -96 113 128 -99 -100 -101 117 102 -104 -105 -106 116 -108 -109 139 -111 -112 -113 122 114 -116 -117 135 -119 -120 -121 121 -123 -124 -125 -126 -127 -128 -129 -130 -131 -132 -133 -134 138 -136 136 -138 -139 -140 -141 -142 -143 -144 144 -146 -147 -148 -149 -150
leaf_value=0.017977963472474757 0.071243368874325877 0.018747025989608496 0.0348137442782201 -0.00085766460013825621 0.039637023002213792 0.059150468603635396 0.047671351323273103 -0.02938138374858211 0.060908179242950819 0.066454037917868594 0.035238798368293252 0.056026304762421146 0.03753246372848134 0.000383613150108943 0.030534395625413296 0.048285874121037492 0.066786189565866141 0.028088188645021012 0.048339909313447615 0.04656315936931725 0.034091904202652838 0.061311616416184336 0.039107826181761667 0.065026616233909998 0.053750286397258401 0.063055862112295177 0.016558671689536734 0.036340872862989412 0.048031127967987197 -0.024158798210850985 0.030382002869798252 0.075784275301405982 0.048610856024734993 0.052905979225081674 0.061294829105420966 0.028698173152491534 0.052773053829181155 0.052017082904802399 0.040864337083651489 0.025142249856707936 0.027948267772357489 -0.036308240965339175 0.053858130051690309 0.031932337181572679 0.015835113565849906 0.020597521621680825 0.045898458132135556 0.057196165265305889 0.0682613579405352 0.046305233350282957 0.055828715160606834 0.019555416150362083 0.031996150170682046 0.042006416747720092 0.044127504367044421 0.016555018791690471 -0.034650816900846829 0.0422067580630388 -0.032671438202013542 0.013343703263684545 0.029440259925805717 -0.0036120184048547594 -0.086912163747703788 0.058440729223701679 0.019905413135446377 -0.0034807132055810377 0.042072555892382346 0.02711612383539817 0.019133023490405032 0.040438239026234203 0.046876221410440747 0.065966061141658261 0.04158524698412943 0.041210226592943162 0.062757792543104277 0.048070962401222501 -0.0018666620771381642 0.056792201785798288 -0.0034366419972826456 0.058863265484137749 0.059809497136148713 0.062728982694072247 0.002199383171671448 -6.2749137001327511e-05 0.059388081392646765 0.053971235456171912 0.025854158723023584 0.030373939308660371 0.039113909776296057 0.021461415750375128 0.060816900042830364 0.029099691588445938 0.048481103016890764 0.039298235563166646 0.055342496776490627 0.055743466443552339 0.070699795596981418 0.076900593991024224 -0.037406890242601909 0.044612354613045503 0.063381170169760484 0.047592020478494639 0.027875380456459497 0.050676186077955918 0.01406578884365949 0.04628464410741754 0.063240203448758484 0.037608998865679602 0.053364775327620156 0.072344829014785478 0.018340545861508673 0.012684607485803003 0.072826300668997257 0.034819598564423265 0.053570244077995682 0.037998626784707959 0.060693305878290693 0.070264627101219945 0.075191460678497163 0.070585317731386918 0.041863450627092104 0.014678651244052841 0.075070095346439145 0.065551763258528406 0.073952438503447557 0.06492605934770404 0.056107653841543384 0.071622978064803666 0.068205567917050139 0.043551450024378796 0.074203441810681281 0.02807646471725591 0.068455150978726717 0.06445227527207914 0.068656240553640183 0.065545176041698877 0.051435406055801068 0.052312792338092572 0.051858819186520265 0.05510894626788098 0.03307148671839976 0.070288474606535242 0.068266898621814245 0.046782998843403277 0.068379981067406254 0.050398135605330671 0.072742379184073974 0.071754942681256234 0.073375403537918632
leaf_weight=1270.6092059612274 2955.6673771888018 598.27660650014877 121.21303103864193 775.89437727630138 2566.5118804425001 356.27818155288696 5845.8745071738958 61.735946968197823 2105.8636268973351 13595.413892000914 7078.6822153180838 10734.429537922144 590.47785694897175 29.014330342411995 4980.2575642764568 2837.7720877230167 7001.2268185466528 646.954026222229 93.527168899774551 69.648048207163811 770.334577485919 925.3783558011055 8648.3216177821159 207.93673473596573 146.16564193367958 2307.4135522991419 112.86807797849178 2452.8805732876062 8976.6614437103271 70.064590498805046 174.30106073617935 13273.191775470972 4505.5780474990606 3459.7830737680197 12853.877523496747 38.488382279872894 7784.7373406589031 2233.6270656734705 1990.8425191491842 120.23046009242535 669.95547816157341 243.12790596485138 11166.378930971026 885.70148974657059 754.29512874782085 433.13574743270874 2449.168963342905 9054.9869859963655 8868.0045839250088 2541.034023553133 8968.3195883780718 64.834558963775635 1254.0922574102879 315.40806248784065 10670.567445546389 2596.0138722360134 88.530410885810852 194.10524372756481 105.57442151010036 159.56847788393497 1154.2327392250299 88.46847465634346 43.071419209241867 555.38599239289761 1027.0380821824074 2190.4820773005486 1744.1113515645266 725.67915607988834 176.10173110663891 175.99808099865913 6456.1872896552086 376.25454162061214 3270.6350351423025 2617.4618210345507 22975.76368868351 7644.5381074696779 521.00825752317905 9246.7490713298321 286.47076778113842 142.00568115711212 10841.987931609154 8710.3000861406326 893.87995760142803 275.87768933176994 16614.690293803811 8729.6072193980217 2876.4870242923498 87.915335848927498 2979.5177143514156 801.55177740752697 427.53925222158432 547.91839909553528 695.65231412649155 405.93557915091515 5452.6854488700628 538.85112820565701 3971.4710932224989 14491.332611918449 29.240290403366089 1092.3545316308737 589.20018336176872 1589.7621759176254 123.57800726592541 66.931922718882561 158.34359130263329 87.089454039931297 95.991047263145447 92.87300518155098 78.033371597528458 2614.6795359998941 74.256839513778687 193.6850878149271 6417.7713343799114 177.31536583602428 105.8744297772646 82.610655322670937 117.37001432478428 3364.7201253473759 6354.88990034163 465.46320794522762 53.540375903248787 75.631788462400436 6114.9388202130795 283.03082683682442 576.34178437292576 2485.3344699144363 111.61189751327038 212.45573115348816 1666.7636105716228 73.066091969609261 5646.4778857827187 55.888825669884682 1940.3461446613073 639.45196983218193 2070.110165849328 232.04004295170307 73.091225489974022 100.16687753796577 72.740307301282883 128.62956094741821 75.047094985842705 157.53545784950256 553.87999023497105 102.20441767573357 96.939696177840233 218.38448683917522 5169.7626395970583 1738.641890540719 5122.9688151031733
leaf_count=2358 3057 1105 192 1668 3902 436 8168 161 2515 15069 11256 13614 919 62 8282 3937 7725 1097 129 98 1238 1098 13226 234 190 2677 211 3852 12497 176 290 12806 6231 4551 15266 65 10273 2972 2993 211 1141 658 14543 1453 1428 787 3485 11326 9581 3596 11409 118 2057 468 15505 4878 236 289 278 307 1937 194 151 683 1872 4805 2591 1246 324 266 9104 419 4878 3917 26764 10631 1127 11625 628 173 13128 10152 1879 590 20221 11352 4991 146 4557 1444 510 921 965 621 6972 686 4141 13736 80 1577 680 2225 210 90 302 123 111 143 102 2661 137 374 6482 282 138 127 140 3531 6189 486 79 143 5966 317 572 2815 141 218 1801 106 5585 94 2090 727 2223 260 97 132 96 165 121 165 597 143 104 295 5229 1784 5132
internal_value=0.0560782 0.0520851 0.0543625 0.0460609 0.0599117 0.0252648 0.0507712 0.0176237 0.0541773 0.0630124 0.0380499 0.0531291 0.0237807 0.00219033 0.0288951 0.0511429 0.0604043 0.0401403 0.0297023 0.040196 0.0363446 0.0734891 0.0406908 0.0677088 0.0118897 0.0621186 0.0280047 0.0492413 0.0455261 0.0132812 0.0265379 0.0741187 0.0429535 0.0622273 0.0595184 -0.00636731 0.0483726 0.0430178 0.0315867 -0.00473751 0.0320973 -0.0272697 0.0517347 0.042951 0.00989313 0.00679294 0.0574145 0.0547947 0.0664278 0.0564698 0.0537299 0.0363187 0.0249584 0.0317226 0.0418826 0.0206776 0.00411418 0.0182026 0.0102282 -0.00481571 0.0361685 0.02866 -0.0476341 0.0588702 0.0287244 -0.00197262 0.0381708 0.0238643 0.00663508 0.0180871 0.0448219 0.0650018 0.0372486 0.0458975 0.0637001 0.0504462 -0.0066996 0.0543808 0.010489 0.0720978 0.0579294 0.0650014 0.0027047 0.0127613 0.0592127 0.0525802 0.0278557 0.00476655 0.0371589 0.0276789 0.0522546 0.0383424 0.0460722 0.0344348 0.0568989 0.0470135 0.0703639 0.075511 -0.0674975 0.0495982 0.0672306 0.0483 0.0461953 0.0291606 0.0276186 0.0596381 0.047067 0.0566061 0.0581905 0.069195 0.0357647 0.0211852 0.0747454 0.049912 0.0419837 0.0534547 0.0549677 0.0692499 0.0737445 0.0643355 0.0336062 0.026283 0.0736885 0.0613926 0.0685147 0.0637559 0.046936 0.0632754 0.0713003 0.0565973 0.073403 0.0394715 0.0672516 0.0668884 0.0680473 0.0580903 0.0623083 0.0618787 0.0632273 0.0490644 0.0437006 0.0634419 0.0724703 0.0631171 0.0575152 0.054127 0.0718597 0.0710587 0.0726008
internal_weight=397431 323288 297984 119386 178597 25304.8 75178.3 16740.6 62685 115912 44208 61527.6 11964.7 4775.96 9901.25 45359 74530.7 13650.8 2901.26 8564.18 6493.76 74142.3 34306.8 41381.5 1355.2 17326.1 9171.85 28441.8 11429.5 2082.31 2616.41 69016.9 10749.5 46290.7 16313.7 2693.65 24452 22644.9 8546.06 2592.33 5881.03 281.616 17012.3 3877.34 2792.82 1209.03 28240.1 11504.2 33788.4 33085.8 11509.4 1734.66 2524.7 1983.29 19318.9 3290.82 1650.3 1142.52 633.129 265.143 11661.9 974.17 101.326 10599.3 6007.3 2310.71 2414.07 1038.78 246.166 2772.01 9022.7 5125.4 10349.3 7123.04 29977 15429.3 609.539 20907 1040.77 28165.8 21576.4 22305.7 1043.53 874.154 16735.9 11567.4 3466.96 981.795 3626.47 1571.89 2070.42 2538.76 760.487 518.804 7558.55 1103.47 13732.3 40851.1 72.3117 3325.98 6726.8 2142.68 1713.34 792.611 1312.58 2033.31 411.399 9339.62 966.952 11482.7 268.362 367.986 26359.8 904.652 283.19 621.462 895.476 3953.92 14433.5 2772.88 198.82 129.172 13086.6 376.558 3092.09 3040.72 254.59 1137.83 10808 429.344 7593.06 142.978 2515.74 2924.31 2212.12 640.886 305.131 685.242 712.192 281.71 153.08 585.075 6971.65 575.399 199.144 335.755 9141.23 1946.58 8078.64
internal_count=504084 429935 385758 169836 215922 44177 101470 31212 81326 134596 68366 80807 21158 10054 16713 60967 89530 20663 4861 12965 10217 74149 51653 45066 2645 20359 15618 39060 16349 4022 4510 68355 15802 54306 19817 6032 33910 33280 14068 5739 9642 723 22711 5707 5540 2455 35224 14811 37463 41747 15005 2730 4415 3261 28731 5976 3419 2121 1249 585 18373 1647 293 12985 10154 5016 3732 1836 500 5144 13006 5794 16134 10148 34489 20904 1363 27057 2056 28768 26742 25221 2186 1695 20413 15289 5910 2025 5654 2682 2748 3914 1083 832 9487 1553 14390 39587 231 4549 7374 2977 2435 1336 2239 2466 579 11768 1195 12242 426 664 25851 1233 420 813 1150 4211 14378 3163 320 222 13045 446 3328 3498 358 1316 11171 542 7603 217 2756 3219 2396 792 357 807 823 388 223 675 7079 666 247 435 9370 2018 8189
is_linear=0
shrinkage=0.0529269


end of trees

feature_importances:
physical_activity_minutes_per_week=70
age_bmi=47
overall_health_risk=46
heart_rate=31
age_squared=27
age=23
log_physical_activity=22
metabolic_index=20
diet_activity_balance=17
triglycerides=15
cholesterol_risk=14
age_bp=13
log_triglycerides=12
diet_score=10
family_history_age=10
ldl_cholesterol=9
bmi=7
bmi_cholesterol=7
waist_to_hip_ratio=5
family_history_diabetes=5
systolic_bp=4
diastolic_bp=4
hdl_cholesterol=4
screen_time_hours_per_day=3
cholesterol_total=3
cardio_risk_score=3
sleep_hours_per_day=2
lifestyle_risk=2

parameters:
[boosting: gbdt]
[objective: binary]
[metric: binary_logloss]
[tree_learner: serial]
[device_type: cpu]
[data_sample_strategy: bagging]
[data: ]
[valid: ]
[num_iterations: 500]
[learning_rate: 0.0529269]
[num_leaves: 236]
[num_threads: 0]
[seed: 42]
[deterministic: 0]
[force_col_wise: 0]
[force_row_wise: 0]
[histogram_pool_size: -1]
[max_depth: 8]
[min_data_in_leaf: 82]
[min_sum_hessian_in_leaf: 0.00850863]
[bagging_fraction: 0.900127]
[pos_bagging_fraction: 1]
[neg_bagging_fraction: 1]
[bagging_freq: 6]
[bagging_seed: 400]
[bagging_by_query: 0]
[feature_fraction: 0.743063]
[feature_fraction_bynode: 1]
[feature_fraction_seed: 30056]
[extra_trees: 0]
[extra_seed: 12879]
[early_stopping_round: 0]
[early_stopping_min_delta: 0]
[first_metric_only: 0]
[max_delta_step: 0]
[lambda_l1: 0.817639]
[lambda_l2: 0.00642582]
[linear_lambda: 0]
[min_gain_to_split: 0.777263]
[drop_rate: 0.1]
[max_drop: 50]
[skip_drop: 0.5]
[xgboost_dart_mode: 0]
[uniform_drop: 0]
[drop_seed: 17869]
[top_rate: 0.2]
[other_rate: 0.1]
[min_data_per_group: 100]
[max_cat_threshold: 32]
[cat_l2: 10]
[cat_smooth: 10]
[max_cat_to_onehot: 4]
[top_k: 20]
[monotone_constraints: ]
[monotone_constraints_method: basic]
[monotone_penalty: 0]
[feature_contri: ]
[forcedsplits_filename: ]
[refit_decay_rate: 0.9]
[cegb_tradeoff: 1]
[cegb_penalty_split: 0]
[cegb_penalty_feature_lazy: ]
[cegb_penalty_feature_coupled: ]
[path_smooth: 0]
[interaction_constraints: ]
[verbosity: -1]
[saved_feature_importance_type: 0]
[use_quantized_grad: 0]
[num_grad_quant_bins: 4]
[quant_train_renew_leaf: 0]
[stochastic_rounding: 1]
[linear_tree: 0]
[max_bin: 255]
[max_bin_by_feature: ]
[min_data_in_bin: 3]
[bin_construct_sample_cnt: 200000]
[data_random_seed: 175]
[is_enable_sparse: 1]
[enable_bundle: 1]
[use_missing: 1]
[zero_as_missing: 0]
[feature_pre_filter: 1]
[pre_partition: 0]
[two_round: 0]
[header: 0]
[label_column: ]
[weight_column: ]
[group_column: ]
[ignore_column: ]
[categorical_feature: ]
[forcedbins_filename: ]
[precise_float_parser: 0]
[parser_config_file: ]
[objective_seed: 16083]
[num_class: 1]
[is_unbalance: 0]
[scale_pos_weight: 4.96119]
[sigmoid: 1]
[boost_from_average: 1]
[reg_sqrt: 0]
[alpha: 0.9]
[fair_c: 1]
[poisson_max_delta_step: 0.7]
[tweedie_variance_power: 1.5]
[lambdarank_truncation_level: 30]
[lambdarank_norm: 1]
[label_gain: ]
[lambdarank_position_bias_regularization: 0]
[eval_at: ]
[multi_error_top_k: 1]
[auc_mu_weights: ]
[num_machines: 1]
[local_listen_port: 12400]
[time_out: 120]
[machine_list_filename: ]
[machines: ]
[gpu_platform_id: -1]
[gpu_device_id: -1]
[gpu_use_dp: 0]
[num_gpu: 1]

end of parameters

pandas_categorical:[]
