tree
version=v4
num_class=1
num_tree_per_iteration=1
label_index=0
max_feature_idx=63
objective=binary sigmoid:1
feature_names=age alcohol_consumption_per_week physical_activity_minutes_per_week diet_score sleep_hours_per_day screen_time_hours_per_day bmi waist_to_hip_ratio systolic_bp diastolic_bp heart_rate cholesterol_total hdl_cholesterol ldl_cholesterol triglycerides family_history_diabetes hypertension_history cardiovascular_history cardio_risk_score cholesterol_risk lifestyle_risk diet_activity_balance metabolic_index overall_health_risk age_bmi age_bp bmi_cholesterol family_history_age log_physical_activity log_triglycerides age_squared bmi_squared high_bp_flag high_cholesterol_flag obese_flag sedentary_flag medical_history_score gender_Male gender_Other ethnicity_Black ethnicity_Hispanic ethnicity_Other ethnicity_White education_level_Highschool education_level_No_formal education_level_Postgraduate income_level_Low income_level_Lower-Middle income_level_Middle income_level_Upper-Middle smoking_status_Former smoking_status_Never employment_status_Retired employment_status_Student employment_status_Unemployed bmi_category_normal bmi_category_overweight bmi_category_obese age_group_middle age_group_senior age_group_elderly bp_category_elevated bp_category_high bp_category_very_high
feature_infos=[19:89] [1:8] [1:747] [0.10000000000000001:9.9000000000000004] [3.2999999999999998:9.9000000000000004] [0.59999999999999998:15.800000000000001] [15.1:37.799999999999997] [0.69999999999999996:1.02] [91:163] [51:103] [42:98] [121:286] [21:90] [51:199] [31:290] [0:1] [0:1] [0:1] [0.4792857142857142:0.98438095238095236] [0.31916666666666671:1.0175000000000001] [0:0.76657142857142857] [0.0049000000000000007:7.0217999999999998] [0.52715789473684216:1.3934736842105264] [0.43086146616541354:0.89127230576441108] [352:3001.2000000000003] [1729:13261] [2174.4000000000001:9792] [0:89] [0.69314718055994529:6.6174029779744776] [3.4657359027997265:5.6733232671714928] [361:7921] [228.00999999999999:1428.8399999999997] [0:1] [0:1] [0:1] [0:1] [0:3] [0:1] [0:1] [0:1] [0:1] [0:1] [0:1] [0:1] [0:1] [0:1] [0:1] [0:1] [0:1] [0:1] [0:1] [0:1] [0:1] [0:1] [0:1] [0:1] [0:1] [0:1] [0:1] [0:1] [0:1] [0:1] [0:1] [0:1]
tree_sizes=7909 8106 8241

Tree=0
num_leaves=74
num_cat=0
split_feature=27 21 30 23 23 30 21 21 21 21 21 30 30 21 30 30 30 30 30 30 23 30 15 21 23 23 23 23 25 23 23 23 22 23 23 21 15 23 15 10 23 10 23 30 10 3 3 30 10 30 19 27 11 8 10 21 27 21 21 30 19 30 21 25 21 21 21 23 3 25 19 25 23
split_gain=8145.04 5448.95 3024.16 1211.61 872.238 859.724 475.279 418.759 418.468 353.03 352.666 237.567 226.692 208.237 206.249 192.189 165.558 145.136 138.337 133.111 126.832 121.694 105.279 102.753 91.2888 88.32 83.2184 81.2661 81.0802 72.7477 59.0848 56.0778 53.4905 52.8379 50.3287 49.4714 49.4234 47.2814 46.1052 44.8024 42.5589 42.0954 42.8167 37.0276 31.2251 29.9485 28.4382 27.9035 27.8675 21.3069 19.3632 18.1211 17.7996 17.6933 20.8849 19.3997 17.3942 15.9719 15.3025 13.8195 13.2962 10.642 10.1101 9.91962 7.08803 5.96791 5.6912 5.25242 6.03298 4.17073 3.75006 2.70129 2.36757
threshold=26.500000000000004 0.78225000000000011 2352.5000000000005 0.64354144736842123 0.64830686090225575 2450.5000000000005 1.0141500000000001 0.41590000000000005 0.38205000000000006 1.1943000000000001 0.38205000000000006 4556.5000000000009 4556.5000000000009 0.41825000000000007 756.50000000000011 4556.5000000000009 870.50000000000011 3906.5000000000005 4556.5000000000009 812.50000000000011 0.59114385964912286 930.50000000000011 1.0000000180025095e-35 0.80975000000000008 0.59114385964912286 0.6568602443609024 0.68609166666666677 0.68665808270676698 3639.0000000000005 0.70889066416040103 0.68322825814536348 0.59239630325814552 0.85391228070175451 0.61293612155388477 0.64871622807017559 0.99415000000000009 1.0000000180025095e-35 0.6149447681704262 1.0000000180025095e-35 56.500000000000007 0.64354144736842123 71.500000000000014 0.66380570175438613 702.50000000000011 68.500000000000014 5.8500000000000005 5.2500000000000009 5112.5000000000009 61.500000000000007 5112.5000000000009 0.48708333333333348 49.500000000000007 188.50000000000003 109.50000000000001 76.500000000000014 0.85035000000000005 50.500000000000007 0.86160000000000025 1.0893000000000002 5112.5000000000009 0.51041666666666685 5112.5000000000009 0.99415000000000009 7501.0000000000009 0.35965000000000008 0.42615000000000008 0.37250000000000011 0.58693386591478702 6.8500000000000005 4428.5000000000009 0.53791666666666693 7742.0000000000009 0.61429959273182966
decision_type=2 2 2 2 2 2 2 2 2 2 2 2 2 2 2 2 2 2 2 2 2 2 2 2 2 2 2 2 2 2 2 2 2 2 2 2 2 2 2 2 2 2 2 2 2 2 2 2 2 2 2 2 2 2 2 2 2 2 2 2 2 2 2 2 2 2 2 2 2 2 2 2 2
left_child=1 2 3 10 11 6 28 15 21 17 16 13 30 37 22 29 38 25 41 60 39 36 -12 34 -16 35 -21 -23 53 -6 -9 -18 46 -15 56 -7 -5 -4 -1 50 44 42 -11 -41 -22 -27 -30 58 -42 -17 -8 62 -43 54 -3 -55 64 -34 -19 -14 -10 65 -25 66 -2 -13 -36 -20 -69 -68 -64 -53 -66
right_child=23 5 4 8 7 9 20 12 19 18 14 61 59 33 24 49 31 47 67 26 40 27 -24 51 -26 45 -28 -29 32 -31 -32 -33 57 -35 63 -37 -38 -39 -40 43 48 52 -44 -45 -46 -47 -48 -49 -50 -51 -52 71 -54 55 -56 -57 -58 -59 -60 -61 -62 -63 70 -65 72 -67 69 68 -70 -71 -72 -73 -74
leaf_value=0.54148135647201245 0.62394484998303601 0.52746680768449294 0.58476123917014033 0.56858144761941076 0.60510031550056564 0.55910491855676736 0.47402706243013187 0.5880232317216717 0.49879213002269734 0.52313939343779348 0.50562554506196677 0.61140536061620232 0.60827788316643594 0.57062884353991528 0.54396590649606713 0.61710489025030146 0.56259934339031281 0.5837192417155237 0.54921515015417555 0.57397928375934149 0.5129048257274984 0.59152761421484712 0.59281430616091979 0.61227078101920718 0.56152646038262011 0.54837128845929972 0.58758395836987154 0.60208231027528769 0.50356361844461084 0.61366825197751562 0.59748463153007358 0.57970131215574272 0.56527560282096601 0.58213443202422488 0.6300690528178492 0.53600920604453617 0.62070694414556249 0.59570952596201132 0.59366536271346781 0.40613849310781958 0.55530486371937138 0.4574599256430506 0.56036540056279294 0.47851616297023153 0.48718210393820266 0.58058457890470427 0.5397506009146622 0.60409703745191479 0.51908919426892863 0.6267523662187815 0.53197569828162583 0.61399108844817862 0.5073479961981705 0.52182152572045259 0.47871879418559937 0.45956779822717453 0.62687607928068623 0.54879620747360769 0.55796328510192306 0.61927629065679413 0.54259695683642417 0.61754735007056305 0.58441787513778676 0.63311076540358779 0.61347210837941035 0.59903418937582698 0.61891912374673785 0.56490836945740763 0.59203396013680698 0.62712636943131128 0.60186146640855454 0.62518861658810021 0.62016461365970965
leaf_weight=1249.970792144537 3783.9390770494938 655.19001314043999 4076.0294702649117 1705.3968380987644 29390.589150875807 2374.1219475269318 52.330139875411987 10990.781661599874 47.926613003015518 1706.2735649943352 774.37142640352249 1009.1620365381241 2288.449078977108 4341.1763016581535 2558.1076044738293 4338.6974463760853 1630.355173677206 1714.2339882552624 65.80760133266449 11050.594383239746 1173.7037480771542 14267.634305924177 111.3073063492775 767.90866538882256 12831.452221125364 260.41708818078041 4667.965135037899 8652.3921658694744 169.29389116168022 9922.4951200485229 8986.1366359889507 11135.854447305202 883.61495417356491 9435.6061302125454 11211.113617241383 947.33265340328217 146.13009107112885 11365.14931255579 136.05507105588913 52.692983508110046 217.47886767983437 79.496295243501663 254.30808192491531 1144.8446035385132 461.50467002391815 1527.7527131736279 1920.100430816412 517.34656167030334 528.74036613106728 3781.0340557694435 156.90297415852547 1331.7389828562737 125.29695039987564 65.989023149013519 65.470309674739838 70.578230500221252 6685.9428415596485 987.18017214536667 220.52698281407356 2084.5992839336395 615.92111492156982 1260.5352865457535 271.64906346797943 6648.5247887969017 1954.9797212481499 915.1934395134449 1215.3771318495274 149.90815213322639 211.17992228269577 6594.6958575546741 513.18635010719299 660.45210313796997 2991.4617965519428
leaf_count=2354 4286 1317 6072 2791 38348 4091 132 16049 110 3499 1711 1257 2918 7026 4761 5185 2757 2569 118 17550 2516 20379 156 950 21834 473 6834 11526 377 12171 12347 17105 1472 14284 12077 1831 168 15800 190 166 381 212 434 2815 1099 2333 3647 678 1103 4186 308 1628 274 135 162 187 7396 1793 381 2449 1153 1500 404 6977 2400 1243 1431 249 299 7280 683 739 3491
internal_value=0.593647 0.586226 0.590815 0.577525 0.599945 0.543215 0.523675 0.605115 0.586923 0.559761 0.564808 0.588486 0.596118 0.58609 0.556348 0.60973 0.574525 0.568937 0.532941 0.576469 0.50146 0.59383 0.516782 0.62599 0.558617 0.560789 0.578031 0.59552 0.541165 0.607268 0.592289 0.57753 0.546244 0.578521 0.627201 0.552561 0.572806 0.592831 0.546735 0.481461 0.51323 0.524243 0.528047 0.475173 0.505572 0.575979 0.536844 0.585845 0.52984 0.621623 0.516889 0.611905 0.488421 0.517549 0.522859 0.490394 0.623195 0.556663 0.580866 0.613567 0.539264 0.610406 0.604202 0.629598 0.620352 0.605624 0.628359 0.57667 0.581248 0.625876 0.596058 0.617808 0.617561
internal_weight=239158 194527 175767 71581.4 104186 18759.6 8605.62 71782.8 41154 10154 30427.5 32402.9 24350 29218 16275.2 47432.8 14152.2 7561.73 2592.27 16382.4 3788.2 24771.6 885.679 44631 15389.6 5109.62 15718.6 22920 4817.42 39313.1 19976.9 12766.2 3960.19 13776.8 41086 3321.45 1851.53 15441.2 1386.03 1406.77 2381.43 2165.37 1960.58 1197.54 1635.21 1788.17 2089.39 2452.11 746.219 8119.73 209.233 3544.94 204.793 857.228 720.66 136.567 15416.3 1870.8 1934.76 4373.05 663.848 3184.89 1552.74 25669.7 8730.38 1924.36 19021.2 426.896 361.088 7810.07 784.835 1992.19 4946.44
internal_count=337007 287265 252214 111379 140835 35051 17610 93653 60511 17441 50868 47182 33763 43182 28462 59890 22406 12356 5085 25647 8520 34864 1867 49742 26595 8728 24384 31905 9090 50519 28396 19862 7289 21310 45338 5922 2959 21872 2544 3421 5099 4419 3933 2981 3615 2806 4024 3628 1484 9371 440 4404 486 1801 1479 322 17573 3265 2950 5367 1263 4000 2037 27765 10177 2500 20788 666 548 8711 1087 2367 5891
is_linear=0
shrinkage=1


Tree=1
num_leaves=75
num_cat=0
split_feature=27 2 24 2 2 24 24 24 24 24 24 2 23 2 29 24 10 2 2 2 15 24 24 10 30 15 30 2 30 29 19 30 24 29 24 23 29 10 3 30 23 3 10 23 2 25 29 20 26 19 6 2 2 24 23 23 10 2 9 2 10 24 2 7 22 25 30 2 24 5 2 19 19 23
split_gain=7462.32 5387.54 3682.42 1062.66 960.771 717.316 466.259 450.469 435.491 279.908 250.506 214.95 208.886 194.127 137.581 130.766 111.823 109.931 106.314 148.762 93.4613 123.536 88.9784 82.5167 76.7802 76.2718 75.73 71.4254 69.1551 68.5771 57.4083 54.2894 52.875 50.5178 50.2896 48.8437 48.7136 41.8042 40.5468 39.3377 38.4028 37.6731 35.9 34.7312 31.1356 31.0465 28.5227 28.5137 27.5449 23.6955 23.394 22.6111 22.4743 22.1642 21.688 20.7954 15.8403 14.5063 14.3499 12.8253 12.6624 10.2412 8.9176 8.83646 6.89497 6.78421 6.02856 5.11332 4.99771 3.91375 3.10434 2.23859 2.12068 1.18356
threshold=26.500000000000004 132.50000000000003 1198.6500000000003 75.500000000000014 75.500000000000014 1108.3000000000004 1681.6000000000001 791.05000000000007 1607.3000000000004 1629.7000000000005 699.10000000000002 198.50000000000003 0.64440905388471192 192.50000000000003 4.886575525404063 1358.3500000000001 67.500000000000014 117.50000000000001 56.500000000000007 60.500000000000007 1.0000000180025095e-35 585.70000000000016 977.10000000000025 61.500000000000007 5112.5000000000009 1.0000000180025095e-35 4692.5000000000009 53.500000000000007 702.50000000000011 4.9522934739897151 0.48708333333333348 4692.5000000000009 941.75000000000011 4.8559213341406453 1118.7500000000002 0.64830686090225575 4.8559213341406453 66.500000000000014 7.7500000000000009 756.50000000000011 0.68665808270676698 6.9500000000000011 67.500000000000014 0.71889417293233093 134.50000000000003 4405.0000000000009 4.9380581778699986 0.33710714285714299 5193.9500000000016 0.51708333333333356 26.150000000000002 141.50000000000003 182.50000000000003 1052.6500000000003 0.54738458646616561 0.71296723057644129 68.500000000000014 169.50000000000003 73.500000000000014 205.50000000000003 60.500000000000007 1476.7000000000003 55.500000000000007 0.90500000000000014 0.84638596491228091 8312.0000000000018 5112.5000000000009 65.500000000000014 2116.1000000000008 6.1500000000000012 160.50000000000003 0.46375000000000016 0.53791666666666693 0.61009326441102774
decision_type=2 2 2 2 2 2 2 2 2 2 2 2 2 2 2 2 2 2 2 2 2 2 2 2 2 2 2 2 2 2 2 2 2 2 2 2 2 2 2 2 2 2 2 2 2 2 2 2 2 2 2 2 2 2 2 2 2 2 2 2 2 2 2 2 2 2 2 2 2 2 2 2 2 2
left_child=1 2 3 7 8 13 15 20 18 11 25 16 27 32 22 29 33 34 35 -20 21 -1 -12 54 43 28 55 -9 -5 -6 -25 46 38 -7 62 -4 -17 39 42 60 -14 -16 -3 -10 -18 47 52 -39 -41 50 -34 -40 -11 57 -13 -8 -51 -19 -47 69 -15 67 73 -48 -22 70 -28 -36 -61 -33 -55 -64 -59 -2
right_child=17 5 4 10 6 9 26 12 24 31 14 23 40 37 41 36 44 53 19 -21 64 -23 -24 30 -26 -27 66 -29 -30 -31 -32 59 49 -35 61 -37 -38 45 51 48 -42 -43 -44 -45 -46 58 63 -49 -50 56 -52 -53 -54 65 -56 -57 -58 72 -60 68 -62 -63 71 -65 -66 -67 -68 -69 -70 -71 -72 -73 -74 -75
leaf_value=0.011286171272605852 0.1088119192928938 0.020663929626947783 0.089191488423954482 -0.0094483698060410341 0.064195369708288347 0.042901256342551937 0.086640740208819719 0.075614087816879616 0.10103963519964575 0.055413484481127297 0.041312077515878287 -0.018674570236734887 0.081192519440673377 -0.036352661414078474 0.067262233338544364 0.075125072202178594 -0.0048067596574779227 0.099037394706600598 0.071638531884444037 0.09056829649640015 0.076768131043014651 0.053119827970428711 0.054397981751199455 -0.07090345050051669 0.11593180289491507 0.086567804179703792 0.099978128315069123 0.064146179125346869 0.028800904554799497 0.080576404106392149 0.00068006879131327525 0.079690489641172757 0.017216796265613194 0.063982751269153676 0.1196913379301501 0.09706731653157262 0.084111977349754438 -0.084503573645257318 0.009433710492427097 -0.013959114813407687 0.09032119709852561 0.051558937407600425 -0.0056367249695911236 0.109246163955124 0.030927245035668127 0 0.06051258985421562 -0.0085245744407732964 0.028563696620902315 0.0384733281877827 -0.034053073242365423 -0.046429899960088762 0.026281421917715934 0.10791483061134929 0.03247794687217339 0.098543893568780447 0.017955929729942165 0.061125545476651132 -0.045065734898478323 0.054134132877306451 -0.11632033897167919 0.12171387557454623 0.100638435173996 0.082914043362167553 0.10896110836308716 0.11828811045099399 0.10889380654639705 0.11526749853010912 0.089604363548316426 0.096994735428836604 0.098636354980309496 0.11062098887288589 0.082930956187386745 0.11745175609564604
leaf_weight=566.62788762152195 735.11860144138336 831.75390276312828 8329.9563560932875 595.78378742933273 8890.0971665531397 1892.1968533992767 4514.5344619601965 8716.3087912350893 15003.099304392934 648.57005190849304 6306.8439695239067 59.197975650429726 12994.286615759134 37.325954720377922 5039.2130083739758 9795.0896767526865 180.79790246486664 795.09673991799355 3805.1029817014933 14073.860171183944 125.81289146840572 4552.8165277838707 9163.4830586463213 84.393091440200806 4348.9397069215775 103.29199708998203 1619.3981631845236 7312.6555923223495 743.93230040371418 2368.6460243910551 1030.572972998023 366.67320920526981 321.56201863288879 1483.9446959346533 8513.1012162864208 21571.120336323977 8437.4694625884295 160.94352032244205 70.411152929067612 955.58809596300125 4866.2826524525881 1485.3026079237461 641.89603638648987 5655.2656995803118 2126.5546400547028 109.09177242219448 393.32315209507942 48.911077976226807 118.64735415577888 773.98122577369213 76.079834833741188 158.00797772407532 290.1275427043438 1995.8333477526903 871.03130121529102 1677.0201760977507 446.21967577934265 120.90093810856342 87.31860975921154 180.63787940144539 30.614749133586884 12998.12556257844 555.78784434497356 278.10911798477173 183.369454190135 549.66955402493477 2273.4388624727726 6781.5645558536053 53.357733488082886 350.82646611332893 926.86447025835514 5442.1848623603582 206.2478386759758 3533.0477880239487
leaf_count=1200 895 1693 11678 1379 14505 3461 6432 13313 19391 1109 11625 143 19172 97 8083 14995 410 1040 5940 19554 189 7898 15784 244 5021 146 2107 11942 1457 3508 2286 544 664 2427 9536 28666 12220 485 150 2254 6768 2597 1463 6881 4121 243 654 114 232 1448 194 421 574 2450 1679 2205 918 199 232 310 103 14319 718 405 222 621 2771 7871 73 465 1216 6549 299 4029
internal_value=0.0846502 0.0775012 0.0816567 0.0653629 0.0907555 0.0294861 0.0802077 0.0738027 0.096488 0.042044 0.0511976 0.0340384 0.077406 0.00291662 0.0534226 0.0748572 0.0424406 0.116167 0.0917663 0.0865493 0.0512799 0.0485141 0.0490729 0.0106265 0.105502 0.0171945 0.0958366 0.0703928 0.0117121 0.0676573 -0.00468615 0.0661354 0.0143821 0.052214 0.11766 0.0948795 0.0792937 -0.0215879 0.00397368 -0.0132059 0.0836901 0.0637116 0.00913503 0.103296 0.0280779 -0.0448032 0.0564553 -0.0674302 -0.00913989 0.0252555 0.00707575 -0.0287486 0.0465599 0.103601 0.0290886 0.0898956 0.0310793 0.0923039 -0.0198775 0.0823352 -0.0749823 0.119575 0.112361 0.0700487 0.0964624 0.107197 0.105236 0.117743 0.0629868 0.0884095 0.105039 0.109729 0.0753888 0.116011
internal_weight=233431 190278 175119 62756 112363 15158.7 39575.7 39318.2 72787.3 10290.3 23437.9 7728.69 33889.5 4868.35 21994.8 29491.3 5683.49 43153.5 47780 17879 5428.63 5119.44 15470.3 2045.2 25007.3 1443.01 10084.4 16029 1339.72 11258.7 1114.97 2561.63 3319.91 3376.14 38558.9 29901.1 18232.6 1548.44 1702.07 1142.18 17860.6 6524.52 1473.65 20658.4 2307.35 406.265 1610.13 209.855 1074.24 1617.84 397.642 228.419 938.698 4594.61 930.229 6191.55 1220.2 1122.25 196.41 951.495 67.9407 28292.8 10266.1 671.432 309.182 3472.37 3892.84 15294.7 233.996 717.5 2922.7 5997.97 327.149 4268.17
internal_count=337007 287265 257649 101775 155874 29616 58743 60704 97131 18905 41071 14771 51195 10711 38089 45228 10419 49742 65838 25494 9509 9098 27409 4352 31293 2982 13515 25255 2836 18013 2530 4134 6951 5888 43917 40344 27215 3760 3727 2686 25940 10680 3156 26272 4531 1074 2742 599 2486 3224 858 571 1683 5825 1822 8637 2366 1538 475 1392 200 31726 12191 1059 411 4287 4878 17407 383 1009 3666 7267 498 4924
is_linear=0
shrinkage=0.0839299


Tree=2
num_leaves=76
num_cat=0
split_feature=27 2 24 2 2 24 24 24 24 2 24 23 24 23 2 23 2 24 24 10 27 23 10 27 24 23 10 24 2 24 24 24 10 23 2 24 24 22 13 23 7 2 2 2 10 10 22 6 10 24 21 7 16 2 21 2 24 23 6 10 7 2 24 10 24 24 24 56 2 21 12 8 3 24 23
split_gain=6928.78 4725.17 3378.19 1073.6 737.234 683.863 537.497 374.512 365.396 347.622 273.265 169.909 150.033 118.778 116.52 109.62 98.802 97.3937 95.0626 93.6024 93.0467 87.0862 85.116 74.9487 71.2085 63.4996 61.2918 60.1244 56.0361 54.7781 54.4652 50.1954 48.8829 48.5527 48.0276 46.636 43.597 41.1226 41.0882 39.7844 34.3698 31.1628 31.6905 30.0334 27.7599 26.3926 25.6261 25.2957 25.2223 23.8548 22.8419 29.1585 21.8318 19.8704 17.2152 17.0625 15.6225 14.7128 25.2451 13.6883 12.0784 10.9387 9.83216 9.23146 9.14807 8.38824 8.3467 6.63247 6.50991 4.07038 3.12426 2.58283 2.52224 2.45701 1.45664
threshold=26.500000000000004 132.50000000000003 1239.4000000000003 75.500000000000014 75.500000000000014 1421.3500000000001 850.35000000000014 1618.3000000000004 1675.7000000000005 196.50000000000003 826.10000000000014 0.63590131578947384 826.10000000000014 0.65046309523809542 132.50000000000003 0.6149447681704262 172.50000000000003 664.15000000000009 664.15000000000009 66.500000000000014 1.0000000180025095e-35 0.66777152255639105 61.500000000000007 1.0000000180025095e-35 1669.7500000000002 0.68609166666666677 67.500000000000014 1001.2000000000002 32.500000000000007 1871.5500000000004 1871.5500000000004 1147.3500000000001 64.500000000000014 0.6168317042606517 56.500000000000007 1217.5000000000002 1347.6500000000003 0.78394736842105284 83.500000000000014 0.66291231203007539 0.79500000000000015 134.50000000000003 142.50000000000003 32.500000000000007 70.500000000000014 57.500000000000007 0.74047368421052651 22.550000000000004 66.500000000000014 1198.6500000000003 1.1943000000000001 0.82500000000000007 1.0000000180025095e-35 56.500000000000007 0.60980000000000012 75.500000000000014 1540.1000000000001 0.64307402882205522 25.250000000000004 66.500000000000014 0.83500000000000008 102.50000000000001 1581.6500000000003 71.500000000000014 2030.0500000000004 1457.6000000000001 889.4000000000002 1.0000000180025095e-35 97.500000000000014 0.94085000000000008 61.500000000000007 106.50000000000001 5.9500000000000011 2084.4000000000001 0.64871622807017559
decision_type=2 2 2 2 2 2 2 2 2 2 2 2 2 2 2 2 2 2 2 2 2 2 2 2 2 2 2 2 2 2 2 2 2 2 2 2 2 2 2 2 2 2 2 2 2 2 2 2 2 2 2 2 2 2 2 2 2 2 2 2 2 2 2 2 2 2 2 2 2 2 2 2 2 2 2
left_child=1 2 3 6 7 9 18 13 21 12 17 27 50 43 35 44 32 23 20 39 -1 36 31 -5 26 -17 45 -8 -15 61 53 52 62 -20 -13 55 -6 -19 48 -14 -21 56 -43 -4 -12 -18 -33 -40 -24 71 51 -3 -11 -9 -23 74 -34 58 -26 -52 -28 -10 67 -59 -31 68 70 -7 -37 -68 -57 -16 -64 -32 -2
right_child=14 5 4 10 8 16 11 30 29 22 15 34 19 28 49 25 24 37 33 40 -22 54 38 -25 57 -27 60 -29 -30 64 73 46 41 -35 -36 65 -38 -39 47 -41 -42 42 -44 -45 -46 -47 -48 -49 -50 -51 59 -53 -54 -55 -56 66 -58 63 -60 -61 -62 -63 72 -65 -66 -67 69 -69 -70 -71 -72 -73 -74 -75 -76
leaf_value=0.025634689192304608 0.10845870583489799 0.017918458962784215 0.092048322192515172 -0.001352958393918556 0.061178511216371086 0.078288999508689811 0.059248058331018663 0.10001613082344062 0.087635723076846889 -0.01386689549349065 0.04785676579035239 0.082395945687578118 0.03534561544995616 0.09883892217447493 0.075716855945496347 0.054354634327226425 0.057172363870057641 0.022629853580341214 0.044812318408045788 0.04594751133235539 0.085275433777229612 0.0801794355825005 -0.027762116508174221 0.074684720640153079 0.080750850407152311 0.070252243943955767 0.014151757061244597 0.07159868428914265 0.088502741533746168 0.093865686765132628 0.10475143406704575 -0.034755259313112789 -0.028713033146827063 0.060981277973638767 0.074029086239860944 0.11325427649435096 0.070858001464474935 0.04341399913844507 0.0016340379450121214 0.061171162610975792 0.015689167327311949 0.071135781075066976 0.046818142970045724 0.078738864098253827 0.035900841617772884 0.024125112191172804 0.03092860122870416 -0.022861990265525954 -0.076327473654467626 0.10096148659676805 -0.014055162927910618 -0.016390390541924475 0.030135589282702071 0.093174043208264473 0.072055813905906207 0.098831123854579109 0.032654538650291456 0.070287554497259125 0.025867462928959285 -0.0684222362512341 -0.028630564294519406 0.078271954715831066 0.088775756930641644 0.029340178604257874 0.10337323462740908 0.11619663872266883 0.10638570179435772 0.055634736448644535 0.1050612469579628 0.078759359559672046 0.081838554832293034 0.088434736355921501 0.073854765543827375 0.11032199703098665 0.11284460067602475
leaf_weight=1499.6243354082108 5089.9478165358305 306.84370654821396 1502.1063920110464 901.19814233481884 5240.191298276186 209.93483270704746 4484.5447539687157 9800.3745053708553 4211.7229827791452 595.82848535478115 3572.4929005652666 14773.752954185009 2772.0527565777302 4698.2561891525984 405.74753622710705 13751.189653098583 247.25313511490822 1041.8623375892639 2032.4612500071526 298.69157068431377 212.28687697649002 7161.48759791255 195.32475981116295 100.4794037938118 85.19696170091629 2110.6250351816416 61.771703720092773 8203.2433992922306 24655.066670358181 2399.1749786585569 5538.1330611258745 43.197350099682808 40.660831764340401 4159.647424608469 7933.1849902421236 9046.466880440712 10355.955599725246 2057.0608421862125 428.51779693365097 515.63875192403793 2673.2368127852678 661.47806341946125 1030.6235487908125 11268.652330383658 2428.6766552478075 628.96414068341255 525.8505794107914 908.73331514000893 136.27536721527576 1725.1499249637127 84.079865157604218 400.86508956551552 89.603504732251167 5751.2660599350929 3127.5299033969641 887.98691459000111 90.040672495961189 448.58203366398811 228.51752245426178 61.25676853954792 154.62155742943287 1608.7514262497425 408.30123843252659 55.108417138457298 1846.7925662100315 13616.207603424788 3912.4483236670494 313.52861794829369 1399.713755235076 81.676432639360428 219.48993711173534 761.99096870422363 345.16814060509205 2305.3609224408865 4350.6558612585068
leaf_count=2972 6200 632 2054 2017 8656 313 7487 12693 5931 1406 6346 21521 5252 6135 614 23593 418 2092 3663 537 302 10577 488 152 124 3310 128 12768 34529 3241 6933 111 102 6881 12165 10627 16182 3740 950 852 5549 1032 1838 16789 4578 1256 1018 2218 402 2218 200 953 174 7807 4851 1158 171 703 451 177 385 2402 570 106 2334 15633 4839 533 1747 120 319 1066 529 2768 5126
internal_value=0.0798264 0.0728979 0.0768719 0.0625746 0.0866292 0.0277944 0.070673 0.0919398 0.076946 0.0151344 0.049063 0.0750998 0.0251519 0.0871834 0.110839 0.0527989 0.0531271 0.0291105 0.0508297 0.0296551 0.0331335 0.0716419 -0.00920073 0.00621786 0.0379315 0.0564806 0.0237092 0.0672463 0.0901637 0.0905671 0.100496 0.0072481 0.0624416 0.0556989 0.0794805 0.112078 0.0676164 0.0364704 -0.02163 0.0394445 0.0187799 0.0533509 0.0564207 0.080319 0.0430425 0.0336234 0.0257025 -0.0149323 -0.0481981 0.0942475 -0.00775793 -0.00135316 -0.00792187 0.0974981 0.077727 0.108122 0.0126502 0.0567619 0.0413019 -0.0379944 -0.0158942 0.0850784 0.0752878 0.0660852 0.0980467 0.11446 0.103681 0.0650432 0.112176 0.105865 0.0956281 0.0841684 0.0821774 0.106414 0.110501
internal_weight=227276 185779 170733 69262.3 101471 15045.7 43298.7 65519.2 35951.6 10036 25963.6 35394.7 7112.67 42124.1 41497.5 21863 5009.75 4100.6 7904.02 6259.62 1711.91 25885.2 2923.33 1001.68 1910.02 15861.8 1092.61 12687.8 29353.3 10066.4 23395.1 1254.48 3099.74 6192.11 22706.9 38604.6 15596.1 3098.92 1668.85 3287.69 2971.93 1822.8 1692.1 12770.8 6001.17 876.217 569.048 1337.25 331.6 2892.89 853.045 707.709 685.432 15551.6 10289 14542.2 130.702 817.405 313.714 145.337 216.393 5820.47 1276.93 503.69 4245.97 24062.4 5101.6 523.463 10446.2 3994.12 1107.48 1167.74 753.469 7843.49 9440.6
internal_count=336714 287047 257469 113587 143882 29578 67759 89708 54174 20919 45828 53941 14152 59507 49667 37827 8659 8001 13818 12190 3274 40266 6767 2169 3571 26903 2187 20255 40664 13908 30201 2709 5088 10544 33686 45769 24838 5832 4058 6104 6086 3143 2870 18843 10924 1674 1129 3168 890 3898 1962 1585 1580 20500 15428 17762 273 1384 575 377 513 8333 1945 809 5575 28007 6436 846 12374 4959 1477 1680 1099 9701 11326
is_linear=0
shrinkage=0.0839299


end of trees

feature_importances:
age_bmi=38
overall_health_risk=33
physical_activity_minutes_per_week=32
age_squared=22
heart_rate=20
diet_activity_balance=19
cholesterol_risk=7
family_history_age=7
diet_score=6
age_bp=6
family_history_diabetes=5
log_triglycerides=5
waist_to_hip_ratio=4
metabolic_index=4
bmi=3
systolic_bp=2
screen_time_hours_per_day=1
diastolic_bp=1
cholesterol_total=1
hdl_cholesterol=1
ldl_cholesterol=1
hypertension_history=1
lifestyle_risk=1
bmi_cholesterol=1
bmi_category_overweight=1

parameters:
[boosting: gbdt]
[objective: binary]
[metric: binary_logloss]
[tree_learner: serial]
[device_type: cpu]
[data_sample_strategy: bagging]
[data: ]
[valid: ]
[num_iterations: 700]
[learning_rate: 0.0839299]
[num_leaves: 100]
[num_threads: 0]
[seed: 42]
[deterministic: 0]
[force_col_wise: 0]
[force_row_wise: 0]
[histogram_pool_size: -1]
[max_depth: 7]
[min_data_in_leaf: 87]
[min_sum_hessian_in_leaf: 0.362241]
[bagging_fraction: 0.601058]
[pos_bagging_fraction: 1]
[neg_bagging_fraction: 1]
[bagging_freq: 2]
[bagging_seed: 400]
[bagging_by_query: 0]
[feature_fraction: 0.657328]
[feature_fraction_bynode: 1]
[feature_fraction_seed: 30056]
[extra_trees: 0]
[extra_seed: 12879]
[early_stopping_round: 0]
[early_stopping_min_delta: 0]
[first_metric_only: 0]
[max_delta_step: 0]
[lambda_l1: 1.33619]
[lambda_l2: 0.826195]
[linear_lambda: 0]
[min_gain_to_split: 0.921097]
[drop_rate: 0.1]
[max_drop: 50]
[skip_drop: 0.5]
[xgboost_dart_mode: 0]
[uniform_drop: 0]
[drop_seed: 17869]
[top_rate: 0.2]
[other_rate: 0.1]
[min_data_per_group: 100]
[max_cat_threshold: 32]
[cat_l2: 10]
[cat_smooth: 10]
[max_cat_to_onehot: 4]
[top_k: 20]
[monotone_constraints: ]
[monotone_constraints_method: basic]
[monotone_penalty: 0]
[feature_contri: ]
[forcedsplits_filename: ]
[refit_decay_rate: 0.9]
[cegb_tradeoff: 1]
[cegb_penalty_split: 0]
[cegb_penalty_feature_lazy: ]
[cegb_penalty_feature_coupled: ]
[path_smooth: 0]
[interaction_constraints: ]
[verbosity: -1]
[saved_feature_importance_type: 0]
[use_quantized_grad: 0]
[num_grad_quant_bins: 4]
[quant_train_renew_leaf: 0]
[stochastic_rounding: 1]
[linear_tree: 0]
[max_bin: 255]
[max_bin_by_feature: ]
[min_data_in_bin: 3]
[bin_construct_sample_cnt: 200000]
[data_random_seed: 175]
[is_enable_sparse: 1]
[enable_bundle: 1]
[use_missing: 1]
[zero_as_missing: 0]
[feature_pre_filter: 1]
[pre_partition: 0]
[two_round: 0]
[header: 0]
[label_column: ]
[weight_column: ]
[group_column: ]
[ignore_column: ]
[categorical_feature: ]
[forcedbins_filename: ]
[precise_float_parser: 0]
[parser_config_file: ]
[objective_seed: 16083]
[num_class: 1]
[is_unbalance: 0]
[scale_pos_weight: 4.24547]
[sigmoid: 1]
[boost_from_average: 1]
[reg_sqrt: 0]
[alpha: 0.9]
[fair_c: 1]
[poisson_max_delta_step: 0.7]
[tweedie_variance_power: 1.5]
[lambdarank_truncation_level: 30]
[lambdarank_norm: 1]
[label_gain: ]
[lambdarank_position_bias_regularization: 0]
[eval_at: ]
[multi_error_top_k: 1]
[auc_mu_weights: ]
[num_machines: 1]
[local_listen_port: 12400]
[time_out: 120]
[machine_list_filename: ]
[machines: ]
[gpu_platform_id: -1]
[gpu_device_id: -1]
[gpu_use_dp: 0]
[num_gpu: 1]

end of parameters

pandas_categorical:[]
