tree
version=v4
num_class=1
num_tree_per_iteration=1
label_index=0
max_feature_idx=63
objective=binary sigmoid:1
feature_names=age alcohol_consumption_per_week physical_activity_minutes_per_week diet_score sleep_hours_per_day screen_time_hours_per_day bmi waist_to_hip_ratio systolic_bp diastolic_bp heart_rate cholesterol_total hdl_cholesterol ldl_cholesterol triglycerides family_history_diabetes hypertension_history cardiovascular_history cardio_risk_score cholesterol_risk lifestyle_risk diet_activity_balance metabolic_index overall_health_risk age_bmi age_bp bmi_cholesterol family_history_age log_physical_activity log_triglycerides age_squared bmi_squared high_bp_flag high_cholesterol_flag obese_flag sedentary_flag medical_history_score gender_Male gender_Other ethnicity_Black ethnicity_Hispanic ethnicity_Other ethnicity_White education_level_Highschool education_level_No_formal education_level_Postgraduate income_level_Low income_level_Lower-Middle income_level_Middle income_level_Upper-Middle smoking_status_Former smoking_status_Never employment_status_Retired employment_status_Student employment_status_Unemployed bmi_category_normal bmi_category_overweight bmi_category_obese age_group_middle age_group_senior age_group_elderly bp_category_elevated bp_category_high bp_category_very_high
feature_infos=[19:89] [1:8] [1:747] [0.10000000000000001:9.9000000000000004] [3.2999999999999998:9.9000000000000004] [0.59999999999999998:15.800000000000001] [15.1:37.799999999999997] [0.69999999999999996:1.02] [91:163] [51:103] [42:98] [121:286] [21:90] [51:199] [31:290] [0:1] [0:1] [0:1] [0.4792857142857142:0.98438095238095236] [0.31916666666666671:1.0175000000000001] [0:0.76657142857142857] [0.0049000000000000007:7.0217999999999998] [0.52715789473684216:1.3934736842105264] [0.43086146616541354:0.89127230576441108] [352:3001.2000000000003] [1729:13261] [2174.4000000000001:9792] [0:89] [0.69314718055994529:6.6174029779744776] [3.4657359027997265:5.6733232671714928] [361:7921] [228.00999999999999:1428.8399999999997] [0:1] [0:1] [0:1] [0:1] [0:3] [0:1] [0:1] [0:1] [0:1] [0:1] [0:1] [0:1] [0:1] [0:1] [0:1] [0:1] [0:1] [0:1] [0:1] [0:1] [0:1] [0:1] [0:1] [0:1] [0:1] [0:1] [0:1] [0:1] [0:1] [0:1] [0:1] [0:1]
tree_sizes=6746 6972 6980 6915 6900 6868 6866 6864 6890

Tree=0
num_leaves=63
num_cat=0
split_feature=27 28 23 30 30 30 28 28 28 28 21 30 30 28 30 30 30 30 30 28 30 25 14 23 14 10 22 10 23 28 23 25 27 27 10 28 30 27 10 19 25 21 28 28 6 22 26 10 23 3 13 28 27 27 23 21 23 28 28 11 27 27
split_gain=13048.4 8539.45 4896.81 1801.21 1698.33 948.574 806.177 748.42 721.628 455.237 447.18 349.049 348.589 345.084 320.304 259.358 231.522 231.269 211.759 203.041 161.198 145.598 132.303 128.002 117.819 96.5036 95.5578 86.6735 80.8606 72.4548 61.5781 46.0359 45.8527 36.466 32.5216 30.9753 23.1754 21.9935 17.8443 16.3335 14.6325 14.361 14.3522 12.5741 9.45477 9.01694 8.77158 8.73784 7.86833 7.02398 6.72765 6.65116 5.02588 5.02214 3.73795 3.63663 3.57972 3.48702 3.37347 2.26533 1.94642 1.56667
threshold=26.500000000000004 4.8940944640863338 0.64830686090225575 2352.5000000000005 2352.5000000000005 2450.5000000000005 4.3372693810700085 4.3372693810700085 4.3502571242716384 4.3372693810700085 1.1551000000000002 4556.5000000000009 4692.5000000000009 5.2958110956362647 870.50000000000011 812.50000000000011 4422.5000000000009 930.50000000000011 4556.5000000000009 4.7749040587885982 4556.5000000000009 7816.0000000000009 136.50000000000003 0.67325034461152899 134.50000000000003 61.500000000000007 0.98789473684210538 66.500000000000014 0.64915300751879712 5.4138732270297307 0.62435322681704275 3781.0000000000005 49.500000000000007 50.500000000000007 67.500000000000014 5.0657496176235997 5112.5000000000009 58.500000000000007 66.500000000000014 0.51875000000000016 8312.0000000000018 0.35965000000000008 3.9981586158983733 5.0845003501084243 22.550000000000004 0.84556140350877207 4250.7000000000016 74.500000000000014 0.68897913533834598 6.9500000000000011 59.500000000000007 4.1971736807086968 36.500000000000007 61.500000000000007 0.57335592105263167 0.21135000000000004 0.69601130952380963 4.3757372435704527 4.4127799275304271 170.50000000000003 67.500000000000014 68.500000000000014
decision_type=2 2 2 2 2 2 2 2 2 2 2 2 2 2 2 2 2 2 2 2 2 2 2 2 2 2 2 2 2 2 2 2 2 2 2 2 2 2 2 2 2 2 2 2 2 2 2 2 2 2 2 2 2 2 2 2 2 2 2 2 2 2
left_child=1 2 3 6 8 10 14 11 17 20 22 -6 -9 18 -1 -8 -11 -4 24 28 -5 26 27 -10 -7 30 -15 -3 33 -27 -12 -24 35 41 -23 45 -20 42 46 -40 43 54 56 50 -43 52 -37 -45 -44 -47 -34 60 -21 -53 -2 -42 -30 61 -59 -57 -35 -39
right_child=19 5 4 9 7 13 15 12 23 16 25 -13 -14 21 -16 -17 -18 -19 36 32 -22 34 31 -25 -26 29 -28 -29 37 -31 -32 -33 40 51 -36 38 -38 57 39 -41 55 44 48 47 -46 49 -48 -49 -50 -51 -52 53 -54 -55 -56 59 -58 58 -60 -61 -62 -63
leaf_value=0.5151471142560311 0.55241651775241107 0.50831956015363189 0.52857809851021054 0.54063906201494871 0.54930247352772499 0.51641764462505446 0.49979736692273657 0.54021686099063182 0.52548918766624508 0.53080032244735531 0.49046562968617602 0.55807712449847524 0.55376935641648317 0.49661539568582641 0.53184105505472257 0.51972429135308174 0.54581407814231708 0.54242501593373227 0.53501253198391052 0.54224009722844391 0.55312720539373439 0.52517689587808358 0.50160488807765002 0.53375864126416661 0.5291263190147365 0.48799045515462552 0.53465463633148214 0.49594877594192627 0.5629429764630216 0.47143073247931883 0.51228943328681542 0.52036798155872466 0.50333262957393299 0.56251694509636918 0.50322156099673865 0.53848056210441042 0.54747014410680317 0.56483355967876103 0.51251184130135197 0.53843393731799816 0.4085163943238046 0.5528818597880123 0.56034701737057535 0.55127682516983023 0.55714794552154301 0.55685663316720613 0.54953913510747066 0.52633698117264849 0.56275183392020345 0.54710792447183376 0.5572202804856814 0.55925787093057833 0.55057885198612411 0.56267010085799674 0.55968168200237578 0.55137418859302934 0.56487826983847922 0.55823802423935687 0.56384973865916832 0.56302373187428312 0.56569488478895713 0.56633762627551953
leaf_weight=2071.0154940485954 124.69814547896385 1979.2011937499046 2123.2905529737473 18017.249036937952 43209.063080817461 3884.8908846080303 1143.2576865851879 20742.555379390717 6058.0395914018154 13819.513804137707 830.43791764974594 8903.2408763170242 3631.2619160115719 1597.96511682868 19397.415018767118 15131.222574919462 1902.7198051810265 26230.154667526484 549.25976070761681 161.16226530075073 1857.2265475988388 569.93486419320107 259.50247117877007 6137.1595877110958 1711.091424793005 991.2374013364315 115.22215950489044 1725.4505554437637 4964.0619268417358 760.95820155739784 281.72722706198692 1177.8100543916225 3.6878424882888785 2969.8785471022129 135.74577811360359 177.37771406769753 439.97873654961586 4446.2507081925869 52.845441311597824 160.88581076264381 0.23479798436164756 1120.7503052353859 6277.2866958975792 659.34740072488785 3707.6348402500153 638.85105082392693 357.28442203998566 24.102386265993118 3547.3625039160252 152.48837423324585 1446.9732215702534 2340.5542522072792 485.31139585375786 1055.531756490469 3842.8201028704643 31.160713642835617 2447.6879728734493 204.93465182185173 1826.3763386309147 528.98834189772606 389.51080426573753 1777.3437094688416
leaf_count=4611 198 4638 4239 32249 70929 8565 2846 37277 12415 27064 2200 13277 5683 4065 37642 32503 3237 46147 1036 284 2927 1171 638 11708 3400 2668 218 4409 6989 2264 641 2517 9 4203 330 324 736 6116 120 294 1 1771 9117 1060 5588 966 585 49 5006 256 2179 3443 786 1491 5625 50 3365 305 2543 744 530 2399
internal_value=0.541273 0.536964 0.539411 0.531237 0.544533 0.509576 0.525097 0.548072 0.537858 0.537748 0.499473 0.550802 0.542236 0.51856 0.530231 0.518324 0.532617 0.541388 0.523347 0.560732 0.541806 0.505527 0.506589 0.529651 0.520304 0.486698 0.499175 0.502559 0.561657 0.480797 0.495996 0.516979 0.552949 0.559362 0.52095 0.5486 0.540556 0.563057 0.541927 0.532037 0.556477 0.557645 0.562234 0.554943 0.556158 0.552071 0.545875 0.550401 0.561216 0.554981 0.557082 0.561596 0.548504 0.560319 0.559454 0.562311 0.563582 0.564777 0.563285 0.56238 0.562886 0.565264
internal_weight=253308 207385 190374 73339.6 117035 17010.4 37742.9 76486.1 40548.6 35596.7 8006.33 52112.3 24373.8 9004.09 21468.4 16274.5 15722.2 28353.4 6585.22 45923.4 19874.5 2418.87 5141.96 12195.2 5595.98 2864.36 1713.19 3704.65 41042.7 1752.2 1112.17 1437.31 4880.7 15551.4 705.681 2186.21 989.238 25491.3 748.393 213.731 2694.49 8795.9 17236.4 2134.11 4828.39 1437.81 534.662 683.45 9824.65 791.339 1450.66 6755.48 646.474 3396.09 3967.52 560.384 7411.75 8254.91 2031.31 560.149 3359.39 6223.59
internal_count=450646 384250 344754 143079 201675 39496 77602 127166 74509 65477 19975 84206 42960 19521 42253 35349 30301 50386 13737 66396 35176 5784 12202 24123 11965 7773 4283 9047 58689 4932 2841 3155 7707 22849 1501 3615 1772 35840 1323 414 4092 13182 24477 3297 7359 2292 909 1109 14123 1222 2188 9667 1070 4934 5823 795 10354 11363 2848 794 4733 8515
is_linear=0
shrinkage=1


Tree=1
num_leaves=64
num_cat=0
split_feature=27 2 24 2 2 24 24 24 24 2 24 23 24 2 23 24 29 24 23 2 0 24 0 29 10 10 24 0 24 0 24 2 10 24 29 2 2 2 24 10 19 0 23 24 29 10 23 2 3 2 6 29 23 2 0 5 19 25 10 3 12 2 2
split_gain=12439.4 8019.93 5961.18 1875.21 1350.09 1078.66 823.761 641.328 627.906 539.223 440.446 354.554 250.136 196.147 174.48 171.156 166.332 165.485 164.513 163.379 147 144.907 111.234 102.779 99.1724 95.2899 93.4332 84.1539 69.1335 57.5625 48.4702 44.3116 39.6016 29.8705 29.0468 27.2831 25.2216 17.5616 15.4562 15.1978 16.731 13.9834 11.1855 10.0707 9.50829 9.28719 9.20791 6.75673 6.15158 5.34757 5.2424 5.12142 4.6582 4.55594 4.37427 3.82835 3.61777 3.15866 2.7419 4.11193 2.33959 2.27377 0.858505
threshold=26.500000000000004 132.50000000000003 1246.7500000000002 75.500000000000014 75.500000000000014 1419.1500000000003 850.35000000000014 1741.1500000000003 1618.3000000000004 196.50000000000003 877.25000000000011 0.64440905388471192 941.75000000000011 132.50000000000003 0.65046309523809542 682.80000000000007 4.9380581778699986 642.9000000000002 0.62274354636591489 192.50000000000003 71.500000000000014 1115.7000000000003 68.500000000000014 4.8559213341406453 61.500000000000007 67.500000000000014 1118.7500000000002 68.500000000000014 1634.9000000000003 27.500000000000004 1052.6500000000003 162.50000000000003 67.500000000000014 1646.7000000000003 4.945201156493737 65.500000000000014 75.500000000000014 169.50000000000003 1527.8500000000001 68.500000000000014 0.51875000000000016 71.500000000000014 0.61009326441102774 889.4000000000002 4.3372693810700085 65.500000000000014 0.64575028195488737 158.50000000000003 7.8500000000000005 55.500000000000007 20.550000000000004 4.2413008733233104 0.69667249373433593 96.500000000000014 59.500000000000007 6.0500000000000007 0.43875000000000014 8540.5000000000018 80.500000000000014 6.6500000000000012 41.500000000000007 100.50000000000001 59.500000000000007
decision_type=2 2 2 2 2 2 2 2 2 2 2 2 2 2 2 2 2 2 2 2 2 2 2 2 2 2 2 2 2 2 2 2 2 2 2 2 2 2 2 2 2 2 2 2 2 2 2 2 2 2 2 2 2 2 2 2 2 2 2 2 2 2 2
left_child=1 2 3 6 8 9 15 16 14 12 17 -8 31 26 -4 -1 -6 -5 -12 22 -10 29 25 -14 -23 -7 36 -9 32 -11 37 -3 -21 35 -30 52 42 45 47 44 -41 -24 56 53 -39 55 -37 54 -45 -44 -49 -47 -28 -38 -32 -15 -2 61 60 -60 -40 -35 -59
right_child=13 5 4 10 7 19 11 27 20 21 18 -13 23 30 -16 -17 -18 -19 -20 28 -22 24 41 -25 -26 -27 33 -29 34 -31 38 -33 -34 57 -36 46 43 39 58 40 -42 -43 49 48 -46 51 -48 50 -50 -51 -52 -53 -54 -55 -56 -57 -58 62 59 -61 -62 -63 -64
leaf_value=0.010464240991444699 0.046625638159983405 -0.0037683370671732636 0.03745941940378085 -0.0069149411643509122 0.030230145071827804 0.026888584074685296 0.029309325312828878 0.040987471763847198 0.04770969274089084 -0.051324969185795072 0.016012407961724619 0.036937430584990251 0.0041716427209095219 0.042873299787953803 0.042892070556725517 0.023246902666570889 0.036890745986518904 0.011463078408307535 0.02320517282476359 0.0048879427121230994 0.055666139683657405 0.0050786565993083677 0.032358396415198908 0.014928117210260704 -0.015035150080874698 0.012830078574940788 0.057737387031963898 0.049115330611633416 0.011661834379904583 -0.021122953539945425 0.048092023340340753 -0.016494623964554419 -0.018929114823824603 0.05939626915252158 0.028166909109909592 0.053823952040130914 0.049870776443506432 -8.2169977659144497e-05 0.060252573497596967 -0.01827653041968615 0.025799295319860784 0.043191110943894856 0.056443845386175494 0.052733249215783817 0.036473741127907321 -0.007976684403533758 0.056290811570092095 0.056902577330783279 0.046542922988906658 0.053884970547129159 0.043116153634109672 0.038160014385044384 0.059692118351042475 0.044833195559535938 0.057163390519311207 0.054277891400422849 0.05237197119252017 0.061590132029176146 0.013746326179316199 0.054559758300938073 0.053039708140880784 0.056396992587769181 0.060095145511636659
leaf_weight=2305.4947516918182 220.61027246713638 1309.4138713628054 13814.327113464475 935.0716438293457 22325.916653484106 1962.4613655507565 17996.166096180677 4628.9692117869854 20910.592353731394 109.80121323466301 7850.1412837356329 22108.914608314633 3679.0947663336992 89.506420999765396 31790.648560985923 6554.8636682927608 8405.2616846263409 5414.493813842535 15210.403826713562 646.7635276466608 4619.5169570893049 707.81010177731514 365.06013604998589 2383.0273697525263 914.10965605080128 1309.2060743868351 9643.9498337358236 3767.201127409935 460.84981709718704 1622.5023336410522 675.90806393325329 675.42110532522202 137.84102247655392 4182.9281399399042 279.25035387277603 4039.6977259218693 685.87757511436939 11.947744026780127 88.546098470687866 18.983120024204254 53.041509747505188 421.51007947325706 3717.6616398990154 2511.9512243717909 274.86195261776447 3.8905881345272055 6630.0248461663723 49.095437183976173 300.44508914649487 2178.0970979481936 752.05661056935787 234.14213396608829 2625.5195022374392 539.39110906422138 103.32694646716118 112.61676104366779 1203.0180942863226 1431.4933552145958 7.3381836265325573 9.4459710568189603 697.92358161509037 498.82903888821602 1653.6708512455225
leaf_count=5174 358 3260 24598 2378 42525 3852 34563 7963 33554 363 16870 39564 8657 151 53639 13271 15050 12059 30810 1514 6782 1655 682 5167 2453 2885 13815 5954 1025 4524 1080 1829 379 5873 542 6058 1075 29 123 52 105 709 5408 3814 494 10 9662 71 488 3264 1266 414 3673 892 149 168 1834 1956 16 14 1056 726 2302
internal_value=0.0365486 0.0323344 0.0347252 0.0262184 0.0407718 0.0057803 0.0310549 0.0347521 0.0440829 -0.0013343 0.018166 0.0335146 0.00433012 0.0557003 0.0412465 0.0199211 0.032052 0.00875623 0.0207568 0.0203098 0.0491495 -0.0149243 0.0245405 0.00840045 -0.00625589 0.0212637 0.0564313 0.0446346 0.00904744 -0.0230388 0.0460389 -0.00810026 0.000700449 0.0575887 0.0178929 0.0568542 0.0533017 0.0374255 0.0489249 0.0307754 0.0141473 0.0381668 0.0547183 0.050733 0.0349422 0.0428409 0.0553571 0.0465961 0.0520729 0.055499 0.0439644 0.0373953 0.0581559 0.0476553 0.0492984 0.0492408 0.0514834 0.0597578 0.0535036 0.0368716 0.0538552 0.0590773 0.0607897
internal_weight=250868 205622 188638 78375.5 110262 16984.1 48965.4 39127.3 71135.1 11401.2 29410.1 40105.1 8046.96 45245.8 45605 8860.36 30731.2 6349.57 23060.5 5582.94 25530.1 3354.22 4058.24 6062.12 1621.92 3271.67 42063.2 8396.17 1524.7 1732.3 3182.63 1984.83 784.605 30706.1 740.1 22939.2 11357.1 798.99 2383.64 358.834 72.0246 786.57 7319.39 4037.66 286.81 440.156 10669.7 1580.39 2812.4 5895.76 801.152 238.033 12269.5 1225.27 779.235 202.123 1423.63 7766.92 803.254 16.7842 786.47 4681.76 3085.16
internal_count=450646 384250 344754 154689 190065 39496 92572 71492 118573 27908 62117 74127 18913 66396 78237 18445 57575 14437 47680 11588 40336 8995 8128 13824 4108 6737 61198 13917 3460 4887 5198 5089 1893 44065 1567 33208 17133 1423 3775 680 157 1391 10864 6269 523 743 15720 2566 4302 8672 1337 424 17488 1967 1229 319 2192 10857 1209 30 1179 6599 4258
is_linear=0
shrinkage=0.0403445


Tree=2
num_leaves=64
num_cat=0
split_feature=27 2 24 2 2 24 24 24 24 2 24 23 23 24 2 2 23 2 24 0 24 0 10 24 10 10 0 25 0 0 21 24 22 21 24 2 2 0 5 10 13 0 24 10 3 23 23 23 10 12 4 18 24 7 23 5 9 25 21 8 23 2 2
split_gain=11898.4 7529.68 5692.98 1717.77 1326.55 1002.72 801.253 627.274 615.583 494.255 436.824 349.043 238.224 235.703 193.885 177.239 168.898 152.682 144.031 141.927 133.181 104.965 99.6431 98.3153 90.9712 89.8331 84.9298 66.1374 60.5235 59.7718 50.4775 50.2733 49.7744 32.9038 29.0798 26.5179 18.614 14.9659 14.4986 14.1011 19.504 13.3214 12.9615 10.4073 9.40727 9.07533 8.93319 7.41489 8.32819 6.26129 6.11659 5.87903 5.23377 4.9783 4.53896 3.87373 3.67811 3.07846 3.06396 2.56704 1.43323 0.919194 0.83917
threshold=24.500000000000004 132.50000000000003 1239.4000000000003 75.500000000000014 75.500000000000014 1419.1500000000003 817.40000000000009 1734.1000000000001 1618.3000000000004 196.50000000000003 699.10000000000002 0.64575028195488737 0.62274354636591489 941.75000000000011 132.50000000000003 56.500000000000007 0.6568602443609024 192.50000000000003 682.80000000000007 71.500000000000014 1115.7000000000003 68.500000000000014 68.500000000000014 1118.7500000000002 61.500000000000007 65.500000000000014 71.500000000000014 8191.0000000000009 28.500000000000004 26.500000000000004 0.88570000000000004 1052.6500000000003 0.99066666666666681 0.38205000000000006 1646.7000000000003 65.500000000000014 169.50000000000003 64.500000000000014 2.7500000000000004 66.500000000000014 88.500000000000014 71.500000000000014 889.4000000000002 65.500000000000014 7.1500000000000012 0.65430980576441111 0.64575028195488737 0.63152052005012538 61.500000000000007 60.500000000000007 4.6500000000000012 0.55821428571428588 883.55000000000007 0.83500000000000008 0.69667249373433593 6.0500000000000007 81.500000000000014 8540.5000000000018 0.74485000000000012 110.50000000000001 0.57335592105263167 379.50000000000006 59.500000000000007
decision_type=2 2 2 2 2 2 2 2 2 2 2 2 2 2 2 2 2 2 2 2 2 2 2 2 2 2 2 2 2 2 2 2 2 2 2 2 2 2 2 2 2 2 2 2 2 2 2 2 2 2 2 2 2 2 2 2 2 2 2 2 2 2 2
left_child=1 2 3 6 8 9 18 16 15 13 28 -8 -12 30 23 -4 -6 21 -1 -10 29 25 -15 33 -22 -7 -9 32 -5 -11 -3 36 -19 45 35 54 43 47 -29 44 -41 -23 49 55 -38 52 -37 48 -33 -35 -47 -45 -2 -44 -25 -16 -49 58 -36 60 -39 -61 -59
right_child=14 5 4 10 7 17 11 26 19 20 12 -13 -14 22 31 -17 -18 27 -20 -21 24 41 -24 34 -26 -27 -28 38 -30 -31 -32 37 -34 42 57 46 39 59 -40 40 -42 -43 53 51 -46 50 -48 56 -50 -51 -52 -53 -54 -55 -56 -57 -58 62 -60 61 -62 -63 -64
leaf_value=0.008701900969446329 0.050538195729117656 -0.00018320430806729494 0.041932466005208842 -0.0086714115142693671 0.027667997757429664 0.027350193642623068 0.028070715606809876 0.040774288779015351 0.046412578785346131 -0.054691444014401729 0.013652103770741978 0.035580206275778563 0.021481301372784214 0.012001714429540348 0.041847156190507412 0.036764813923323883 0.033662854272968293 -0.0012225187490459409 0.021169872003457556 0.054290939688329744 0.0048799851807673879 0.031329873232772899 0.0012425453247562901 0.056353946727157128 -0.014375882738184607 0.013935598565870183 0.049899665580944733 -0.0071220652510706394 0.0078204005152380639 -0.020346842862611934 -0.013312689907439106 0.04862260924678366 0.023823949818976162 0.048046865008763727 0.057887686669527455 0.052467048839420029 0.038477552456048052 0.061523126142007854 0.021949838452235804 -0.0090504643104650281 0.028390394557267981 0.041958002901719652 0.048899342519394789 -0.0031717586445493655 0.020159729768602339 0.025582188044367234 0.05491599632447898 0.049836766018510011 0.040429405312434955 0.042389383031756461 0.056013611041872288 0.036756830267889617 0.05376390673584347 0.052035121019659777 0.058300091721236375 0.053230161462303534 0.044054451639012733 0.060191681164375038 0.051953546475725046 0.055316906290074672 0.031950905890971812 0.041804249002004981 0.058700737829407108
leaf_weight=2206.1256866008043 1313.0681179314852 804.13645054399967 28759.259871065617 1063.5275881588459 14492.763785406947 1597.2307892143726 19099.175395637751 6323.1502654850483 20633.468957990408 86.922233149409294 10096.132340759039 21334.41902820766 16950.61438383162 3843.6232035011053 90.964538618922234 17322.023118704557 16220.283271834254 844.77694469690323 4772.0823583304882 4546.9204267114401 706.92607472836971 361.89842814207077 2205.5963279008865 9485.3057886064053 917.39005088806152 1656.3623328208923 2255.9922569096088 29.456218376755714 549.1401444375515 1649.9663243889809 1171.6191139668226 319.22559787333012 152.42053408920765 1313.1447872668505 4447.2886769324541 3978.2345483452082 197.49637451767921 3.6899442672729519 494.47891928255558 32.939379647374153 71.855741992592812 416.49568924307823 1339.8539159744978 6.0404949337244025 60.230594336986542 11.11476309597492 6523.9904791563749 771.88788062334061 575.01889105141163 433.57139430940151 2304.0244393199682 235.00366874039173 2370.3649736195803 2331.8289967477322 2580.6687123626471 113.96127837896347 246.02490715682507 1406.1727016270161 155.40765279531479 411.82452094554901 13.364266723394392 9.9950395375490171 1625.2313871383667
leaf_count=5016 2043 1953 48973 2737 28224 3120 37063 10893 33554 293 22096 38651 34816 8525 155 31030 29920 2066 9826 6782 1655 682 5299 13815 2453 3617 3534 75 1257 4583 3110 507 307 2099 6361 6058 348 5 1012 85 139 709 2122 15 125 22 9662 1210 994 735 3369 421 3557 3568 3673 172 410 1956 238 607 25 17 2302
internal_value=0.0354394 0.0312976 0.0336353 0.0251405 0.0394805 0.00554259 0.0298542 0.0335285 0.0427622 -0.0013122 0.0173426 0.0320331 0.0185589 0.00412754 0.0542681 0.03999 0.0308341 0.0195982 0.0172286 0.0478353 -0.0143005 0.0237075 0.00807925 0.0549998 -0.00599391 0.0205218 0.0431742 0.00870406 -0.00305412 -0.0220672 -0.00797024 0.0446286 0.00260336 0.0518076 0.0562064 0.055476 0.0359373 0.0476163 0.0203106 0.0291237 0.0165981 0.0370201 0.0495228 0.0414701 0.0342067 0.053871 0.0539886 0.0460653 0.0433572 0.0466441 0.0558686 0.0357458 0.0526147 0.0508916 0.0567704 0.0481904 0.0484418 0.0583654 0.0576879 0.054368 0.0385073 0.055003 0.0593932
internal_weight=248343 203564 186625 76071.2 110554 16939.3 47411.8 39292.2 71261.7 11386.2 28659.4 40433.6 27046.7 8024.98 44778.8 46081.3 30713 5553.12 6978.21 25180.4 3361.2 4031.99 6049.22 41619.3 1624.32 3253.59 8579.14 1521.13 1612.67 1736.89 1975.76 3159.52 997.197 11417 30202.3 22568.2 808.492 2351.03 523.935 362.522 104.795 778.394 5418.4 445.97 257.727 5998.57 10502.2 1912.16 894.244 1746.72 2315.14 241.044 3683.43 3671.68 12066 204.926 1017.91 7634.1 4602.7 438.874 17.0542 421.82 3031.4
internal_count=450646 383831 344372 151462 192910 39459 90556 72571 120339 27871 60906 75714 56912 18887 66815 80003 58144 11588 14842 40336 8984 8128 13824 61580 4108 6737 14427 3460 3994 4876 5063 5235 2373 17515 44065 33208 1460 3775 1087 697 224 1391 8524 763 473 8991 15720 3121 1501 2834 3391 436 5600 5690 17488 327 1620 10857 6599 654 30 624 4258
is_linear=0
shrinkage=0.0403445


Tree=3
num_leaves=63
num_cat=0
split_feature=2 36 24 36 2 2 24 24 2 24 24 24 23 2 2 24 36 23 24 23 23 2 24 24 0 10 36 24 0 24 22 36 10 0 0 22 36 25 24 10 21 19 36 17 18 10 19 0 22 25 0 24 10 17 18 18 10 26 24 24 24 18
split_gain=7160.43 5536.13 4236.42 1382.76 1254.93 1090.5 748.278 733.949 527.689 516.039 481.564 392.506 304.745 256.224 215.23 212.143 209.314 177.704 171.117 150.329 147.067 141.25 127.813 121.483 117.267 110.148 108.703 102.169 96.266 96.1947 88.1965 81.5639 78.4765 74.4819 69.6555 68.7672 66.093 64.8496 58.0044 56.0639 50.8556 48.6681 47.4514 42.1452 40.9843 39.8582 34.8645 31.2827 29.2639 24.8532 21.0134 16.5678 14.5367 12.2292 11.3867 10.2826 10.2458 10.5844 9.8194 9.64266 8.02118 3.77861
threshold=132.50000000000003 1.0000000180025095e-35 1198.6500000000003 1.0000000180025095e-35 75.500000000000014 75.500000000000014 1184.6500000000003 761.70000000000016 75.500000000000014 1577.7000000000003 1681.6000000000001 699.10000000000002 0.64575028195488737 192.50000000000003 198.50000000000003 1441.9000000000003 1.5000000000000002 0.62274354636591489 1347.6500000000003 0.64830686090225575 0.66600548245614044 200.50000000000003 1706.5000000000002 585.70000000000016 68.500000000000014 65.500000000000014 1.5000000000000002 834.75000000000011 68.500000000000014 1618.3000000000004 0.82931578947368434 1.5000000000000002 61.500000000000007 26.500000000000004 28.500000000000004 0.86026315789473695 1.5000000000000002 8378.5000000000018 1816.8000000000004 68.500000000000014 0.75975000000000004 0.51541666666666697 1.5000000000000002 1.0000000180025095e-35 0.63183333333333347 66.500000000000014 0.49375000000000019 71.500000000000014 0.95840350877192992 8342.0000000000018 69.500000000000014 1741.1500000000003 62.500000000000007 1.0000000180025095e-35 0.75454761904761913 0.70326190476190498 73.500000000000014 4122.1500000000005 1115.7000000000003 1188.1500000000003 914.45000000000016 0.75454761904761913
decision_type=2 2 2 2 2 2 2 2 2 2 2 2 2 2 2 2 2 2 2 2 2 2 2 2 2 2 2 2 2 2 2 2 2 2 2 2 2 2 2 2 2 2 2 2 2 2 2 2 2 2 2 2 2 2 2 2 2 2 2 2 2 2
left_child=1 2 4 6 7 9 13 23 15 19 20 34 -9 27 22 26 18 -13 35 -4 -7 31 25 -1 -11 -8 30 44 -12 32 -3 37 -16 52 -6 -10 47 39 -20 -5 -29 -35 45 59 -2 48 -47 -17 -23 -31 -24 -45 -15 -38 -28 60 57 -44 -57 -18 -33 -39
right_child=3 8 5 21 11 10 14 12 16 24 28 17 -14 33 29 36 43 -19 38 -21 -22 42 50 -25 -26 -27 54 40 -30 49 -32 55 -34 41 -36 -37 53 61 -40 -41 -42 -43 56 51 -46 46 -48 -49 -50 -51 -52 -53 -54 -55 -56 58 -58 -59 -60 -61 -62 -63
leaf_value=-0.004788720736953688 -0.0092396337184276721 0.041433075302800319 0.033975921875595116 0.02974393957594711 -0.011027884183822317 0.026030655523881528 0.02032548368633455 0.026000031429509789 0.033342085023355374 0.044115177739447294 0.03704748564642623 0.012403430301304042 0.033877575716603603 -0.039434780319295121 0.006316475540203475 0.048752869189185033 0.048127734681512421 0.020110790539610075 0.041078617900803971 0.039571335746474361 0.032492669940406518 0.015326545844805145 0.025451981205691285 0.014665156192534922 0.051258503509537735 0.0076316031351696912 0.053330050982747013 0.011247362829856663 0.046874781626666112 0.0079004322140137223 0.046214434940464358 0.025908439543959681 -0.012552382643765431 -0.027585362483848897 0.0075873679180664261 0.039606092139028201 0.056974708354475018 0.042244443847237641 0.047761964603820609 0.019350417278573537 -0.00052141995758003411 -0.013034850303854015 0.018029027019310435 0.038984276184486362 -0.032960991078460296 -0.037880604296558651 0.0060806676547913805 0.053631520433844004 0.035589912280089335 0.025842782704143783 0.037896373144732758 0.051282260325087689 -0.073668088099975604 0.051589217419323763 0.047320024646052374 0.0058565911534920849 -0.0099563277303106618 0.042214470646360545 0.038816158321111786 0.053876878275559668 0.048934513489907357 0.030735145266931777
leaf_weight=616.50555992126465 777.46519736945629 10762.108604073524 11334.867159768939 2417.7192119956017 951.1617019623518 14669.058669015765 2109.720129430294 15938.052870094776 7365.1834232062101 14880.330016240478 4640.1460175663233 7996.5689503103495 16045.196122467518 41.034798547625542 638.15686786174774 16691.247981414199 644.50922690331936 12459.663563877344 10218.862787783146 25234.108365863562 9419.2768279314041 1048.8646385669708 667.39033237099648 3419.2637111693621 5005.0063148736954 2356.1839329004288 2554.0432717651129 796.03044500946999 2499.8889612555504 275.39318853616714 15133.348776102066 26.813123896718025 819.16233295202255 522.41608640551567 498.57515175640583 4668.4372031390667 2474.2219666391611 484.3498147726059 2672.7127126604319 1301.3259798288345 2396.671602204442 1323.5396471917629 37.379144921898842 663.62847827374935 140.03898429870605 32.4830601811409 304.97153429687023 2467.9717969447374 130.7027613222599 231.96670325100422 332.28647175431252 246.52050629258156 40.724613159894943 968.91427835822105 653.89373080432415 16.377037659287453 7.6926735341548911 146.45077401399612 162.6906420737505 1928.9258423745632 389.21684539318085 53.314695790410042
leaf_count=1544 2010 18441 20851 4626 2487 28975 4375 31489 13638 24807 8292 17667 29542 128 1478 26519 1031 25876 17568 44015 17564 2268 1325 7421 7738 5400 3861 1776 4050 630 24699 53 2165 1517 1143 8145 3588 823 4291 2722 5832 3513 79 1165 419 100 708 3718 237 459 589 381 151 1493 1055 38 20 249 286 2898 617 101
internal_value=0.0343774 0.0364288 0.031742 0.0112582 0.0232752 0.0373354 0.00385949 0.0279063 0.0449468 0.0406818 0.0312856 0.0156603 0.0299521 -0.00668945 0.012432 0.0473741 0.0405288 0.017098 0.0392337 0.0378371 0.0285576 0.0264471 0.0165489 0.0116928 0.0459132 0.0136288 0.0450959 -0.000997117 0.0404886 0.000977998 0.0442274 0.0299607 -0.00428803 -0.0188251 -0.00462423 0.0357724 0.0503075 0.0280031 0.0424644 0.0261079 0.00241209 -0.0171541 0.0164678 0.0497948 -0.0128631 0.014076 0.00184123 0.0493814 0.0175741 0.0161088 0.029591 0.0423182 -0.0565195 0.05546 0.0521058 0.0439584 0.035399 0.0373108 0.0358159 0.0524381 0.0474567 0.0411081
internal_weight=245751 225722 145608 20028.5 57925 87682.7 13468.2 36019 80114.5 56454.3 31228.4 21906 31983.2 6037.92 7430.26 51705.8 28408.8 20456.2 24925.2 36569 24088.3 6560.35 5465.58 4035.77 19885.3 4465.9 29103.4 4110.21 7140.03 1964.68 25895.5 4851.81 1457.32 1927.72 1449.74 12033.6 22602.4 4256.71 12891.6 3719.05 3192.7 1845.96 1708.54 3483.58 917.504 1517.02 337.455 19159.2 1179.57 507.36 999.677 910.149 81.7594 3443.14 3207.94 595.098 191.523 183.83 179.068 2573.44 416.03 537.665
internal_count=450646 405952 273461 44694 117169 156292 31767 69996 132491 97411 58881 47173 61031 15346 16421 83374 49117 43543 43642 64866 46539 12927 11689 8965 32545 9775 48056 10037 12342 4732 43140 9266 3643 5309 3630 21783 35318 8272 21859 7348 7608 5030 3661 5475 2429 3313 808 30237 2505 1089 1914 1546 279 5081 4916 994 348 328 324 3929 670 924
is_linear=0
shrinkage=0.0403445


Tree=4
num_leaves=63
num_cat=0
split_feature=27 28 24 24 28 24 28 28 24 28 24 24 24 27 28 23 0 28 28 28 24 0 28 23 14 24 23 0 24 28 19 28 24 28 28 23 24 23 24 10 19 24 28 23 25 10 19 24 23 0 28 18 22 8 10 0 25 28 25 14 28 23
split_gain=11246 6760.8 3811.26 2266.74 1104.74 1081.19 861.509 689.718 615.801 414.652 306.486 280.056 258.729 269.65 258.698 212.339 208.821 177.634 175.821 167.388 120.423 118.029 110.912 107.24 85.7887 83.7203 81.7299 80.1603 79.3717 60.0551 57.8837 53.2674 47.2518 28.7328 25.1993 22.0847 20.1109 16.8554 13.8684 12.4362 10.5109 9.82743 9.39501 8.98992 8.17462 6.93329 6.91812 6.84771 6.68784 6.55688 5.20688 4.97132 4.9337 4.73628 3.71567 3.56176 2.97993 2.48496 2.12979 1.96269 1.44081 1.10197
threshold=26.500000000000004 4.5591125415341898 1328.5500000000004 1250.1000000000001 5.0968083143154814 920.10000000000002 4.9593358439305844 4.1971736807086968 1741.1500000000003 4.0517471391904856 1669.7500000000002 870.60000000000025 682.80000000000007 1.0000000180025095e-35 4.2121001622835372 0.64575028195488737 67.500000000000014 5.2958110956362647 4.7749040587885982 4.0342014792848504 1047.8000000000004 71.500000000000014 4.8940944640863338 0.68214307644110284 127.50000000000001 616.30000000000007 0.64830686090225575 68.500000000000014 1246.7500000000002 5.4138732270297307 0.50041666666666684 4.1971736807086968 1461.8500000000001 5.0968083143154814 4.0342014792848504 0.66426744987468689 1042.9000000000003 0.68897913533834598 889.4000000000002 66.500000000000014 0.44291666666666679 870.60000000000025 4.1971736807086968 0.64961403508771942 7684.5000000000009 64.500000000000014 0.46875000000000017 930.90000000000009 0.6320515350877195 31.500000000000004 4.9593358439305844 0.59307142857142869 0.81110526315789488 114.50000000000001 80.500000000000014 68.500000000000014 7556.0000000000009 3.5114340430413216 8312.0000000000018 126.50000000000001 2.3502401828962087 0.72782490601503769
decision_type=2 2 2 2 2 2 2 2 2 2 2 2 2 2 2 2 2 2 2 2 2 2 2 2 2 2 2 2 2 2 2 2 2 2 2 2 2 2 2 2 2 2 2 2 2 2 2 2 2 2 2 2 2 2 2 2 2 2 2 2 2 2
left_child=1 2 5 4 11 12 10 15 9 26 24 25 13 -1 -9 -7 17 -8 28 -14 29 31 -13 -11 -5 -3 -4 -12 34 -6 -22 -10 33 41 43 -18 39 42 46 -35 -23 49 55 47 -44 -43 -36 -2 -40 -20 58 52 -52 -38 -53 -30 57 -39 59 -34 -45 -58
right_child=18 3 8 6 20 7 16 14 21 23 27 22 19 -15 -16 -17 35 -19 32 -21 30 40 -24 -25 -26 -27 -28 -29 37 -31 -32 -33 50 36 38 -37 53 56 48 -41 -42 45 44 60 -46 -47 -48 -49 -50 -51 51 54 -54 -55 -56 -57 61 -59 -60 -61 -62 -63
leaf_value=0.0033907403590417713 0.048672893311229398 -0.014688741385139665 0.037063211316957619 0.022721410772455805 -0.011915095495177674 0.029521371471298352 0.013813146704885721 -0.0062596061839732021 0.046127172663140439 0.032610481322037595 0.033201258731116144 0.015697843527999963 0.025231955215742022 0.042863943280649464 0.024840134971205727 0.035748182006130516 0.02359661301644948 -0.0013867445199399419 0.045405832131190448 0.016497786861795542 -0.019450297491071262 0.025313235778351938 0.006962814470485747 0.0377368642274084 0.029199260708819941 0.0036905646816140416 0.042545301061414763 0.043563833315566042 0.054301895380325933 -0.024583680553349946 -0.00063510205193942327 0.041038391109106676 0.048504007369779563 0.033575059953037729 0.040004285418152777 0.035447148388308571 0.044048604137872781 0.057588486386607393 0.048585650748540855 0.017379672662760713 0.051443279397821916 0.04902165988120781 0.051714671637470809 0.041027154120388987 0.054873902383357591 0.043786253168301155 0.047202255773585798 0.05253103210597982 0.051112932048674932 0.032589968876070109 -0.037606817722187408 0.049252829438059816 0.034749765123503334 0.037110492305467188 0.028537813823241512 0.057143604536466899 0.056354838133203349 0.054914766776000046 0.056428123262143921 0.053865681152823849 0.054261033534241353 0.058077869811093981
leaf_weight=2686.2305824160576 1181.416383266449 458.12207832932472 5607.8255622386932 7709.5515977889299 1467.4105856120586 15228.200938969851 3795.0269718170166 443.87801614403725 8922.3620092123747 18686.701472729445 3306.1715217381716 10927.970614254475 6675.9556810110807 314.71212507784367 22348.932901710272 21523.147989109159 687.69692574441433 1866.7428598105907 106.25782087445259 7686.6584981232882 319.17057973146439 25.569667264819145 3021.3567245155573 10321.165118798614 5864.3082331717014 3375.8388385027647 21173.307320728898 1925.4828025251627 6812.163297727704 1042.8279206901789 1603.5913859903812 5381.8151414990425 212.76959325373173 264.16025598347187 258.95169489085674 410.31937775015831 327.01875856518745 706.65821906924248 2842.8272778391838 110.1472342312336 5173.3800336718559 639.4031690955162 5135.5441846400499 15.068401619791983 1850.7937081158161 1226.7584300488234 1553.1546770185232 2183.577958971262 4518.8515948057175 175.24660997092724 1.6139320880174661 696.46580758690834 21.867912620306015 330.96797282993793 14.996556580066679 846.7065341770649 2135.1880418807268 4256.7123009413481 230.7719828337431 277.51852639019489 3155.8492572307587 1050.4217146039009
leaf_count=6352 1885 1227 10035 15671 3864 29184 8292 1123 14608 34850 6132 23520 13282 531 44618 38989 1388 4572 175 16441 881 51 6961 18351 11272 7966 35933 3236 10230 2980 3909 9272 340 488 451 745 546 1022 4538 234 8014 1015 7931 26 2761 2057 2515 3342 7023 327 5 1103 40 592 29 1232 3134 6348 338 418 4740 1511
internal_value=0.0333559 0.0293258 0.0334822 0.0160864 0.00665985 0.0271652 0.024278 0.0297484 0.0399347 0.0377771 0.0287184 0.0111517 0.0183065 0.00753122 0.0242344 0.0331681 0.0119245 0.00880115 0.0520382 0.0205577 -0.0113591 0.0461062 0.0138061 0.0344346 0.0255202 0.00149375 0.0413975 0.0370157 0.0529323 -0.017179 -0.00375968 0.0442128 0.0446119 0.0418511 0.0507234 0.0280274 0.036306 0.0544545 0.049355 0.0288162 0.0513153 0.0445152 0.0536318 0.0526437 0.052552 0.0455815 0.0461751 0.0511773 0.0501373 0.0374369 0.0506397 0.0482114 0.0296651 0.0405627 0.0488199 0.0546164 0.0559327 0.055296 0.0531111 0.0515444 0.054199 0.0569238
internal_weight=243121 199981 152200 47781.6 22216.3 76907.7 25565.3 59544.2 75292.1 55789 18805.5 17783.3 17363.6 3000.94 22792.8 36751.3 6759.79 5661.77 43139.8 14362.6 4433 19503.1 13949.3 29007.9 13573.9 3833.96 26781.1 5231.65 38503.9 2510.24 1922.76 14304.2 4635.96 3179.96 15709.7 1098.02 1032.29 22794.2 9173.79 374.307 5198.95 2147.67 14645.2 6535.91 6986.34 1866.16 1812.11 3364.99 7361.68 281.504 1456 734.944 23.4818 657.987 711.462 7658.87 8148.98 4963.37 721.06 490.288 3170.92 3185.61
internal_count=450646 384250 281634 102616 51308 150520 51308 113914 131114 99169 36311 39674 36606 6883 45741 68173 14997 12864 66396 29723 11634 31945 30481 53201 26943 9193 45968 9368 58689 6844 4790 23880 7707 5434 24520 2133 1860 34169 14527 722 8065 3574 22154 9993 10692 3072 2966 5227 11561 502 2273 1177 45 1138 1132 11462 12015 7370 1096 758 4766 4645
is_linear=0
shrinkage=0.0403445


Tree=5
num_leaves=63
num_cat=0
split_feature=27 23 2 2 24 24 24 2 2 0 24 2 0 24 2 2 0 0 24 2 0 2 2 0 10 24 24 0 2 0 0 10 24 24 0 2 21 24 24 2 10 24 10 23 13 13 2 7 0 2 12 18 12 2 10 26 25 25 25 21 14 2
split_gain=10826.7 6408.79 3204.48 2008 1417.33 1052.18 924.181 432.934 432.468 355.529 327.172 323.238 264.168 264.059 228.236 222.88 219.815 192.386 178.636 174.609 140.601 135.688 132.653 129.501 109.662 105.88 85.7027 79.653 79.2555 73.005 69.6748 63.5831 47.1362 47.0678 39.8964 29.9682 25.5093 23.8718 21.8955 18.5151 14.5089 10.6443 9.14356 8.58572 7.42391 6.99273 6.61357 6.06271 5.36039 5.11455 4.88084 4.788 5.2486 4.66095 3.58089 2.90543 2.63112 2.47769 2.10135 2.10081 1.91155 0.824169
threshold=24.500000000000004 0.64354144736842123 132.50000000000003 76.500000000000014 1073.3500000000001 1469.0500000000002 1347.6500000000003 65.500000000000014 75.500000000000014 49.500000000000007 1073.3500000000001 132.50000000000003 28.500000000000004 1816.8000000000004 162.50000000000003 132.50000000000003 60.500000000000007 67.500000000000014 761.70000000000016 117.50000000000001 28.500000000000004 200.50000000000003 31.500000000000004 61.500000000000007 57.500000000000007 902.90000000000009 1118.7500000000002 67.500000000000014 56.500000000000007 68.500000000000014 67.500000000000014 67.500000000000014 914.45000000000016 1461.8500000000001 71.500000000000014 162.50000000000003 0.38205000000000006 1646.7000000000003 963.25000000000011 65.500000000000014 68.500000000000014 889.4000000000002 64.500000000000014 0.65430980576441111 115.50000000000001 123.50000000000001 102.50000000000001 0.83500000000000008 26.500000000000004 141.50000000000003 42.500000000000007 0.59307142857142869 52.500000000000007 31.500000000000004 80.500000000000014 3952.4500000000003 6923.0000000000009 8540.5000000000018 8312.0000000000018 0.74485000000000012 126.50000000000001 59.500000000000007
decision_type=2 2 2 2 2 2 2 2 2 2 2 2 2 2 2 2 2 2 2 2 2 2 2 2 2 2 2 2 2 2 2 2 2 2 2 2 2 2 2 2 2 2 2 2 2 2 2 2 2 2 2 2 2 2 2 2 2 2 2 2 2 2
left_child=1 2 4 5 7 10 15 18 23 14 20 13 -9 -8 31 25 -10 28 -1 26 -3 29 -12 -6 -16 -5 36 -13 -7 -11 -23 -4 -17 35 -19 42 43 39 40 53 -37 46 56 48 -44 -41 -38 -43 -2 58 -40 52 -51 -28 -53 -45 -21 59 60 -39 -35 -59
right_child=19 3 9 6 8 17 11 12 16 21 22 27 -14 -15 24 32 -18 34 -20 33 -22 30 -24 -25 -26 -27 37 -29 -30 -31 -32 -33 -34 49 -36 38 41 57 50 45 -42 47 44 55 -46 -47 -48 -49 -50 51 -52 54 -54 -55 -56 -57 -58 61 -60 -61 -62 -63
leaf_value=0.011453206127142781 0.037895862859470331 0.015327157102874481 0.0071023927038278397 0.012161865746255223 0.02987040497470687 0.042905152007291454 0.031162246971776063 -0.0072810687179990152 0.020161094459552796 0.0095903989960352039 0.041839766568603713 0.01767286796791348 0.012140959672173962 0.041621343278547607 0.00049469798879109457 -0.0078249350166429595 0.030992492830631352 0.045557370737878723 0.023556159252513711 0.046257817267400636 0.029449806692464626 -0.0054900360306508579 0.034644664454781642 0.0378755015885524 -0.018367232262071622 0.022694452482757498 0.055060702007387129 0.032416893194246114 0.038404800874975845 0.031384782493533415 0.018219223382579246 -0.0059747315357950668 0.010009490290085077 0.047359399295374333 0.05107331724779382 0.030101607356951054 0.044565533057304964 0.0544474205082848 0.049526245491404428 0.050395895415083623 0.0075596766071391441 0.045363859570593641 0.039965692874311773 0.042020470360874335 0.047187123372925119 0.053591780406409155 0.036289808125423186 0.049060665345367592 0.049391389382637027 -0.0016766857915425917 0.03766358590687853 0.048089022792006872 0.040693715255609234 0.05290919912214035 0.027650767399427661 0.05263061992773848 0.05451817484610072 0.056723736748543384 0.055281567689740345 0.047684375343015312 0.052698629274402886 0.055181940156781878
leaf_weight=2537.0376612097025 69.322482943534851 1284.7876763641834 1360.9973805993795 1764.8377719521523 15999.599760785699 17010.364992812276 17033.530700728297 1251.6745468974113 12773.959381908178 3024.7077493965626 4885.2455051839352 2936.7196295112371 12745.341335177422 5109.6408090889454 613.95532456040382 274.30713586509228 4007.8524411171675 4575.7628482282162 9137.4336082339287 644.14731056988239 10795.033028125763 1554.2182068824768 28681.816330343485 4144.5974495708942 2738.0045917332172 13041.781678825617 2075.3003659695387 749.14730703830719 10209.072905570269 272.86620585620403 231.81101383268833 1089.6274912059307 1990.9273335337639 209.19378101825714 4029.0946300774813 233.11661864817142 1310.0711500942707 4127.5507774800062 63.310593396425247 7879.3823582231998 58.445893451571465 1166.9206973910332 1122.4245787709951 45.361116752028465 298.53825847804546 1333.1382202506065 182.85712458193302 2023.8256132751703 3433.0675615221262 6.4890436977148083 673.03498186171055 684.78203676640987 16.757671594619751 9363.1823340207338 14.856228664517401 2150.0280625671148 73.951622769236565 1326.8370046168566 226.14925667643547 82.552535578608513 272.32634533941746 1423.8865557312965
leaf_count=5646 123 2774 3133 3906 30614 28866 32221 3192 26528 6828 8363 6223 28211 8781 1488 703 7591 7570 18451 1057 20735 3918 52618 7381 7524 26522 3111 1401 18097 515 489 2754 4483 340 6305 445 2188 6235 100 12414 134 1935 1961 78 485 2029 331 3231 5465 16 1200 1103 29 14377 29 3308 111 1956 338 134 418 2134
internal_value=0.0323753 0.0284033 0.0189569 0.0339846 0.0224703 0.0377046 0.02692 0.0151892 0.0275321 -0.00124556 0.0336426 0.0317343 0.010404 0.0335759 -0.00807007 0.0196361 0.022748 0.0428803 0.0209262 0.0508272 0.027948 0.00654366 0.0356919 0.0315176 -0.0149117 0.0214392 0.0517262 0.0206703 0.0412173 0.0113946 -0.00241135 0.00128685 0.00784873 0.0433978 0.0481404 0.0406496 0.0485981 0.0529022 0.0349752 0.0522109 0.0255917 0.0463854 0.0433752 0.0504166 0.0414848 0.0508587 0.0435537 0.0477095 0.0491646 0.0494798 0.0386872 0.0470546 0.0287601 0.0532998 0.0476588 0.0524126 0.0471122 0.0549525 0.0519533 0.0543154 0.0503846 0.0559266
internal_weight=240447 197856 73483.7 124372 62597.5 81471.2 42900.9 25671.5 36926 10886.2 45646.9 25829 13997 22143.2 5802.58 17071.9 16781.8 35824.3 11674.5 42590.8 12079.8 5083.6 33567.1 20144.2 3351.96 14806.6 37993.3 3685.87 27219.4 3297.57 1786.03 2450.62 2265.23 4597.52 8604.86 3166.97 10381.5 27611.8 1027.91 20651 291.563 4683.67 2139.06 5697.78 1420.96 9212.52 1492.93 3190.75 3502.39 1430.55 736.346 722.885 23.2467 11438.5 699.638 2195.39 718.099 6960.83 707.669 4210.1 481.52 2750.72
internal_count=450646 383831 154263 229568 127614 145328 84240 55500 72114 26649 84490 48626 31403 41002 14899 35614 34119 60838 24097 66815 23509 11750 60981 37995 9012 30428 59049 7624 46963 7343 4407 5887 5186 7766 13875 5493 16659 42390 1879 31931 579 7685 3614 8974 2446 14443 2519 5166 5588 2273 1300 1177 45 17488 1132 3386 1168 10459 1096 6369 758 4090
is_linear=0
shrinkage=0.0403445


Tree=6
num_leaves=63
num_cat=0
split_feature=15 23 2 2 24 24 24 0 2 2 24 0 24 2 0 0 21 2 2 2 0 2 24 2 25 24 2 0 0 0 0 21 24 0 2 2 24 21 24 2 24 23 19 24 5 19 25 23 0 7 23 2 19 18 12 2 19 25 23 25 14 21
split_gain=10442.5 6099.05 3195.69 1742.23 1478.73 935.373 794.685 467.83 465.201 402.094 355.6 303.49 291.029 251.063 222.215 191.551 184.126 180.912 172.563 169.022 141.858 109.553 93.6544 91.2999 86.6057 82.2007 81.4732 79.8326 75.1911 74.2688 59.5441 53.0558 46.5833 38.9402 33.7227 29.1589 25.6836 23.7096 20.8075 19.8651 15.8645 13.9983 10.2042 9.47682 9.08282 8.78562 8.33747 6.88383 6.50907 5.15965 5.11308 5.04163 4.6843 4.62291 4.95538 3.71164 3.61415 2.47087 2.12246 2.08235 1.87018 0.836584
threshold=1.0000000180025095e-35 0.64748536967418546 132.50000000000003 76.500000000000014 1082.6500000000003 1450.6000000000004 1347.6500000000003 27.500000000000004 75.500000000000014 65.500000000000014 1108.3000000000004 68.500000000000014 889.4000000000002 132.50000000000003 65.500000000000014 67.500000000000014 1.3594500000000003 117.50000000000001 117.50000000000001 198.50000000000003 67.500000000000014 32.500000000000007 1087.0000000000002 64.500000000000014 8027.0000000000009 908.25000000000011 56.500000000000007 27.500000000000004 67.500000000000014 26.500000000000004 26.500000000000004 0.85035000000000005 1461.8500000000001 71.500000000000014 132.50000000000003 162.50000000000003 1646.7000000000003 0.51640000000000008 1042.9000000000003 65.500000000000014 616.30000000000007 0.58202127192982467 0.53625000000000023 870.60000000000025 5.2500000000000009 0.66625000000000034 2733.0000000000005 0.64871622807017559 31.500000000000004 0.83500000000000008 0.69667249373433593 141.50000000000003 0.54541666666666699 0.59307142857142869 52.500000000000007 148.50000000000003 0.50875000000000015 8540.5000000000018 0.65004489348370942 8312.0000000000018 126.50000000000001 0.3962500000000001
decision_type=2 2 2 2 2 2 2 2 2 2 2 2 2 2 2 2 2 2 2 2 2 2 2 2 2 2 2 2 2 2 2 2 2 2 2 2 2 2 2 2 2 2 2 2 2 2 2 2 2 2 2 2 2 2 2 2 2 2 2 2 2 2
left_child=1 2 4 5 7 12 17 23 20 -9 16 13 27 -8 -10 26 29 25 22 24 -6 -14 37 -1 -12 -5 -7 -3 -21 -4 -18 -19 35 -17 -13 43 39 41 42 50 44 46 -37 48 -39 -41 -2 -43 -20 -42 -24 59 -40 54 -53 -45 -55 58 -38 60 -34 -59
right_child=18 3 10 6 8 15 11 9 14 -11 19 34 21 -15 -16 33 30 31 32 28 -22 -23 36 -25 -26 -27 -28 -29 -30 -31 -32 -33 51 -35 -36 38 57 40 52 45 49 47 -44 55 -46 -47 -48 -49 -50 -51 -52 53 -54 56 -56 -57 -58 61 -60 -61 -62 -63
leaf_value=0.0048767313075601211 0.019326369942747123 0.010755393271369474 -0.030283304177596278 0.012597001493305933 0.030133682391151041 0.041786861925106854 0.030904093606629209 0.021983823927249391 0.020757957420857967 0.01189804129481916 0.0077359463517101788 0.04308946801869571 0.038862317135644329 0.01792821573732585 0.034790170901050174 0.044498745666024554 -0.061569728743809046 0.015491597345552844 0.041978033237668723 -0.0060603781247788122 0.042400273671014704 0.032862910985077064 0.051711143802416509 -0.012743764127005586 0.024750886530625543 0.022861726092055345 0.03727290772871774 0.025077721987288804 0.017601789802091265 -0.0028649047193681 -0.019940483661691519 0.0051410611146616514 0.046269570226435137 0.050067206003623889 0.032691275184550943 0.018332819493757629 0.050398650691534833 0.0030061602955127656 0.033228951135556441 0.049068259069895551 0.041551613519679571 0.047461751875502382 0.031801237646467827 0.042459304023561156 0.034526991197936951 0.052220091711017845 0.042306697462785994 0.050093178548812359 0.030361189286317251 0.045701304539745406 0.053810991253553424 -0.0016081345133847141 0.040769089695412764 0.034894981884754567 0.039626239116267586 0.047161139538171651 0.047314488330319232 0.055495546344273963 0.053566727780112074 0.05420922931223951 0.051599538755246747 0.053889220011075781
leaf_weight=931.57148705422878 28.152176722884178 820.14822760224342 169.20112036168575 1445.2602171301842 20640.978500664234 17418.795144438744 17648.133206874132 11802.337159126997 16143.35638064146 14148.953423559666 3708.8763317763805 3251.3749695420265 5912.2340355813503 2815.2398161888123 2073.5070809572935 4389.643366292119 58.477085247635841 1823.8891038000584 149.95339402556419 2072.07726547122 1659.008273884654 30759.522104501724 9410.634777367115 984.13052019476891 560.72900460660458 10533.434803321958 10416.56254978478 2793.4093418568373 244.32367895543575 3249.6223930120468 1314.4199017435312 1446.112856939435 205.55719049274921 3853.052001863718 604.37099604308605 151.46030747890472 413.18772102892399 22.722464859485626 200.05663752555847 7748.1647967547178 881.74219477176666 3868.4303333312273 236.35211239755154 1456.8901142627001 44.137234807014465 1807.2461898773909 356.397292137146 2890.9385469406843 170.88843700289726 1159.5851676911116 2457.8895994871855 6.4927671402692821 440.59227102994919 42.299977019429207 16.51979561150074 351.85029192268848 645.2911431491375 1650.4863783270121 3709.694582760334 221.41524936258793 267.01485192775726 1041.0477995872498
leaf_count=2178 59 1835 500 3188 39490 30025 33535 24168 33386 31381 8491 5537 10454 5954 3805 7382 206 3935 257 5246 2844 57502 14760 2603 1122 21407 18732 5576 518 8049 3656 3378 340 6142 1130 320 658 54 373 12470 1526 6319 445 2498 81 2815 613 4603 327 1927 3773 16 765 78 29 574 1054 2492 5711 338 418 1598
internal_value=0.0314311 0.0275115 0.0189246 0.0334193 0.0222186 0.0369795 0.0265482 0.0150648 0.0271388 0.016485 -0.000873108 0.0310759 0.0327537 0.0291191 0.0223553 0.0416981 -0.00923516 0.0193273 0.049671 0.00521041 0.0310464 0.0338302 0.0505729 -0.00417393 0.00997113 0.0216235 0.0400977 0.0218278 -0.00356349 -0.00422263 -0.0217156 0.010915 0.0422593 0.047102 0.0414603 0.0395362 0.051728 0.047047 0.0339449 0.0510395 0.0432753 0.0481597 0.0265478 0.0422352 0.0238528 0.0496647 0.0406311 0.0485876 0.0357988 0.0439102 0.0521462 0.0483801 0.0384186 0.0459533 0.0278848 0.0433754 0.0465543 0.0538923 0.0532499 0.0508612 0.0492868 0.0548752
internal_weight=237746 195693 79761.6 115931 68383.8 76363.4 39567.8 27867 40516.9 25951.3 11377.7 24319.1 40285.3 20463.4 18216.9 36078.1 4791.72 15248.7 42053.1 6586.01 22300 36671.8 37490.5 1915.7 4269.61 11978.7 27835.4 3613.56 2316.4 3418.82 1372.9 3270 4562.63 8242.7 3855.75 3158.04 28238.4 9252.11 1028.46 21423.9 2108.19 7143.92 387.812 2129.58 66.8597 9555.41 384.549 6759.37 320.842 2041.33 11868.5 1404.59 640.649 710.604 23.0126 1808.74 687.591 6814.42 4122.88 693.987 472.572 2691.53
internal_count=450646 383355 167643 215712 139855 137648 78064 60330 79525 55549 27788 46156 75367 39489 37191 62281 12411 31908 67291 15377 42334 67956 59459 4781 9613 24595 48757 7411 5764 8549 3862 7313 7832 13524 6667 5559 44277 15182 1903 33818 3588 11594 765 3656 135 15285 672 10922 584 3453 18533 2273 1138 1177 45 3072 1132 10459 6369 1096 758 4090
is_linear=0
shrinkage=0.0403445


Tree=7
num_leaves=63
num_cat=0
split_feature=27 23 2 2 24 24 24 2 2 2 30 2 24 24 24 30 24 2 2 24 10 30 30 10 2 2 24 2 30 10 25 10 15 24 30 2 2 23 24 23 2 27 13 21 23 10 13 24 2 10 23 24 2 25 18 27 4 25 21 8 4 21
split_gain=10019.8 5847.29 3047.04 1575.76 1375.13 926.631 722.622 484.637 469.218 300.621 300.062 242.069 236.277 223.991 219.342 209.489 206.857 176.949 170.464 158.585 140.249 138.612 131.219 122.19 100.066 92.5482 85.624 84.2014 61.5571 60.5942 53.3508 44.5785 40.4814 40.0988 34.7697 27.5882 21.1633 17.0356 16.1335 13.5122 11.2444 10.0726 9.31426 9.20407 8.8451 7.86361 7.30931 7.29636 6.49449 5.03985 6.51476 4.98469 4.169 3.81444 3.20823 2.85488 2.35807 2.13 2.33206 1.196 1.1074 0.938328
threshold=26.500000000000004 0.64830686090225575 132.50000000000003 76.500000000000014 1082.6500000000003 1381.9500000000003 1549.9000000000003 64.500000000000014 75.500000000000014 132.50000000000003 3422.5000000000005 196.50000000000003 1748.8500000000001 1151.1000000000001 1385.4500000000003 812.50000000000011 889.4000000000002 132.50000000000003 117.50000000000001 791.05000000000007 67.500000000000014 3906.5000000000005 4692.5000000000009 61.500000000000007 32.500000000000007 56.500000000000007 1217.5000000000002 172.50000000000003 5112.5000000000009 65.500000000000014 8061.0000000000009 69.500000000000014 1.0000000180025095e-35 1461.8500000000001 4556.5000000000009 55.500000000000007 162.50000000000003 0.69667249373433593 1042.9000000000003 0.63679266917293242 53.500000000000007 58.500000000000007 59.500000000000007 0.72385000000000022 0.64961403508771942 65.500000000000014 119.50000000000001 930.90000000000009 141.50000000000003 62.500000000000007 0.6320515350877195 1446.2000000000003 102.50000000000001 6923.0000000000009 0.58945238095238106 67.500000000000014 4.6500000000000012 7501.0000000000009 0.31505000000000005 129.50000000000003 6.5500000000000007 0.65380000000000016
decision_type=2 2 2 2 2 2 2 2 2 2 2 2 2 2 2 2 2 2 2 2 2 2 2 2 2 2 2 2 2 2 2 2 2 2 2 2 2 2 2 2 2 2 2 2 2 2 2 2 2 2 2 2 2 2 2 2 2 2 2 2 2 2
left_child=1 2 4 5 7 16 9 19 21 13 11 20 25 -5 -10 -9 32 22 26 -1 -4 -6 -8 -13 -18 -7 35 34 -14 -11 -29 -19 -3 36 -12 44 45 40 42 43 55 -42 -38 -37 47 53 -47 -2 59 54 -51 -40 -41 -20 -50 -28 -46 58 -39 60 -35 -59
right_child=18 3 10 6 8 12 17 15 14 29 27 23 28 -15 -16 -17 24 31 33 -21 -22 -23 -24 -25 -26 -27 37 30 -30 -31 -32 -33 -34 48 -36 39 38 57 51 52 41 -43 -44 -45 56 46 -48 -49 49 50 -52 -53 -54 -55 -56 -57 -58 61 -60 -61 -62 -63
leaf_value=0.013078826569063926 0.045080593948395031 0.021177770883227802 0.0057366062594676566 0.017046990308964019 0.028773988195963312 0.039805246476266994 0.032422701402047879 -0.0046800774677023729 0.018150199686730116 0.016029025853016805 0.015345106920099588 -0.0042646425900872446 0.042947647224560237 0.026183184536413849 0.027202490720118488 0.01153107467593671 0.037460865119125046 0.026019334199063507 0.043301280579519423 0.023330562674739881 -0.0068966251401657349 0.037008814020425315 0.041864793640816758 -0.020284240137688501 0.031145626710274953 0.035006210829429625 0.051548521200987782 -0.0030213610931296561 0.049252858433548076 0.0046167602148254943 0.014218594210808349 0.013292498260248193 0.044508522236386953 0.045494367773325821 0.031084645707701905 0.044560662639950878 -0.016416706905296733 0.053292803015998848 0.038325913181465728 0.04765497881687112 0.048580709483252882 0.051142691722400296 0.02811346390411229 0.037988439913632807 0.033765565496895494 0.037706355141734378 0.045960329347859132 0.049293888815952855 0.030399181400576809 0.032479910855938911 0.044239524130439002 0.014162690185947983 0.04304256215149594 0.052723318418739389 0.049666745397286965 0.054351902569298664 0.051044428330160825 0.054052482342706619 0.051220790685985743 0.052548093392013932 0.049987087879043983 0.049765232819630315
leaf_weight=3325.6935265958309 1085.0329205393791 3507.4089428037405 3559.874366402626 6281.4131663441658 18584.588885098696 17689.127909064293 9669.9776885211468 1427.588259100914 11476.980229452252 1396.074907720089 934.79441468417645 1392.7347022294998 9752.7171278297901 14353.448351576924 7026.3537072241306 14213.795584157109 4894.2362397760153 1541.58456158638 685.77215115725994 9406.9267337173223 2390.9978368580341 4055.947503760457 3188.1963163018227 1748.6152168959379 24817.757394760847 10399.685610026121 5189.739776045084 697.23535534739494 3409.0601440370083 1656.8405519723892 502.69930855929852 632.87064464390278 125.59515126049519 146.60719066858292 303.01885540783405 3588.9914951920509 7.7358493357896796 2008.3388343304396 626.27701427042484 3694.1653738468885 5990.5638250112534 4400.8525216281414 363.81885457038879 390.38351388275623 13.80833940207958 1062.0026344358921 213.23935477435589 1842.842024102807 15.639279261231421 102.37181763350964 331.63045239448547 14.556628674268721 362.9262321293354 81.087699800729752 256.72217363119125 711.30256183445454 2704.1490761488676 2449.7135841548443 1793.5729679763317 203.40981525182724 332.87481039762497 102.4456497579813
leaf_count=7313 1832 7240 8280 13390 36062 31235 18183 3579 24257 2999 2018 3492 16739 28441 13802 31620 8804 3053 1173 19073 6082 7341 5529 4877 47253 19171 8242 1727 5533 3883 1096 1391 210 247 575 6081 21 3135 1118 6082 9786 7017 709 704 26 1914 355 2987 30 194 563 32 625 126 412 1100 4313 3798 2857 319 535 166
internal_value=0.0305449 0.0267304 0.0184561 0.0326485 0.0216419 0.0360763 0.0260448 0.0148089 0.0263541 0.0216539 -0.00075192 -0.00412217 0.0401193 0.0234022 0.0215878 0.0100513 0.0310746 0.0329637 0.0487285 0.0206531 0.000660284 0.0302493 0.0347641 -0.0131827 0.032186 0.0380285 0.0496412 0.0118173 0.044581 0.00983634 0.00419906 0.0223164 0.0219851 0.0412663 0.0192003 0.047119 0.0386769 0.051165 0.0338927 0.0455962 0.0504706 0.049666 0.0271794 0.0439166 0.049286 0.0410473 0.0390886 0.0477334 0.0469576 0.0442125 0.0414717 0.037781 0.047243 0.0443011 0.04857 0.0518869 0.0509576 0.0529452 0.052316 0.0497932 0.0486189 0.0538814
internal_weight=235136 194364 81047.8 113316 69517.9 74595.6 38720.4 28374 41143.9 23687.8 11530 9092.22 41250.6 20634.9 18503.3 15641.4 33345 15032.6 40772.6 12732.6 5950.87 22640.5 12858.2 3141.35 29712 28088.8 36328.8 2437.75 13161.8 3052.92 1199.93 2174.46 3633 4443.75 1237.81 13682.3 3054.49 22646.5 1012.39 8036.47 16292.5 10391.4 371.555 3979.38 5645.83 2042.1 1275.24 2927.87 1389.26 706.364 434.002 640.834 4057.09 766.86 272.361 5901.04 2717.96 6354.07 3801.91 682.892 479.482 2552.16
internal_count=450747 384248 171194 213054 143047 136185 76869 61585 81462 48713 28147 22731 72678 41831 38059 35199 63507 28156 66499 26386 14362 43403 23712 8369 56057 50406 58751 5416 22272 6882 2823 4444 7450 7748 2593 22650 5448 36101 1880 13492 26145 16803 730 6785 9158 3568 2269 4819 2300 1199 757 1150 6707 1299 442 9342 4339 9956 5992 1101 782 3964
is_linear=0
shrinkage=0.0403445


Tree=8
num_leaves=63
num_cat=0
split_feature=27 21 0 28 23 23 25 28 0 25 28 0 28 0 28 0 28 0 10 0 23 0 14 14 19 0 23 22 23 10 0 0 0 0 25 0 23 25 28 21 25 23 10 21 23 28 10 4 21 23 12 0 18 25 28 21 19 8 0 22 11 4
split_gain=9692.06 5580.56 2870.25 1265.98 1085.94 979.984 773.471 494.131 371.676 312.335 282.104 261.392 260.911 215.298 207.855 187.266 168.623 154.868 150.019 130.339 110.753 109.805 106.217 105.72 102.694 90.8771 76.6281 74.9555 66.0435 52.1001 45.521 40.2989 35.8991 34.7223 33.7935 32.5192 21.5198 18.3992 14.1764 13.2074 10.9059 10.2464 9.82764 8.91971 7.53864 7.24509 10.0268 8.19892 7.20029 6.97846 6.79908 6.36792 5.21357 4.57396 3.62041 3.29342 8.78329 2.7832 2.07907 1.74816 2.89034 1.18089
threshold=26.500000000000004 0.65380000000000016 48.500000000000007 5.0968083143154814 0.65857312030075199 0.65772083333333342 6095.5000000000009 4.0517471391904856 67.500000000000014 7684.5000000000009 4.0517471391904856 28.500000000000004 4.3372693810700085 67.500000000000014 4.3502571242716384 40.500000000000007 4.7749040587885982 62.500000000000007 61.500000000000007 40.500000000000007 0.68721394110275702 68.500000000000014 108.50000000000001 105.50000000000001 0.50208333333333355 27.500000000000004 0.64871622807017559 0.90910526315789486 0.6988565476190477 73.500000000000014 71.500000000000014 71.500000000000014 71.500000000000014 49.500000000000007 8781.0000000000018 49.500000000000007 0.59479614661654157 6947.0000000000009 4.0342014792848504 0.53125000000000011 8578.0000000000018 0.6320515350877195 72.500000000000014 0.91160000000000008 0.56412149122807032 5.1387309967764621 66.500000000000014 7.9500000000000011 0.31810000000000005 0.68897913533834598 62.500000000000007 62.500000000000007 0.61069047619047634 4833.0000000000009 5.0906732680195743 0.60615000000000008 0.4470833333333335 91.500000000000014 67.500000000000014 0.89110526315789484 172.50000000000003 7.2500000000000009
decision_type=2 2 2 2 2 2 2 2 2 2 2 2 2 2 2 2 2 2 2 2 2 2 2 2 2 2 2 2 2 2 2 2 2 2 2 2 2 2 2 2 2 2 2 2 2 2 2 2 2 2 2 2 2 2 2 2 2 2 2 2 2 2
left_child=1 2 4 6 7 12 15 19 10 18 -7 -9 17 22 20 25 26 -4 27 -1 -6 -14 -8 -17 -20 -3 33 -5 -16 32 -10 -15 -11 39 -31 36 45 38 57 44 41 42 -37 52 -2 47 -47 -18 61 -40 -41 -50 -38 -45 -43 58 -57 -28 -39 -42 -61 -35
right_child=16 3 5 9 14 8 13 11 30 29 -12 -13 21 31 28 23 35 -19 24 -21 -22 -23 -24 -25 -26 -27 37 -29 -30 34 -32 -33 -34 48 -36 40 43 55 49 50 59 54 -44 53 -46 46 -48 -49 51 -51 -52 -53 -54 -55 -56 56 -58 -59 -60 60 -62 -63
leaf_value=0.020229667127432693 0.034781691438366846 -0.012589086895164621 0.029237442586719432 -0.0020911885608259121 0.027990048496945481 0.038821407886749558 0.013897538613740611 -0.0009827463834604117 0.041562860036798467 0.013792206502763426 0.0325061599016108 0.015676038329861738 0.022709307708379711 0.030123392550840768 0.02042255705497683 0.0057144727339527857 0.037479151595435897 0.037009892954183478 -0.023857336292566821 0.027732616433265397 0.033845690088561954 0.036516356123644726 0.023444891443479925 0.015511224082244639 -0.0077827572857523293 0.0049910367920097667 0.029430670617158879 0.014505101208496431 0.029167592522910967 -0.037478862527978295 0.047070053165064206 0.041581174498240649 0.030624923470063164 0.049390675475600922 0.015958979799412108 0.040521482496632955 0.045819750705220229 0.051482809679319168 0.047206813127065123 0.042516285596946021 0.051908541670376465 0.046129179511727084 0.027204462194613623 0.03202572168056373 0.04554917669082259 0.028523572667138772 0.0087299935945023919 0.018342596939888364 0.046554692982257347 0.049807779759231549 0.036061387601251688 0.050261720119241536 0.039209864050991868 0.039240581760658783 0.040583949448849542 -0.13706421565142488 0.0490829448505904 0.050694313242276245 0.053032301377535458 0.024935153646568255 0.047639126362052489 0.051417889873519765
leaf_weight=7752.6063006818295 110.07641971111298 531.30992721021175 18223.304324239492 1975.4695209413767 11545.836119055748 22011.301914736629 2651.7223993241787 1652.532727509737 5204.7167952954769 966.8985076546669 24160.055393666029 21165.557778522372 11576.345177724957 1122.4101327061653 5318.1160713285208 2483.9493956416845 208.12886016070843 5416.2847367227077 790.03900623321533 7341.602740675211 9668.4287952780724 1020.9104609787464 6675.632355928421 6453.5012157410383 3576.6984844505787 4819.4441081285477 10.614921152591704 570.91814909875393 1913.4564591050148 48.254078507423401 4630.7880766540766 904.99347864091396 262.63716028630733 1073.7181909382343 31.977275758981705 784.15737299621105 305.54736170172691 5133.7172937840223 5126.6401465088129 1409.6002750247717 236.16534167528152 847.73471653461456 103.36745534837246 345.67664965987206 5343.9839047640562 200.01610177755356 53.118006691336632 44.877291053533554 3111.0551047921181 2579.0260698348284 335.06429934501648 1027.0414585918188 571.73926930129528 254.20433568954468 260.34179337322712 0.4025891125202169 698.34646759927273 6401.7776534408331 2163.0471604466438 10.258770391345022 146.42619298398495 1051.8386332690716
leaf_count=16147 206 1405 35373 4874 22651 39456 5809 4036 9122 2116 45640 45677 23631 2165 11050 5778 377 9867 2250 14391 18025 1861 13557 13943 9179 11267 21 1243 3695 148 7744 1578 501 1763 69 1385 512 8267 8575 2454 376 1427 206 657 9066 390 121 96 5235 4211 620 1671 1023 453 460 2 1151 10380 3438 21 244 1691
internal_value=0.0296647 0.0259112 0.0290857 0.0110443 0.0226866 0.033689 0.0154615 0.0182159 0.0370341 -0.00273035 0.0355169 0.0144695 0.028519 0.0233216 0.028645 0.00921487 0.0477487 0.0310184 -0.00615311 0.0238792 0.0306589 0.0238285 0.0207309 0.0127887 -0.0106916 0.00324492 0.0486679 0.00162885 0.0227368 0.0153335 0.044156 0.0352392 0.0173899 0.0462656 -0.0161495 0.0402679 0.0364414 0.0501302 0.0492505 0.0443501 0.0434443 0.042226 0.0389734 0.0389066 0.0453323 0.0292415 0.0243801 0.034095 0.0484666 0.0480777 0.0412781 0.0474754 0.041515 0.0350875 0.0448287 0.0516832 0.0489714 0.0506595 0.0519425 0.0496263 0.0461692 0.0503951
internal_weight=232415 192468 158602 33865.9 66358.1 92243.7 25643 37912.3 56006.9 8222.89 46171.4 22818.1 36236.8 11354.8 28445.8 14288.2 39947.7 23639.6 6913.13 15094.2 21214.3 12597.3 9327.35 8937.45 4366.74 5350.75 35576 2546.39 7231.57 1309.77 9835.5 2027.4 1229.54 13462.4 80.2314 4371.76 1983.31 22113.6 14118.1 7198.72 2388.45 1995.6 887.525 1477.17 5454.06 506.14 253.134 253.006 6263.65 7705.67 1744.66 4138.1 877.287 599.881 1108.08 7995.51 698.749 6412.39 7296.76 392.85 156.685 2125.56
internal_count=450747 384248 308366 75882 135672 172694 55502 80251 101962 20380 85096 49713 70732 23109 55421 32393 66499 45240 17546 30538 40676 25492 19366 19721 11429 12672 58751 6117 14745 2834 16866 3743 2617 22706 217 7748 3629 36045 23187 12346 4119 3478 1591 2645 9272 984 511 473 10360 12786 3074 6906 1535 1110 1887 12858 1153 10401 11705 641 265 3454
is_linear=0
shrinkage=0.0403445


end of trees

feature_importances:
age_bmi=100
physical_activity_minutes_per_week=82
age=62
overall_health_risk=54
heart_rate=41
log_physical_activity=41
age_bp=27
diet_activity_balance=21
age_squared=18
family_history_age=17
cholesterol_risk=14
cardio_risk_score=10
metabolic_index=9
triglycerides=8
medical_history_score=7
hdl_cholesterol=6
ldl_cholesterol=6
sleep_hours_per_day=5
log_triglycerides=5
diet_score=4
screen_time_hours_per_day=4
systolic_bp=4
waist_to_hip_ratio=3
bmi_cholesterol=3
bmi=2
cholesterol_total=2
family_history_diabetes=2
cardiovascular_history=2
diastolic_bp=1

parameters:
[boosting: gbdt]
[objective: binary]
[metric: binary_logloss]
[tree_learner: serial]
[device_type: cpu]
[data_sample_strategy: bagging]
[data: ]
[valid: ]
[num_iterations: 700]
[learning_rate: 0.0403445]
[num_leaves: 120]
[num_threads: 0]
[seed: 42]
[deterministic: 0]
[force_col_wise: 0]
[force_row_wise: 0]
[histogram_pool_size: -1]
[max_depth: 6]
[min_data_in_leaf: 14]
[min_sum_hessian_in_leaf: 0.00323086]
[bagging_fraction: 0.804699]
[pos_bagging_fraction: 1]
[neg_bagging_fraction: 1]
[bagging_freq: 7]
[bagging_seed: 400]
[bagging_by_query: 0]
[feature_fraction: 0.797889]
[feature_fraction_bynode: 1]
[feature_fraction_seed: 30056]
[extra_trees: 0]
[extra_seed: 12879]
[early_stopping_round: 0]
[early_stopping_min_delta: 0]
[first_metric_only: 0]
[max_delta_step: 0]
[lambda_l1: 0.0621911]
[lambda_l2: 0.00337345]
[linear_lambda: 0]
[min_gain_to_split: 0.735765]
[drop_rate: 0.1]
[max_drop: 50]
[skip_drop: 0.5]
[xgboost_dart_mode: 0]
[uniform_drop: 0]
[drop_seed: 17869]
[top_rate: 0.2]
[other_rate: 0.1]
[min_data_per_group: 100]
[max_cat_threshold: 32]
[cat_l2: 10]
[cat_smooth: 10]
[max_cat_to_onehot: 4]
[top_k: 20]
[monotone_constraints: ]
[monotone_constraints_method: basic]
[monotone_penalty: 0]
[feature_contri: ]
[forcedsplits_filename: ]
[refit_decay_rate: 0.9]
[cegb_tradeoff: 1]
[cegb_penalty_split: 0]
[cegb_penalty_feature_lazy: ]
[cegb_penalty_feature_coupled: ]
[path_smooth: 0]
[interaction_constraints: ]
[verbosity: -1]
[saved_feature_importance_type: 0]
[use_quantized_grad: 0]
[num_grad_quant_bins: 4]
[quant_train_renew_leaf: 0]
[stochastic_rounding: 1]
[linear_tree: 0]
[max_bin: 255]
[max_bin_by_feature: ]
[min_data_in_bin: 3]
[bin_construct_sample_cnt: 200000]
[data_random_seed: 175]
[is_enable_sparse: 1]
[enable_bundle: 1]
[use_missing: 1]
[zero_as_missing: 0]
[feature_pre_filter: 1]
[pre_partition: 0]
[two_round: 0]
[header: 0]
[label_column: ]
[weight_column: ]
[group_column: ]
[ignore_column: ]
[categorical_feature: ]
[forcedbins_filename: ]
[precise_float_parser: 0]
[parser_config_file: ]
[objective_seed: 16083]
[num_class: 1]
[is_unbalance: 0]
[scale_pos_weight: 3.23548]
[sigmoid: 1]
[boost_from_average: 1]
[reg_sqrt: 0]
[alpha: 0.9]
[fair_c: 1]
[poisson_max_delta_step: 0.7]
[tweedie_variance_power: 1.5]
[lambdarank_truncation_level: 30]
[lambdarank_norm: 1]
[label_gain: ]
[lambdarank_position_bias_regularization: 0]
[eval_at: ]
[multi_error_top_k: 1]
[auc_mu_weights: ]
[num_machines: 1]
[local_listen_port: 12400]
[time_out: 120]
[machine_list_filename: ]
[machines: ]
[gpu_platform_id: -1]
[gpu_device_id: -1]
[gpu_use_dp: 0]
[num_gpu: 1]

end of parameters

pandas_categorical:[]
