tree
version=v4
num_class=1
num_tree_per_iteration=1
label_index=0
max_feature_idx=63
objective=binary sigmoid:1
feature_names=age alcohol_consumption_per_week physical_activity_minutes_per_week diet_score sleep_hours_per_day screen_time_hours_per_day bmi waist_to_hip_ratio systolic_bp diastolic_bp heart_rate cholesterol_total hdl_cholesterol ldl_cholesterol triglycerides family_history_diabetes hypertension_history cardiovascular_history cardio_risk_score cholesterol_risk lifestyle_risk diet_activity_balance metabolic_index overall_health_risk age_bmi age_bp bmi_cholesterol family_history_age log_physical_activity log_triglycerides age_squared bmi_squared high_bp_flag high_cholesterol_flag obese_flag sedentary_flag medical_history_score gender_Male gender_Other ethnicity_Black ethnicity_Hispanic ethnicity_Other ethnicity_White education_level_Highschool education_level_No_formal education_level_Postgraduate income_level_Low income_level_Lower-Middle income_level_Middle income_level_Upper-Middle smoking_status_Former smoking_status_Never employment_status_Retired employment_status_Student employment_status_Unemployed bmi_category_normal bmi_category_overweight bmi_category_obese age_group_middle age_group_senior age_group_elderly bp_category_elevated bp_category_high bp_category_very_high
feature_infos=[19:89] [1:8] [1:747] [0.10000000000000001:9.9000000000000004] [3.2999999999999998:9.9000000000000004] [0.59999999999999998:15.800000000000001] [15.1:37.799999999999997] [0.69999999999999996:1.02] [91:163] [51:103] [42:98] [121:286] [21:90] [51:199] [31:290] [0:1] [0:1] [0:1] [0.4792857142857142:0.98438095238095236] [0.31916666666666671:1.0175000000000001] [0:0.76657142857142857] [0.0049000000000000007:7.0217999999999998] [0.52715789473684216:1.3934736842105264] [0.43086146616541354:0.89127230576441108] [352:3001.2000000000003] [1729:13261] [2174.4000000000001:9792] [0:89] [0.69314718055994529:6.6174029779744776] [3.4657359027997265:5.6733232671714928] [361:7921] [228.00999999999999:1428.8399999999997] [0:1] [0:1] [0:1] [0:1] [0:3] [0:1] [0:1] [0:1] [0:1] [0:1] [0:1] [0:1] [0:1] [0:1] [0:1] [0:1] [0:1] [0:1] [0:1] [0:1] [0:1] [0:1] [0:1] [0:1] [0:1] [0:1] [0:1] [0:1] [0:1] [0:1] [0:1] [0:1]
tree_sizes=23589 23409 23798 23700 23655 23873 23724 23478 23668 23813 23699 23796 23890 23904 23875 23953 23897 23691 23913 23702 23868 23932 23930 23336 23644 23697 23573 23813 23815 23926 23810 23916 24012

Tree=0
num_leaves=223
num_cat=0
split_feature=27 23 21 21 30 30 30 21 21 30 30 21 30 30 30 23 30 30 30 21 35 21 23 23 21 15 30 21 23 23 30 21 23 21 15 30 30 21 21 25 23 30 30 10 23 25 30 30 27 30 30 21 23 23 10 30 21 3 10 3 21 27 3 26 30 11 3 21 25 25 21 23 15 25 23 3 21 3 21 30 30 30 23 30 23 10 23 21 21 25 3 18 30 10 23 19 18 10 30 23 3 6 11 21 35 18 25 5 21 6 30 23 6 18 19 23 21 18 18 18 23 23 23 18 30 26 21 21 27 21 21 6 25 26 21 21 13 21 35 3 25 26 25 3 23 25 26 26 30 30 26 30 30 7 25 21 10 6 26 21 26 6 1 19 21 21 6 6 11 6 6 11 30 6 25 18 19 3 18 11 21 11 6 3 6 21 18 21 23 21 18 13 23 10 11 13 7 26 3 3 6 6 18 21 6 30 21 6 3 18 6 1 7 7 10 21 6 25 10 11 26 3
split_gain=14994 8500.05 4102.1 2312.29 1770.67 1453.22 742.48 587.714 585.235 384.17 374.672 355.59 352.894 344.156 285.977 280.123 279.502 261.889 258.212 224.297 215.784 210.36 139.68 136.513 126.298 119.939 117.083 112.75 95.4239 93.659 90.6418 89.2476 88.8771 85.7968 85.4973 76.3519 73.1766 67.9275 65.8186 64.1132 60.8221 60.066 59.7572 54.5109 52.9756 50.7889 50.7127 46.2969 41.9521 41.3912 39.9209 40.1093 37.7913 37.026 36.469 33.0404 32.7698 32.0792 31.1426 40.3981 30.0117 29.4501 29.1459 28.7352 28.632 28.3202 28.2922 28.0605 27.9559 27.6193 27.4343 26.4322 26.1983 34.5815 26.4721 25.3388 24.6078 29.6106 24.4319 23.7006 22.9242 22.7282 22.6579 22.5419 22.1685 21.3513 20.5318 19.9097 19.8381 19.5359 19.4212 30.253 19.109 18.9812 23.4607 18.9489 18.4604 17.825 17.7642 17.571 16.7877 16.6418 16.6345 16.3822 16.208 16.0895 15.6279 15.5669 15.4658 15.4009 15.1691 16.567 15.1393 16.7546 15.0157 14.8057 14.6437 14.5807 14.5456 14.5401 14.4037 14.2816 14.1419 20.5931 13.998 13.816 13.7576 13.6742 13.1852 13.0177 12.9706 12.9464 12.9146 12.8934 12.8351 12.5606 12.4127 12.2498 11.9066 11.8341 11.812 11.3793 11.2983 13.8923 11.1711 15.9049 11.1519 11.1181 11.0981 10.9026 10.7936 10.7725 10.7432 10.9958 10.713 10.5666 10.4985 15.9727 10.4441 10.4441 10.3191 10.1637 10.1605 10.1286 10.0942 9.81701 9.7544 9.6434 10.4111 9.60749 9.60423 9.57117 9.55583 10.0719 9.51365 12.2272 9.36186 9.21404 9.19571 9.12284 9.1167 9.05579 9.04527 8.96309 8.90867 11.9291 8.82506 8.7508 8.73858 8.68898 8.68886 9.67364 8.67663 8.67289 8.59484 8.54226 12.3897 8.37198 8.35006 8.34012 8.29762 8.29747 8.25905 8.18597 8.04501 7.81738 7.6445 7.64222 7.62408 7.50363 9.55906 7.42602 7.42519 8.52014 7.40199 7.37167 7.3171 7.27329 7.2265 7.02923 6.991 6.91483
threshold=26.500000000000004 0.64748536967418546 0.80035000000000012 0.50780000000000014 2352.5000000000005 2862.5000000000005 2450.5000000000005 0.38205000000000006 1.0361000000000002 4556.5000000000009 4556.5000000000009 0.41590000000000005 930.50000000000011 4556.5000000000009 812.50000000000011 0.68665808270676698 2450.5000000000005 870.50000000000011 2450.5000000000005 0.85035000000000005 1.0000000180025095e-35 0.73060000000000025 0.59597252506265674 0.71522753759398505 0.35295000000000004 1.0000000180025095e-35 4556.5000000000009 0.32880000000000004 0.59239630325814552 0.68214307644110284 1122.5000000000002 0.64360000000000006 0.64915300751879712 1.3594500000000003 1.0000000180025095e-35 3660.5000000000005 2070.5000000000005 0.53125000000000011 0.33545000000000008 6778.0000000000009 0.61429959273182966 5112.5000000000009 650.50000000000011 61.500000000000007 0.67276889097744375 5105.0000000000009 1722.5000000000002 3782.5000000000005 49.500000000000007 1640.5000000000002 702.50000000000011 0.51035000000000019 0.68322825814536348 0.61223681077694259 68.500000000000014 1722.5000000000002 0.82945000000000013 7.0500000000000007 68.500000000000014 5.7500000000000009 0.78225000000000011 49.500000000000007 5.7500000000000009 4519.9000000000005 1640.5000000000002 176.50000000000003 4.9500000000000011 0.99415000000000009 4975.0000000000009 8097.0000000000009 0.34010000000000012 0.69601130952380963 1.0000000180025095e-35 2828.5000000000005 0.60696312656641616 4.0500000000000007 1.4309000000000003 5.8500000000000005 0.99415000000000009 3422.5000000000005 5112.5000000000009 1722.5000000000002 0.62274354636591489 2862.5000000000005 0.71296723057644129 65.500000000000014 0.68268289473684229 0.18345000000000003 0.18610000000000002 5713.5000000000009 7.1500000000000012 0.66202380952380968 702.50000000000011 73.500000000000014 0.57052728696741861 0.58625000000000027 0.65802380952380968 66.500000000000014 812.50000000000011 0.62326679197995005 6.4500000000000011 23.550000000000004 153.50000000000003 0.86160000000000025 1.0000000180025095e-35 0.60854761904761911 8027.0000000000009 5.5500000000000007 0.65830000000000022 20.050000000000004 3782.5000000000005 0.64790748746867177 24.950000000000003 0.61330952380952397 0.51375000000000026 0.57335592105263167 0.30630000000000007 0.60445238095238107 0.6499761904761906 0.687357142857143 0.60696312656641616 0.67325034461152899 0.6581383458646618 0.63307142857142873 5112.5000000000009 3815.0500000000006 0.70510000000000006 0.23985000000000004 58.500000000000007 0.16745000000000002 0.56820000000000015 23.950000000000003 3104.5000000000005 5053.5500000000002 0.94085000000000008 0.89895000000000025 98.500000000000014 1.0893000000000002 1.0000000180025095e-35 7.8500000000000005 2828.5000000000005 5494.4500000000007 7260.5000000000009 6.7500000000000009 0.70117653508771938 3604.5000000000005 5472.2500000000009 4018.6500000000001 5112.5000000000009 2756.5000000000005 4222.6000000000013 552.50000000000011 1122.5000000000002 0.90500000000000014 4951.5000000000009 0.55720000000000014 56.500000000000007 29.250000000000004 3087.8000000000006 1.2942000000000002 3617.1000000000008 23.350000000000005 3.5000000000000004 0.62875000000000025 0.78225000000000011 0.42615000000000008 20.450000000000003 25.050000000000004 196.50000000000003 30.650000000000002 22.850000000000005 193.50000000000003 1722.5000000000002 24.150000000000002 5501.0000000000009 0.58850000000000013 0.46041666666666686 4.8500000000000005 0.67859523809523814 193.50000000000003 0.97505000000000008 161.50000000000003 17.550000000000004 6.0500000000000007 20.350000000000005 0.34695000000000004 0.67454761904761917 0.25525000000000009 0.64126036967418554 0.79175000000000006 0.59307142857142869 113.50000000000001 0.58008919172932349 58.500000000000007 195.50000000000003 118.50000000000001 0.89500000000000013 4794.0500000000011 4.6500000000000012 5.2500000000000009 26.350000000000005 21.750000000000004 0.59988095238095251 0.44645000000000007 25.450000000000003 2862.5000000000005 0.29550000000000004 27.950000000000003 5.2500000000000009 0.64716666666666678 29.450000000000003 5.5000000000000009 0.88500000000000012 0.90500000000000014 77.500000000000014 0.43630000000000008 22.950000000000003 4029.0000000000005 51.500000000000007 177.50000000000003 4347.3500000000013 6.1500000000000012
decision_type=2 2 2 2 2 2 2 2 2 2 2 2 2 2 2 2 2 2 2 2 2 2 2 2 2 2 2 2 2 2 2 2 2 2 2 2 2 2 2 2 2 2 2 2 2 2 2 2 2 2 2 2 2 2 2 2 2 2 2 2 2 2 2 2 2 2 2 2 2 2 2 2 2 2 2 2 2 2 2 2 2 2 2 2 2 2 2 2 2 2 2 2 2 2 2 2 2 2 2 2 2 2 2 2 2 2 2 2 2 2 2 2 2 2 2 2 2 2 2 2 2 2 2 2 2 2 2 2 2 2 2 2 2 2 2 2 2 2 2 2 2 2 2 2 2 2 2 2 2 2 2 2 2 2 2 2 2 2 2 2 2 2 2 2 2 2 2 2 2 2 2 2 2 2 2 2 2 2 2 2 2 2 2 2 2 2 2 2 2 2 2 2 2 2 2 2 2 2 2 2 2 2 2 2 2 2 2 2 2 2 2 2 2 2 2 2 2 2 2 2 2 2
left_child=1 2 4 5 7 12 19 17 18 11 23 40 52 20 25 24 33 34 49 30 71 32 93 27 36 50 54 88 64 60 92 47 61 58 42 90 101 57 129 120 83 -12 63 114 65 -26 87 53 67 72 51 131 70 115 69 104 148 82 59 218 110 -2 85 187 150 164 106 -23 108 76 151 103 73 -4 158 -55 77 -18 139 116 133 -45 -24 102 137 180 201 163 -7 118 97 125 121 94 189 186 -89 134 132 -57 -76 -14 -6 -8 -39 176 -49 174 -67 -48 111 -22 113 -52 177 -13 141 202 152 -60 221 167 190 126 165 -92 -124 -111 -34 -17 -96 -9 215 198 147 -93 -83 -31 -41 162 -72 -42 219 -144 145 -46 172 -20 -15 -99 -19 -3 153 -80 192 -147 -116 -158 -75 188 -38 -107 195 -30 -32 -11 -95 -5 -169 220 -140 -154 173 -40 175 -64 -44 -35 -91 -28 -51 -87 -85 -78 208 -186 -61 -1 -119 -16 -94 -192 -109 -71 -122 196 -21 -70 -37 -151 -137 -29 -56 -168 -142 -136 -104 -206 -66 -153 -211 216 -141 -214 -200 -54 -131 -152 -10 -105 -120 -33
right_child=21 3 8 6 9 10 13 14 16 124 41 31 15 56 22 38 26 28 35 78 29 48 37 -25 45 -27 179 86 46 84 44 39 128 43 -36 80 160 55 146 138 79 -43 105 81 144 -47 109 66 -50 62 112 -53 98 75 117 99 -58 -59 119 95 -62 -63 107 -65 184 68 -68 -69 197 193 140 -73 -74 74 100 -77 183 -79 89 -81 -82 136 -84 182 -86 181 -88 96 -90 178 91 135 122 166 130 -97 -98 149 -100 -101 -102 -103 206 142 -106 161 -108 154 -110 127 -112 -113 -114 -115 156 -117 -118 159 169 -121 194 -123 123 -125 -126 -127 -128 -129 -130 211 -132 -133 -134 -135 205 200 -138 -139 170 212 204 -143 143 -145 -146 155 -148 -149 -150 199 217 209 171 -155 -156 -157 157 -159 -160 -161 -162 -163 -164 -165 -166 -167 203 168 -170 -171 -172 -173 -174 -175 -176 -177 -178 -179 -180 -181 -182 -183 -184 -185 185 -187 -188 -189 -190 -191 191 -193 -194 -195 -196 -197 -198 -199 214 -201 -202 -203 -204 -205 207 -207 -208 -209 -210 210 -212 -213 213 -215 -216 -217 -218 -219 -220 -221 -222 -223
leaf_value=0.49339019754760066 0.53688871313507902 0.50356361844461084 0.47799601564801625 0.50356361844461084 0.50282480795996576 0.53263303721774702 0.51094967345060371 0.48468872327155227 0.50356361844461084 0.53123390625196931 0.5342292398272328 0.5049228176486702 0.51520866260595422 0.52873335828464263 0.49696856804545675 0.5308562473870293 0.48854412192842994 0.5028152762025162 0.50098015546514585 0.49503871883880179 0.50356361844461084 0.53276911410989214 0.50665713033762994 0.53381577385609658 0.51599160313869141 0.52041617069329427 0.51610987776538741 0.5136523221565048 0.51853854827611845 0.52144093008639492 0.51601885342590859 0.49975590273166737 0.54123064776049157 0.50356361844461084 0.52501445437184646 0.50356361844461084 0.50356361844461084 0.49310240835272184 0.50356361844461084 0.50356361844461084 0.52367806190643629 0.53983044382779366 0.4998308203871199 0.46715553617379474 0.49893811289421591 0.52093766120650242 0.50572792927183441 0.50371575858590101 0.53639211286022959 0.50356361844461084 0.49844666252704933 0.47742876946435286 0.51585802499754618 0.50379376672498088 0.49403411183185336 0.50553557058690524 0.52270860273444164 0.51444436841875152 0.48049140084039049 0.49067873861295036 0.5127803391141289 0.54045826343787273 0.50390657501729108 0.50356361844461084 0.49548786997800948 0.50822927140477314 0.52261710532508698 0.52390166729181675 0.51662345763091699 0.51659349286615019 0.49702317484097192 0.5149720602230512 0.52092578086632424 0.50356361844461084 0.49156752020444083 0.51724890080699448 0.49680238386095221 0.50171492779730609 0.47517534267842804 0.52572263097257599 0.52939608212788747 0.47317755321453248 0.51092215158757259 0.50356361844461084 0.5261837934915049 0.50356361844461084 0.52801314724330051 0.51380596357051145 0.52946803649814767 0.51258969615441952 0.50349293393633765 0.50356361844461084 0.50812316446243933 0.50356361844461084 0.50682779899015851 0.50190650917716884 0.50669708602966501 0.50357944111818054 0.52315131716834096 0.51034440509284407 0.50165312290161534 0.52164444553891753 0.51850332274352595 0.48608991857365252 0.50430933890364305 0.4918287769445947 0.52126966744148884 0.49831211719286267 0.50203315011725735 0.52086203935312991 0.52158109140909314 0.51748056401371656 0.50311471696234589 0.48095208740204193 0.49551407921523455 0.51297942429979915 0.5199786894806212 0.48818535096045068 0.50356361844461084 0.50356361844461084 0.51035433056924828 0.50356361844461084 0.51583203969402014 0.50169024765997228 0.53405054776053196 0.51377617329678205 0.50263053849212225 0.51711485976850324 0.54365419391001935 0.51053951816293863 0.5018026644016973 0.49921526205129846 0.50103383846460015 0.50356361844461084 0.49185792434617476 0.48169630505252575 0.48726339952087644 0.50356361844461084 0.51161401813654916 0.51367881197640508 0.49888430450973908 0.50387607366134601 0.51125780472842586 0.49887264661223418 0.51872649733785092 0.51854312614853137 0.52554826615962957 0.51227118547937445 0.53459596859021707 0.4796282908170153 0.51847930445797086 0.51411955554263977 0.50356361844461084 0.50356361844461084 0.5015181991589841 0.51309249048729011 0.48250311499429333 0.5039503184030667 0.4882989181285104 0.47875065347371815 0.52566709015531821 0.50348566783011406 0.4908323198535382 0.50356361844461084 0.50356361844461084 0.52468628877530732 0.50356361844461084 0.47780747008096747 0.50356361844461084 0.50356361844461084 0.51877792630984232 0.49503514742073379 0.52327371052799276 0.51807380114918211 0.50405428472208191 0.49366102802806655 0.50992874451520098 0.47423335688609053 0.4952063555754731 0.50431190164367357 0.48727699610897851 0.4796096133722888 0.52071064829569647 0.48852291581337576 0.51605483685698861 0.50356361844461084 0.50356361844461084 0.48039723697932679 0.50356361844461084 0.51338509747224215 0.50041510846708626 0.47818880580611828 0.51071898731496712 0.50322556848552047 0.50384528171119958 0.50798883142704587 0.50657375858398512 0.51017106054990735 0.51674739069027831 0.49769517940602004 0.50356361844461084 0.52485081006394496 0.51604828034570405 0.49374616818475503 0.51300140418209905 0.50356361844461084 0.51272935700358768 0.50356361844461084 0.50944112058835489 0.50855577360419668 0.48347912427295509 0.51055617014983889 0.48966959303061119 0.51131892731561712 0.50356361844461084 0.50356361844461084 0.52776509542297934 0.50356361844461084 0.47904497898316184 0.50079667274970696 0.48034109345433806 0.50600582301176789
leaf_weight=139.57091337442398 5535.001403093338 114.97744727134705 128.08961260318756 18.184943556785583 53.501485258340836 3200.5358579754829 209.9949021935463 93.582963615655899 9.3272697627544385 699.95805105566978 3727.3081984221935 237.22497734427452 460.2133032977581 1046.7060300707817 515.96402141451836 2165.6281464397907 177.12560880184174 573.71973747014999 61.949885338544846 163.79811859130859 44.994926601648331 974.2397392988205 1726.315852612257 4900.1302553713322 3259.6637623906136 96.365920573472977 166.16963815689087 102.82394698262215 954.94814059138298 2835.4470728039742 722.86950653791428 186.43556913733482 11445.710549652576 14.783618301153181 106.625891238451 21.29547592997551 13.081873834133146 97.624033212661743 19.53557288646698 71.214669167995453 3180.8484891057014 3251.2338702082634 63.886427789926529 401.84865587949753 33.968076050281525 3627.6269004940987 98.196964263916016 133.04390999674797 1901.7955288589001 109.93253612518311 149.06833150982857 303.82374292612076 253.44957798719406 129.52410390973091 40.540255934000015 1131.9211711883545 520.65296858549118 1199.9904283881187 431.84221488237381 471.87392863631248 1043.6866329312325 4729.366949647665 79.602746993303299 111.341324031353 34.849109411239624 774.07061287760735 1278.3799785077572 582.583380818367 299.9027963578701 43.344849675893784 161.62461447715759 226.17649000883102 19.412764698266983 16.776155650615692 206.80699887871742 4190.0701044201851 219.17582404613495 560.99546980857849 32.919057995080948 2588.6554396152496 96.240948706865311 183.95638713240623 2441.6458595097065 12.261162728071211 1352.5907658338547 16.601679921150208 3224.3026434183121 3648.7381252646446 7994.3818225562572 65.049599319696426 86.0586097240448 71.68426513671875 40.180486083030701 139.67424845695496 786.86818486452103 222.33369660377502 359.82145887613297 130.75625240802765 244.57675844430923 1374.6603949069977 412.75434044003487 5962.9753041565418 578.7987459897995 33.033211469650269 2607.5081775784492 86.536860406398773 64.868632555007935 35.200224548578262 431.29039913415909 1700.8189341425896 1113.6364376842976 3427.3733906149864 182.79295486211777 79.680378675460815 161.62677815556526 1693.312411159277 2276.9853984415531 226.70234161615372 14.079224348068236 17.187593042850494 979.88865521550179 58.07463675737381 224.59106269478798 183.02991652488708 855.58748331665993 428.19258809089661 50.216477155685425 2723.759482473135 5423.837578445673 43.581811338663101 687.88296467065811 164.49602150917053 44.350854903459549 78.900516718626022 55.149398505687714 42.01152977347374 153.83543184399605 29.506914347410202 310.29855728149414 110.2146742939949 62.068366169929504 37.483554780483246 168.64042618870735 94.685812890529633 961.28119513392448 530.17418718338013 2551.2990203797817 239.7904457449913 919.09683182835579 29.866684198379517 58.535578012466431 537.17511388659477 148.88303738832474 15.369531422853468 326.40277415513992 1311.8638343214989 234.04789242148399 13.021551579236982 490.59960880875587 180.30944550037384 5928.2760877907276 231.01256731152534 63.30484202504158 45.462358891963959 53.968917548656464 681.75822249054909 101.48629972338676 56.095081478357315 14.372180908918379 17.657189011573792 719.56718900799751 176.29407930374146 1380.8958231806755 430.87437364459038 108.87486335635185 307.82802999019623 335.64375752210617 149.39374324679375 27.339901268482208 110.16517043113708 32.328817516565323 102.2123304605484 1808.3323497772217 510.07702311873436 399.32541808485985 88.871858179569244 18.301260709762573 136.77064698934555 29.506914347410202 17.478385925292969 112.92891502380371 22.943389177322388 243.72385290265083 99.140483558177948 235.70203596353531 139.96071398258209 92.212861180305481 719.2701658308506 500.56177407503128 237.41892617940903 9.1506303548812848 4808.4964777827263 15.483684897422789 405.4498995244503 135.0859512090683 86.114604622125626 549.38244539499283 71.979385375976562 102.12388038635254 109.63308852910995 11.207817316055296 44.344363868236542 24.701128542423248 24.810954660177231 42.412148773670197 29.683553755283356 5996.6683323085308 22.350985020399094 201.02117198705673 332.44719949364662 109.42858204245567 403.29128041863441
leaf_count=421 11638 320 427 50 153 7007 550 300 26 1550 8039 651 1169 2373 1510 4819 551 1610 179 488 128 2128 4696 10611 8247 232 417 262 2364 6857 1826 537 23052 43 247 62 37 296 57 196 7547 6639 186 1422 101 8811 266 367 4016 306 434 1012 639 357 124 3104 1243 3072 1410 1442 2707 9598 218 312 106 2079 3059 1377 752 106 475 574 44 44 630 10494 644 1587 114 6033 214 630 6430 36 3138 47 7364 9395 18025 166 243 198 105 389 2136 630 976 361 580 3635 1169 14399 1432 107 7220 265 154 105 1218 4132 2688 8567 514 262 480 4387 5574 706 40 47 2590 160 566 520 1846 1100 144 6828 10653 112 1944 476 129 220 170 139 483 82 810 281 182 101 440 276 2376 1311 5955 622 1973 101 142 1377 412 43 926 3395 756 33 1523 597 13827 647 196 125 150 1601 285 189 40 49 1777 525 3286 1069 299 923 888 509 84 302 104 338 4399 1581 1007 245 48 449 82 42 325 79 640 280 652 374 248 1903 1256 693 24 11295 36 1214 347 237 1424 203 269 291 39 114 79 62 117 84 13729 64 664 948 360 1100
internal_value=0.522618 0.519006 0.511185 0.524472 0.51433 0.527018 0.516691 0.509467 0.495257 0.519668 0.531244 0.51855 0.523094 0.520577 0.505739 0.523752 0.488803 0.51389 0.502019 0.510034 0.518469 0.539886 0.506838 0.52962 0.521657 0.492287 0.495676 0.528549 0.515231 0.519727 0.512015 0.514969 0.540712 0.48277 0.502047 0.508798 0.523337 0.508239 0.526932 0.510796 0.521971 0.536861 0.49969 0.477625 0.513176 0.518619 0.516174 0.516518 0.533357 0.49626 0.489343 0.484464 0.511189 0.51542 0.493462 0.505987 0.529764 0.510396 0.487805 0.491056 0.517341 0.538549 0.499723 0.491093 0.508088 0.510544 0.521064 0.52955 0.508857 0.495622 0.508262 0.506693 0.492678 0.492118 0.493861 0.516881 0.494489 0.498345 0.499466 0.523256 0.515943 0.472416 0.509193 0.518457 0.522876 0.491471 0.526001 0.514182 0.530387 0.495594 0.505119 0.508732 0.503533 0.501317 0.502708 0.4945 0.513206 0.502566 0.517077 0.508235 0.498037 0.521207 0.515109 0.504276 0.503848 0.504122 0.510252 0.501819 0.505884 0.518345 0.518345 0.517263 0.49638 0.491675 0.484622 0.51207 0.522067 0.486714 0.493467 0.48147 0.507524 0.49453 0.505373 0.508055 0.530454 0.511755 0.512857 0.51859 0.542019 0.528449 0.504379 0.493348 0.512067 0.513689 0.506075 0.497339 0.479133 0.52126 0.51602 0.503512 0.503111 0.523496 0.502294 0.506217 0.515905 0.514377 0.524041 0.50944 0.531553 0.498272 0.503875 0.511332 0.496948 0.484016 0.504525 0.514745 0.488331 0.48426 0.489066 0.484994 0.525614 0.499821 0.501058 0.517938 0.515174 0.528115 0.497236 0.487642 0.483082 0.485353 0.51677 0.499345 0.521856 0.517164 0.498208 0.496165 0.507927 0.476332 0.505771 0.511967 0.499932 0.482645 0.520546 0.490799 0.512251 0.514036 0.491456 0.486399 0.489992 0.497797 0.499276 0.495521 0.508598 0.506207 0.50922 0.503084 0.499798 0.512222 0.515125 0.495096 0.487027 0.524648 0.502881 0.495488 0.506192 0.499983 0.515829 0.509129 0.504761 0.51267 0.504948 0.527567 0.509599 0.503564 0.51582 0.514342 0.527666 0.513306 0.480128 0.499043 0.482678 0.503768
internal_weight=176908 146315 60201.4 86113.7 50283.6 64869.7 21244 26327.2 9917.84 23956.4 31209.2 21719.1 33660.5 13398.7 14304.3 31884.7 5063.14 12022.9 4854.7 7845.3 10912.2 30592.5 13234.5 24230.7 19251.8 1069.81 2378.74 19330.5 10811.5 9847.24 6619.28 10632.8 27133.9 2684.4 1211.39 2217.55 12364.5 10579.7 12632.8 2906.4 11086.2 6978.54 1104.76 1312.51 5838.66 6887.29 9531.75 7726.42 3458.62 2637.15 973.444 561.903 1775.81 6250.13 2102.4 5211.71 2486.46 5367.95 1371.89 922.857 5629.69 10264.4 1362.71 387.683 1279.78 3001.37 1476.29 1556.82 2224.53 1609.86 1203.75 1064.98 1274.44 1255.03 1126.94 4319.59 1467.37 738.121 1226.02 8083.97 739.411 739.64 4167.96 3002.28 4217.54 261.075 8135.62 5008.97 11194.9 607.02 1478.14 637.098 780.617 2654.8 2008.19 712.509 4008.56 841.046 572.061 2506.58 619.561 6423.19 1181.68 838.802 2705.13 717.08 197.913 1101.63 1205.36 4522.78 4586 3472.37 411.542 228.749 572.874 1930.54 5495.32 492.543 514.631 449.03 1805.32 146.727 633.89 457.837 2237.3 514.251 274.808 4424.58 16869.5 8250.22 1474.75 258.079 327.484 643.17 443.004 122.846 337.792 2864.95 1101.08 619.003 430.758 3218.33 628.807 263.326 2837.29 1876.01 4382.6 301.74 1965.8 398.042 654.606 772.993 373.466 48.2886 605.327 1842.04 408.696 247.069 507.376 436.519 5941.36 317.549 459.277 1000.41 776.838 1381.72 646.61 88.6522 70.4673 141.165 1029.87 325.177 1831.31 450.41 496.306 387.431 399.53 164.177 92.3895 276.335 142.261 118.814 1820.59 729.253 625.17 488.197 490.175 276.342 256.209 533.442 176.053 135.872 278.924 142.485 1215.59 395.972 256.011 1019.17 564.269 267.286 51.1622 4911.32 56.0239 506.936 269.134 141.264 1128.18 207.065 136.973 658.016 120.841 6084.59 159.727 49.5121 542.974 283.133 6040.25 80.8866 210.348 365.48 123.508 589.727
internal_count=423751 361289 158289 203000 128974 149539 53461 70147 29315 58827 69242 53830 80297 32651 39203 75631 15636 30944 13679 20810 27062 62462 35973 54564 46490 3230 7013 43953 27529 24167 17289 27131 54941 8623 3415 5936 29432 28453 29141 7662 26699 14678 3168 4356 15111 17058 24086 19469 7521 7743 2998 1788 4666 15889 6294 14255 5589 14198 4267 2810 14090 21236 3906 1182 3443 7928 3580 3505 5952 4749 3234 2895 3837 3793 3366 10851 4363 2138 3521 19255 1869 2535 11126 7444 10077 795 18921 12860 25032 1793 4067 1704 2178 7520 5632 2120 10371 2363 1432 6739 1799 15568 3009 2321 7516 1986 521 3111 3297 11226 11383 8695 1210 696 1821 5038 13222 1545 1543 1457 4879 439 1739 1230 4997 1343 710 10960 33705 18774 4080 776 852 1655 1208 361 1113 6939 2783 1728 1207 7648 1771 716 7183 4807 10367 801 4346 1155 1816 2027 1094 157 1671 4706 1269 789 1567 1385 13864 912 1306 2489 1976 3151 1888 279 229 449 2587 937 4412 1126 1440 1141 1074 552 250 719 410 385 4435 2225 1627 1252 1490 870 788 1552 509 404 745 386 3242 1110 736 2655 1435 794 163 11557 160 1499 732 407 2856 550 375 1707 330 13955 422 141 1373 723 13841 206 690 1055 400 1637
is_linear=0
shrinkage=1


Tree=1
num_leaves=223
num_cat=0
split_feature=27 23 24 24 23 30 30 23 24 23 30 23 15 23 23 30 23 30 30 23 30 22 19 24 23 22 15 30 24 24 30 9 29 19 30 19 19 19 6 19 23 23 22 3 19 3 5 29 30 23 23 30 3 24 1 23 23 30 23 6 29 3 19 9 23 30 30 8 29 23 30 24 19 8 59 29 6 24 3 3 24 23 8 23 29 30 8 23 3 9 5 6 22 9 30 19 8 23 22 19 22 8 22 8 23 30 9 23 29 23 25 29 29 3 6 3 1 3 5 5 3 29 23 19 8 8 3 19 8 6 9 23 30 3 29 6 8 30 29 24 8 3 9 29 29 3 29 23 5 23 3 22 6 30 25 3 23 3 23 29 8 29 6 19 5 6 5 22 3 3 9 3 8 29 22 25 3 6 6 19 19 3 3 25 24 23 22 5 3 3 29 8 30 8 29 30 24 9 1 3 19 29 1 8 6 19 3 8 25 1 24 1 22 19 25 30 8 23 29 22 9 9
split_gain=14455.4 8137.06 2275.89 2212.13 780.535 721.992 544.839 468.778 392.052 333.062 312.565 227.834 189.51 169.472 153.658 146.61 131.559 117.538 102.052 93.9548 88.65 84.1891 94.3607 79.4963 78.1508 68.6916 62.5101 114.088 59.0844 54.1889 50.4775 47.5409 42.3505 43.0723 41.3336 41.2796 39.8148 36.9186 43.9592 35.7992 34.993 34.9897 34.7877 32.6097 31.4695 31.4692 30.2369 29.8535 28.8274 27.553 27.5235 26.9628 26.7571 26.0708 25.7406 25.3024 25.1102 23.8673 23.8667 23.3736 23.3036 23.2927 23.3096 22.3369 22.2676 21.6339 21.3887 20.9581 20.7861 20.2936 20.1015 19.3351 19.2268 19.2235 18.8857 18.8215 18.6692 18.2346 18.0913 17.9276 17.2805 17.113 16.7793 16.5175 16.4052 16.2991 15.7025 15.4718 15.4372 15.1905 15.0286 14.7313 14.6832 14.3503 14.1845 14.1835 14.0141 15.414 13.7752 15.4677 23.0603 13.5993 13.5449 13.1988 12.9312 12.7961 12.4467 12.4432 12.4062 12.3478 12.2838 12.2624 12.2594 11.7481 11.5475 11.492 11.3596 11.1549 11.0924 11.0658 10.9689 10.9342 10.9267 10.8411 10.7287 10.7031 10.507 10.3858 10.2063 10.1345 10.001 9.89025 9.81119 9.51987 9.83879 9.14811 9.13281 9.35419 12.1623 8.89847 11.2156 8.86847 8.32919 8.27904 8.27548 8.26898 8.20236 8.19598 8.12378 8.07433 7.8567 7.85297 7.81808 7.80167 7.80019 7.77755 11.2664 7.73195 8.0591 7.7237 7.56947 7.35769 7.33955 7.25444 7.08447 7.08232 6.96044 6.91804 6.83845 6.83346 6.82058 6.64737 6.5515 8.07179 6.52784 6.46997 6.44907 6.44052 6.43913 6.2787 6.26678 6.40748 6.17276 7.12896 6.11071 6.09419 6.03178 5.96931 5.95116 9.10468 5.88683 5.87834 5.87534 5.68709 5.66846 5.45917 5.40382 5.33307 8.79398 5.31525 5.21778 6.73113 5.18499 5.1118 5.10239 5.08037 5.05981 5.05895 4.98732 4.94246 4.75977 4.73214 4.94193 4.58156 4.56856 4.56418 4.56047 4.46855 4.4225 4.38516 5.31721 4.57822
threshold=26.500000000000004 0.64748536967418546 1112.1500000000003 1344.1000000000001 0.59114385964912286 4556.5000000000009 4556.5000000000009 0.61293612155388477 889.4000000000002 0.68897913533834598 812.50000000000011 0.68665808270676698 1.0000000180025095e-35 0.64915300751879712 0.57335592105263167 2862.5000000000005 0.55483709273182968 1482.5000000000002 2070.5000000000005 0.62218909774436104 5112.5000000000009 0.79128070175438614 0.54125000000000023 761.70000000000016 0.72456090225563918 0.72815789473684223 1.0000000180025095e-35 650.50000000000011 585.70000000000016 1087.0000000000002 3660.5000000000005 75.500000000000014 4.5485858369352732 0.55791666666666695 1722.5000000000002 0.62125000000000019 0.57541666666666691 0.60625000000000029 26.450000000000003 0.63375000000000037 0.67276889097744375 0.63055432330827077 0.74047368421052651 6.5500000000000007 0.56791666666666696 7.1500000000000012 8.4500000000000011 4.5053345884235583 5112.5000000000009 0.60190046992481216 0.60849226190476202 3422.5000000000005 6.6500000000000012 1581.6500000000003 3.5000000000000004 0.71763831453634097 0.6816186716791981 3422.5000000000005 0.57814846491228067 21.550000000000004 4.6959141240107813 8.1500000000000004 0.55958333333333365 75.500000000000014 0.54738458646616561 2352.5000000000005 552.50000000000011 94.500000000000014 4.5485858369352732 0.57814846491228067 702.50000000000011 842.55000000000018 0.48708333333333348 118.50000000000001 1.0000000180025095e-35 4.3241107269113215 27.750000000000004 1646.7000000000003 8.3500000000000032 6.0500000000000007 1070.0500000000004 0.6837697368421054 102.50000000000001 0.63590131578947384 5.1845846780664209 2450.5000000000005 122.50000000000001 0.623807142857143 5.8500000000000005 73.500000000000014 1.6500000000000001 29.550000000000004 0.81110526315789488 68.500000000000014 2862.5000000000005 0.41375000000000012 126.50000000000001 0.53551578947368428 0.92321052631578959 0.61708333333333354 0.8659473684210528 105.50000000000001 0.79015789473684217 122.50000000000001 0.56412149122807032 380.50000000000006 75.500000000000014 0.66291231203007539 4.7578820629520608 0.68214307644110284 5149.0000000000009 4.6867395546766826 5.1269313471631675 5.5500000000000007 28.150000000000002 7.5500000000000007 4.5000000000000009 6.0500000000000007 5.1500000000000012 9.9500000000000011 5.9500000000000011 5.1269313471631675 0.54738458646616561 0.5654166666666669 111.50000000000001 114.50000000000001 5.9500000000000011 0.52375000000000027 121.50000000000001 27.850000000000005 76.500000000000014 0.58693386591478702 380.50000000000006 4.2500000000000009 5.2012518591713119 19.650000000000002 112.50000000000001 812.50000000000011 4.8081027000528378 952.10000000000002 106.50000000000001 6.3500000000000005 87.500000000000014 5.0139575654555903 4.7833076179467886 6.9500000000000011 4.4716224665663962 0.65473937969924823 2.7500000000000004 0.62049285714285729 8.9500000000000011 0.90156140350877212 27.250000000000004 1122.5000000000002 4478.5000000000009 7.3500000000000005 0.57052728696741861 6.6500000000000012 0.65172500000000022 3.6505739029280164 92.500000000000014 4.1820210059610323 20.050000000000004 0.65791666666666704 9.7500000000000018 22.350000000000005 5.0500000000000007 0.72461403508771949 9.1500000000000004 5.6500000000000012 72.500000000000014 3.3500000000000001 116.50000000000001 4.9870196042435371 0.82056140350877205 5524.5000000000009 6.2500000000000009 21.450000000000003 25.450000000000003 0.680416666666667 0.74708333333333365 8.6500000000000004 6.9500000000000011 5342.0000000000009 1070.0500000000004 0.71406610275689231 0.79247368421052655 5.6500000000000012 5.3500000000000005 7.3500000000000005 4.5053345884235583 95.500000000000014 2450.5000000000005 105.50000000000001 5.2806591939842535 1260.5000000000002 924.90000000000009 78.500000000000014 5.5000000000000009 9.5500000000000025 0.58875000000000022 4.1026092131977068 2.5000000000000004 123.50000000000001 18.950000000000003 0.48375000000000018 7.4500000000000011 93.500000000000014 4315.0000000000009 3.5000000000000004 1481.0500000000004 1.5000000000000002 0.9672456140350878 0.73708333333333365 3673.5000000000005 380.50000000000006 116.50000000000001 0.62164564536340861 4.4248287033199567 0.79015789473684217 59.500000000000007 77.500000000000014
decision_type=2 2 2 2 2 2 2 2 2 2 2 2 2 2 2 2 2 2 2 2 2 2 2 2 2 2 2 2 2 2 2 2 2 2 2 2 2 2 2 2 2 2 2 2 2 2 2 2 2 2 2 2 2 2 2 2 2 2 2 2 2 2 2 2 2 2 2 2 2 2 2 2 2 2 2 2 2 2 2 2 2 2 2 2 2 2 2 2 2 2 2 2 2 2 2 2 2 2 2 2 2 2 2 2 2 2 2 2 2 2 2 2 2 2 2 2 2 2 2 2 2 2 2 2 2 2 2 2 2 2 2 2 2 2 2 2 2 2 2 2 2 2 2 2 2 2 2 2 2 2 2 2 2 2 2 2 2 2 2 2 2 2 2 2 2 2 2 2 2 2 2 2 2 2 2 2 2 2 2 2 2 2 2 2 2 2 2 2 2 2 2 2 2 2 2 2 2 2 2 2 2 2 2 2 2 2 2 2 2 2 2 2 2 2 2 2 2 2 2 2 2 2
left_child=1 2 4 8 16 9 7 14 23 30 12 18 28 29 42 37 25 26 45 31 55 36 49 66 51 110 27 132 72 58 40 32 154 54 39 71 94 67 52 63 79 98 96 80 121 84 89 130 104 76 -35 117 144 150 -34 -7 91 142 -2 -37 170 62 74 103 -44 93 105 188 208 75 141 177 187 88 -49 -29 -23 -15 -65 129 194 143 -67 -70 116 87 163 -69 -24 151 -27 115 -75 -38 131 113 97 -4 99 119 -101 -64 -73 -21 210 193 -51 152 -71 136 122 -88 -111 -92 145 179 147 -11 124 -17 197 -43 159 -91 -66 -120 -96 -99 -72 213 155 -16 -18 -32 199 202 157 138 -138 204 -141 -62 -46 153 -39 174 -131 -10 -137 -54 -26 -36 -107 -47 164 156 -19 158 -68 -1 -82 -132 -115 -40 -12 -87 -142 -98 -59 -124 178 -97 173 -117 -58 -61 -118 -33 -30 216 181 -81 183 -42 -145 -162 -53 -6 217 -190 -48 -171 -173 -3 195 -13 -157 198 -20 -135 201 -106 -63 -139 -112 -163 -116 -161 -41 -147 -8 212 -109 -5 -181 -74 -25 -9 -185 221 -221 -122
right_child=13 3 6 5 10 20 48 15 11 24 19 43 -14 77 21 41 17 47 120 34 -22 22 73 56 53 90 -28 69 60 -31 133 35 33 50 46 59 65 38 86 68 182 44 64 -45 57 81 190 61 -50 106 -52 186 149 -55 -56 -57 114 168 -60 175 70 135 101 78 118 82 109 85 83 108 128 102 215 92 -76 -77 -78 -79 -80 180 160 -83 -84 -85 -86 165 111 -89 -90 123 95 -93 -94 -95 126 171 167 127 -100 100 -102 -103 -104 -105 200 107 -108 211 -110 112 139 -113 -114 162 206 172 176 -119 125 -121 219 -123 169 -125 -126 -127 -128 -129 -130 146 161 -133 -134 134 -136 148 137 203 -140 140 166 -143 -144 184 -146 209 -148 -149 -150 -151 -152 -153 -154 -155 -156 196 -158 -159 -160 207 185 205 -164 -165 -166 -167 -168 -169 -170 191 -172 192 -174 -175 -176 -177 -178 -179 -180 214 -182 -183 -184 218 -186 -187 -188 -189 189 -191 -192 -193 -194 -195 -196 -197 -198 -199 -200 -201 -202 -203 -204 -205 -206 -207 -208 -209 -210 -211 -212 -213 -214 -215 -216 -217 -218 -219 -220 220 -222 -223
leaf_value=0 0.024154805545689734 0.014558491388259969 -0.010214911358444665 0.020559636940372852 -0.013748016827736661 0.026903464624549855 0.011871926844490144 0 0.011709765256474561 0.023746558712396972 0.0072178871067263266 0.020548777506246212 0.019918276407722944 0.036696570110598292 0.0027524504597945467 0.01461337147649198 0 0 0.019127727028863253 0.0082920138383326073 0.033854461935684879 0.0041380168125275864 0.0030232497554741481 0.010989644358540203 0.024936381643464334 0 0.017752554392612571 -0.00071149349028056094 -0.011511474669036468 0.034736644832009195 0.025829036149048631 -0.0072708958664505219 0.0057159930151943709 -0.0056761533829906277 0.013416084957097197 0 0.00032252705686276214 0.013701838653936819 0.0036470178867556401 0.010380654014096966 0.015615130851601829 0.019234983078947283 -0.023833776032583107 0.016870500843673749 0.012393755253419231 0 0.01076794616819122 -0.0034950058509334251 0.027852670460140887 0.011148809554746824 0.0021933906082819039 0.012329499509833912 -0.0046531899378719592 0.029306324235559768 -0.0022366293566373732 0.032490397649500069 0 0.017501110029509576 0.031447201877660286 -0.022272322245217881 -0.0038274667384373753 0.0041016980922623861 -0.0018722314831069707 0.0047743174515627873 0.0026382696237885546 0.015157513218017291 -0.00042625144423338765 0.00757442897243859 -0.0089520631213413134 -0.0035359315316083862 0.0011465365744460409 0.0044949769320930706 -0.0047985611168804279 0 0.0029717061744599835 -0.013122887510194317 -0.0097910064837837905 0.039356628847497924 -0.0052543280784150548 0.016742445623073355 0 0 0.0039877866108095558 0.00054731637617158287 0.00038495031956669061 0.0059339654521294739 0 0.011639984313046865 -0.0055445965701156862 0.011332332895765972 0 -0.0029981302636854028 -0.016290325611206167 -0.024205557923889186 0.015776426115828617 0 -0.019999099399108679 0.0077729795840477157 0 0.010173821697783964 -0.019887730809148893 -0.018402610112687637 0.00024695895744255268 0.0012302819908407646 0 -0.022493081666765408 0.0053319999499246941 0.011834139721942432 -0.011392893457193992 0.012690971407786723 0 -0.028953422398025955 -0.0029652705980666339 0 0.0097682682476365745 0.0078601757569169758 0.0086522950989270427 0.020921912561084718 -0.017597599460834331 0 0.015037154404098937 0 0.0013461369115835076 0.0060433874742481363 -0.0076925644984502184 -0.0018277192614871247 0.010844029714405011 -0.00056562368350183349 -0.023835953600284572 0 -0.010478208660735691 0.0098686089688575212 -0.031909707180162665 0.021746507100281476 0 0 0 0.0052392107650781772 -0.015699309284891546 0.0024110777884083644 -0.0023601653118845768 -0.013941465116297732 0 0 0.0064222904608853774 0.010761398292490594 0.017231050554434066 0.014311843454248149 -0.018578057016404949 0.0053083595432677124 0 0 -0.0023658098041974478 0.011221004441757533 0.011903392532058729 -0.00735567213481483 0.0087179005541524572 -2.2085767496903836e-05 0.0074477852370062525 0 0.020801540768723394 -0.0045728825793912862 -0.02457080577279222 -0.0056761937281973622 -0.0050911722148769163 0.013752396290365482 -0.021213746022185467 0 0 0 -0.015706998184277603 -0.032290987401044774 -0.0045130778261318668 -0.0045793101678566536 0.020517704113080973 0 -0.00042431592194730282 -0.00077419547954610366 0 -0.00041743759039791387 0 0.0096524584525865525 0.018316948764462888 0 0.0086017340149019527 0.024005147289103863 0.025665607022081573 0 0.010109032088647319 -0.0088605315342044841 0.00041695813497425816 -0.011448747825439337 0 0 0.0001516641495800949 0.015213262741520406 0.0025285891326992443 0.015927973265050736 0 0.001720423159276405 0.01791823600785377 0.023490598148298018 -0.018400776324228332 -0.012712071787571416 0.0148950515123135 0.0036946561013650129 0 -0.016963889929005996 0 0 -0.0065123404491344008 -0.0048495123022289045 -0.0016180663579441451 0.0021531412557565261 0.007910004762289452 -0.022346464537723397 0.0058499673367964026 -0.015234296199501226 0.022028956837943887 0 0.016150764883291112 0.0085419394097599344
leaf_weight=11.454379394650458 575.98509234189987 30.624320447444916 54.054199442267418 3195.9613833874464 35.505759850144386 3874.576056137681 20.501120701432228 8.8846591711044294 1912.8617378473282 4880.9174239933491 632.65301017463207 635.24242016673088 176.5294273942709 13100.235456451774 252.46525451540947 3915.421125292778 11.079811304807661 169.69697576761246 2886.1327987015247 3230.212115213275 4377.3365679085255 1188.3195875138044 280.55852603912354 1143.6901340782642 2039.5135765969753 16.186610460281372 54.937599688768387 131.75861911475658 90.661330670118332 7467.3183739334345 904.32124075293541 170.66002322733402 3206.3636909276247 506.57624220848083 1213.3262179642916 88.592907607555389 15.531769305467604 773.61833019554615 291.02790389955044 137.6175575107336 316.07319284975529 2978.273736923933 71.161415040493011 2574.2922020107508 1539.0072381198406 52.625860676169395 53.057058706879616 836.94288544356823 1055.3104685992002 896.31334643065929 897.54424177110195 70.237486824393272 52.005603775382042 4009.2510063350201 300.46858671307564 1131.5106756836176 17.642205312848091 1744.9121305197477 4327.357838883996 96.839032843708992 235.38915823400021 30.048865079879761 95.580958962440491 2138.8301145285368 133.70377413928509 131.32120716571808 81.163663133978844 1158.7889543473721 201.71476836502552 778.30141320824623 450.53158755600452 1208.1852443963289 35.336245268583298 72.247679352760315 531.84880101680756 782.79406398534775 69.276037380099297 4839.6615537256002 126.44592651724815 3702.4552871882915 9.5034047812223417 103.47454878687859 803.13067953288555 325.15843400359154 93.257597103714943 160.23519706726074 26.875196740031242 3814.7787027657032 316.64040300250053 685.3996958732605 28.553188443183899 64.921205505728722 140.4177608191967 30.124020680785179 772.66794109344482 10.530540779232977 32.178946807980537 267.65054585039616 57.962607279419899 658.92341357469559 15.923654541373251 99.282119035720825 1167.3778371810913 262.65390266478062 11.307888075709341 53.870873108506203 579.75522996485233 32.308233797550201 225.28463858366013 175.77100598812103 33.498279750347137 23.636051625013351 27.685397520661354 9.1145354062318784 218.8400873541832 166.8914517313242 136.83116015791893 3131.0106577575207 104.23875775933266 56.948897406458855 385.53559713065624 11.468264907598494 42.852662190794945 845.72585324943066 135.54550884664059 80.732186958193779 1265.9760525822639 131.86198276281357 12.169871941208838 22.345904543995857 54.937340155243874 843.93175515532494 187.65338587760925 6271.9581963270903 10.748486146330832 14.687966927886007 41.962023943662643 97.114477828145027 67.526466995477676 34.781661406159401 53.936307728290558 138.75170631706715 31.893807172775269 130.64788018167019 243.37309145927429 76.422118037939072 1757.4411833286285 7412.1299815475941 122.54915362596512 469.84645612537861 15.635156661272047 24.346455439925194 46.179672464728355 1701.5926191359758 559.68461766839027 58.19354522228241 349.45859785377979 202.73227499425411 365.334756270051 31.945433542132378 3574.2280824184418 83.647492557764053 48.931156784296036 68.522049695253372 21.393358930945396 3490.2956367433071 45.301197052001953 8.1503272801637632 31.827641710639 20.580831289291382 209.85961562395096 241.52490265667439 56.213677495718002 32.928645640611649 343.81850908696651 10.093332067131994 47.875761613249779 545.6929694712162 91.48909991979599 75.779271706938744 16.842093527317047 205.47726187109947 1301.3265662640333 20.474561721086502 137.95390067994595 1577.5227165967226 5583.8813229352236 60.471069052815437 67.508785337209702 17.800184294581413 350.29066859185696 106.94076119363308 12.991603583097456 20.0599435120821 31.299493908882141 706.95571644604206 128.82633529603481 1523.5251681506634 18.329138219356537 26.582172632217407 551.37587463855743 1081.5976822823286 9.7502570152282697 9.792671322822569 21.442890048027039 145.4678548425436 24.054516091942787 354.44550853967667 45.597264841198921 19.23954176902771 14.321504235267637 121.94953073561192 13.419465675950049 28.853061810135841 66.353606760501862 320.83412846922874 309.38517297804356 26.080472022294998 4592.3456784039736 19.645666942000389 4195.7297021448612 303.92269492149353
leaf_count=30 1319 73 165 7564 112 8672 49 23 4870 11237 1666 1501 417 26722 686 9740 32 472 6914 8449 9179 3207 761 2927 4644 45 130 372 277 15527 2041 504 8555 1473 3045 249 40 1936 786 351 777 7127 236 6285 3896 146 133 2394 2339 2290 2457 175 153 8776 854 2401 48 4236 9286 317 677 78 273 5747 362 322 230 3046 602 2227 1241 3252 105 203 1446 2393 210 9608 369 9050 27 291 2169 899 256 424 76 9719 921 1748 79 188 441 102 1901 31 106 700 161 1696 54 317 3243 722 31 178 1549 79 683 441 95 83 82 25 563 435 354 7387 331 156 953 34 115 2249 402 231 3244 372 43 62 168 2178 648 14694 31 40 114 257 213 92 156 429 90 363 643 193 4277 18486 391 1255 42 69 134 4348 1420 174 908 568 959 92 8442 244 164 202 65 8743 149 21 86 55 655 835 165 98 811 28 137 1532 257 215 47 529 3137 54 357 3621 12637 168 171 56 970 326 39 58 84 1748 349 3748 51 70 1332 2493 34 33 50 391 69 1113 127 56 45 355 41 76 171 1043 822 84 10732 54 10306 791
internal_value=0.0186297 0.0150845 0.0074305 0.0204515 0.00156981 0.0240067 0.0121885 0.0111366 0.0150909 0.0224772 0.00405271 0.0161528 -0.00652834 0.0356712 0.00577707 0.0132692 -0.00701759 -0.00505156 0.0145751 0.00509244 0.0308529 0.00710074 0.00396299 0.00704926 0.025078 -0.0154477 -0.00977022 -0.0105577 -0.00939781 0.0331184 0.0201768 0.00313535 0.00455021 0.00337898 0.00698713 0.00045234 0.00976503 0.0109563 0.00736242 0.00568424 0.0192095 0.0154949 -0.00401694 0.0197838 0.0169134 0.0128342 0.009595 -0.00124229 0.0238321 0.00639357 -0.00053562 0.0238589 0.00946816 0.0277996 0.00499048 0.0281973 0.00984449 0.0148894 0.0306222 -0.0115537 -0.00612095 -0.003418 -0.00224194 0.00639267 -0.00890386 0.00471746 0.00166719 0.0117396 0 -0.00841929 -0.00330308 0.00126166 -0.017961 -0.00405027 -0.000869312 -0.011504 0.00324759 0.0374228 0.0041462 0.0179919 0.0209078 0.00959019 0.00572328 -0.00279607 0.0135364 0.0118965 -0.000162583 0.0107239 -0.00126048 0.0106218 -0.025366 0.00805255 -0.0111564 -0.0124765 0.0112937 -0.0265419 0.000868404 0.00252266 0.0135514 0.0137153 0.00923481 -0.0110891 0.00247259 0.00780529 0.0212129 -0.00428462 0.00896903 -0.00695242 -0.00545396 0.0035846 -0.0104248 -0.0146275 0.00980013 -0.0133842 0.0145283 0.00852368 0.0136491 0.0226621 -0.00622351 0.0144375 0.0167464 0.0191279 -0.0125376 0.00851209 -0.00198806 -0.0115517 0.0127895 0.00463362 0.000154332 0.0192578 0.0024261 0.00837115 -0.0304166 0.0221881 0.0216416 -0.0129306 0.00194484 -0.00246895 -0.00838793 -0.00325206 -0.00749636 -0.00799219 0.0121074 0.0101438 0.012112 0.0174428 0.0170233 0.0137947 -0.0162693 0.00401907 0.0247847 0.0131067 -0.0147509 0.0109025 0.0091616 0.00421701 0.00593329 0.00365432 0.00567001 -0.0152565 0.0217678 -0.0014816 -0.0203962 0.00143979 0.00657862 0.0134516 -0.0125274 -0.0138955 0.0172619 -0.00528006 -0.0117414 -0.0302562 0.00233499 0.00503588 0.0196762 -0.0201186 0.00546229 -0.00253802 -0.00632232 0.00941996 0.0163382 0.0164093 0.0209299 0.0215883 0.00461269 0.0218126 0.0255273 -0.0049212 0 0.00433686 0.00216245 -0.00871969 -0.0311852 0.00675375 0.0175632 0.017854 0 0.0179838 0.0190088 0.0216866 0.0215708 0.0232717 0 0.00214636 0.00428524 9.64173e-07 0.00840562 -0.0159485 0.00780571 0.00738499 0 -0.00137565 0.00450505 0.0204429 0.00238223 -0.0210401 0.0100019 -0.00890009 0.021964 0.0155978 0.0160843 0.0123986
internal_weight=176058 145748 60086 85661.9 26937.8 51487.1 33148.2 30413.8 34174.8 42103.7 20910 30171.1 1857.53 30310.6 8677.95 21735.8 6027.74 4902.73 21062.1 19052.5 9383.42 7658.68 3543.53 4003.67 19730.4 1125.01 2171.81 2116.87 1681 12370.7 22373.2 9412.13 6124.68 4910.95 9640.38 3287.44 4115.15 10693.3 1948.9 6468.23 15159.6 11042.6 1019.28 9109.04 6337.38 11729.3 3172.15 2730.92 2734.41 2733.66 1404.12 13666 1538.84 6064.4 3506.83 5006.09 2616.18 3347.64 4903.34 195.525 1228.85 1740.69 1563.65 5758.14 525.382 980.108 1387.49 8744.37 710.088 1918.14 836.842 3091.92 452.147 809.864 1368.79 914.553 1257.6 17939.9 2265.28 8929.38 6534.75 2126.29 934.452 526.873 9602.96 8624.1 410.061 4973.57 597.199 2768.8 367.833 1916.16 212.665 45.6558 3135.04 351.646 493.896 453.567 4705.18 4647.22 674.847 194.863 2375.56 3492.87 1679.1 318.412 1476.07 267.728 1003.59 1069.08 757.18 50.5112 203.456 86.5989 700.017 1851.24 9509.7 8011.93 454.22 3972.37 9332.82 2989.74 568.22 1531.13 269.249 184.971 2038.64 399.513 462.701 5004.6 990.228 1096.4 198.733 7213.61 6309.29 177.036 865.626 216.396 109.488 188.96 134.019 374.141 1570.9 2022.82 1016.99 457.122 1779.79 9324.99 137.237 521.852 2055.15 1237.67 100.051 1754.22 1213.73 706.175 519.156 649.231 446.498 397.845 5161.25 284.053 58.0457 359.55 654.046 3650.53 99.2375 40.3293 1776.74 170.374 392.01 265.047 256.034 199.82 361.461 106.932 184.707 716.353 182.15 1595.21 3924.77 3907.93 6230.22 4928.89 268.602 5151.75 5654.12 95.9768 120.274 85.309 403.348 127.522 254.517 50.6843 1373.5 1342.2 187.02 4427.99 2904.46 6298.54 1644.28 1092.91 39.7991 106.907 54.9412 229.115 242.895 386.391 183.215 95.6617 34.8226 167.677 45.7277 3224.81 142.133 356.17 1453.08 34.9651 4612.82 4904.83 4215.38 689.458
internal_count=423751 361289 158289 203000 74174 118291 84115 77826 84709 98039 56519 74133 5424 62462 23150 54676 17655 14164 52425 51095 20252 20224 9582 10576 44898 3491 6485 6355 5007 26132 53141 25615 16490 13339 25480 9125 10642 27400 5134 17266 36305 27276 2926 21708 15469 29608 8214 7679 6289 7256 3930 31436 3987 13462 9409 11073 6761 8308 10605 594 3579 4973 4430 15287 1562 2633 3815 22266 1979 5675 2390 8531 1428 2326 3840 2765 3417 36330 6116 21605 15423 5505 2491 1501 24103 21932 1147 12765 1682 7111 1218 5021 644 142 8009 1173 1364 1237 11807 11646 1750 590 6495 9171 3950 918 3839 787 2910 2897 2273 159 523 268 1740 4833 23847 18624 1326 9896 22817 7161 1731 3997 764 562 5145 1072 1284 11979 2706 2864 680 16836 14795 543 2374 617 327 542 397 1106 3986 5214 2579 1108 4339 23356 431 1408 4686 3114 312 4494 3151 1903 1380 1757 1189 1235 12090 803 189 988 1731 9167 305 127 4322 496 1189 905 698 533 859 345 491 2036 534 4135 9626 9579 14700 11563 720 12063 12812 280 334 227 1103 381 874 131 3333 3249 523 10713 6965 14764 3856 2524 112 290 145 635 632 1205 478 249 94 475 120 7640 386 1148 3749 107 10786 12104 10360 1744
is_linear=0
shrinkage=0.0271158


Tree=2
num_leaves=223
num_cat=0
split_feature=27 2 24 2 2 24 24 24 24 2 24 23 2 2 2 24 14 24 27 14 24 2 2 2 24 2 24 24 14 24 23 24 2 2 10 2 2 27 10 24 2 23 23 24 23 2 24 24 10 24 24 10 2 2 24 2 2 2 2 2 2 23 24 10 11 2 2 2 2 2 2 2 2 3 2 2 14 14 2 3 3 14 23 2 2 11 6 6 14 2 14 6 2 2 2 2 2 2 18 6 10 14 6 2 3 2 2 3 10 2 18 13 13 10 14 24 23 6 13 23 24 6 2 2 2 7 18 11 10 3 2 7 14 2 2 3 7 22 14 22 2 3 10 14 26 11 24 9 18 3 26 14 2 1 14 2 23 11 14 2 2 2 2 13 13 24 13 14 24 11 13 10 14 2 2 23 11 2 3 13 11 23 2 27 13 10 14 6 24 2 22 22 2 2 3 26 2 24 18 24 10 6 18 11 26 10 23 3 11 23 23 3 13 18 27 2 3 2 7 10 18 2
split_gain=13949.7 8225.43 6300.58 1926.8 1544.4 896.633 818.166 700.397 672.461 451.886 394.868 360.841 237.615 185.286 188.456 180.328 154.454 146.632 187.538 142.626 139.906 139.176 138.83 133.119 113.247 107.418 104.925 104.157 102.066 98.4013 98.1234 95.6011 94.839 129.412 91.3441 85.8906 196.787 78.7548 75.0372 71.8829 64.4371 60.2854 58.1065 56.1925 54.4539 52.231 51.8758 47.6059 46.0865 45.9132 45.0524 44.1545 42.7336 122.641 41.8825 41.6736 102.271 78.2641 40.8304 85.5006 53.973 40.0715 38.8412 35.8284 34.0859 33.2954 32.5649 47.6567 36.5903 49.3222 31.3359 31.1427 80.8341 30.8581 30.1414 37.3151 29.0967 46.0279 29.0479 28.7915 26.3654 25.3466 24.9692 24.2003 122.121 23.8799 23.8588 23.6545 26.9023 23.3789 23.2717 22.8709 22.7235 22.4272 21.9438 46.3137 28.2768 50.2467 21.2391 21.1611 21.0017 20.9686 26.3845 20.6657 20.4485 20.3729 29.7084 20.1238 20.0035 25.7402 19.9682 19.8985 19.6626 19.225 20.8004 18.6582 18.5837 18.2744 18.2472 18.0601 17.8155 17.3857 17.0458 18.202 21.3747 16.8458 16.7204 16.7123 16.6511 16.5978 16.4185 16.402 16.1563 15.9015 27.0861 15.7772 15.5212 15.4701 15.3598 19.9097 15.2953 15.2549 15.24 15.1486 15.0946 14.7311 14.2856 13.8736 13.8607 13.7487 13.8428 13.7213 13.4843 13.3843 13.3096 13.0847 13.0421 12.9421 12.8933 12.8539 44.3427 35.3806 41.9253 12.7638 12.7483 12.6564 12.595 12.5619 12.4584 12.1701 12.169 13.3807 11.9128 11.7634 11.7242 11.6991 11.1178 10.9906 10.8288 10.7685 10.5183 10.3806 10.3684 10.3519 10.3313 10.7423 10.5615 10.2869 10.0965 10.0154 9.94692 9.88983 9.85422 58.7155 9.83598 10.2078 9.81902 9.72313 9.57759 10.5284 9.82688 9.5268 9.46844 9.35857 17.4135 9.34265 9.29097 9.28726 9.27112 9.19395 9.14175 9.07039 8.83704 8.80131 8.73988 9.99705 12.0872 8.91569 8.73027 8.68797 8.67142 8.40687
threshold=26.500000000000004 132.50000000000003 1246.7500000000002 75.500000000000014 75.500000000000014 1430.0500000000002 850.35000000000014 1618.3000000000004 1681.6000000000001 192.50000000000003 877.25000000000011 0.64440905388471192 117.50000000000001 56.500000000000007 60.500000000000007 941.75000000000011 138.50000000000003 682.80000000000007 1.0000000180025095e-35 134.50000000000003 642.9000000000002 192.50000000000003 63.500000000000007 59.500000000000007 1848.45 56.500000000000007 1358.3500000000001 1115.7000000000003 127.50000000000001 1871.5500000000004 0.64830686090225575 1118.7500000000002 60.500000000000007 63.500000000000007 67.500000000000014 67.500000000000014 65.500000000000014 1.0000000180025095e-35 61.500000000000007 1073.3500000000001 59.500000000000007 0.68268289473684229 0.59597252506265674 996.70000000000016 0.60775927318295742 67.500000000000014 1634.9000000000003 585.70000000000016 65.500000000000014 1461.8500000000001 1773.0000000000002 68.500000000000014 65.500000000000014 66.500000000000014 1669.7500000000002 94.500000000000014 86.500000000000014 83.500000000000014 31.500000000000004 45.500000000000007 43.500000000000007 0.56412149122807032 1104.0500000000004 56.500000000000007 193.50000000000003 95.500000000000014 56.500000000000007 60.500000000000007 65.500000000000014 66.500000000000014 55.500000000000007 94.500000000000014 86.500000000000014 5.7500000000000009 142.50000000000003 134.50000000000003 103.50000000000001 93.500000000000014 162.50000000000003 5.8500000000000005 6.9500000000000011 105.50000000000001 0.6816186716791981 60.500000000000007 58.500000000000007 198.50000000000003 21.350000000000005 25.850000000000005 139.50000000000003 26.500000000000004 139.50000000000003 22.050000000000004 65.500000000000014 92.500000000000014 86.500000000000014 96.500000000000014 83.500000000000014 82.500000000000014 0.6407857142857144 21.250000000000004 76.500000000000014 134.50000000000003 24.950000000000003 18.500000000000004 6.1500000000000012 96.500000000000014 86.500000000000014 4.5500000000000007 58.500000000000007 162.50000000000003 0.6367857142857144 78.500000000000014 90.500000000000014 67.500000000000014 158.50000000000003 963.25000000000011 0.68489830827067688 20.650000000000002 91.500000000000014 0.61361453634085217 1646.7000000000003 22.350000000000005 134.50000000000003 169.50000000000003 185.50000000000003 0.78500000000000014 0.58159523809523828 157.50000000000003 76.500000000000014 8.9500000000000011 55.500000000000007 0.8650000000000001 103.50000000000001 96.500000000000014 86.500000000000014 7.8500000000000005 0.77500000000000013 0.87226315789473696 162.50000000000003 0.90342105263157901 98.500000000000014 6.9500000000000011 57.500000000000007 131.50000000000003 6015.3500000000013 166.50000000000003 751.1500000000002 57.500000000000007 0.61383333333333345 6.1500000000000012 4914.0500000000011 94.500000000000014 102.50000000000001 1.5000000000000002 113.50000000000001 65.500000000000014 0.66645986842105276 209.50000000000003 57.500000000000007 86.500000000000014 94.500000000000014 83.500000000000014 82.500000000000014 67.500000000000014 132.50000000000003 2030.0500000000004 130.50000000000003 139.50000000000003 751.1500000000002 153.50000000000003 82.500000000000014 69.500000000000014 135.50000000000003 47.500000000000007 32.500000000000007 0.6581383458646618 211.50000000000003 208.50000000000003 7.6500000000000012 75.500000000000014 193.50000000000003 0.66690234962406025 134.50000000000003 1.0000000180025095e-35 70.500000000000014 76.500000000000014 105.50000000000001 27.950000000000003 682.80000000000007 94.500000000000014 0.81492982456140373 0.95538596491228089 32.500000000000007 34.500000000000007 5.6500000000000012 5238.5000000000009 135.50000000000003 1269.0500000000002 0.63264285714285728 1827.4000000000003 64.500000000000014 19.750000000000004 0.61121428571428582 201.50000000000003 4611.1000000000013 58.500000000000007 0.63811027568922318 7.0500000000000007 163.50000000000003 0.59479614661654157 0.64126036967418554 6.8500000000000005 61.500000000000007 0.64916666666666678 19.500000000000004 139.50000000000003 7.7500000000000009 134.50000000000003 0.81500000000000006 57.500000000000007 0.66935714285714309 29.500000000000004
decision_type=2 2 2 2 2 2 2 2 2 2 2 2 2 2 2 2 2 2 2 2 2 2 2 2 2 2 2 2 2 2 2 2 2 2 2 2 2 2 2 2 2 2 2 2 2 2 2 2 2 2 2 2 2 2 2 2 2 2 2 2 2 2 2 2 2 2 2 2 2 2 2 2 2 2 2 2 2 2 2 2 2 2 2 2 2 2 2 2 2 2 2 2 2 2 2 2 2 2 2 2 2 2 2 2 2 2 2 2 2 2 2 2 2 2 2 2 2 2 2 2 2 2 2 2 2 2 2 2 2 2 2 2 2 2 2 2 2 2 2 2 2 2 2 2 2 2 2 2 2 2 2 2 2 2 2 2 2 2 2 2 2 2 2 2 2 2 2 2 2 2 2 2 2 2 2 2 2 2 2 2 2 2 2 2 2 2 2 2 2 2 2 2 2 2 2 2 2 2 2 2 2 2 2 2 2 2 2 2 2 2 2 2 2 2 2 2 2 2 2 2 2 2
left_child=1 2 3 6 7 9 17 13 16 15 20 25 31 30 23 79 26 18 47 39 37 34 -16 82 66 43 94 63 51 87 158 130 40 -34 54 36 -24 117 132 61 151 52 184 137 153 -35 113 126 62 78 74 108 83 180 122 56 57 -28 89 60 -60 125 149 172 -25 -57 179 -68 -69 -70 112 72 -63 143 75 203 77 135 -14 99 128 -37 -15 84 -13 136 -40 -10 152 103 131 -53 191 -58 96 -96 97 -6 146 -3 -73 102 141 -32 -43 106 -78 210 -17 157 -111 -79 211 114 178 -80 -88 -5 -97 -42 155 -115 -7 -124 -125 -12 -1 -55 144 159 -2 205 -29 134 -75 -41 177 145 139 -50 -107 -76 -101 213 -21 -8 -72 -119 214 -30 -151 -27 -89 170 -67 -33 -141 -110 -4 161 -161 162 -18 -82 -134 -31 -149 -150 -114 -45 -22 -172 -11 -61 -171 -128 -109 -65 219 -9 -54 -98 -52 -144 185 186 -19 -166 -135 208 -100 -49 -160 -194 -103 -196 -64 -84 199 -133 -200 -186 -104 204 -36 -48 -77 -165 -155 -203 -93 -44 -139 -46 215 217 -217 -81 -191 -23 -221 -91
right_child=12 5 4 10 8 21 11 24 29 27 19 41 49 14 22 28 129 42 -20 80 44 46 35 64 -26 32 55 38 48 165 58 120 33 45 50 81 -38 -39 86 76 119 104 70 169 73 -47 90 92 138 -51 182 91 53 127 -56 65 93 -59 59 173 -62 71 196 85 -66 154 67 68 69 -71 98 100 -74 133 101 206 105 111 115 148 163 -83 197 -85 -86 -87 116 88 -90 221 -92 107 -94 -95 95 118 181 -99 190 142 -102 194 202 -105 -106 140 -108 176 109 110 -112 -113 168 121 -116 -117 -118 147 -120 -121 -122 -123 123 124 -126 -127 175 -129 -130 -131 -132 198 164 188 -136 -137 -138 212 -140 156 -142 -143 183 -145 -146 -147 -148 166 167 150 -152 -153 -154 189 -156 -157 -158 -159 192 160 -162 -163 -164 207 187 -167 -168 -169 -170 174 171 -173 -174 -175 -176 -177 -178 -179 -180 -181 -182 -183 -184 -185 201 -187 -188 -189 -190 218 -192 -193 193 -195 195 -197 -198 -199 200 -201 -202 209 -204 -205 -206 -207 -208 -209 -210 -211 -212 -213 -214 -215 -216 216 -218 -219 -220 220 -222 -223
leaf_value=-0.0031464876179895631 0.035110196446335749 0.00057261415754020705 0.0030832257251816393 -0.0057833077315020704 0.0053380556934654816 -0.0058816945407187769 0.005774065251252459 0.018177808079915845 0.025193435151414059 -0.016708835776763405 0.00030960974791095118 0.018388959813073789 0.027906736964162491 0.013444554995655812 0.02760441886474448 0.0020141831877605529 0.015347083005663738 -0.013413431196702115 0.024484739386061844 0.011193433482188125 -0.013176326684824101 0 0.021360933580974677 -0.0075950585021355268 0.032142137573163816 0 0.014833716996184474 -0.014250253319545816 0.0013009931584545334 0.025427120616680985 0.029768323329452888 0.037372023315742214 0.020694105119812622 0.0032507538091451653 0 0.016984490395219515 0.0038106423633864264 0.013007643023116949 -0.0034348670197094306 0.0083723093526692303 -0.021789656526049132 0.022744246052043782 0.0090410512930016347 0.007749879189871081 0.0031534416363091593 0.011019527363915852 0.015047914824426032 0.00088455820283024926 -0.00024396496791726576 0.033228144059075933 -0.0030628598516758633 -0.0031524808492363375 -0.021412614324449117 0 0.017186422685582094 -0.00028348666093568146 0.018793473445740276 0.0039312249764928194 0.02295756601571463 0.030721209493918999 0.014812166297885227 0.00023277995046364476 -5.9049837066441081e-05 0 0.0072022782102412683 0.01055526308061195 0.018716827799227065 0.031053135792900199 0.0013340214470078696 0.025040684213680581 0.0024131705228766448 0.0009761541716893894 0.0095862971485296041 -0.0033826252012895798 0.005054601542369459 0 0.0058984859069465666 -0.010909024937990433 0.011659425854251775 -0.016008343579687497 -0.01054634773722086 0.022530386647379993 0.0017782826424591481 0.022590426066596472 0.0025104611724761118 -0.016000206296707377 -0.022229938828576622 0.018928566371212898 0.023081844051907656 0.034126795519747302 0.010012806839221891 -0.0089227998088244592 -0.0109423128379525 0.026716678131032796 0.014869297996506287 0.0033913703702715334 -0.0045278830962736235 0.021575899094681588 0.0050721883649984542 0.00012584232681999466 -0.0060583170070743165 0.0090964850774071758 0 0.022636820553689381 0.018520660534980075 -0.001598497192597676 0.012112449614055732 -0.016387424066228014 -0.0038067741585578641 -0.0066682222771149331 -0.02040220346079635 0.00038385851505656418 0.0080731695578159322 0.0012924848281765419 0.0095350297928019703 0.023249250820615359 0 0.0015926125464500224 0.0095097252823437388 -0.0036917474657479472 0.038895906024045655 -0.02466722077502893 0.011019189695667779 -0.0033020030860152184 0.017244592589954963 -0.015214134944431832 -0.017368117603598097 0.015406280019180927 0.0056161288375475007 0.0017800531890871944 0.031546896768853576 -0.028283570245764188 -0.0015998378328681508 -0.017787393363052514 0.0063099708583847242 -0.00030771559585889339 -0.029780227397400664 0 0.0060311204046312123 -0.014355149013172076 0.0056914734955180466 -0.01610550837479037 -0.01403855986073314 0.008588552625171459 0.022303955803229882 0.011517939533366803 0.0093888749848915105 -0.020804333771440753 -0.025426882055189441 -0.019138126485379759 0 0.0073398877244636633 0.012834800528617817 -0.0060332221247519253 0.014062039080982327 0.0349667947653255 -0.0025595397048085418 0.0080292433990949881 0.024008478433492492 0.023935318874415284 0.016959893282942621 0.0071470061893109168 0.028687544609242631 -0.0012689661154667875 -0.047230384021908968 0.030277202362000516 0 -0.0056671138487794882 0.014479608950189887 0.019819466423397544 0 -0.010447840007040078 0 0.026022451096888874 0.015648481278889723 0 0 -0.019547866448909275 -0.02288360992332077 0.028892946335390773 0 0.0065531956144713206 0.012400702326311467 0.004942607913067454 -0.0035076319822061218 0.0058419216808000491 0 0 -0.0035896757188649282 -0.00078710012798928247 -0.0042317560211398691 -0.015021352808725604 0.0058634862870289572 0.020711652366708352 0.0023722849896591143 -0.014928563848917636 0.010361959077621576 0.02124715481516393 0.0026180824615494912 0 -0.011381995738657353 0.0061379275856674569 -0.016983785299791512 0 -0.033356767877949091 0 0.012313173862850751 0.0069542878739714525 0.0030865328905015552 -0.0074771014595697589 0.0046185772460295019 0.0021417337650986861 0.019562538056028353 -0.0049258363574791056 0 -0.013515311351206595 -0.026904982476654751 0 -0.0089343333477218921 -0.011757455632447386 0 0.027275428800805912
leaf_weight=159.05656260251999 2996.289738163352 96.006613999605179 51.401808589696884 120.90916147828102 942.03179071843624 48.390300258994102 559.81500482559204 149.61300571262836 967.2865249812603 189.71990765631199 51.169516518712044 7001.213709756732 1507.55485907197 1456.8213138282299 2156.7940102666616 275.8717432320118 1149.4716856330633 102.27086804807186 179.22312386333942 2725.477755010128 285.16936121881008 113.70102785527706 1233.1479162424803 232.06882576644421 6422.35844373703 212.65074472129345 2573.174092322588 144.63245752453804 126.14606636762619 1806.1375111490488 775.718022570014 8089.4013058692217 873.47921411693096 976.8316622376442 16.064405113458633 1028.8622010797262 797.58853381872177 63.861566126346588 82.597773879766464 921.27427215874195 75.10180726647377 3159.9819413423538 627.17454072833061 187.93184453248978 570.9429673999548 2247.2022102326155 43.193877190351486 862.00290939211845 470.25190784037113 1018.9622348994017 18.502668663859367 232.56592360138893 65.312472954392433 34.45465824007988 718.53588093817234 129.38225771486759 1750.0577076971531 647.15762403607368 4957.3224472999573 929.93245175480843 815.08503301441669 1703.4921729117632 42.234176754951477 22.144661247730255 225.04229170084 1988.1870732605457 841.29268302023411 1170.1235258132219 81.039628803730011 1957.2736229598522 384.40052410960197 2378.1672333031893 1170.3272865712643 481.79928109049797 103.92949639260769 59.252635300159454 1397.636700630188 128.51909063756466 205.92845106124878 39.154218256473541 28.260056346654892 4081.5103748142719 37.440148651599884 1054.9525651037693 399.20315705239773 188.97587767243385 668.92438428103924 1492.3466011583805 1253.5390241891146 806.97505542635918 195.38935770094395 82.112074628472328 154.16803592443466 459.08983983099461 1188.7971580475569 590.07558327913284 213.68801619112492 177.67235924303532 144.30772139132023 45.346587270498276 358.96404103934765 81.460450753569603 13.686532884836195 1099.7722802311182 1960.6444672495127 204.82903255522251 1166.6968054026365 661.23782075941563 895.76983496546745 333.30702789127827 133.85987691581249 895.36387938261032 445.52529212832451 10.194276854395865 45.583302855491638 532.79156516492367 29.368589922785759 8.7870987802743894 1494.0825119763613 150.07362937927246 4905.3615610897541 92.019021242856979 691.25265519320965 152.27335186302662 47.71023553609848 142.40182885527611 290.24488791823387 1714.2269083112478 488.3840808570385 66.164232850074768 4248.1466156542301 29.962698966264725 402.82046030461788 48.220419809222221 370.79621125757694 144.23071375489235 977.33847887814045 10.987627714872358 111.5012613683939 184.31891025602818 1734.0034070760012 32.988043665885925 466.08598838746548 417.82211451232433 124.71123017370701 1740.2667261064053 821.13706542551517 522.95080500841141 301.39192990958691 61.957648649811745 30.597625628113747 737.77234494686127 567.50549651682377 119.25719970464706 2519.6694028973579 6513.6813887804747 171.00216419994831 66.007721602916718 1002.4901012927294 1224.8704288899899 2255.4864849001169 336.10914944112301 248.20283007621765 78.828964278101921 8.7458113282918912 1305.0910271555185 9.2248156070709211 48.55382576584816 1124.0784306824207 993.95063179731369 176.76643274724483 148.67374917864799 44.205876633524895 4429.1297331750393 3840.4048396795988 49.254264354705811 28.200291529297829 53.372949481010437 42.97368386387825 6638.4680044949055 38.207087635993958 81.745108932256699 285.58252701163292 9.7351815253496152 117.19400794804096 42.842090636491776 71.20194773375988 7.021737501025199 544.81830494105816 219.19281704723835 201.0483513623476 29.359886229038239 237.44512394070625 3870.6153809130192 45.678873792290688 37.094269379973412 575.09120856225491 668.85968814790249 75.375972479581833 18.030164524912834 56.855327531695366 373.8191754668951 194.77818715572357 23.54129733145237 26.726818084716797 117.84190084040165 213.94942556321621 906.91254696249962 259.80468225479126 30.557349398732185 50.532483711838722 264.69410181045532 231.27472920715809 107.98908926546574 10.699037596583365 316.60339502990246 105.2584416270256 72.586679816246033 276.61574847996235 198.86371593177319 53.318896308541298 582.71827638149261
leaf_count=456 6226 263 137 354 2522 144 1491 359 2201 596 139 16896 3352 3662 4799 754 2845 316 407 6974 874 317 2900 687 13728 595 6398 448 345 4104 1691 16448 2062 2655 44 2510 2161 158 239 2407 246 7349 1629 491 1551 5754 104 2382 1316 2155 56 666 214 99 1750 365 4208 1751 11512 2009 2026 4737 121 60 592 5114 2025 2522 221 4461 1049 6576 3029 1379 276 165 3726 390 523 125 88 9508 100 2452 1090 591 2170 3586 2906 1687 502 247 467 1027 2951 1601 619 414 384 123 1048 209 36 2559 4726 581 2961 2067 2569 977 432 2486 1165 25 115 1233 82 21 3873 433 9825 306 1769 438 113 444 914 4238 1303 179 9137 104 1138 155 982 406 3318 32 294 571 4629 106 1435 1088 288 4438 2128 1681 999 200 83 1943 1432 350 6303 13563 489 170 2302 2816 5509 886 544 225 36 2837 23 144 2798 2366 490 449 124 10006 9477 140 78 173 143 14620 109 214 722 23 338 111 198 20 1561 617 581 94 631 9157 122 118 1478 1574 203 51 175 991 614 65 96 328 540 2396 704 93 133 723 549 315 27 972 354 202 824 605 148 1299
internal_value=0.0182168 0.0147357 0.0167403 0.00985197 0.0218249 -0.00603988 0.0138021 0.0247281 0.0166605 -0.0108144 0.00346316 0.0157962 0.0350473 0.0223 0.0195632 -0.00659395 0.0140624 0.00507141 -0.00163057 0.00542424 -0.00341431 0.00475881 0.0213995 0.0129883 0.0291472 0.0124012 0.0126034 -0.0198053 -0.00384298 0.0236813 0.0239597 0.0359107 0.00934704 0.0113054 0.00796769 0.0195037 0.0145442 -0.0143967 -0.0140755 0.00392056 0.00238941 0.018611 0.00753533 0.0145098 -0.00139707 0.00871372 -0.00335122 -0.0047622 0.00115848 0.0279252 0.00194561 -0.00711274 0.017331 0.0132797 0.0120626 0.0141923 0.0159009 0.0126908 0.0251595 0.024271 0.0218342 0.00168252 0.00584848 -0.0249188 0 0.0121583 0.0273581 0.0251046 0.0267312 0.0241741 0.0088234 0.00212391 0.00409575 0.000961263 -0.0010972 0.00492714 0.00586761 0.00308975 0.0254506 -0.0147413 0.00967147 0.0214442 0.0157985 0.0182001 0.0175533 -0.0268985 -0.0196113 0.0208612 0.0195497 0.0281411 0.0024388 -0.0115624 -0.00130637 0.0205102 0.00915848 0.010448 0.00606673 0.00805307 0.00559236 -0.00967349 0 -0.00541454 -0.00929271 0.0256692 0.0211573 0.00712211 0.00878604 -0.0137533 -0.0042692 -0.00559054 -0.0109352 -0.000882683 0.0107963 -0.009211 -0.00631622 0.0202282 -0.021303 -0.0172748 0.00785174 -0.010416 0.036968 -0.020565 0.00797958 0.00890586 0.000827214 -0.0103116 -0.0116989 0.0150216 0.0108854 0.01811 0.0330421 -0.00144465 -0.00612531 -0.00156225 0.000651297 0.00705217 -0.0287074 0.0110307 -0.00286071 -0.00424911 0.00484152 0 -0.0118578 0.00442854 0.011734 0.0101873 0.00729298 -0.019557 -0.0180657 -0.0034645 -0.0116299 0.00558617 0.0173249 -0.00553746 0.0125497 0.0363098 -0.00911413 -0.00283349 0.0205834 0.0182876 0.0194594 0.015846 0.0178271 0.00552197 -0.00294794 0.0275115 -0.020197 -0.0231277 0.0127598 0.0162401 -0.00876928 -0.00443177 -0.0137473 0.0268668 0.0165381 -0.0152497 -0.015675 -0.0127712 -0.00846213 0.0286796 -0.0146494 -0.000937972 0.0109509 -0.0133249 0.000321578 -0.00440727 -0.00783054 -0.027551 -0.0050054 -0.00310488 0 0.000186834 0.0207291 0.0198911 0.0017994 -0.00351359 0.00939842 0.0204342 -0.00739519 -0.0183923 -0.00223229 0.0025795 -0.0153662 -0.0123202 -0.0199 0.00425438 0.00968145 0.00613973 0 0.00472627 -0.00259791 0.00716697 0.0183989 0.00164042 -0.0145263 -0.0150761 -0.0172237 -0.00558225 -0.00564467 -0.0063446 -0.00915047 0.0313656
internal_weight=175193 145175 132407 56242.8 76163.9 12768.6 34739.5 48736.9 27427 8863.86 21503.3 28265.9 30018.1 31476.7 11918.1 6043.99 20035.1 6473.56 1723.31 16749.7 4753.6 3904.7 9297.9 2620.23 17260.2 12837.7 14754.8 2819.87 4532.57 7391.91 19558.6 26752.9 5273.11 4097.51 2811.4 7141.11 2030.74 725.733 1344.11 12397.1 1175.6 15428.2 4750.25 7564.63 4027.87 3224.03 1093.3 1544.09 1773.1 3265.24 1153.24 2759.46 10307.6 1852.2 1658.16 10066.7 5429.48 3220.33 14396.7 11131.5 5772.41 5804.52 836.027 1475.76 457.111 4637.24 10837.8 4049.73 3208.44 2038.31 4012.37 5610.95 2873.82 2542.39 849.15 339.535 6592.55 2089.39 2246.27 1511.42 4352.57 5110.37 2163.12 8455.37 7400.42 1241.83 780.891 4280.68 3313.39 3265.18 536.649 1054.65 1045.53 2209.15 4688.09 3272.96 1415.14 1119.7 1550.89 617.174 2737.13 509.616 345.382 1875.49 5120.63 4503.17 2564.33 822.083 1704.82 1428.94 467.167 1023.88 2461.47 556.654 454.441 738.72 698.293 661.872 2084.16 225.175 19508.4 102.213 939.627 891.236 199.984 193.571 498.556 1748.68 3338.57 5280.3 7244.44 341.26 563.22 1445.63 852.595 1065.5 1052.86 2542.34 937.074 825.573 1938.83 136.918 521.168 1096.75 2850.19 2300.08 1205.54 540.963 894.248 218.701 92.5553 950.423 2059.85 1485.48 4507.86 14603.1 355.321 961.778 5161.95 5214.14 3480.36 1733.78 1397.67 1014 418.588 3111.23 532.176 349.946 1569.6 5022.29 610.61 325.44 233.926 5359.06 4834.36 339.499 689.438 75.5176 408.857 6788.08 103.52 295.433 304.085 475.821 737.885 216.315 173.473 15.7675 593.039 874.87 345.356 891.363 5110.55 4108.06 164.234 82.7731 617.325 706.3 180.224 47.9929 132.231 521.571 208.465 66.3325 42.7912 161.036 273.202 985.742 379.062 404.377 132.645 891.869 242.262 678.932 544.302 533.603 421.862 111.741 495.809 365.884 252.183 1389.69
internal_count=423751 361289 324128 145478 178650 37161 87069 111445 67205 26652 58409 69705 62462 73509 28493 17657 50139 17364 4860 44833 13576 10509 21878 6615 37936 32532 37360 8995 12990 17066 45016 55199 13688 10471 7383 17079 5061 2237 4133 33559 3217 37173 12504 18844 11339 8409 3126 4453 4897 7263 3169 8093 25098 4660 4214 25166 13384 8149 32789 25553 13538 15973 2227 4862 1279 11782 24208 9229 7204 4682 10457 15390 7766 7031 2391 910 17586 5689 5108 4667 11274 12018 5336 20438 17986 4142 2491 10125 7924 7236 1467 3191 2943 5235 12194 8425 3769 2936 4142 1844 7624 1481 1032 4250 12075 11897 6687 2525 4902 4148 1409 2876 6315 1659 1328 1756 2252 2079 5474 679 39836 331 2464 2320 551 583 1510 4337 8565 12779 15363 965 1642 4077 2361 2813 3551 6510 2670 2376 5210 382 1581 2954 7262 5929 3177 1725 2823 628 283 2538 5018 4308 11417 30011 1060 2739 12227 12600 8325 4275 3389 2709 1194 6941 1704 1143 3963 12334 1813 939 720 12015 11843 1054 2145 233 1213 14979 323 833 778 1458 2047 625 514 56 1716 2495 965 2476 12090 9788 449 240 1599 1674 533 155 378 1422 650 205 140 432 705 2621 1054 1084 380 2352 581 1866 1680 1653 1326 327 1441 1070 753 2986
is_linear=0
shrinkage=0.0271158


Tree=3
num_leaves=223
num_cat=0
split_feature=36 23 24 24 23 20 20 24 0 20 24 0 36 36 23 23 23 18 20 23 20 0 20 24 24 20 5 18 23 0 5 20 20 18 0 20 5 0 5 23 10 23 23 24 24 23 24 5 25 20 0 20 20 0 24 0 0 24 20 36 22 20 24 29 18 20 20 25 13 0 0 23 24 29 20 5 24 29 24 0 0 5 24 29 10 29 0 6 29 29 26 29 20 25 5 20 22 5 11 25 20 19 10 12 24 26 20 29 20 20 25 25 20 11 22 29 18 5 0 29 19 20 20 23 29 0 20 11 29 24 5 20 11 19 29 11 0 29 6 0 18 22 20 29 20 20 11 29 5 11 6 19 0 25 24 5 25 26 19 6 0 20 6 10 20 6 10 18 13 19 11 24 29 0 5 29 11 5 0 18 25 26 6 13 11 0 5 5 0 19 18 22 26 18 13 11 29 25 23 22 22 20 20 5 20 18 13 23 26 29 20 29 23 20 20 11 13 26 13 0 24 20
split_gain=7963.19 5965.49 1706.52 1534.45 922.849 910.087 857.269 487.65 475.731 408.926 405.09 336.672 286.106 219.199 212.132 193.641 184.209 174.05 159.89 158.455 151.661 135.534 110.421 106.815 103.973 97.6881 89.1518 87.7887 84.5545 78.2912 73.7352 72.4541 71.1231 59.8583 57.3733 55.7948 62.7105 55.1049 53.3893 47.8459 44.6966 42.0142 41.3172 40.1763 39.5472 37.3952 35.5775 35.5283 34.2132 32.9995 31.2923 31.237 31.0191 30.8517 30.7128 29.8721 28.5849 25.6347 25.3867 24.0658 23.2665 22.8097 22.1909 21.809 21.4622 21.3714 21.1232 20.8957 20.6524 20.5596 20.2824 20.1004 19.7946 19.6043 19.5297 19.4805 19.405 19.3974 19.1357 19.1259 19.0594 18.9895 18.8178 18.6939 18.6219 19.697 18.5195 19.3565 18.4394 18.2399 22.0497 17.6057 17.5736 16.867 16.778 16.6227 16.5994 16.5556 17.7152 16.4603 16.1843 16.0239 16.0184 16.0079 15.8236 15.5891 15.4888 17.8858 14.9717 14.61 14.5913 14.4922 14.0932 13.5832 13.5353 13.3893 13.1901 13.1823 12.9993 14.654 13.2156 12.9008 12.4785 12.3446 12.241 11.9541 11.7862 11.7671 11.7208 11.6173 11.5431 17.0613 11.4905 11.3508 11.1257 11.0438 10.9027 10.8803 10.8721 10.8396 10.8116 11.1035 10.7674 10.7297 12.7554 10.7256 14.5172 11.7517 11.15 10.6 11.7802 10.3857 10.23 10.1689 10.0971 13.818 9.90282 9.86439 9.34629 9.16757 9.13399 8.99284 8.91982 10.2025 8.91423 8.90666 9.9436 8.899 8.8375 8.7436 11.3606 8.64007 8.56459 9.07725 8.55048 8.44548 8.4222 8.37087 8.26006 9.14673 8.07918 7.97829 7.91755 10.3022 7.91124 7.84148 7.81348 7.65969 7.48776 7.41147 7.40366 7.35578 8.58841 7.32198 7.32143 7.25824 8.73338 7.13471 7.112 7.07378 7.00762 6.91306 6.90971 6.76911 7.33929 6.70026 6.65987 6.52561 6.42026 6.35175 6.34787 10.9179 10.3405 6.34245 6.26822 6.16225 6.13872 6.13731 6.1107 7.13314 6.10001 5.92566
threshold=1.0000000180025095e-35 0.64790748746867177 1112.1500000000003 1355.3000000000004 0.64915300751879712 0.32117857142857148 0.30210714285714296 699.10000000000002 67.500000000000014 0.32117857142857148 761.70000000000016 67.500000000000014 1.5000000000000002 1.5000000000000002 0.68897913533834598 0.68665808270676698 0.59114385964912286 0.75454761904761913 0.3804285714285715 0.69209392230576461 0.25535714285714289 45.500000000000007 0.35067857142857156 585.70000000000016 1336.45 0.25535714285714289 5.3500000000000005 0.75454761904761913 0.61429959273182966 53.500000000000007 4.8500000000000005 0.24010714285714291 0.44058928571428579 0.75454761904761913 71.500000000000014 0.41367857142857156 7.0500000000000007 70.500000000000014 2.8500000000000001 0.71889417293233093 60.500000000000007 0.73618756265664176 0.61293612155388477 972.20000000000016 977.10000000000025 0.63006666666666677 1554.6000000000001 6.7500000000000009 3047.5000000000005 0.34135714285714297 49.500000000000007 0.37360714285714297 0.45380357142857158 23.500000000000004 1320.8500000000001 60.500000000000007 60.500000000000007 1042.9000000000003 0.42792857142857155 1.5000000000000002 0.86745614035087737 0.27692857142857147 1581.6500000000003 4.2121001622835372 0.59921428571428581 0.29167857142857151 0.29167857142857151 7996.5000000000009 70.500000000000014 52.500000000000007 27.500000000000004 0.6168317042606517 1095.1500000000003 5.0271592211193568 0.32410714285714298 8.8500000000000032 889.4000000000002 4.9522934739897151 1314.5500000000004 71.500000000000014 45.500000000000007 3.0500000000000003 781.60000000000014 4.2696729980286863 57.500000000000007 4.9089648320872419 68.500000000000014 24.150000000000002 4.7317931335534196 4.6200466650627661 4212.7500000000009 4.9308638091439496 0.40030357142857154 7816.0000000000009 6.8500000000000005 0.39092857142857157 0.86342105263157909 1.9500000000000002 169.50000000000003 6900.5000000000009 0.39835714285714297 0.50541666666666696 67.500000000000014 49.500000000000007 1450.6000000000004 5193.9500000000016 0.35717857142857151 4.8713658868283671 0.33935714285714297 0.35560714285714295 8312.0000000000018 2733.0000000000005 0.37483928571428582 170.50000000000003 0.78394736842105284 4.6298509007569537 0.6648333333333335 7.4500000000000011 34.500000000000007 4.8789996228937618 0.48541666666666689 0.40375000000000011 0.49507142857142872 0.71763831453634097 4.8559213341406453 19.500000000000004 0.36185714285714293 153.50000000000003 5.2704288588135384 1788.5500000000004 8.2500000000000018 0.50658928571428585 199.50000000000003 0.48875000000000018 4.7999057951650004 190.50000000000003 36.500000000000007 4.791641144189394 24.450000000000003 67.500000000000014 0.62016666666666687 0.74963157894736865 0.39642857142857152 4.9089648320872419 0.41667857142857156 0.37592857142857156 154.50000000000003 4.2268071048866842 4.3500000000000005 155.50000000000003 22.150000000000002 0.52875000000000016 62.500000000000007 2911.0000000000005 1001.2000000000002 2.9500000000000006 5678.0000000000009 3758.5500000000006 0.46375000000000016 29.550000000000004 28.500000000000004 0.31050000000000005 19.150000000000002 57.500000000000007 0.40030357142857154 24.850000000000005 62.500000000000007 0.58640476190476198 73.500000000000014 0.66125000000000023 176.50000000000003 908.25000000000011 4.6681339642869872 41.500000000000007 9.2500000000000018 4.135134555718313 203.50000000000003 8.1500000000000004 28.500000000000004 0.6451190476190477 4497.0000000000009 3381.1000000000004 24.450000000000003 132.50000000000003 223.50000000000003 64.500000000000014 8.0500000000000025 10.450000000000001 23.500000000000004 0.63208333333333366 0.59307142857142869 0.78128070175438613 5634.3500000000013 0.59988095238095251 77.500000000000014 161.50000000000003 4.791641144189394 2733.0000000000005 0.66645986842105276 0.7673157894736844 0.86826315789473696 0.40200000000000008 0.36033928571428581 5.3500000000000005 0.45233928571428583 0.60797619047619056 63.500000000000007 0.59913060776942373 4089.5000000000005 4.5485858369352732 0.44133928571428588 4.6959141240107813 0.64830686090225575 0.31050000000000005 0.36860714285714297 179.50000000000003 137.50000000000003 3644.7500000000005 108.50000000000001 39.500000000000007 1061.1000000000004 0.41283928571428585
decision_type=2 2 2 2 2 2 2 2 2 2 2 2 2 2 2 2 2 2 2 2 2 2 2 2 2 2 2 2 2 2 2 2 2 2 2 2 2 2 2 2 2 2 2 2 2 2 2 2 2 2 2 2 2 2 2 2 2 2 2 2 2 2 2 2 2 2 2 2 2 2 2 2 2 2 2 2 2 2 2 2 2 2 2 2 2 2 2 2 2 2 2 2 2 2 2 2 2 2 2 2 2 2 2 2 2 2 2 2 2 2 2 2 2 2 2 2 2 2 2 2 2 2 2 2 2 2 2 2 2 2 2 2 2 2 2 2 2 2 2 2 2 2 2 2 2 2 2 2 2 2 2 2 2 2 2 2 2 2 2 2 2 2 2 2 2 2 2 2 2 2 2 2 2 2 2 2 2 2 2 2 2 2 2 2 2 2 2 2 2 2 2 2 2 2 2 2 2 2 2 2 2 2 2 2 2 2 2 2 2 2 2 2 2 2 2 2 2 2 2 2 2 2
left_child=1 2 5 10 9 20 31 23 14 25 53 18 28 17 22 21 43 19 26 37 97 32 66 64 52 86 42 -15 50 71 48 40 47 56 123 36 82 74 115 61 93 108 69 68 70 63 84 106 60 -23 51 114 171 125 73 124 100 92 133 83 189 -16 -41 -31 111 154 198 129 89 158 117 127 95 126 -6 122 159 109 -35 -13 91 -71 202 -27 -40 101 87 140 -84 90 -9 218 -17 215 132 -49 -72 -1 -99 161 -30 -86 -69 214 116 -106 107 -12 -26 -38 197 165 -105 -100 -11 -33 -44 -37 119 120 -60 -55 -46 -10 142 -3 -28 -20 217 149 135 -132 -56 -25 -48 -73 -89 205 -108 -21 167 -142 -24 144 -59 148 220 -148 208 -42 -151 -79 -47 -66 155 -50 -144 -54 -8 187 -94 -63 -115 -164 -51 174 -167 -2 206 170 195 -19 -169 -174 -7 -129 203 -65 179 -172 -166 -150 -78 -184 -68 -52 -74 -34 -53 -22 -156 -171 -193 -121 -126 -123 -197 -85 -5 -91 -180 -139 -18 204 -127 -135 -67 -96 -45 -170 211 -57 -213 -36 -70 -4 -200 -76 -32 -220 -147 -29
right_child=4 3 6 8 13 7 11 16 34 12 15 79 -14 27 39 57 35 24 29 139 30 49 55 58 41 59 54 221 33 45 80 38 76 78 213 44 77 -39 46 62 67 -43 104 145 75 152 134 72 65 164 185 188 157 121 94 210 -58 143 118 -61 -62 99 -64 177 153 168 184 102 103 81 96 130 186 -75 128 -77 182 151 -80 -81 -82 -83 88 110 85 -87 -88 136 -90 199 -92 -93 160 -95 207 -97 -98 98 113 -101 -102 -103 -104 112 105 -107 138 -109 -110 -111 -112 -113 -114 162 -116 -117 -118 -119 -120 193 -122 169 -124 -125 194 176 -128 175 -130 -131 131 -133 -134 137 -136 -137 -138 201 -140 -141 141 -143 156 -145 -146 146 147 -149 181 150 -152 -153 -154 -155 190 -157 -158 -159 -160 -161 -162 -163 163 -165 180 166 -168 172 209 191 178 -173 173 -175 -176 -177 -178 -179 200 -181 -182 -183 183 -185 -186 -187 -188 -189 -190 -191 -192 192 -194 -195 -196 196 -198 -199 216 -201 -202 -203 -204 -205 -206 -207 -208 -209 -210 -211 -212 212 -214 -215 -216 -217 -218 -219 219 -221 -222 -223
leaf_value=-0.0046769891787350011 -0.0070179367338068536 0.0012100423463174404 -0.011929434551023054 -0.00060460440870969653 0.019446053885637016 -0.018337369571080682 -0.0039900356302162467 -0.014553592213245233 0.026222425782560486 0.0069125870298521229 0 0.02193546749487851 0.03264451953438309 0.036476146516601117 0 0.0040282549830303648 -0.0055643978391822719 0 0 0.030485142191786642 -0.031887015836558549 0.0048805010390775656 0.013975520772137276 -0.014194031248548459 0.010257394711283336 -0.0028286312815466734 -0.0036970562299887544 0.024323392308435932 0.020123975416455844 0.0025970794077562935 -0.024718091277126909 0 0.010749044192961611 0 0.016966989302970213 0 -0.017920806721710071 0.032817117835959787 0.0032588977812216735 0.023231141394656495 0 0.030120882574390499 0.011888512651440693 0.0075005971566124039 0.0085863790186252714 0.0163405879879054 0 -0.009610556211495383 -0.0024605090179306063 0.013487442755530467 0.020253782941036167 0.0010976987812586778 0.0002716280995392848 -0.0076770891663795592 0.010597850993610193 0.014091659749867856 0.026191408356717578 0.0092399539524121044 -0.0096185672843736927 0.026086551707090871 0 0 0.027909958410145558 0.014312392760063046 -0.026027021142355306 0 0.013218409306223519 0.0044983793409822496 0 0.0159711844074805 0.0049783303205488925 0.013424080987974985 0.010919071122521029 0.02074491161623437 0.0021575893051552484 0.0027002302583064943 0.01095699501777295 0 0.020612893365951634 0.029506090495686109 -0.0032715248603333385 0.0062221228508414659 0.0028582943592145387 0 -0.021599436011438086 0.00034488247047441048 0.016520222675974975 -0.0055966455058678293 0.0066260181662466423 0.0027965105666623033 0.016164859573023115 -0.0032605360601989336 0.0059749000836600806 0.0085948909711640806 -0.0097668181397076899 0.0027322219743369414 0.0094117972782413947 -0.035024802608837627 0 0.024151016450090466 0.023254076397584752 -0.0078921374702219348 -0.022792338450315183 -0.0070604608408937558 0.018022238265920552 0.0075929762582205617 0.0044310181971015583 0.0089092730731054476 0.022659164029007087 -0.0040510597170262804 0.024381334458185879 0 -0.0007631082252045684 -0.0041833457446464736 0.015214865226292815 0.011274436177477511 0.005191923250444765 -0.024152901089514383 0.011759611217708141 0.010466127681063218 -0.0011746821492559514 -0.0021143620442615348 0.012845051504110222 0.031918917115888727 0.01316713162490438 -0.011516087823571866 0.0024705362884371905 -0.00026317545860989739 0 0 0.0047785529020516245 0.013986022885013469 0 -0.0042355253670742594 0.012349142167987671 0.0096877630597366655 0.0071304127061915454 -0.0041205773412635194 0.01152498588582063 0.033972324667948202 0 -0.014276127422538348 0.01371026575556566 0.020652098120697768 0.018266801008458799 0 -0.0014274018427718311 0.0076762660804585801 0.0057382654078158395 -0.0029593601534014967 -0.021556033019061505 0.020027083794230582 0.020758805035486508 -0.0068565010752070204 0.0093375593310706193 -0.019417930339510822 0.019036857746348123 0.020414219373921811 0.0040469820516898358 -0.0017767903931383035 0.016786584877709756 0.02128955999715168 -0.013427460489199629 -0.026955660240683455 0.00064731028939691313 -0.025102424884613075 0 -0.00027875265745713523 0.0083176988556677364 -0.0039534907249900355 -0.0018352681293252141 0.010308618361551426 0 0.018351350244878828 0 0.0094408319172683414 0 0.0094009321216501768 0.0068825197383269318 -0.01721155078951158 0.017251500407794169 -0.0079474673824001356 0.014811362625028433 0 0 0.025875669419743116 0.00066413752667531423 0 0.018663021936362489 0 -0.0058186410665706711 0.012506513260570637 -0.0027422070223682084 0 0.020584436677734044 -0.00016382479163380367 0.011567453142145427 0.012934166576868914 0.012028538187351974 -0.005437576616532977 -0.0042717115282373029 0.0064464447433393484 0.0014859878781267241 -0.017402772322287253 0.0054653426343561247 -0.013222680157459454 -0.016193146044585417 0.002571397161364875 -0.0024738036344348203 0 0.023328157336237193 0 0.021464954174713571 0.033788776621603553 0.0091984999359488173 -0.0022367240751955532 -0.00028920607932714383 0.026509405074271346 -0.0035892128856508834 -0.024697192828589194 -0.018342534170577376 0.030202646848395451
leaf_weight=46.851391285657883 61.626941651105881 39.543389678001404 101.68658512830734 121.97164182364941 469.16659714281559 263.55992449820042 119.48486192524433 293.3137576431036 2641.4324552863836 359.30259481072426 214.25024802982807 1085.39829865098 1996.8658111542463 3408.4529045969248 28.685374557971954 129.60797129571438 137.57262812554836 42.541716694831848 105.68715986609459 8468.5848169326782 63.138251140713692 215.58663220703602 776.34228520095348 207.89224989712238 126.18112051486969 35.722748249769211 556.91054539382458 551.23273301124573 2617.7418341785669 167.72768351435661 312.34732712805271 84.988036394119263 1159.4400737285614 117.97334785759449 54.303078964352608 59.484680712223053 75.178500175476074 1225.2753089666367 98.6515012383461 1715.404547765851 8.7561694234609586 868.8704971820116 1504.9710545986891 124.27441191673279 2941.5840564370155 3002.6143626570702 108.73857733607292 101.49456690251827 88.147114530205727 993.8025249093771 2257.2567824870348 36.869146004319191 34.865417301654816 100.85774278640747 535.93283401429653 332.1520661264658 2514.6957569569349 200.83456656336784 219.68255145847797 148.98791699111462 32.163917034864426 25.546975046396255 3205.8094007372856 3726.6556669473648 249.24494133889675 22.348102211952209 1051.8439719378948 56.446014776825905 51.519174098968506 244.45169380307198 5052.8963609933853 4270.3152179270983 274.68898366391659 30.96455380320549 21.458015069365501 397.03299452364445 843.67785450816154 40.284275501966476 43.908505126833916 581.01177041232586 81.012725219130516 632.36496803164482 1819.574337080121 17.232869684696198 96.023516193032265 123.11314292252064 65.530167296528816 44.007131353020668 2573.218887552619 89.183033153414726 13.520003288984297 61.004981681704521 107.28449714183807 64.756914362311363 33.767038896679878 381.27486705780029 825.16181302070618 181.24321281909943 17.393320456147194 4439.0900600105524 7256.8832234144211 470.61269380152225 20.546878799796104 411.13070413470268 657.57712726294994 194.5916306078434 245.26299799978733 476.46046423912048 1312.0298499763012 505.77055412530899 119.69629417359829 68.142868503928185 908.22665686905384 35.876347973942757 432.35382631421089 267.37630067765713 358.7795936614275 23.731361985206604 49.195511177182198 84.087157666683197 503.71569755673409 35.978427246212959 866.48882150650024 681.05289356410503 222.13620708882809 39.356220439076424 358.41075745224953 36.439952567219734 12.125410646200178 8.9506837725639325 478.45349022746086 284.24071834981441 84.105270907282829 215.61822956800461 97.007043108344078 1081.5122610479593 343.19567388296127 137.66897134482861 2969.7602123320103 1746.1533447057009 49.330492034554482 99.542929410934448 515.88876102864742 4097.5073008090258 1865.7880082577467 59.898449197411537 94.735832318663597 557.45711761713028 24.810273468494415 48.128915950655937 369.71890744566917 30.80269892513752 846.41069251298904 47.510692894458771 28.214708775281906 107.4883436113596 4088.0460114330053 485.55883532762527 472.89160868525505 25.439024806022644 1500.7777971178293 4266.720446318388 103.66454528272152 394.87674759328365 41.061612635850906 12.998219609260557 61.633356735110283 46.099914640188217 82.68098321557045 15.633918151259421 225.82166941463947 517.93874418735504 14.252370744943617 48.922999382019043 17.092529028654099 1769.838831692934 20.561029657721519 488.36029903590679 114.54614444077015 40.403829157352448 6565.1208998411894 171.96656499803066 4958.4140551835299 27.169126719236374 12.576224088668821 472.5093884319067 110.3069860637188 46.053314656019211 2524.2364875376225 9.3345625698566419 91.194909974932671 141.85125161707401 14.352793768048285 64.803118601441383 4589.7126633822918 32.557744145393372 143.18707458674908 1278.0064420104027 76.267995625734329 223.41949151456356 47.580453127622604 66.042895644903183 374.17296808958054 139.75276497006416 22.513509079813957 163.01766246557236 39.431149929761887 252.6437720656395 46.826015517115593 396.51107347011566 2622.2841992527246 15.663477078080176 1671.8322840332985 2395.7141876667738 121.35876415669918 198.58672672510147 12.096127986907957 16659.781009539962 61.577964574098587 28.53454826772213 19.871895298361778 1232.5352556407452
leaf_count=138 184 106 311 345 1123 835 346 907 5977 950 600 2545 4265 7025 81 348 402 121 295 18452 220 577 1944 642 323 105 1597 1267 6242 456 1030 239 2977 330 130 166 240 2611 265 3981 22 1895 3830 324 7685 7381 304 306 253 2498 5375 99 94 300 1376 830 5690 520 658 335 90 69 7145 9311 829 61 2651 149 146 599 13570 10744 702 70 56 1082 2163 113 101 1273 234 1680 4962 50 313 339 158 131 6821 240 30 177 283 166 104 1039 2139 637 48 10226 16854 1390 70 1207 1591 510 659 1239 3060 1454 272 191 2547 106 1071 681 960 81 122 213 1418 105 2187 1461 558 122 978 105 34 22 1285 709 235 622 243 2801 905 398 7586 3682 136 310 1294 9721 4516 168 270 1463 63 140 1195 70 2003 142 70 345 9834 1151 1276 75 3675 10073 320 1319 111 46 170 132 213 48 641 1334 42 115 47 4592 55 1266 300 130 16023 510 12339 77 38 1069 303 129 6093 27 268 356 44 183 10895 94 362 3230 191 650 140 172 1028 442 57 501 126 688 136 1104 6081 44 3938 5059 312 565 37 37628 179 97 66 2691
internal_value=0.0178159 0.0136042 0.00655843 0.0190639 0.0257996 0.00127137 0.0113277 0.00301687 0.0228364 0.021503 0.0143881 0.0128242 0.0227357 0.0284534 0.0214376 0.0150534 0.0044903 0.0275879 0.011932 0.028294 -0.0149822 0.0135828 0.0192792 -0.0083914 0.0215807 0.0107168 0.00809828 0.0337565 0.0216655 0.0133462 -0.00978253 -0.00472538 0.0117065 0.0229956 0.0300283 0.005701 0.00345981 0.0267288 -0.000651263 0.0239675 -0.0108001 0.0249254 0.0103064 -0.00138891 0.00691073 0.0152602 -0.00397168 0.00904977 -0.00503749 0.0164038 0.0188953 0.0169045 0.0142985 -0.0010852 0.00302687 0.0199515 0.0232139 0.0186907 -0.00458138 0.0145625 -0.0199513 0.0226336 0.0263106 0.0133874 -0.0172319 -0.00303343 0.0113348 -0.0160422 -0.0036096 0.00641905 0.00542383 0.0113639 0.00379554 -0.00023395 0.0262851 0.00898179 0.0134808 -0.00432009 0.0053264 0.0246681 -0.01787 0.00911678 0.00452567 0.0132721 -0.0066842 -0.00833064 0.00255309 0.00103931 0.00510059 -0.00784724 -0.0126951 -0.0200877 0.0153456 -0.00301539 0.00660162 0 0.00562704 -0.0248183 -0.0258944 0.0227131 0.02244 -0.0104886 -0.000778726 -0.00174679 0.0123523 0.0158225 0.0101775 0.00597623 0.0216788 -0.00611262 0.0137879 -0.0124872 -0.00284277 -0.0226142 0.0116424 0.00827754 0.0106825 -0.00707014 -0.00132003 -0.00223525 -0.00395294 0.00111787 0.00959607 0.0274368 0.0190115 -0.00935909 -0.001113 0.00864479 0.026468 -0.018385 0.0121888 0.00841305 0.00913534 -0.00818852 0.00567032 0.012698 0.00528423 -0.00577863 0.011032 0.0310965 -0.00361691 -0.00902488 0.0178534 0.0196086 0.0174645 0.00273411 0.00466559 0.00611668 -0.000688473 -0.0191082 -0.0197844 0.00815137 0.0173524 -0.0234796 -0.00865311 -0.012569 0.0184736 0.0193621 0.00216466 0.00994211 0.0161615 0.0211898 -0.0233824 -0.0244535 0.0167103 -0.014691 -0.00345123 0.00018921 0 0.00240107 0.000673683 0.00932029 0.00566975 0.0124577 -0.0171284 0.00915941 -0.0119364 0.0137801 -0.00158673 -0.0047508 0.0171717 -0.00543546 0.0142015 0.0147194 0.0129305 0.0212837 0.00838286 0.0103178 0.0184706 -0.0284723 -0.000941266 0.00793449 0.0101149 0.00507092 0.0202742 0.00597732 0.00851411 0.0126892 0.00252389 -0.00259355 0.00265475 0 -0.000107171 -0.013701 -0.00283703 -0.00851381 -0.00938851 0.000576173 0.00386675 0.00148099 0.021982 0.0201573 0.0212594 0.0334792 0.00572211 -0.00603477 0.0085921 0.0264874 -0.0222538 -0.0119928 -0.00525815 0.0284728
internal_weight=174312 114126 49838 64288.1 60185.5 23651.4 26186.6 21366.4 35562.6 23002.8 28725.6 23962.5 20630.6 37182.8 29790.1 27551.1 18934.5 31990.5 22296.1 28602.5 2285.04 19649.3 16108.8 2431.91 3387.99 2372.15 6037.85 5192.22 18633.7 16258.3 1505.13 2224.09 11833.7 12551.2 5772.5 15723 5556.57 18387.8 1346.51 13681.3 877.578 2307.08 4185.11 3211.51 10166.4 8231.77 994.146 4773.5 960.653 7815.57 6082.53 3352.76 1080.9 1174.5 1852.73 14834.1 12389.3 7901.8 1711.72 1599.65 104.637 8760.04 4921.21 4382.74 720.183 856.016 1274.76 512.548 2111.67 1469.19 5961.27 8026.49 867.765 946.286 17162.5 4205.11 7060.19 652.036 161.882 1666.41 544.478 876.817 4904.54 1450.66 788.401 689.749 772.509 706.978 4392.79 619.436 306.834 463.465 1737.67 365.03 906.449 482.769 5878.06 779.906 733.054 8731.36 9874.63 566.636 76.9929 1492.24 2715.92 852.169 3905.73 690.711 1438.21 580.949 1414.94 423.427 1319.36 551.811 791.656 352.364 1863.75 83.216 921.484 872.289 723.398 912.771 3808.07 3322.49 10192.1 261.727 915.321 1911.97 16693.4 435.555 6114.52 762.694 620.038 790.24 205.746 5351.83 387.203 582.348 3215.02 10214.7 319.776 148.873 5380.28 6164.13 2066.62 1099.84 731.963 652.193 367.877 426.604 417.848 71.087 3849.03 296.756 315.045 195.635 4603.93 520.424 592.376 1230.93 1608.06 4292.27 534.418 498.541 7599.99 355.284 74.6316 170.902 540.971 811.913 640.075 560.48 109.275 63.1754 280.652 1806.28 222.184 4215.02 428.352 266.225 6606.18 196.777 5829.26 4985.58 1064.42 2729.77 384.996 1205.49 2561.11 72.4728 119.41 171.838 156.204 148.89 4811.85 211.723 175.745 1295.24 210.336 312.603 162.127 203.712 511.746 201.622 61.8697 378.636 61.7793 286.411 171.1 479.192 4641.93 2019.65 1687.5 2450.02 172.878 300.273 88.3641 16681.2 402.46 90.1125 79.7703 1783.77
internal_count=423751 286960 132310 154650 136791 65290 67020 58228 82882 54244 71768 60606 48139 82547 70255 68466 51039 71564 56788 63586 7062 49403 38680 7189 7978 6105 15840 10983 43874 40948 4494 6414 30194 29217 12627 42000 15090 41452 3774 31575 2640 5278 10792 9039 26910 20417 2854 12434 2777 19209 14657 8213 2700 3302 5048 35418 28786 19063 4929 3992 337 20449 11126 11033 2260 2440 3262 1598 6039 3901 15956 20531 2350 2645 38841 10954 17760 1877 431 3818 1717 2279 13213 3657 2307 2042 2113 1955 11783 1827 937 1483 4306 1042 2403 1345 15709 2568 2430 20368 23096 1703 219 4212 6891 2101 10084 1839 3383 1694 3552 1289 3754 1793 2021 920 4790 247 2594 2472 2076 2520 9872 7438 24525 782 2575 4992 37718 1379 15539 1994 1611 2335 547 13545 1036 1693 8245 22134 919 446 13072 14757 5036 3000 1967 1733 1033 1357 1335 183 9384 971 936 598 11128 1245 1622 3181 3958 10142 1745 1639 18632 1098 216 473 1504 2220 1772 1455 289 157 882 4697 676 10577 1211 771 16134 573 14579 12416 2689 6444 1005 3106 6192 247 338 448 400 396 11453 561 456 3280 573 890 440 570 1430 621 179 1123 187 792 460 1317 10893 4812 3982 5189 458 876 228 37684 1306 276 234 3958
is_linear=0
shrinkage=0.0271158


Tree=4
num_leaves=223
num_cat=0
split_feature=28 36 24 28 36 28 24 28 24 24 24 24 23 24 36 28 24 28 23 28 28 28 36 14 24 25 28 28 24 22 24 28 25 24 24 28 28 36 22 24 36 24 23 25 14 24 24 23 17 14 28 24 22 28 28 28 24 28 18 24 24 28 23 28 28 24 11 17 28 28 22 28 11 28 22 25 24 24 11 14 36 28 18 14 28 28 28 28 14 18 28 28 28 24 18 28 14 14 28 14 28 23 18 24 14 14 14 14 11 6 24 14 14 28 8 23 1 23 18 7 25 24 8 8 24 18 18 14 25 28 23 6 24 28 28 18 28 25 8 25 14 22 24 28 28 28 23 18 23 28 24 23 22 18 23 28 6 28 14 18 22 24 25 14 11 23 28 22 24 6 28 11 28 28 28 28 18 1 28 28 28 11 28 28 28 6 28 22 28 18 14 14 11 28 28 28 28 14 28 6 14 6 28 28 28 22 14 14 18 28 28 28 28 22 23 25 28 28 11 28 28 11
split_gain=7978.82 6210.96 4526.83 1561.94 1309.73 1104.29 790.7 661.459 603.844 493.643 434.943 373.154 349.435 241.668 239.496 227.864 192.086 185.966 180.524 138.405 134.309 149.382 113.214 111.886 107.655 102.895 94.7106 92.4566 91.297 89.3298 88.3156 81.5681 78.7067 78.5156 75.6366 70.2941 129.308 68.7878 66.9479 65.7701 65.4103 63.3322 62.6082 61.9563 61.9092 56.0895 49.714 47.2977 41.9498 40.7598 40.1853 39.6361 39.4728 39.405 108.785 78.0431 38.9626 37.9049 37.6765 35.7311 35.3755 35.1624 34.8761 34.4491 88.6433 33.6041 32.0158 31.7788 30.6703 54.5289 30.1498 28.6869 28.3418 25.9645 25.0377 27.5223 24.6878 24.5001 24.263 24.0345 23.4788 23.0597 22.8293 22.0391 22.0231 49.3606 43.9079 21.3923 23.0288 21.2061 20.882 54.1537 37.8007 19.961 19.7612 19.1987 19.1896 19.1822 19.1511 19.0155 18.8975 18.8928 21.5778 18.8092 17.9665 17.9248 37.9098 17.7993 16.9857 16.9294 16.8012 16.5064 19.9165 16.4458 16.3061 16.2988 16.1857 16.003 18.5377 15.9176 15.6524 15.5512 15.5299 15.4663 15.3094 15.4429 15.2757 15.2419 14.953 15.0057 14.9015 15.6049 14.7737 14.7136 17.9897 14.4489 14.4373 15.894 14.2107 13.8603 15.2863 13.5887 13.5848 13.5004 32.6021 13.137 12.9374 16.0635 12.7981 12.7463 12.7448 12.7061 12.7017 12.6092 12.4868 12.4354 12.3364 12.1263 11.7471 11.6948 11.5038 11.1998 11.1041 10.985 10.905 10.8597 13.0007 11.5114 10.8441 10.7577 10.692 10.644 12.3898 10.7489 28.8106 23.4182 10.5095 10.4424 10.6349 10.3873 12.9334 10.3866 10.2377 10.1701 10.0413 10.0283 9.9953 9.98371 9.86465 9.778 9.77736 9.64126 9.49594 9.27223 9.21089 9.21086 9.19806 9.17146 9.16477 9.15242 9.08547 9.14595 9.00387 10.7201 9.65313 8.93162 8.79497 8.77356 14.164 8.76162 8.74397 21.8167 8.74354 8.68796 8.59002 8.57274 8.54319 8.46851 8.38869 8.33487 8.31348 8.28669
