tree
version=v4
num_class=1
num_tree_per_iteration=1
label_index=0
max_feature_idx=63
objective=binary sigmoid:1
feature_names=age alcohol_consumption_per_week physical_activity_minutes_per_week diet_score sleep_hours_per_day screen_time_hours_per_day bmi waist_to_hip_ratio systolic_bp diastolic_bp heart_rate cholesterol_total hdl_cholesterol ldl_cholesterol triglycerides family_history_diabetes hypertension_history cardiovascular_history cardio_risk_score cholesterol_risk lifestyle_risk diet_activity_balance metabolic_index overall_health_risk age_bmi age_bp bmi_cholesterol family_history_age log_physical_activity log_triglycerides age_squared bmi_squared high_bp_flag high_cholesterol_flag obese_flag sedentary_flag medical_history_score gender_Male gender_Other ethnicity_Black ethnicity_Hispanic ethnicity_Other ethnicity_White education_level_Highschool education_level_No_formal education_level_Postgraduate income_level_Low income_level_Lower-Middle income_level_Middle income_level_Upper-Middle smoking_status_Former smoking_status_Never employment_status_Retired employment_status_Student employment_status_Unemployed bmi_category_normal bmi_category_overweight bmi_category_obese age_group_middle age_group_senior age_group_elderly bp_category_elevated bp_category_high bp_category_very_high
feature_infos=[19:89] [1:8] [1:747] [0.10000000000000001:9.9000000000000004] [3.2999999999999998:9.9000000000000004] [0.59999999999999998:15.800000000000001] [15.1:37.799999999999997] [0.69999999999999996:1.02] [91:163] [51:103] [42:98] [121:286] [21:90] [51:199] [31:290] [0:1] [0:1] [0:1] [0.4792857142857142:0.98438095238095236] [0.31916666666666671:1.0175000000000001] [0:0.76657142857142857] [0.0049000000000000007:7.0217999999999998] [0.52715789473684216:1.3934736842105264] [0.43086146616541354:0.89127230576441108] [352:3001.2000000000003] [1729:13261] [2174.4000000000001:9792] [0:89] [0.69314718055994529:6.6174029779744776] [3.4657359027997265:5.6733232671714928] [361:7921] [228.00999999999999:1428.8399999999997] [0:1] [0:1] [0:1] [0:1] [0:3] [0:1] [0:1] [0:1] [0:1] [0:1] [0:1] [0:1] [0:1] [0:1] [0:1] [0:1] [0:1] [0:1] [0:1] [0:1] [0:1] [0:1] [0:1] [0:1] [0:1] [0:1] [0:1] [0:1] [0:1] [0:1] [0:1] [0:1]
tree_sizes=5705 5886 5883 5909 5898 5869 5882 5878 5877 5917 5908 5878 5893 5885 5897

Tree=0
num_leaves=53
num_cat=0
split_feature=27 28 30 23 23 30 28 28 21 28 28 28 30 30 30 30 14 30 25 10 25 30 23 21 10 30 28 10 30 23 23 22 14 30 10 23 23 28 22 13 22 13 22 28 25 30 30 19 28 23 8 13
split_gain=9062.31 6775.32 3528.56 1466.33 1032.33 839.854 538.201 537.439 451.16 399.393 287.23 270.729 209.385 208.23 144.899 116.53 109.257 103.087 101.917 97.0416 93.64 91.9405 74.3355 71.8415 69.0162 64.8115 54.9488 54.854 53.8636 45.46 44.4964 41.8428 41.5915 37.1569 33.1522 31.4825 31.127 31.0974 27.6684 26.5429 25.7866 25.484 25.2187 24.5515 24.3542 23.9432 23.7087 23.1542 21.3305 20.1916 19.0178 18.9847
threshold=26.500000000000004 4.8940944640863338 2352.5000000000005 0.64354144736842123 0.65046309523809542 2450.5000000000005 4.3372693810700085 4.3372693810700085 1.1551000000000002 4.3372693810700085 4.3372693810700085 5.2958110956362647 870.50000000000011 812.50000000000011 812.50000000000011 4556.5000000000009 136.50000000000003 3782.5000000000005 7816.0000000000009 61.500000000000007 8258.0000000000018 4556.5000000000009 0.56412149122807032 1.3594500000000003 66.500000000000014 812.50000000000011 5.2652741739841078 72.500000000000014 1722.5000000000002 0.59239630325814552 0.55483709273182968 0.79612280701754401 138.50000000000003 870.50000000000011 68.500000000000014 0.67276889097744375 0.68665808270676698 5.0968083143154814 0.88026315789473697 98.500000000000014 0.80908771929824574 67.500000000000014 0.85559649122807035 4.9015572891946713 3849.0000000000005 600.50000000000011 992.50000000000011 0.63958333333333361 4.9089648320872419 0.57335592105263167 102.50000000000001 72.500000000000014
decision_type=2 2 2 2 2 2 2 2 2 2 2 2 2 2 2 2 2 2 2 2 2 2 2 2 2 2 2 2 2 2 2 2 2 2 2 2 2 2 2 2 2 2 2 2 2 2 2 2 2 2 2 2
left_child=1 2 3 6 10 8 12 14 16 20 -4 21 41 31 -5 -11 24 49 32 30 -6 27 -15 51 26 -9 44 38 47 -14 -10 50 34 -26 -13 -27 -16 43 -7 -30 -24 -1 -18 -35 -3 -33 -32 -25 -29 -12 -8 -21
right_child=-2 5 4 7 9 11 13 25 19 15 17 18 29 22 36 -17 42 -19 -20 23 -22 -23 40 28 33 35 -28 48 39 -31 46 45 -34 37 -36 -37 -38 -39 -40 -41 -42 -43 -44 -45 -46 -47 -48 -49 -50 -51 -52 -53
leaf_value=0.50649484217940965 0.52221406325172104 0.50724420573890605 0.51819281111201909 0.51359806225342353 0.51974382184445445 0.51229251249320862 0.50608120730778305 0.51028411440751686 0.5020585667208417 0.51773276883666075 0.51109268106571015 0.50701578038430473 0.51346184197122058 0.50795982755923585 0.51757003003314273 0.52032942935469662 0.50482248981021405 0.51777367892405113 0.51256973008634665 0.50045322048609331 0.52136872307489135 0.51717654402413116 0.51204057205565623 0.49684652183805822 0.50135034985519344 0.51449519244079789 0.50467584377897201 0.50354342176731759 0.50066605627650251 0.51597032951727584 0.50253825143845166 0.50532187110936577 0.51050770712621196 0.50090482397093838 0.50237155657235144 0.51628545277761528 0.51902553803032547 0.50413029129483988 0.51498875627299978 0.50549187542692386 0.51356410497016747 0.51181843497681578 0.51244779392141071 0.50813506561061861 0.51125969417310013 0.51013927376653512 0.50804813973092477 0.50330749378796003 0.51012412389542094 0.51547547299054508 0.50147661558068324 0.50542683718292247
leaf_weight=260.47151890397072 66794.897086441517 516.25220850110054 29677.777586996555 1845.0299740731716 55570.755576312542 3784.0805499851704 244.91841775178909 723.93009358644485 260.8231161236763 26896.958909094334 629.51445245742798 1413.2706591188908 3132.7054325938225 677.38245898485184 25601.403259038925 6028.8952731192112 97.723334431648254 6316.1340945661068 942.01604568958282 76.009051501750946 16719.812814295292 1384.7994056344032 7805.2029247283936 498.10880011320114 154.87672185897827 9749.2053146958351 327.29266673326492 83.344223201274872 277.96849936246872 20483.459204673767 113.46506014466286 300.23446434736252 497.0911206305027 34.821927011013031 255.65243008732796 8563.9859301447868 14560.36194986105 486.20199736952782 2494.9485982954502 309.18757003545761 9885.3612942099571 2219.5837306082249 1811.8658245801926 1494.4259442687035 1704.7288497388363 624.04227349162102 1027.609571993351 111.12221068143845 1067.1337885856628 15754.254465669394 192.30707859992981 856.42285171151161
leaf_count=494 63204 964 35640 2714 61306 5933 472 1205 588 33083 1008 2689 4667 1236 31752 6360 195 7704 1430 191 16661 1695 12405 1305 362 13972 670 178 657 27482 254 599 810 92 570 11285 16678 1017 3459 613 14757 3533 2802 2733 2768 1041 1879 240 1802 21622 445 1717
internal_value=0.518019 0.517037 0.517597 0.515805 0.518807 0.510301 0.514058 0.517104 0.507596 0.519554 0.517286 0.512568 0.51528 0.512405 0.517942 0.518243 0.509517 0.516059 0.509159 0.503943 0.520136 0.513717 0.512762 0.50226 0.508356 0.515209 0.509773 0.512951 0.500295 0.515668 0.506441 0.507378 0.507441 0.50655 0.506285 0.515378 0.518124 0.50701 0.513478 0.503143 0.512928 0.511355 0.512116 0.507861 0.510467 0.508808 0.507472 0.497877 0.509673 0.51534 0.504046 0.504832
internal_weight=353340 286545 264464 106870 157594 22081.2 45825.7 61043.9 10158.9 105216 52377.7 11922.3 26096.2 19729.4 42006.8 32925.9 6628.19 22699.9 3108.03 3530.72 72290.6 8814.31 18367.9 2128.82 4718.6 19037.1 2548.27 7429.51 1196.39 23616.2 1401.9 1361.5 2166.01 2170.33 1668.92 18313.2 40161.8 2015.45 6279.03 587.156 17690.6 2480.06 1909.59 1529.25 2220.98 924.277 1141.07 609.231 1150.48 16383.8 437.225 932.432
internal_count=428938 365734 328121 144737 183384 37613 67131 77606 19047 117410 65974 18566 36176 30955 51144 39443 11603 30334 5499 7444 77967 13067 28398 4723 8606 26462 4402 11372 2815 32149 2721 2557 4069 4204 3259 25257 48430 3842 9392 1270 27162 4027 2997 2825 3732 1640 2133 1545 1980 22630 917 1908
is_linear=0
shrinkage=1


Tree=1
num_leaves=53
num_cat=0
split_feature=27 2 24 2 24 2 24 24 24 2 2 24 23 23 24 24 10 24 10 24 10 23 19 23 2 24 3 2 0 10 2 19 23 10 10 24 29 23 2 2 2 2 2 25 3 10 6 10 19 3 8 3
split_gain=8939.13 6659.81 4533.49 1452.91 984.921 931.933 590.793 393.709 372.281 350.791 340.396 339.744 220.799 168.268 163.914 137.572 83.3873 81.1184 81.0503 65.5018 55.9913 48.0793 44.6049 41.7274 36.5591 34.2048 33.0157 32.4042 32.3418 33.1672 44.2537 30.7998 27.4589 27.1552 26.1188 24.5787 24.3473 24.2114 23.3742 23.231 40.5177 52.847 25.3271 23.1755 23.1642 22.5529 21.1508 21.107 19.1161 18.7722 18.7131 21.1858
threshold=26.500000000000004 132.50000000000003 1239.4000000000003 75.500000000000014 1108.3000000000004 75.500000000000014 791.05000000000007 1681.6000000000001 699.10000000000002 198.50000000000003 192.50000000000003 1612.4500000000003 0.64575028195488737 0.62274354636591489 1581.6500000000003 1554.6000000000001 68.500000000000014 834.75000000000011 61.500000000000007 585.70000000000016 56.500000000000007 0.65646381578947388 0.48708333333333348 0.56412149122807032 134.50000000000003 585.70000000000016 7.7500000000000009 162.50000000000003 28.500000000000004 66.500000000000014 227.50000000000003 0.41375000000000012 0.64830686090225575 76.500000000000014 73.500000000000014 1056.6500000000003 4.9089648320872419 0.54738458646616561 134.50000000000003 56.500000000000007 60.500000000000007 59.500000000000007 63.500000000000007 6889.0000000000009 8.1500000000000004 71.500000000000014 19.550000000000004 63.500000000000007 0.48541666666666689 7.2500000000000009 101.50000000000001 4.0500000000000007
decision_type=2 2 2 2 2 2 2 2 2 2 2 2 2 2 2 2 2 2 2 2 2 2 2 2 2 2 2 2 2 2 2 2 2 2 2 2 2 2 2 2 2 2 2 2 2 2 2 2 2 2 2 2
left_child=1 2 3 6 10 11 19 21 25 14 17 32 39 23 16 18 38 26 37 31 -12 -7 43 -10 -18 -5 33 49 -22 30 -30 -1 -4 -3 -29 -15 -31 -11 -6 -8 41 -41 -42 -20 48 47 -32 -24 -27 -19 -48 -52
right_child=-2 4 5 8 9 7 12 -9 13 15 20 -13 -14 35 -16 -17 24 27 22 -21 28 -23 45 -25 -26 44 -28 34 29 36 46 -33 -34 -35 -36 -37 -38 -39 -40 40 42 -43 -44 -45 -46 -47 50 -49 -50 -51 51 -53
leaf_value=-0.0023526947425559371 0.018502560860324393 0.0030755909589001563 0.014442444735806026 0.0015920104854586943 0.0040485283450945805 0.012368128518463533 0.013045526362268698 0.015732544363681229 0.0053389670516530222 -0.00044273129850273238 0.002703628919391163 0.017090159338950296 0.014291407843507464 0.010068536619411031 0.012125670857713933 0.0084865908109252146 0.00086298111859080642 0.0069911640242243198 -0.0073471635325033828 0.01006171064989757 -0.0071678234262639896 0.013768725058802778 -0.00037512990255516779 0.0091009670245164234 0.0067313318010605331 0.0023779145437430632 -0.0026468906855895372 0.0040081815229718234 0.0027408051892230268 -0.0052533829870242054 0.0026552321748245038 0.0062556730944755582 0.015694318853521714 -0.0031438650852770905 -0.001644414134346387 0.011520967029655665 0.0010885464171692533 0.0061042058402776484 0.0097216832112749473 0.010163095283625535 0.014357330778037964 0.0041535874704418784 0.011334149387902517 0.0015570236817029708 0.00015987198542597364 -0.0018919637584952174 0.00060295354375651945 0.0034176063913793943 0.0066882294691488712 0.0033363470877011002 0.0016096010639041105 -0.0048116461016880956
leaf_weight=35.731229886412621 66482.990496098995 1022.8119774013758 18456.535343289375 564.77151007950306 259.45345020294189 19087.520677924156 16543.769116416574 15385.499900445342 849.14560182392597 87.030927792191505 372.3634874522686 37587.564244478941 30854.315999314189 10624.32831569016 3369.6021351665258 1226.2740389853716 204.10674919188023 1962.2838519364595 70.523702278733253 6928.3027627617121 132.51769623160362 20943.859467923641 290.97288492321968 12657.268643394113 2542.3462740331888 312.34607280790806 176.52049180865288 1013.7512452751398 394.80791020393372 419.7354032844305 73.728164315223694 966.38900516927242 47012.077305942774 67.743821650743484 108.92739966511726 12446.778088539839 92.982485949993134 1114.3589702099562 4800.8845849335194 1963.6712254732847 1948.167927801609 418.37353980541229 6722.9209847152233 38.345606684684753 125.28758685290813 164.48302574455738 169.79722319543362 882.67876517772675 1107.057021856308 477.58492305874825 61.66472901403904 447.16164022684097
leaf_count=92 63204 1967 22288 1140 468 25588 21454 17299 1498 190 718 39098 37599 15787 4526 1914 420 3279 216 10282 375 26204 629 19602 4300 608 418 1885 761 1059 133 1647 53107 172 251 17344 187 1916 7219 2868 2307 762 9423 71 265 379 353 1675 1859 902 118 1112
internal_value=0.014326 0.0133494 0.0139065 0.0118552 0.00666599 0.0152608 0.0130019 0.0138669 0.00986768 0.0084774 0.00272269 0.0160004 0.0134541 0.0101676 0.00962216 0.0050633 0.00844354 0.00456349 0.00330064 0.00958061 -0.00139825 0.0131236 0.00119501 0.00889318 0.00632762 0.00450757 0.00170151 0.00552896 -0.00232013 -0.00165892 -0.000390035 0.00581493 0.0153572 0.00252278 0.00339511 0.0108846 -0.0041098 0.00563128 0.00949001 0.0124841 0.0115671 0.00925625 0.0121228 -0.00482553 0.00545822 0.00190035 -0.00212689 0.00250867 0.00589612 0.00638876 -0.00284646 -0.00393222
internal_weight=352070 285587 263542 105069 22045.4 158473 66381.6 55416.9 38687 15051.1 6994.38 103056 58451.2 36577.5 11176.4 3874.67 7806.79 4829.62 2648.39 7930.42 2164.76 40031.4 1447 13506.4 2746.45 2109.46 1267.08 3562.55 1792.4 1659.88 1147.16 1002.12 65468.6 1090.56 1122.68 23071.1 512.718 1201.39 5060.34 27596.9 11053.1 2382.04 8671.09 108.869 1544.69 1338.13 752.352 1173.65 1419.4 2439.87 678.624 508.826
internal_count=428938 365734 328121 144537 37613 183584 86434 69091 58103 23923 13690 114493 74413 54231 16933 6990 12407 8874 5076 12021 4816 51792 2970 21100 4720 3872 2557 6317 4098 3723 2477 1739 75395 2139 2136 33131 1246 2106 7687 36814 15360 3630 11730 287 2732 2683 1716 2304 2467 4181 1583 1230
is_linear=0
shrinkage=0.0125994


Tree=2
num_leaves=53
num_cat=0
split_feature=27 2 24 2 24 2 24 24 24 2 24 2 23 23 24 24 24 10 24 10 10 11 23 23 18 2 21 24 2 13 2 2 2 2 6 21 10 24 23 2 3 23 6 21 25 14 3 2 2 2 8 10
split_gain=8822.07 6548.98 4467.1 1429.63 965.225 919.787 583.801 388.613 364.855 344.129 336.022 332.808 185.216 165.418 161.214 134.977 105.016 81.8428 79.5294 79.4595 54.7857 49.1103 47.6238 40.8149 39.8808 35.7512 33.7477 33.4894 31.7645 30.8404 28.4467 27.6437 56.4963 65.6643 26.1386 25.9618 25.6138 24.3037 23.7271 22.7763 22.6802 21.796 19.1092 18.7111 18.3568 18.3374 18.3353 18.2734 33.3229 49.4489 17.4872 17.3543
threshold=26.500000000000004 132.50000000000003 1239.4000000000003 75.500000000000014 1108.3000000000004 75.500000000000014 850.35000000000014 1681.6000000000001 699.10000000000002 198.50000000000003 1612.4500000000003 192.50000000000003 0.64440905388471192 0.62274354636591489 1581.6500000000003 1554.6000000000001 664.15000000000009 68.500000000000014 834.75000000000011 61.500000000000007 56.500000000000007 198.50000000000003 0.65646381578947388 0.56412149122807032 0.63183333333333347 134.50000000000003 1.3594500000000003 585.70000000000016 162.50000000000003 88.500000000000014 64.500000000000014 56.500000000000007 60.500000000000007 59.500000000000007 20.250000000000004 1.3594500000000003 73.500000000000014 1056.6500000000003 0.54738458646616561 134.50000000000003 8.1500000000000004 0.59114385964912286 28.050000000000004 0.072700000000000028 6727.0000000000009 140.50000000000003 7.2500000000000009 56.500000000000007 60.500000000000007 59.500000000000007 122.50000000000001 72.500000000000014
decision_type=2 2 2 2 2 2 2 2 2 2 2 2 2 2 2 2 2 2 2 2 2 2 2 2 2 2 2 2 2 2 2 2 2 2 2 2 2 2 2 2 2 2 2 2 2 2 2 2 2 2 2 2
left_child=1 2 3 6 11 10 16 22 27 14 31 18 47 23 17 19 30 39 24 38 -13 26 -7 -10 35 -19 -22 -5 46 -21 43 -4 33 -33 -28 51 -30 -15 -11 -6 50 -18 45 -1 -31 -36 -20 -8 49 -49 -29 -3
right_child=-2 4 5 8 9 7 12 -9 13 15 -12 20 -14 37 -16 -17 41 25 28 29 21 -23 -24 -25 -26 -27 34 40 36 44 -32 32 -34 -35 42 -37 -38 -39 -40 -41 -42 -43 -44 -45 -46 -47 -48 48 -50 -51 -52 -53
leaf_value=-0.0010659689461089109 0.018358133239179539 0.0037519449265304692 0.015640493969298702 0.001574717719940742 0.0040115817428811864 0.012251602367502182 0.013044962921470119 0.015598356628845072 0.0052833790868889808 -0.00043960988370313046 0.016950255250568012 0.0026764685167787916 0.014231135232203514 0.00996795079451482 0.012012522992205881 0.0084025173427601484 0.0078774488602400602 0.00085501917647474134 0.0069179063708312231 -0.0022423228208722098 -0.00053956137327394011 0.0020545781713995652 0.013644029953666608 0.009007685460141442 -0.0028781120349933281 0.0066598284772555775 -3.2436434656297363e-05 0.0060133910825211963 0.0039646695395804754 0.00082498510038755241 0.0035182546398580001 0.013303440757890339 0.014951767582481748 0.0079881986863279183 -0.0065660144926050611 -0.0032309293239049888 -0.0016313858026460861 0.01141007348684853 0.0060405635138256848 0.0096243997446286422 0.00015858289632436054 0.011214376640395688 0.0011045901991195842 0.0082032846844921105 0.0041162962981949091 -0.00040771240246813766 0.0033020873549288207 0.010066364638144937 0.012071752569332283 0.003848067189986083 -0.0017925060624950917 -0.00072472936329934115
leaf_weight=19.685608401894569 66164.358143955469 879.47745332121849 40939.542043268681 564.54841835796833 259.18914993107319 19027.331672504544 14472.830270007253 15323.33587770164 848.01080302894115 87.04049077630043 37421.939867317677 372.11368356645107 29985.807962790132 10597.204110965133 3359.2102679908276 1223.6547419726849 1129.2383253723383 204.06283657252789 1958.8401596844196 274.3002242743969 531.42387890815735 293.69760137796402 20870.084191024303 12628.127841681242 194.46853715181351 2538.0439763069153 172.68628118932247 1399.5297020226717 1012.7376261949539 793.83049020171165 417.19135518372059 4322.600699827075 19107.731792166829 840.65590924024582 653.14976060390472 55.82822459936142 108.97167982161045 12410.311892539263 1112.658562168479 4789.0936056375504 125.28258700668812 8264.7484749704599 45.507164105772972 2076.8513402938843 378.33902102708817 96.838747695088387 477.1877493262291 1724.0546378791332 7707.6511881947517 364.21581333875656 17.829673588275909 136.68661300837994
leaf_count=48 63204 1648 46223 1140 468 25588 18713 17299 1498 190 39098 718 36545 15787 4526 1914 1802 420 3279 634 1154 579 26204 19602 463 4300 369 2419 1885 1647 779 5471 22377 1324 1696 145 251 17344 1916 7219 265 11636 89 3301 689 211 902 2519 10422 669 48 301
internal_value=0.0141985 0.0132273 0.0137813 0.0117423 0.00659484 0.0151285 0.0128819 0.0137417 0.00976881 0.00839078 0.0158648 0.00269075 0.0134572 0.0100663 0.00952639 0.00500783 0.0101976 0.00835706 0.00451283 0.00326208 -0.00138249 -0.00229378 0.0130026 0.00880182 0.00167907 0.00626 -0.00319927 0.00445984 0.00546967 0.00117768 0.00744246 0.0152244 0.0144797 0.0125563 -0.0045241 0.00263174 0.00335683 0.010778 0.00557171 0.00939502 0.0054014 0.0108744 -0.00541723 0.00808445 0.00205952 -0.00587397 0.00632163 0.0124628 0.0115164 0.00914176 0.00583526 0.00314144
internal_weight=350780 284615 262606 104753 22009 157853 66162.3 55220.8 38590.8 15019.4 102632 6989.62 54254.6 36483.7 11149.6 3869.82 11907.7 7790.39 4824.2 2646.17 2165.42 1793.3 39897.4 13476.1 1266.46 2742.11 1499.61 2107.19 3557.74 1446.47 2513.73 65210.5 24271 5163.26 968.182 1071.99 1121.71 23007.5 1199.7 5048.28 1542.64 9393.99 795.496 2096.54 1172.17 749.989 2436.03 24268.8 9795.92 2088.27 1417.36 1016.16
internal_count=428938 365734 328121 144537 37613 183584 86434 69091 58103 23923 114493 13690 68868 54231 16933 6990 17566 12407 8874 5076 4816 4098 51792 21100 2557 4720 3519 3872 6317 2970 4128 75395 29172 6795 2365 2094 2136 33131 2106 7687 2732 13438 1996 3349 2336 1907 4181 32323 13610 3188 2467 1949
is_linear=0
shrinkage=0.0125994


Tree=3
num_leaves=53
num_cat=0
split_feature=2 36 24 36 2 2 24 24 24 2 24 2 24 2 23 23 24 24 24 10 2 10 0 24 0 10 14 11 18 23 22 10 19 0 2 0 24 2 24 14 23 13 0 12 2 13 18 10 23 13 20 12
split_gain=6227.56 4242.55 3465.75 1293.61 1095.38 784.187 754.782 606.042 385.258 327.226 298.917 277.564 276.09 216.388 173.609 121.119 101.635 99.8002 85.0235 77.5951 67.4048 64.5245 60.8415 53.1234 52.0496 42.8378 37.5485 36.9121 35.8637 33.3681 32.3818 30.5463 29.1131 28.1274 27.0699 26.3217 25.7677 25.4193 23.469 22.4586 22.1912 20.6615 20.5353 19.4929 19.4666 19.0217 18.5428 17.6701 17.6543 17.405 16.5658 16.0315
threshold=132.50000000000003 1.0000000180025095e-35 1198.6500000000003 1.0000000180025095e-35 75.500000000000014 75.500000000000014 1161.1500000000003 761.70000000000016 699.10000000000002 192.50000000000003 1554.6000000000001 75.500000000000014 1577.7000000000003 198.50000000000003 0.64396857769423577 0.62274354636591489 585.70000000000016 834.75000000000011 1554.6000000000001 68.500000000000014 200.50000000000003 61.500000000000007 28.500000000000004 1347.6500000000003 26.500000000000004 57.500000000000007 108.50000000000001 198.50000000000003 0.63183333333333347 0.56412149122807032 0.81394736842105286 73.500000000000014 0.49041666666666678 26.500000000000004 64.500000000000014 48.500000000000007 1339.9000000000003 134.50000000000003 1441.9000000000003 127.50000000000001 0.64830686090225575 76.500000000000014 49.500000000000007 40.500000000000007 162.50000000000003 60.500000000000007 0.65673809523809534 67.500000000000014 0.54738458646616561 73.500000000000014 0.28510714285714295 53.500000000000007
decision_type=2 2 2 2 2 2 2 2 2 2 2 2 2 2 2 2 2 2 2 2 2 2 2 2 2 2 2 2 2 2 2 2 2 2 2 2 2 2 2 2 2 2 2 2 2 2 2 2 2 2 2 2
left_child=1 2 4 6 7 12 9 16 22 17 39 38 40 19 -9 29 34 28 21 36 -5 -15 30 -13 -11 -26 42 35 33 -10 41 44 -23 -2 45 43 -8 -28 -3 -7 -4 -6 -21 -27 50 -1 -29 -20 -22 -35 -19 -46
right_child=3 11 5 20 8 10 13 14 15 24 -12 23 -14 18 -16 -17 -18 31 47 26 48 32 -24 -25 25 27 37 46 -30 -31 -32 -33 -34 49 -36 -37 -38 -39 -40 -41 -42 -43 -44 -45 51 -47 -48 -49 -50 -51 -52 -53
leaf_value=-0.0023776378751388491 -0.0016825464931378292 0.016497343862460122 0.013947891552919109 0.012814860516633728 -0.0046596219280213257 0.011706077560338285 0.0081830888169080185 0.011997822540156954 0.0048806554606857667 -0.0081690590756071345 0.014775546550673861 0.014614574055513944 0.016663643726206139 0.0056865252093461268 0.013871057152304994 0.010490806991497915 0.0090339812854441943 0.00163054584670623 0.0090173259832339193 -0.00095240389965247111 0.0037754118665628707 -0.0043085228283998829 0.0065060663095528326 0.016178339774403219 0.0026451726236339838 0.0022058228685972714 0.001698043587361377 0.0032147660742242899 -0.003235609701829728 0.0087201169608924749 0.0032936830660775717 0.0023292018815697759 0.0016555482836817978 -0.0010917437843677921 -0.0011122754284418016 0.0017316438885586582 0.011355368083077593 0.0085248803382475067 0.017623627757961197 0.013161590847350382 0.015248858016382483 0.00066191312869691996 0.0047692879755607464 -0.0034208927582389886 0.0057626408110878604 0.0050510124123521859 -0.0036068803664596589 0.0025924846793711942 0.0097928674918590312 0.0039195223305003874 0.0071646045984508138 0.0022718219149000926
leaf_weight=19.468479230999947 186.10032504796982 42794.103788688779 16105.317577689886 6786.0597592890263 87.857700541615486 15218.179288938642 1670.4107000082731 21271.682244777679 683.38549613952637 85.769529238343239 16787.593860387802 19209.172428205609 29278.753570094705 805.92305080592632 23583.217652335763 16893.383403331041 4578.1699007451534 139.44423314929008 702.36498513817787 92.608883440494537 203.54936119914055 82.168664023280144 644.42205552756786 21981.163945510983 440.0534050911665 59.613801136612892 132.36482341587543 273.00006318092346 166.60113716125488 9979.0708161443472 699.35047379136086 509.46822717785835 898.02994403243065 97.758427962660789 130.07343572378159 168.97618767619133 3335.5524239093065 1822.6753050684929 33643.254061222076 11950.674349948764 36396.554366350174 385.93446050584316 587.94919891655445 1128.7877772301435 505.26665782928467 638.69999033212662 16.915832325816154 152.66493719816208 2107.504831597209 683.69895878434181 2100.5757129043341 569.92052285373211
leaf_count=55 424 45792 19834 8820 234 20938 2646 28894 1221 264 19787 22841 30995 1399 29192 24580 7060 275 1051 207 367 217 1076 23941 852 109 260 512 404 15643 1328 999 1812 220 291 334 4629 2850 33555 15314 41859 803 1051 2670 865 1131 56 288 3122 1269 3481 1121
internal_value=0.0140733 0.0145562 0.0134482 0.00816755 0.0113638 0.0147606 0.00611355 0.0125127 0.00937437 0.00292295 0.0133159 0.0164812 0.0155251 0.00829179 0.0130028 0.00974685 0.00830237 0.00469002 0.00496824 0.00938502 0.0120229 0.00319374 0.00357525 0.0154751 -0.00112959 -0.000584882 0.00719292 -0.00152056 0.00130671 0.00850746 0.00168969 0.00565172 0.000901691 0.00225457 0.00366292 -0.00238239 0.0104241 0.00813746 0.0170087 0.0123784 0.0148689 -0.00079602 0.00397385 -0.00303143 0.00610355 0.00462349 0.00219219 0.00815323 0.00938943 0.00325389 0.00688006 0.00416425
internal_weight=349471 322959 205332 26511.8 79594.7 125737 17414.7 50221.3 29373.4 7131.95 43956.4 117628 81780.6 10282.7 44854.9 27555.8 5366.41 4958.83 2641.15 7641.56 9097.11 1786.12 1817.56 41190.3 2173.12 2087.35 2635.6 1647.29 1134.16 10662.5 1173.14 3824.68 980.199 967.558 788.242 1357.38 5005.96 1955.04 76437.4 27168.9 52501.9 473.792 680.558 1188.4 3315.21 658.168 289.916 855.03 2311.05 781.457 2240.02 1075.19
internal_count=428938 386364 260235 42574 111508 148727 30265 66623 44885 13855 56039 126129 92688 16410 58086 41444 8537 9058 4767 11643 12309 3428 3441 46782 4797 4533 4368 3681 2317 16864 2365 6741 2029 1913 1477 3113 7275 3110 79347 36252 61693 1037 1258 2779 5742 1186 568 1339 3489 1489 3756 1986
is_linear=0
shrinkage=0.0125994


Tree=4
num_leaves=53
num_cat=0
split_feature=27 28 24 28 24 28 24 24 24 28 24 28 23 23 24 24 24 10 10 24 10 23 23 28 18 10 28 24 3 11 23 13 28 24 3 14 28 23 28 3 28 23 8 28 28 28 8 6 25 24 8 28
split_gain=8677.92 6341.79 4349.51 1387.25 929.798 898.625 568.578 382.168 350.931 331.492 330.232 318.545 180.955 160.424 158.286 130.371 101.62 79.6577 76.6471 76.3068 53.8611 48.0292 39.3551 39.2515 38.3955 36.214 34.5873 32.6234 31.4456 30.7693 29.9751 29.8516 27.884 24.739 23.9596 23.6152 23.1702 23.1649 22.7201 22.2922 22.2339 22.1447 20.7475 19.6662 34.0839 49.2232 18.3867 18.213 17.9722 17.296 17.1403 16.676
threshold=26.500000000000004 4.8940944640863338 1239.4000000000003 4.3372693810700085 1108.3000000000004 4.3372693810700085 850.35000000000014 1681.6000000000001 699.10000000000002 5.2958110956362647 1612.4500000000003 5.2652741739841078 0.64440905388471192 0.62274354636591489 1581.6500000000003 1554.6000000000001 664.15000000000009 68.500000000000014 61.500000000000007 834.75000000000011 66.500000000000014 0.65646381578947388 0.56412149122807032 5.4315338162543414 0.63183333333333347 56.500000000000007 4.9089648320872419 585.70000000000016 7.2500000000000009 168.50000000000003 0.64830686090225575 88.500000000000014 4.1820210059610323 1056.6500000000003 7.7500000000000009 153.50000000000003 5.1089666311285624 0.54738458646616561 4.9089648320872419 8.1500000000000004 5.2067464199591091 0.59114385964912286 105.50000000000001 4.0517471391904856 4.1190041246092024 4.1026092131977068 106.50000000000001 19.550000000000004 6727.0000000000009 883.55000000000007 122.50000000000001 4.8940944640863338
decision_type=2 2 2 2 2 2 2 2 2 2 2 2 2 2 2 2 2 2 2 2 2 2 2 2 2 2 2 2 2 2 2 2 2 2 2 2 2 2 2 2 2 2 2 2 2 2 2 2 2 2 2 2
left_child=1 2 3 6 11 10 16 21 27 14 30 19 43 22 17 18 32 38 37 24 23 -7 -10 -13 34 -25 -19 -5 36 -27 -4 -20 -1 -15 -3 -22 -21 -11 -6 50 42 -18 -38 -8 45 -45 -31 -48 -33 -24 -29 -2
right_child=51 4 5 8 9 7 12 -9 13 15 -12 20 -14 33 -16 -17 41 26 31 28 35 -23 49 25 -26 29 -28 39 -30 46 -32 48 -34 -35 -36 -37 40 -39 -40 -41 -42 -43 -44 44 -46 -47 47 -49 -50 -51 -52 -53
leaf_value=0.0079108369335971467 0.01824692376962515 0.0032874256587649259 0.014052463320115871 0.0015134247168520013 0.0038827152010927103 0.012013168387342253 0.012808408419970396 0.015339020096704792 0.0051589851848666034 -0.00046846292290924783 0.016677580142813231 0.0025283861941185412 0.013978301251062327 0.0097587702577796292 0.011799684479918063 0.0082357340717838495 0.0076868685130169227 0.00080405437219021865 -0.0022295398592726058 0.00672640402173111 -0.0052286941187901928 0.013396930723549685 0.0073474916020252546 0.0021030668615129029 -0.0028408487656788211 -0.0068625828813397658 0.0065028051082217332 0.005893727914170286 0.0026296706518160744 0.0009332744236755444 0.015298514570743353 0.00078304333902339701 0.0034097089344659638 0.011189688103028575 -0.001595181844168437 0.0020798094153388806 0.0044823187644382418 0.0059141533821033447 0.0094285534659748378 0.00011079940629084593 0.0060871618496737877 0.010992585901424677 -0.00034705499560645347 0.0098458444839066867 0.011838485216246799 0.0036849485962566117 0.0024059253164142851 -0.0039158350705084969 0.0040368960989455036 0.0092192914913468479 -0.0017986086811716956 0.015803030673625096
leaf_weight=2087.3072264641523 61023.436296924949 923.99646739661694 18242.310834780335 563.74856472015381 258.25333973765373 18899.690609663725 14373.911263629794 15197.182729452848 845.43231046199799 86.951736271381378 37080.544789835811 514.52324298024178 29757.289899706841 10539.224531009793 3338.9992296844721 1218.3414699435234 1123.6120054572821 203.7795073390007 274.38059063255787 2046.0571309477091 514.10504980385303 20717.822995662689 2998.7272856980562 277.16549555957317 194.65018093585968 152.58996659517288 2528.4187853932381 1395.4821030497551 729.89584834873676 304.62368533015251 46434.474907010794 793.09931823611259 416.02553495764732 12335.492473974824 146.33398425579071 42.132760852575302 162.12740686535835 1109.2279827743769 4764.7231003344059 125.09556871652603 271.64062841236591 8214.6381676197052 337.33062966167927 1713.6728776097298 7657.088929861784 362.64404752850533 39.281522735953331 321.56153136491776 377.5646004229784 9567.9768846929073 17.81914433836937 4524.2658669650555
leaf_count=3349 58243 1760 22288 1140 468 25588 18713 17299 1498 190 39098 1003 36545 15787 4526 1914 1802 420 634 3445 1292 26204 4935 544 463 423 4300 2419 1420 628 53107 1647 779 17344 334 75 279 1916 7219 265 446 11636 727 2519 10422 669 67 784 689 14667 48 4961
internal_value=0.0139499 0.0129842 0.0135323 0.011515 0.00644723 0.0148678 0.0126419 0.013493 0.00956681 0.00821533 0.0155986 0.00261428 0.0132117 0.00985976 0.00933345 0.00489237 0.00998751 0.00817567 0.00317746 0.00440086 -0.00136812 0.0127591 0.00861323 -0.000141957 0.00162559 -0.00147328 0.00610859 0.00435526 0.00533994 -0.00275568 0.0149626 0.00113173 0.00727589 0.0105622 0.0025626 -0.00450399 0.00596133 0.00544956 0.0092007 0.00528536 0.00354046 0.0106549 0.00157744 0.0122278 0.0112851 0.00892503 -0.00125069 -0.00294784 0.00200115 0.00881577 0.00571624 0.0180953
internal_weight=348147 282599 260667 104095 21931.8 156572 65706.2 54814.7 38389 14953.7 101757 6978.02 53864.6 36286.9 11094.2 3859.57 11841.6 7755.17 2641.22 4812.03 2165.98 39617.5 13412.1 1609.75 1264.98 1095.22 2732.2 2102.15 3547.05 818.057 64676.8 1445.04 2503.33 22874.7 1070.33 556.238 2817.16 1196.18 5022.98 1538.4 771.099 9338.25 499.458 24107.3 9733.41 2076.32 665.467 360.843 1170.66 12566.7 1413.3 65547.7
internal_count=428938 365734 328121 144537 37613 183584 86434 69091 58103 23923 114493 13690 68868 54231 16933 6990 17566 12407 5076 8874 4816 51792 21100 3449 2557 2446 4720 3872 6317 1902 75395 2970 4128 33131 2094 1367 4897 2106 7687 2732 1452 13438 1006 32323 13610 3188 1479 851 2336 19602 2467 63204
is_linear=0
shrinkage=0.0125994


Tree=5
num_leaves=53
num_cat=0
split_feature=27 2 24 2 24 2 24 24 24 2 24 2 23 23 24 24 24 10 10 24 10 23 2 18 23 10 2 0 3 11 2 2 2 13 2 24 21 14 23 2 2 2 23 8 12 2 2 2 22 21 8 6
split_gain=8574.32 6238.72 4290.35 1404.41 911.082 858.411 574.05 362.911 347.358 325.035 317.149 311.613 181.267 161.006 155.749 127.799 99.7879 78.2035 74.9886 74.8375 52.5113 40.257 38.4287 37.6034 37.1854 35.4806 33.8252 32.0546 30.8114 30.2448 30.1231 58.0465 67.9838 29.2381 27.2622 26.124 25.1808 23.1855 22.7032 22.5079 22.1502 21.8128 21.7108 20.3992 20.9659 19.2484 33.337 43.331 18.2929 18.292 17.9639 17.9271
threshold=26.500000000000004 132.50000000000003 1246.7500000000002 75.500000000000014 1108.3000000000004 75.500000000000014 850.35000000000014 1681.6000000000001 699.10000000000002 198.50000000000003 1612.4500000000003 192.50000000000003 0.64440905388471192 0.62274354636591489 1581.6500000000003 1554.6000000000001 664.15000000000009 68.500000000000014 61.500000000000007 834.75000000000011 66.500000000000014 0.65646381578947388 227.50000000000003 0.63183333333333347 0.56412149122807032 56.500000000000007 134.50000000000003 24.500000000000004 7.2500000000000009 168.50000000000003 56.500000000000007 60.500000000000007 59.500000000000007 88.500000000000014 64.500000000000014 1056.6500000000003 1.3594500000000003 153.50000000000003 0.54738458646616561 164.50000000000003 134.50000000000003 181.50000000000003 0.59114385964912286 105.50000000000001 53.500000000000007 56.500000000000007 60.500000000000007 59.500000000000007 0.83594736842105277 0.072700000000000028 106.50000000000001 19.550000000000004
decision_type=2 2 2 2 2 2 2 2 2 2 2 2 2 2 2 2 2 2 2 2 2 2 2 2 2 2 2 2 2 2 2 2 2 2 2 2 2 2 2 2 2 2 2 2 2 2 2 2 2 2 2 2
left_child=1 2 3 6 11 10 16 21 27 14 30 19 45 24 17 18 34 40 38 23 22 -7 -13 36 -10 -24 -19 48 39 -27 -4 32 -32 -20 49 -15 -3 -22 -11 -21 -6 43 -18 -41 -45 -8 47 -47 -5 -1 -31 -52
right_child=-2 4 5 8 9 7 12 -9 13 15 -12 20 -14 35 -16 -17 42 26 33 28 37 -23 25 -25 -26 29 -28 -29 -30 50 31 -33 -34 -35 -36 -37 -38 -39 -40 41 -42 -43 -44 44 -46 46 -48 -49 -50 -51 51 -53
leaf_value=-0.0011086886565940205 0.017960208381143289 0.0030382266946437243 0.015268465700213358 -0.00085270898802571927 0.0038472896460053237 0.011947029438245927 0.012718891897483445 0.015211680662640848 0.0051594545034760932 -0.00046516005396916372 0.01654581083396451 0.002501734232155575 0.013876827033220955 0.0096618822030843914 0.011690851469671774 0.0081544364967107187 0.0076104717727362887 0.00079663151440050397 -0.002206177784550858 0.0066558067344750322 -0.0051649241807405584 0.013294522917903947 0.002082791510857494 -0.0028130552730391725 0.0087380991997641384 -0.0067955430997585931 0.0064337861641434718 0.0052897636845680796 0.0026010331445133982 0.00092388203627822402 0.012917249434911213 0.014573807063244223 0.0075416583784000272 0.00198023639428681 0.003375508498537278 0.011086608637018375 -0.0032238877079729363 0.0020703568843302104 0.0058525233525987637 0.0044464261375401024 0.0093347154161073746 0.0060336800483212242 0.010887561735238192 0.0023512654275196776 -0.0029364377569053961 0.009781552536579181 0.011766443988716445 0.0039280743907777523 0.0032268149859261829 0.007949041165755304 0.0023955380298232177 -0.0038722658421786395
leaf_weight=19.60889108479023 65211.933373212814 1013.7747835218906 39551.222433626652 252.35519528388977 257.99256235361099 18403.425463408232 14608.487966388464 15132.318342402577 849.41435045003891 86.961911261081696 36906.595900192857 514.19944746792316 30550.953438922763 10511.66684371233 3328.3399765193462 1215.6980771273375 1121.3084230571985 203.73817589879036 274.53145723044872 2042.470872014761 514.75374226272106 20354.573992848396 277.01869793236256 194.7861689478159 12714.351855918765 152.84151901304722 2524.1211405992508 1485.2281004041433 729.4069956690073 304.55427956581116 4181.8346945792437 18477.820002183318 806.76690815389156 1170.1207084357738 415.65621612966061 12837.481837213039 55.844141647219658 42.111003249883652 1107.532529771328 161.94215823709965 4752.7631910890341 271.21762639284134 8190.2100358456373 168.53923574090004 168.82119445502758 1747.5170134305954 7777.670468300581 375.50107181072235 362.22474725544453 2063.337038487196 39.257909789681435 321.86679674685001
leaf_count=48 63204 1949 45180 555 468 24943 19061 17299 1504 190 39098 1003 37626 15787 4526 1914 1802 420 634 3445 1292 25817 544 463 19869 423 4300 2635 1420 628 5354 21894 1287 2336 779 18103 145 75 1916 279 7219 446 11636 323 404 2573 10602 686 682 3301 67 784
internal_value=0.0138286 0.0128676 0.0134128 0.0114401 0.00637914 0.0147649 0.0125631 0.0134078 0.00949622 0.00813209 0.0154869 0.00258463 0.0131231 0.00978268 0.0092411 0.00484025 0.00989018 0.00809222 0.00314247 0.00435344 -0.00135283 0.0126774 -0.000141614 0.00160505 0.00854162 -0.00145832 0.00604335 0.00430738 0.00528427 -0.00272688 0.0148492 0.0140992 0.0121642 0.00111927 0.00720142 0.010476 0.00253321 -0.00444717 0.0053919 0.00589996 0.00910907 0.003509 0.0105526 0.00156439 -0.000343407 0.0121468 0.0112195 0.00890462 0.00163494 0.00783033 -0.00123523 -0.00291185
internal_weight=346805 281593 259698 105883 21895.2 153815 66870.3 53890.3 39012.7 14921.8 99924.2 6973.41 55060.1 36912.9 11067 3854.84 11810.1 7738.62 2639.15 4806.8 2166.6 38758 1609.74 1264.41 13563.8 1095.54 2727.86 2099.81 3542.4 818.521 63017.6 23466.4 4988.6 1444.65 2498.6 23349.1 1069.62 556.865 1194.49 2812.99 5010.76 770.52 9311.52 499.303 337.36 24509.2 9900.69 2123.02 614.58 2082.95 665.679 361.125
internal_count=428938 365734 328121 147249 37613 180872 88114 68059 59135 23923 112813 13690 70548 55263 16933 6990 17566 12407 5076 8874 4816 50760 3449 2557 21373 2446 4720 3872 6317 1902 73715 28535 6641 2970 4128 33890 2094 1367 2106 4897 7687 1452 13438 1006 727 32922 13861 3259 1237 3349 1479 851
is_linear=0
shrinkage=0.0125994


Tree=6
num_leaves=53
num_cat=0
split_feature=27 2 24 2 24 2 24 24 24 24 2 2 23 23 24 24 24 2 23 11 24 0 14 23 2 24 21 18 23 19 3 19 24 18 3 6 2 14 2 2 14 2 21 8 3 8 12 24 6 2 2 14
split_gain=8475.06 6133.4 4260.84 1346.28 899.182 878.064 600.937 380.475 373.289 324.087 318.813 303.496 224.467 153.446 153.276 125.33 78.6893 68.2961 47.2848 47.1209 46.9332 43.4395 41.1507 37.7273 36.8877 36.4359 36.0861 34.417 31.9673 31.7703 30.1895 27.455 26.083 25.0786 24.9727 23.8167 23.2903 22.8492 21.8687 21.648 21.574 21.4045 21.3417 21.0892 23.3353 20.0615 20.5908 17.6035 16.5431 15.8739 19.6036 15.1412
threshold=24.500000000000004 132.50000000000003 1239.4000000000003 75.500000000000014 1108.3000000000004 75.500000000000014 761.70000000000016 699.10000000000002 1681.6000000000001 1612.4500000000003 198.50000000000003 192.50000000000003 0.64575028195488737 0.62274354636591489 1581.6500000000003 1554.6000000000001 834.75000000000011 134.50000000000003 0.65646381578947388 196.50000000000003 585.70000000000016 28.500000000000004 127.50000000000001 0.56412149122807032 94.500000000000014 977.10000000000025 1.3594500000000003 0.63183333333333347 0.64830686090225575 0.48708333333333348 7.2500000000000009 0.41375000000000012 1056.6500000000003 0.65673809523809534 7.7500000000000009 20.250000000000004 132.50000000000003 134.50000000000003 164.50000000000003 450.50000000000006 100.50000000000001 181.50000000000003 0.9578000000000001 98.500000000000014 8.0500000000000025 105.50000000000001 53.500000000000007 883.55000000000007 23.450000000000003 64.500000000000014 67.500000000000014 103.50000000000001
decision_type=2 2 2 2 2 2 2 2 2 2 2 2 2 2 2 2 2 2 2 2 2 2 2 2 2 2 2 2 2 2 2 2 2 2 2 2 2 2 2 2 2 2 2 2 2 2 2 2 2 2 2 2
left_child=1 2 3 6 11 9 20 21 18 28 14 16 25 23 17 29 27 -6 -7 26 31 24 42 -9 48 -8 -13 34 -4 -12 38 -1 -15 -21 -3 -28 -2 39 -18 -37 -26 45 -19 -31 51 -40 -47 -25 -5 -33 -51 -45
right_child=36 4 5 7 10 8 12 13 -10 -11 15 19 -14 32 -16 -17 30 22 -20 33 -22 -23 -24 47 40 -27 35 -29 -30 43 -32 49 -34 -35 -36 37 -38 -39 41 -41 -42 -43 -44 44 -46 46 -48 -49 -50 50 -52 -53
leaf_value=-0.0024840603987755258 0.017968055678020938 0.0031000420254500556 0.013803710974823998 0.00068189443958646841 0.002757958676867582 0.011791112226973476 0.010854717332475795 0.005051551846508226 0.015086481511646137 0.016416551106071597 -0.0011758212793826705 0.00025995187070009798 0.013632528499267467 0.0095472744019864247 0.011583418168858418 0.0080740250148560646 0.0065859699385762051 0.0082280868511638988 0.013160392762746902 0.0032565736264506778 0.0089326614412931944 0.0063057700844843219 0.0096553142866855814 0.0071814963505174466 -0.003315892668605954 0.012389087650101977 0.00044780212923192558 -0.002778773195482987 0.015048663492005848 -0.0020578735842215674 0.0025726994805038272 0.006263851179232097 0.010977683634414389 -0.0042775371797341222 -0.0018793814414989904 -0.0056560971291726601 0.015502523395699946 -0.00032931513347073132 0.0044108335100422639 0.0015815764112303906 0.0013712725659870528 0.0059807008716927521 0.0056788820698816496 0.0019317346201412941 -0.00067100251223781886 0.0023313206111642694 -0.0029087324207020698 0.009038376444607454 0.0052707173792832058 -0.0035755121993155444 0.0033351490424294019 0.0046827392488075674
leaf_weight=33.676506742835045 60713.686270266771 910.34883770346642 18095.807033926249 189.45398896932602 461.4298165589571 18775.510492771864 10466.651999920607 843.16965535283089 15066.653991550207 36730.195116654038 218.88313041627407 602.00525952875614 30897.366381704807 10448.496831163764 3317.6017789840698 1213.0487371683121 2038.8860736936331 2214.8242924958467 20564.588569641113 377.3947676718235 4995.8551634997129 702.88187743723392 3123.2797392457724 2984.237103074789 146.72043406963348 17720.908544957638 191.85410597920418 192.80380322039127 46040.879724681377 62.333405703306198 728.92146719992161 769.96125923097134 12260.638551026583 21.181907162070274 142.3614584505558 722.23256339132786 4505.4770158678293 203.89846804738045 161.75710153579712 42.271840587258339 486.41063357889652 270.79437030851841 1922.4826377481222 570.83760081231594 159.44357854127884 168.43788845837116 168.94664159417152 9521.9562641531229 499.89343082904816 33.181330770254135 119.05498634278774 1625.5294343084097
leaf_count=88 58606 1744 22288 392 888 25588 14874 1498 17299 39098 488 1273 38453 15746 4526 1914 3445 3501 26204 712 7707 1183 4661 4932 358 23468 402 458 53107 150 1420 1299 17344 70 329 1828 4998 441 279 79 986 446 3357 1136 349 323 404 14667 872 94 213 2953
internal_value=0.0137092 0.0127495 0.013292 0.0112858 0.00630765 0.0146187 0.0124022 0.00936011 0.0132557 0.0153442 0.00804966 0.00252933 0.012796 0.00966067 0.00914981 0.00478812 0.00428059 0.0080097 0.012529 -0.0013597 0.00838904 0.00386512 0.00831393 0.0084387 0.00231624 0.0118476 -0.00223792 0.00145125 0.0147128 0.00310701 0.00522916 0.00513237 0.0103509 0.00227682 0.00235115 -0.0034755 0.0178145 -0.00423107 0.00583919 -0.00515638 6.27614e-05 0.00347761 0.00715765 0.00351701 0.00371975 0.0015511 -0.000340301 0.00863769 0.00418904 0.00556637 0.00117571 0.00404957
internal_weight=345447 280228 258394 103121 21833.8 155274 65036.7 38083.9 54406.8 100867 14889.7 6944.1 59084.9 36058.5 11039.6 3850.08 4783.26 7722.02 39340.1 2160.84 5951.73 2025.36 7260.59 13349.4 1322.48 28187.6 1762.26 1245.51 64136.7 2637.03 3537.74 955.874 22709.1 398.577 1052.71 1160.26 65219.2 968.403 2808.82 764.504 633.131 769.936 4137.31 2418.14 2355.81 499.142 337.385 12506.2 689.347 922.198 152.236 2196.37
internal_count=428938 365334 327758 144174 37576 183584 86196 57978 69091 114493 23923 13653 76795 54187 16933 6990 8848 12407 51792 4805 9401 3791 11519 21097 2608 38342 4023 2531 75395 5076 6317 1694 33090 782 2073 2750 63604 2348 4897 1907 1344 1452 6858 4588 4438 1006 727 19599 1264 1606 307 4089
is_linear=0
shrinkage=0.0125994


Tree=7
num_leaves=53
num_cat=0
split_feature=27 2 24 2 24 2 24 24 24 2 24 2 23 23 24 24 24 10 10 24 10 23 2 18 23 11 2 2 2 2 24 3 13 2 24 21 14 23 3 23 2 2 2 2 2 2 2 8 12 2 24 21
split_gain=8380.65 6040.74 4178.55 1362.25 874.938 839.296 559.259 354.715 334.092 312.869 311.659 298.119 177.147 155.729 150.806 122.955 96.709 77.4012 73.5703 72.0761 51.2541 39.7015 37.3002 36.0678 35.6019 34.8633 32.4218 32.057 59.3741 68.3567 31.111 29.5809 28.3001 26.6702 25.5376 24.5088 22.6628 22.1125 21.9736 21.8537 21.2463 21.0055 21.004 20.5275 34.0022 43.213 20.1421 19.7295 20.2225 18.7229 17.9512 17.937
threshold=26.500000000000004 132.50000000000003 1246.7500000000002 75.500000000000014 1108.3000000000004 75.500000000000014 850.35000000000014 1681.6000000000001 699.10000000000002 198.50000000000003 1612.4500000000003 192.50000000000003 0.64440905388471192 0.62274354636591489 1581.6500000000003 1554.6000000000001 664.15000000000009 68.500000000000014 61.500000000000007 834.75000000000011 66.500000000000014 0.65646381578947388 227.50000000000003 0.63183333333333347 0.56412149122807032 168.50000000000003 134.50000000000003 56.500000000000007 60.500000000000007 59.500000000000007 585.70000000000016 7.2500000000000009 88.500000000000014 64.500000000000014 1056.6500000000003 1.3594500000000003 153.50000000000003 0.54738458646616561 8.1500000000000004 0.59114385964912286 164.50000000000003 134.50000000000003 181.50000000000003 56.500000000000007 60.500000000000007 59.500000000000007 132.50000000000003 105.50000000000001 53.500000000000007 63.500000000000007 883.55000000000007 0.072700000000000028
decision_type=2 2 2 2 2 2 2 2 2 2 2 2 2 2 2 2 2 2 2 2 2 2 2 2 2 2 2 2 2 2 2 2 2 2 2 2 2 2 2 2 2 2 2 2 2 2 2 2 2 2 2 2
left_child=1 2 3 6 11 10 16 21 30 14 27 19 43 24 17 18 33 41 37 23 22 -7 -13 35 -10 -24 -19 -4 29 -29 -5 40 -20 51 -15 -3 -22 -11 -32 -18 -21 -6 47 -8 45 -45 -2 -42 -49 -46 -26 -1
right_child=46 4 5 8 9 7 12 -9 13 15 -12 20 -14 34 -16 -17 39 26 32 31 36 -23 25 -25 50 -27 -28 28 -30 -31 38 -33 -34 -35 -36 -37 -38 -39 -40 -41 42 -43 -44 44 49 -47 -48 48 -50 -51 -52 -53
leaf_value=-0.0011268933950110821 0.017850707328792868 0.002973246107948661 0.015022419858204589 0.0014440867771960584 0.0037870255787986399 0.011727775031595878 0.012496647277438584 0.014963347444646608 0.0050528044131730575 -0.00047071897410218511 0.016289712737216126 0.0024784050719302122 0.013639110795014805 0.0094713795844199415 0.011477345761254112 0.0079944830036235721 0.0074356604585006725 0.00076380993581474455 -0.0021988892655585329 0.0065168808752833372 -0.0050866759230516921 0.013061215975537215 -0.0052901141807154021 -0.0027603348580742607 0.0071051573443703204 -0.00018053582127479712 0.0062792846022300744 0.012675383029790922 0.014328362711592865 0.0073272998615750403 0.0055535899633388413 0.0025446663142289832 0.0019180989039332204 0.003276834081801508 0.010876620637441003 -0.0031977869020757147 0.0020586932200661458 0.00575715299511384 2.7760710208295042e-05 0.010679786091571096 0.0043755379630470532 0.0091607225918942953 0.0059282183506910741 0.0095741378855202196 0.013730525494683012 0.0037721089511155697 0.015410797690105792 0.002311544145409039 -0.0028813052531868797 0.010764898383217026 0.0089553053848016109 0.0077855508035107462
leaf_weight=19.575582191348076 60064.195742443204 1012.254156768322 39209.507977172732 562.83307701349258 257.54538550972939 18281.012736991048 14506.888122081757 15000.241588756442 847.13377650082111 86.944692254066467 36551.485518634319 513.91137166321278 30311.324411451817 10456.201392531395 3306.7909882515669 1210.3944606184959 1115.9318772256374 203.55481165647507 274.5766172260046 2035.3038999736309 515.53752689063549 20201.906688660383 211.17869099974632 195.04225204885006 2980.0162713527679 885.10152618587017 2514.3416439294815 4148.8134307563305 18322.527709245682 801.69490450620651 1407.6369477659464 728.4392903894186 1168.5072894692421 414.57263997197151 12758.605021104217 55.903503268957138 42.083899885416031 1104.876447096467 124.76641343533993 8140.5040568113327 161.57226124405861 4730.0935867875814 270.37095472216606 1736.9799308031797 1731.9777189493179 373.89251290261745 4460.2423634082079 168.33703179657459 169.07032598555088 5993.9745118767023 9674.2894659042358 2054.3493481725454
leaf_count=48 58243 1949 45180 1140 468 24943 19061 17299 1504 190 39098 1003 37626 15787 4526 1914 1802 420 634 3445 1292 25817 546 463 4935 1900 4300 5354 21894 1287 2467 1420 2336 779 18103 145 75 1916 265 11636 279 7219 446 2573 2086 686 4961 323 404 8516 14934 3301
internal_value=0.0135915 0.0126393 0.0131788 0.0112268 0.00624508 0.0145196 0.0123372 0.0131737 0.00930833 0.00796831 0.0152367 0.00252593 0.0128922 0.00959042 0.00905994 0.00473604 0.00969362 0.00792865 0.00307117 0.00425951 -0.00132264 0.0124502 -0.000126394 0.00156254 0.00836812 -0.00142322 0.00589588 0.0146032 0.013854 0.0119234 0.00421483 0.00517463 0.00106906 0.00704546 0.010274 0.00247333 -0.00437743 0.00530152 0.00512482 0.0103474 0.00577907 0.00893949 0.00344652 0.0119258 0.0110018 0.00870046 0.0176989 0.00153794 -0.000337218 0.0115469 0.00856105 0.00766721
internal_weight=344075 279550 257729 105211 21821.7 152517 66400 53483.2 38811.5 14857.6 99034 6964.11 54655 36716.2 11012.3 3845.3 11744.9 7705.54 2634.91 4796.29 2167.81 38482.9 1610.19 1263.2 13501.4 1096.28 2717.9 62482.5 23273 4950.51 2095.24 3533.09 1443.08 2488.5 23214.8 1068.16 557.621 1191.82 1532.4 9256.44 2804.65 4987.64 769.351 24343.7 9836.82 2110.87 64524.4 498.98 337.407 7725.95 12654.3 2073.92
internal_count=428938 365734 328121 147249 37613 180872 88114 68059 59135 23923 112813 13690 70548 55263 16933 6990 17566 12407 5076 8874 4816 50760 3449 2557 21373 2446 4720 73715 28535 6641 3872 6317 2970 4128 33890 2094 1367 2106 2732 13438 4897 7687 1452 32922 13861 3259 63204 1006 727 10602 19869 3349
is_linear=0
shrinkage=0.0125994


Tree=8
num_leaves=53
num_cat=0
split_feature=27 28 0 28 28 0 22 22 25 28 25 28 0 0 22 0 10 22 25 0 10 25 19 22 19 14 0 0 10 28 10 10 26 28 0 22 21 22 3 28 28 6 26 19 0 21 28 6 3 25 3 19
split_gain=8245.1 6017.65 3138.46 1278.92 912.845 694.15 450.26 396.843 353.111 342.703 292.061 273.884 210.935 183.137 183.101 161.469 136.013 130.99 114.214 107.48 103.743 89.5988 69.2347 60.9892 59.673 58.1311 54.4777 48.9444 42.7192 40.0865 39.2098 38.3027 36.209 36.1098 35.9654 31.601 30.9662 25.0739 24.9384 24.5953 23.7827 23.0554 21.3211 20.8079 20.7845 20.6622 20.2418 19.0025 18.8443 18.7385 18.3297 20.7831
threshold=26.500000000000004 4.8940944640863338 48.500000000000007 4.3372693810700085 4.3372693810700085 49.500000000000007 0.84638596491228091 0.8659473684210528 8061.0000000000009 5.2652741739841078 7612.5000000000009 5.2958110956362647 29.500000000000004 28.500000000000004 0.84128070175438607 28.500000000000004 67.500000000000014 0.8249649122807019 7662.0000000000009 25.500000000000004 61.500000000000007 8061.0000000000009 0.51708333333333356 0.77029824561403526 0.52208333333333357 139.50000000000003 33.500000000000007 35.500000000000007 68.500000000000014 4.1820210059610323 73.500000000000014 72.500000000000014 5634.3500000000013 4.2268071048866842 28.500000000000004 0.86982456140350894 1.0893000000000002 0.92105263157894757 8.4500000000000011 4.8940944640863338 5.173316863805991 23.550000000000004 4222.6000000000013 0.48708333333333348 37.500000000000007 0.91160000000000008 4.9663289649179552 29.950000000000003 7.7500000000000009 2981.5000000000005 6.5500000000000007 0.48708333333333348
decision_type=2 2 2 2 2 2 2 2 2 2 2 2 2 2 2 2 2 2 2 2 2 2 2 2 2 2 2 2 2 2 2 2 2 2 2 2 2 2 2 2 2 2 2 2 2 2 2 2 2 2 2 2
left_child=1 2 3 6 10 9 12 13 14 16 17 18 29 41 -6 -8 26 -4 31 -9 34 25 48 49 -14 28 45 46 43 -1 -23 -7 44 -31 -11 50 -29 -36 -37 -2 -33 -5 -38 -13 -24 -3 -18 -21 -22 -15 -28 -52
right_child=39 5 4 7 8 11 15 19 -10 20 -12 21 24 23 -16 -17 27 -19 -20 47 22 30 32 -25 -26 -27 35 36 -30 33 -32 40 -34 -35 37 38 42 -39 -40 -41 -42 -43 -44 -45 -46 -47 -48 -49 -50 -51 51 -53
leaf_value=0.0075110538414414419 0.017712905533827459 0.0045803199484454179 0.013286829476255386 0.00057423521903526408 0.010993989738038079 0.0086450464865475939 0.0093058476710102065 0.0036043652865467893 0.014872864120418924 -0.0039117430158573923 0.016104614699543107 -0.0014318871239625498 0.01010173435371782 0.00047618680486634536 0.012982378640193198 0.01354645756245362 0.0023901443022100685 0.01487793259726569 0.011698564388242284 0.010622730898343612 -0.0070262777197852618 0.0089314448562405231 -0.0035838889335610092 0.0089314373466453743 0.011961300364106375 0.0068666684401440655 0.0067661931931065839 0.0045744510853992408 -0.0021543042112367214 -0.0037356488157334073 -0.0025396238850388113 0.0055954992991086071 0.0042916537871667089 0.004121503514346616 0.0020359332958292098 0.0090721003591651209 -0.0021099248382381156 0.0064112690656694454 -0.00038323096720002328 0.015251195902317679 -0.0009836309758828952 0.0043176724096333574 0.0026652958742316188 0.0033624194514878447 -2.0592107769240477e-05 0.00011867582550644525 -0.001715158769517846 0.012815012581338887 -0.00016526187101117867 0.0069824926165313007 -0.0008199894178018062 0.0044255528865841326
leaf_weight=1711.887431114912 59761.349929869175 335.04610469937325 19870.961556613445 437.82165862619877 16400.667870357633 4922.3572082072496 2171.753600075841 403.10176272690296 12403.1649235636 65.27520053088665 32264.515138238668 120.90782737731934 7820.8762336522341 82.3365218937397 25316.90904006362 37506.544751957059 249.46219834685326 46345.831607118249 2799.0354038923979 15023.131669342518 346.21925638616085 746.07794468104839 325.541110008955 14233.401795268059 16641.660418778658 514.96110190451145 1261.4179073423147 1785.2921847105026 262.39382545650005 68.021944686770439 21.343573555350304 817.82858498394489 154.73366695642471 258.61134743690491 1006.3612811267376 1518.1681948900223 179.78875604271889 244.40563005208969 39.747465774416924 4445.3222511708736 75.432841598987579 681.78824649751186 308.53955064713955 1375.5451653152704 761.17858907580376 284.64281333982944 403.35977239906788 2764.3012969046831 79.215550735592842 4416.6631104797125 121.41472785174847 612.8716239631176
leaf_count=2772 58312 594 25043 913 23117 7670 3266 747 14342 173 34815 275 11446 170 32436 46711 482 53712 3780 21543 926 1117 786 21973 22407 837 2102 3247 604 177 60 1417 268 462 2004 2299 416 391 87 4979 169 1241 591 2613 1625 603 910 3525 171 7358 268 1109
internal_value=0.0134746 0.012529 0.0130684 0.01136 0.0142294 0.00613531 0.0124336 0.0094731 0.0128467 0.00367525 0.0149796 0.00822871 0.0110581 0.00816627 0.0122204 0.0133311 0.00516837 0.014415 0.00938967 0.0108626 8.43166e-05 0.00480295 -0.0019689 0.00846437 0.0113973 0.003365 0.00663064 0.00297691 0.00211631 0.00674524 0.00842651 0.00815264 -0.000358644 0.00211403 0.00265341 0.00724089 0.00382684 0.00318525 0.00882447 0.0175592 0.00500835 0.00297395 0.00086227 0.00292815 -0.00124048 0.00275135 -6.63051e-05 0.0110123 -0.00595329 0.00687263 0.00574776 0.0035617
internal_weight=342769 278563 256824 104222 152602 21738.6 66179.4 38042.5 54120.7 10082.7 98481.3 11655.9 26501.1 19852 41717.6 39678.3 7099.75 66216.8 8614.65 18190.5 2982.93 3041.23 1666.89 18732.4 24462.5 2273.81 4173.31 2926.44 1758.85 2038.52 767.422 5815.62 1241.45 326.633 1316.04 3553.62 2273.62 1250.77 1557.92 64206.7 893.261 1119.61 488.328 1496.45 1086.72 619.689 652.822 17787.4 425.435 4499 1995.7 734.286
internal_count=429061 365770 328176 144711 183465 37594 87241 57470 69895 19052 113570 18542 37264 31655 55553 49977 12708 78755 13036 25815 6344 5506 3776 29501 33853 4329 7062 5646 3492 3411 1177 9256 2679 639 2568 5865 4254 2395 2386 63291 1586 2154 1007 2888 2411 1197 1392 25068 1097 7528 3479 1377
is_linear=0
shrinkage=0.0125994


Tree=9
num_leaves=53
num_cat=0
split_feature=27 21 24 24 24 21 24 21 21 21 24 0 0 0 24 23 0 23 23 21 21 21 19 23 21 23 14 13 14 8 14 8 21 23 19 0 14 21 19 13 18 0 23 18 13 13 14 14 36 19 12 26
split_gain=8159.03 5613.11 3290.81 1481.67 722.443 705.326 688.411 652.037 471.824 286.745 232.196 169.814 147.166 113.896 104.347 101.979 99.3672 98.3665 87.0292 71.2796 69.9357 65.0157 59.2136 39.6286 36.7095 36.4959 35.2759 32.0542 30.8795 28.4518 24.5207 23.4731 23.0874 22.9783 22.2071 20.7604 20.727 20.6744 26.5239 20.247 18.522 18.4475 18.2925 17.6516 17.0054 16.4838 16.9158 15.9385 15.5578 14.7045 14.0344 13.9685
threshold=26.500000000000004 0.65380000000000016 1198.6500000000003 1154.8000000000004 1554.6000000000001 1.0361000000000002 791.05000000000007 1.0893000000000002 0.38205000000000006 0.37745000000000006 1540.1000000000001 67.500000000000014 27.500000000000004 29.500000000000004 664.15000000000009 0.63590131578947384 68.500000000000014 0.64307402882205522 0.65646381578947388 0.80975000000000008 0.41055000000000014 0.51035000000000019 0.51875000000000016 0.60696312656641616 1.4309000000000003 0.64830686090225575 105.50000000000001 60.500000000000007 100.50000000000001 107.50000000000001 125.50000000000001 91.500000000000014 1.4309000000000003 0.61293612155388477 0.52041666666666686 48.500000000000007 100.50000000000001 1.2391500000000002 0.48708333333333348 69.500000000000014 0.64916666666666678 44.500000000000007 0.64830686090225575 0.65759523809523823 59.500000000000007 72.500000000000014 89.500000000000014 146.50000000000003 1.0000000180025095e-35 0.65291666666666692 51.500000000000007 4704.6500000000005
decision_type=2 2 2 2 2 2 2 2 2 2 2 2 2 2 2 2 2 2 2 2 2 2 2 2 2 2 2 2 2 2 2 2 2 2 2 2 2 2 2 2 2 2 2 2 2 2 2 2 2 2 2 2
left_child=1 2 6 7 9 10 14 12 15 42 33 17 26 30 21 -8 20 37 31 28 -6 27 24 41 43 -11 -3 -1 45 34 48 -10 40 -5 -23 49 39 -7 -39 -16 50 -21 -4 -15 -43 46 -14 -26 -9 51 -24 -34
right_child=-2 3 4 5 16 11 8 13 18 25 -12 -13 19 22 36 -17 -18 -19 -20 23 -22 29 32 -25 47 -27 -28 -29 -30 -31 -32 -33 35 -35 -36 -37 -38 38 -40 -41 -42 44 -44 -45 -46 -47 -48 -49 -50 -51 -52 -53
leaf_value=-0.00054429481668159807 0.017435505640940381 -0.0031669273784907114 0.013301380500178882 0.0082454099111132235 0.015466884217987628 0.0052502810567779043 0.011428720649440361 -0.009206488553472298 0.0015894733222578934 0.011715712762915942 0.012945687124471895 0.011250661738143914 0.003750853286637931 0.0018020118038527299 0.0019502179777989349 0.01312774363102228 0.016586658656012852 0.0075935223125289915 0.011563003561954653 0.0028547788617795458 0.013844396069319191 -0.0002056115960849992 0.0055666714233666694 0.0066168602381666249 -0.004233866851694747 0.013094287097662428 0.002533629351035605 0.0070491542595966612 0.0084494587836416932 -0.0020585742575322222 -0.0007573836313845328 0.0097600491067176987 0.0003034695989590937 0.010399489283463827 0.0051934996366430584 0.0041745511153569231 0.0095231807249695453 -0.00096100819880809245 0.0034367691226534179 0.007466105853988215 -0.00013158324172114245 -0.0021102294836297226 0.014567675446470635 -0.0034463418816458031 0.0059864216010698072 0.0062356185370013905 -0.0022968785049672369 0.0016673803682898578 0.00052455348912480726 0.0027535384827068465 0.0023360732561171454 -0.0033137179235079462
leaf_weight=81.021193042397499 63851.155355960131 179.91323760151863 14944.67074328661 2796.3189306557178 31301.897200912237 1293.5852698981762 14672.760118484497 159.06206034123898 86.044907659292221 14716.497767582536 8390.905156865716 921.79816769063473 101.91464079916477 534.60653169453144 176.07057473063469 25936.197201982141 16666.521897345781 1961.6964286714792 9070.1801612824202 1295.5062463283539 14951.187955722213 171.74042424559593 541.81325680017471 3166.6207708269358 412.36170166730881 21962.380072250962 501.42060802876949 2753.4242003262043 5372.2266105562449 151.66693472862244 118.03497171401978 20466.479373812675 560.24911597371101 11365.952540591359 300.11893753707409 185.46891523897648 5646.0070609748363 213.09866215288639 2009.5732946395874 1654.0127339214087 184.79585413634777 10.457677990198134 36144.21463803947 55.679441466927528 709.50234173238277 1539.3540285229683 67.067929670214653 47.08467224240303 21.147190541028976 181.06185652315617 602.06043627858162 166.97183829545975
leaf_count=177 63291 433 18774 4404 34984 2282 20232 474 166 20009 10715 1238 175 1068 342 32935 17400 3168 12409 2500 18249 368 935 5340 1011 27918 973 4564 8432 351 261 30468 1184 16423 515 327 8465 470 3809 2677 395 33 42527 146 1206 2618 162 88 42 342 1180 406
internal_value=0.0133604 0.0124187 0.0132159 0.00835726 0.0143262 0.0100855 0.0111439 0.00533402 0.0116109 0.0135363 0.0111431 0.00627825 0.00667092 0.000706363 0.00808981 0.0125346 0.0154118 0.00531027 0.0103181 0.00698625 0.0149641 0.00601913 0.00138773 0.00567596 -0.00106254 0.0125645 0.000873125 0.00682406 0.00788031 0.00204043 -0.0059825 0.00973137 0.00244975 0.0100168 0.00345444 0.00100013 0.00898291 0.00391318 0.00299848 0.00702693 0.00353313 0.00402525 0.0142159 0.000993833 0.00569191 0.00582853 0.00137874 -0.0034879 -0.00823509 9.95184e-05 0.00409907 -0.000744105
internal_weight=341372 277520 231853 45667.3 150687 28952.9 81165.7 16714.4 70231.7 87767.8 22553.2 6399.75 12944 3770.4 10934.1 40609 62919.6 5477.95 29622.7 12262.7 46253.1 3457.97 3472.15 5182.09 1049.73 36678.9 681.334 2834.45 7080.56 623.526 298.244 20552.5 2422.42 14162.3 471.859 1093.75 7476.09 3516.26 2222.67 1830.08 1328.67 2015.47 51088.9 590.286 719.96 1708.34 168.983 459.446 180.209 908.283 1143.87 727.221
internal_count=429061 365770 293530 72240 179861 42509 113669 29731 96210 109228 31542 10967 21872 7859 17459 53167 70633 9729 43043 20466 53233 5975 7082 9079 2313 47927 1406 4741 11387 1234 777 30634 4769 20827 883 2259 11484 6561 4279 3019 2510 3739 61301 1214 1239 2955 337 1099 516 1932 2115 1590
is_linear=0
shrinkage=0.0125994


Tree=10
num_leaves=53
num_cat=0
split_feature=27 28 24 28 28 24 24 28 24 24 24 24 23 0 24 28 23 19 19 24 24 21 23 24 24 28 0 23 28 14 0 19 28 24 19 0 3 22 7 14 21 21 8 24 14 23 19 20 8 28 28 22
split_gain=8076.13 5853.91 4010.01 1162 943.278 826.325 483.992 476.759 431.064 386.332 283.632 217.501 166.172 103.293 95.9447 88.5411 81.0472 69.4592 48.7775 48.6932 43.9505 42.8928 42.7768 40.0125 38.6337 35.7473 33.2155 32.3024 31.44 29.3895 28.8915 28.09 27.7513 27.1153 23.6025 23.2358 22.63 22.6188 20.8723 20.8694 19.9794 19.4124 19.0961 19.3606 21.5668 18.8328 15.9515 15.6962 15.3736 15.3315 14.5402 14.3734
threshold=26.500000000000004 4.8940944640863338 1198.6500000000003 4.3372693810700085 4.3372693810700085 1421.3500000000001 791.05000000000007 5.2857353797162627 1554.6000000000001 1510.4500000000003 826.10000000000014 941.75000000000011 0.63542205513784467 28.500000000000004 642.9000000000002 5.2652741739841078 0.62049285714285729 0.51708333333333356 0.62041666666666695 1816.8000000000004 664.15000000000009 1.2942000000000002 0.64915300751879712 1641.1500000000003 1198.6500000000003 4.1820210059610323 27.500000000000004 0.64790748746867177 4.9089648320872419 140.50000000000003 67.500000000000014 0.50875000000000015 4.8940944640863338 1082.6500000000003 0.40375000000000011 67.500000000000014 6.1500000000000012 0.78643859649122827 0.83500000000000008 123.50000000000001 1.0361000000000002 0.80975000000000008 115.50000000000001 537.55000000000007 107.50000000000001 0.67374902882205523 0.65958333333333352 0.35717857142857151 121.50000000000001 4.2268071048866842 4.9089648320872419 0.76426315789473698
decision_type=2 2 2 2 2 2 2 2 2 2 2 2 2 2 2 2 2 2 2 2 2 2 2 2 2 2 2 2 2 2 2 2 2 2 2 2 2 2 2 2 2 2 2 2 2 2 2 2 2 2 2 2
left_child=1 2 3 6 9 7 20 11 22 27 14 21 -8 -9 42 30 41 24 28 -10 25 26 -6 31 -15 34 -3 -4 -13 33 40 -17 -2 38 -1 -11 -30 -16 39 -19 50 -12 43 44 -5 -18 -40 48 -35 -27 -7 -28
right_child=32 5 4 10 8 15 12 13 19 35 16 18 -14 17 37 23 45 29 -20 -21 -22 -23 -24 -25 -26 49 51 -29 36 -31 -32 -33 -34 47 -36 -37 -38 -39 46 -41 -42 -43 -44 -45 -46 -47 -48 -49 -50 -51 -52 -53
leaf_value=-0.00059385160393645039 0.017468663219202443 -0.00093143115809951236 0.013061376634346339 -0.0033000353562084731 0.010884027539579474 0.0045081061990942198 0.011155748748026292 -0.0079403514348578459 0.013319817503413409 0.015211456287380076 0.0084737326009212324 0.0016299534862614597 0.012939965346089417 -0.0033729597528466557 0.0052320623132423244 -0.0013936674611556383 0.009477644033873963 0.0022942868278388552 0.008281386261702944 0.015311352165991204 0.0094891899243080211 -0.002203973958585364 0.012271737413274503 0.0085749325448960939 0.001867255211570266 -0.00094235557725682684 0.0050434730962896071 0.014310248668868228 0.0070123818866760857 0.0045122923383500444 0.012808366870250665 0.0049938482793747017 0.014999021475150032 0.0035060666468929016 0.0077245939371586702 0.016629441905374062 0.0048060473778993949 0.0077236097508187346 -0.0031128376941493628 -0.0029623683040250971 0.0067271450743992571 0.0058567902708378562 -0.0027152132854982762 0.0039096560019417472 0.0025596867134911362 0.011211175421818261 0.0018565823836500157 -0.0017005473563140743 0.00042705990868513607 0.0039924230941406052 0.010419023697653271 0.0024574965683664142
leaf_weight=45.619268238544464 59091.327497795224 289.86362133920193 17484.450741201639 105.3004644960165 15202.481816828251 222.76477627456188 18535.088765949011 146.53325283527374 15354.555198132992 36860.884836554527 8260.5776175409555 334.36247988045216 30726.777912855148 681.89895045757294 1656.7665118277073 93.072659119963646 14167.400034055114 495.94338119029999 2549.1315730959177 8299.8139183223248 5277.8766381442547 248.81646247208118 18946.008150741458 953.35686179995537 265.00412674248219 103.57508607208729 622.93869103491306 37660.352809667587 2589.3857827931643 512.95468109846115 1280.7195053398609 898.75156910717487 4399.8000849187374 977.58543165028095 2017.8470769077539 14250.512347146869 2316.6628812104464 3066.8878236114979 378.11650602519512 88.152300029993057 1026.3903638273478 1235.657741650939 46.130881786346436 847.41550804674625 161.57922810316086 4183.0181469172239 82.076873302459717 93.348683625459671 370.04199795424938 316.75285242497921 2832.0950819551945 1308.5812901109457
leaf_count=101 58312 638 22205 261 21466 387 25855 423 19239 41733 12961 667 39327 1618 2930 212 21309 976 4013 9299 7908 575 25051 1457 524 230 1101 44849 4291 923 1599 1597 4979 1844 3240 14790 4175 4940 896 218 1698 2125 118 1571 306 5789 157 216 774 573 4053 2562
internal_value=0.0132478 0.0123098 0.0128449 0.0106981 0.0140275 0.00599346 0.0118095 0.00420304 0.0126689 0.0147577 0.00879869 0.00564505 0.0122854 0.000553046 0.0061383 0.00943669 0.00934405 0.00100133 0.00667567 0.0140617 0.00870635 0.00230063 0.0116774 0.00664211 -0.00187839 0.00682855 0.00285723 0.0139313 0.00579581 0.00193304 0.0103519 0.00434171 0.0173142 0.00129166 0.00752703 0.015629 0.00605276 0.00693884 -0.000253018 0.00126844 0.00937834 0.00817853 0.00267023 0.00304066 4.11957e-05 0.00991386 -0.00209769 0.00237136 0.00272368 0.00281442 0.0100986 0.00343871
internal_weight=339963 276472 254813 90754.3 164059 21658.5 57023.5 14351.4 57802.9 106256 33730.7 10259.7 49261.9 4091.66 5884.08 7307.15 27846.7 3945.12 7789.54 23654.4 7761.67 2470.2 34148.5 1945.18 946.903 2483.79 2221.38 55144.8 5240.41 2998.22 5361.97 991.824 63491.1 2485.27 2063.47 51111.4 4906.05 4723.65 1044.29 584.096 4081.25 9496.24 1160.43 1114.3 266.88 18350.4 460.193 1440.98 1347.63 420.328 3054.86 1931.52
internal_count=429061 365770 328176 129544 198632 37594 77234 26591 75055 123577 52310 18022 65182 8569 10126 11003 42184 8146 13146 28538 12052 4876 46517 3266 2142 4144 4301 67054 9133 6004 7737 1809 63291 5081 3341 56523 8466 7870 2247 1194 6138 15086 2256 2138 567 27098 1053 2834 2618 803 4440 3663
is_linear=0
shrinkage=0.0125994


Tree=11
num_leaves=53
num_cat=0
split_feature=27 2 24 2 2 24 24 2 24 24 24 24 23 10 23 2 10 19 24 24 24 10 0 23 0 21 10 7 2 24 23 23 19 2 23 11 2 0 13 0 31 3 13 8 2 29 21 29 10 13 3 0
split_gain=7998.1 5762.7 3989.56 1148.56 933.789 815.323 513.776 466.221 426.432 383.406 318.882 219.925 164.259 133.253 127.446 87.1113 82.2161 77.6499 51.6122 48.7413 48.6205 46.3213 44.2818 42.4612 42.2816 40.2296 39.0205 38.6987 36.744 36.2328 33.3591 32.3832 31.7356 30.3661 29.9753 26.3469 26.2146 26.0963 25.4992 23.786 22.7171 28.5206 22.4096 22.3797 20.8292 20.6831 19.9699 20.5086 19.7144 17.6588 16.9494 16.5978
threshold=24.500000000000004 132.50000000000003 1198.6500000000003 75.500000000000014 75.500000000000014 1421.3500000000001 791.05000000000007 196.50000000000003 1554.6000000000001 1510.4500000000003 699.10000000000002 941.75000000000011 0.63542205513784467 61.500000000000007 0.62274354636591489 192.50000000000003 68.500000000000014 0.50208333333333355 616.30000000000007 1816.8000000000004 1118.7500000000002 72.500000000000014 26.500000000000004 0.64915300751879712 28.500000000000004 1.2942000000000002 67.500000000000014 0.77500000000000013 134.50000000000003 809.1500000000002 0.56412149122807032 0.64790748746867177 0.51708333333333356 132.50000000000003 0.67374902882205523 198.50000000000003 64.500000000000014 28.500000000000004 81.500000000000014 67.500000000000014 495.06500000000005 4.9500000000000011 60.500000000000007 115.50000000000001 134.50000000000003 5.07203900872703 0.52515000000000012 4.6395599436855051 72.500000000000014 69.500000000000014 9.0500000000000025 25.500000000000004
decision_type=2 2 2 2 2 2 2 2 2 2 2 2 2 2 2 2 2 2 2 2 2 2 2 2 2 2 2 2 2 2 2 2 2 2 2 2 2 2 2 2 2 2 2 2 2 2 2 2 2 2 2 2
left_child=1 2 3 6 9 7 18 11 23 31 24 22 -8 20 30 26 -13 27 36 -10 37 32 -3 -6 43 48 -7 -15 -28 35 -12 -4 -17 -2 51 -19 42 -9 -18 -11 -31 -42 -1 46 -40 -32 -5 -48 -24 -20 -29 -16
right_child=33 5 4 10 8 15 12 13 19 39 14 16 -14 17 34 21 38 29 49 -21 -22 -23 25 -25 -26 -27 28 50 -30 40 45 -33 -34 -35 -36 -37 -38 -39 44 -41 41 -43 -44 -45 -46 -47 47 -49 -50 -51 -52 -53
leaf_value=-0.0013131849143917902 0.017337478094774768 -0.00246857479572281 0.012950615641866796 0.004492563375704051 0.010783152550726496 0.011415321961411354 0.011052797080045794 -0.0046084381361727895 0.013208039783856108 0.015094512271301808 0.0046384009033113554 0.0076089672671915713 0.012828478508267323 0.0022354845217913955 4.7528318844140038e-05 0.0013656969663377418 0.0013070918161183006 -0.0063864925192233446 0.005258067209455413 0.015194160436605535 0.0050113844474471052 -0.00087513103074681972 0.0038700795710923711 0.012163865589741677 0.0060566656372927413 -0.001830757088965026 0.0012743211131386778 -0.0077798314794647865 0.0086518668282625222 0.0026588390767847241 0.0080682517628960088 0.014195151340952453 0.0075715472321882908 0.014864332646866532 0.011050450274794092 0.002075565212162006 0.001480921967470463 0.0015455286425658749 0.00059858808145579452 0.016510443238356008 0.0021223404984982925 -0.0017312712688909435 0.0067860609759399157 -0.002933526692552865 0.005435272598633187 -0.0013905425458901649 -0.0019423124497381192 0.0022774325342814245 0.00043204562759850619 0.0092951590370824559 0.0013879306203095057 0.009266193293544495
leaf_weight=35.020663738250732 59064.42642532289 235.81222502887249 17412.861976370215 459.78211958706379 15152.337810397148 3202.124680429697 18471.091559335589 56.091663375496864 15290.401830330491 36680.126801803708 819.7572673112154 5022.4207512438297 30595.77841372788 47.557627290487289 31.899639278650284 179.2468623816967 380.87868550419807 160.38090553879738 500.18266087770462 8259.246802225709 896.53850327432156 109.59422898292542 1651.1032051444054 18874.275324553251 705.51273255050182 227.24944269657135 141.05443395674229 348.21979935467243 2002.776674374938 427.07891640067101 11312.382411524653 37489.019217863679 1652.7983725965023 4404.7931517660618 4463.4382900595665 40.567808732390404 248.10064713656902 838.03734289109707 170.67544136941433 14173.373194798827 383.38975067436695 871.74059681594372 1152.0405034422874 71.00221748650074 2201.1984544098377 17.643329352140427 192.11275286972523 592.53571708500385 335.66139924526215 5608.5285702943802 13.742126718163489 14869.588330328465
leaf_count=83 58676 550 22205 824 21466 4373 25854 157 19239 41733 1473 8151 39319 85 67 358 769 437 865 9299 1593 242 3080 25051 1195 519 281 952 3083 826 18039 44849 2666 5016 6219 72 496 1697 353 14790 755 1961 1907 177 3873 45 441 1162 702 8470 22 22544
internal_value=0.0131369 0.0121994 0.0127322 0.0105831 0.0139134 0.00592399 0.0116923 0.0041429 0.0125596 0.0146416 0.00869011 0.00557196 0.0121767 0.000530778 0.00900354 0.00934831 0.00660616 -0.00146487 0.00845906 0.0139475 0.00304522 0.00657538 0.00219727 0.0115724 0.00366471 0.00275476 0.0102575 -0.00599329 0.00822222 -0.000300659 0.00784307 0.0138174 0.00703711 0.0171824 0.00970079 -0.00458159 0.00573085 0.000852909 0.00463329 0.0155113 0.00037276 -0.000503936 0.00648701 0.00214067 0.00511453 0.00804505 0.00257113 0.00116936 0.00332388 0.00902788 -0.00726237 0.00924681
internal_weight=338543 275074 253478 90146.4 163332 21595.9 56610.7 14308.3 57576.3 105755 33535.7 10225 49066.9 4083.35 31514.7 7287.6 7775.17 2292.68 7543.87 23549.6 1790.67 1941.64 2449.83 34026.6 2020.95 2214.01 5345.96 409.52 2143.83 1883.16 12149.8 54901.9 1832.05 63469.2 19364.9 200.949 1435.16 894.129 2752.75 50853.5 1682.21 1255.13 1187.06 1315.43 2371.87 11330 1244.43 784.648 1986.76 6108.71 361.962 14901.5
internal_count=429061 365369 327812 129180 198632 37557 76994 26554 75055 123577 52186 17997 65173 8557 48387 11003 13146 5110 11821 28538 3447 3266 4851 46517 3799 4301 7737 1059 3364 4051 19557 67054 3024 63692 28830 509 2486 1854 4995 56523 3542 2716 1990 2604 4226 18084 2427 1603 3782 9335 974 22611
is_linear=0
shrinkage=0.0125994


Tree=12
num_leaves=53
num_cat=0
split_feature=27 28 24 28 28 24 24 28 24 24 24 24 23 10 23 0 21 10 13 10 23 24 24 24 0 23 0 21 23 28 23 7 0 0 28 13 28 13 8 14 28 24 10 21 14 5 26 13 6 26 12 21
split_gain=7922.04 5675.53 3941.55 1131.7 924.667 800.392 506.187 456.212 421.961 380.923 312.714 215.476 162.478 130.162 125.46 85.7356 95.6315 80.5679 71.6206 70.0061 60.6131 50.652 48.8137 47.6907 43.3633 42.1605 41.4798 39.3947 32.6455 30.8173 29.7393 28.8595 27.1028 25.7266 25.6434 24.9262 23.9871 22.0422 22.0146 20.3768 20.3628 19.8418 19.6703 19.5977 20.0961 19.3129 28.8343 19.1811 18.2866 21.0758 20.1079 16.5244
threshold=24.500000000000004 4.8940944640863338 1198.6500000000003 4.3372693810700085 4.3372693810700085 1421.3500000000001 791.05000000000007 5.2857353797162627 1554.6000000000001 1612.4500000000003 699.10000000000002 941.75000000000011 0.63542205513784467 61.500000000000007 0.62274354636591489 67.500000000000014 1.0361000000000002 68.500000000000014 83.500000000000014 67.500000000000014 0.65004489348370942 616.30000000000007 1816.8000000000004 1118.7500000000002 27.500000000000004 0.64915300751879712 28.500000000000004 1.2942000000000002 0.56412149122807032 4.8940944640863338 0.67374902882205523 0.77500000000000013 29.500000000000004 28.500000000000004 4.1820210059610323 81.500000000000014 5.1845846780664209 60.500000000000007 115.50000000000001 158.50000000000003 4.9089648320872419 1629.7000000000005 67.500000000000014 0.52515000000000012 102.50000000000001 5.2500000000000009 3924.5500000000006 52.500000000000007 21.350000000000005 5634.3500000000013 39.500000000000007 0.99415000000000009
decision_type=2 2 2 2 2 2 2 2 2 2 2 2 2 2 2 2 2 2 2 2 2 2 2 2 2 2 2 2 2 2 2 2 2 2 2 2 2 2 2 2 2 2 2 2 2 2 2 2 2 2 2 2
left_child=1 2 3 6 9 7 21 11 25 20 26 24 -8 23 28 16 -7 -13 31 -18 -4 34 -10 33 -3 -6 38 42 -12 -2 -16 -15 -20 -9 37 -19 -21 -1 43 -30 -37 -38 -26 -5 -45 46 -44 -23 -34 50 -50 -33
right_child=29 5 4 10 8 15 12 13 22 -11 14 17 -14 18 30 -17 19 35 32 36 -22 47 -24 -25 27 -27 -28 -29 39 -31 -32 51 48 -35 -36 40 41 -39 -40 -41 -42 -43 45 44 -46 -47 -48 -49 49 -51 -52 -53
leaf_value=-0.0013075037087644358 0.017221039268077772 -0.001967124451060784 0.013045071241190935 0.0044481314872668433 0.010683452586808355 0.0096981244092364128 0.010951563982660565 -0.004580374737019167 0.013097774536647958 0.015696664920481957 0.0045900431891783477 0.0075307430234980476 0.012719148955522737 0.0018766407299552093 0.0091563293858927548 0.011994987112151257 0.0071064210158081698 0.0012935739883494332 -0.0055177989013875739 0.0037304246802118478 0.014287532450765113 -0.0013233148090025391 0.01507886704187395 0.0049591065652119983 0.0044864570741725745 0.012057351523405233 0.0059964901966131981 -0.0018159896304432493 0.0079861147401231354 0.014751884854399485 0.010949797609076529 2.1386432169441335e-05 0.0026169033514750147 0.0015281027461068303 0.0014668261724136327 0.000593304705192173 -0.0036079073355580445 0.0067178919702513239 -0.0029137469801064448 -0.0013868962141849273 0.0053768963984706479 0.0021960624975481987 0.0029675019713921 -0.0019236585807004818 0.0022529917362354257 0.0029272572934386661 -0.0037321379344301912 0.0089750129155162141 0.0034224590570334588 0.0035186698400678034 -0.0014382825049329684 -0.0074065577878354933
leaf_weight=35.033201947808266 58717.249716207385 300.86773630976677 21762.275627732277 459.22550557553768 15102.022213503718 3257.8573610335588 18408.003830567002 56.15200375020504 15225.852209508419 35687.384435549378 818.69936200976372 5011.4491836875677 30471.358422622085 43.273747310042381 14860.090537652373 1773.0798436403275 1695.4087560176849 380.74092596769333 75.083306178450584 296.67726939916611 47801.030625194311 11.894289970397947 8218.3336000740528 895.31908737123013 1071.3412858992815 18802.17965310812 704.3231675028801 219.32940879464149 11285.624214187264 4383.1185586154461 4448.4511376470327 53.026635184884071 309.25931675732136 837.71370579302311 248.00097307562828 170.64817138016224 136.25156924128532 1149.7917516827583 71.057533085346222 17.650498420000076 2197.8417371958494 108.41099394857883 116.8892385661602 192.20867179334164 592.17736409604549 580.40413305163383 159.49425660073757 6080.4468138664961 83.801232486963272 118.11111353337765 1261.7761163860559 349.05172580480576
leaf_count=83 58676 687 27593 824 21466 4813 25854 157 19239 39150 1473 8151 39319 79 22611 2328 2783 769 212 539 56834 32 9299 1593 1946 25051 1195 501 18039 5016 6219 113 596 1697 496 353 336 1907 177 45 3873 204 213 441 1162 1111 393 9303 145 209 2811 945
internal_value=0.0130275 0.0120934 0.0126239 0.0104848 0.0138009 0.00586103 0.0115882 0.00409624 0.0124517 0.0145274 0.00860386 0.00551166 0.0120701 0.000523479 0.0089149 0.00925928 0.00823685 0.00653677 -0.00144797 0.00587897 0.0139123 0.00837569 0.013835 0.0030102 0.0021709 0.0114686 0.0036253 0.00279459 0.00776285 0.017066 0.00960754 -0.00560306 -0.000278736 0.000839593 0.00567158 0.00458297 0.00166101 0.0064206 0.00211608 0.007963 0.00505932 -0.00111804 0.00336447 0.00254357 0.00115532 0.00172848 -0.00087022 0.00894005 0.000143671 -0.000473995 -0.000981206 -0.00656777
internal_weight=337113 274012 252453 89854 162599 21559.3 56404.5 14291.6 57348.4 105251 33449.5 10209 48879.4 4082.57 31430.5 7267.69 5494.61 7760.68 2293.38 2236.75 69563.3 7525.17 23444.2 1789.18 2448.33 33904.2 2018.99 2147.46 12122 63100.4 19308.5 445.352 1848.03 893.866 1432.83 2749.23 541.34 1184.82 1314.67 11303.3 2368.49 244.663 1928.13 1243.61 784.386 856.788 276.383 6092.34 1772.95 1463.69 1345.58 402.078
internal_count=429061 365369 327812 129180 198632 37557 76994 26554 75055 123577 52186 17997 65173 8557 48387 11003 8675 13146 5110 3862 84427 11821 28538 3447 4851 46517 3799 4164 19557 63692 28830 1137 3973 1854 2486 4995 1079 1990 2604 18084 4226 540 3663 2427 1603 1717 606 9335 3761 3165 2956 1058
is_linear=0
shrinkage=0.0125994


Tree=13
num_leaves=53
num_cat=0
split_feature=27 28 24 28 28 24 24 28 24 24 24 24 23 10 24 10 28 23 19 24 10 24 24 24 23 21 7 28 24 23 28 19 10 19 23 21 11 19 22 25 8 25 6 3 28 24 3 19 10 8 24 14
split_gain=7849.2 5590.48 3867.41 1111.41 915.813 782.237 463.625 455.384 417.64 379.544 273.188 208.789 160.822 125.122 89.9114 85.9964 81.8996 77.7859 72.3421 68.8044 68.1848 48.9084 45.4207 42.765 41.8735 40.4093 36.0545 34.2626 33.3674 32.6806 29.1281 29.0356 28.605 28.1996 26.8483 25.217 24.6896 22.7299 22.5965 22.0439 21.2235 26.1668 20.6904 28.6606 20.2773 19.3265 19.0875 18.7723 18.6806 18.4473 18.7654 20.9571
threshold=26.500000000000004 4.8940944640863338 1198.6500000000003 4.3372693810700085 4.3372693810700085 1433.7500000000002 791.05000000000007 5.2857353797162627 1554.6000000000001 1510.4500000000003 826.10000000000014 941.75000000000011 0.63542205513784467 61.500000000000007 642.9000000000002 68.500000000000014 5.1561734468561555 0.61155382205513797 0.50208333333333355 1641.1500000000003 67.500000000000014 1816.8000000000004 1118.7500000000002 664.15000000000009 0.64915300751879712 1.2942000000000002 0.77500000000000013 4.1820210059610323 809.1500000000002 0.64790748746867177 4.8940944640863338 0.62208333333333365 67.500000000000014 0.50875000000000015 0.67374902882205523 1.0893000000000002 198.50000000000003 0.40375000000000011 0.78643859649122827 7059.0000000000009 101.50000000000001 3490.0000000000005 22.250000000000004 4.9500000000000011 4.9089648320872419 1773.0000000000002 9.0500000000000025 0.52208333333333357 73.500000000000014 115.50000000000001 537.55000000000007 107.50000000000001
decision_type=2 2 2 2 2 2 2 2 2 2 2 2 2 2 2 2 2 2 2 2 2 2 2 2 2 2 2 2 2 2 2 2 2 2 2 2 2 2 2 2 2 2 2 2 2 2 2 2 2 2 2 2
left_child=1 2 3 6 9 7 23 11 24 29 14 25 -8 22 49 -13 44 -12 26 20 33 -10 47 27 -6 32 -15 37 36 -4 -2 35 -3 -18 -19 -17 -20 -1 -16 46 -34 -42 -30 -44 -7 -11 -28 -9 -21 50 51 -5
right_child=30 5 4 10 8 16 12 13 21 45 17 15 -14 18 38 31 19 34 28 48 -22 -23 -24 -25 -26 -27 39 -29 42 -31 -32 -33 40 -35 -36 -37 -38 -39 -40 -41 41 -43 43 -45 -46 -47 -48 -49 -50 -51 -52 -53
leaf_value=-0.00062737176092349299 0.017119601061428708 0.0039960406963497827 0.012731746990173654 -0.0032923572451586539 0.010584899122050736 0.0050730596217607076 0.010852012841645576 -0.0015235829385539922 0.012988976024296703 0.0147846782869289 0.0076719915749488528 0.0075101317613343608 0.012611917615878444 0.0022157524942608767 0.0050218493656608975 0.0041606684176442076 -0.00027599067878723052 0.0091335501512330112 -0.0060664214875661036 0.0094191136554465683 -0.001207788316589031 0.014965409540638169 0.0048623435284267675 0.0092214925330357574 0.011952156784201484 -0.0021467952247605691 -0.0082356446917133761 0.002689007364164676 0.002577730336211123 0.013968681313808401 0.01466206002421256 0.0064286474494668578 0.0033670588138089764 0.0065292891830772562 0.010909719742680507 0.00060065116007457003 0.0020693353245369102 0.007486719588859215 0.0074797582371484489 0.0013661603404431586 -0.0035852421093308124 0.0012979558508992616 0.002180526397779122 -0.0016447194500679193 0.01074022300151861 0.016066590796347372 0.0014952534501220403 0.0020576754356734016 0.00095839292923931784 -0.0027079487513446535 0.0037900667967649907 0.002485695265973609
leaf_weight=45.531676292419434 58054.677582621574 1235.0046145021915 17267.315091669559 105.32203009724617 15051.55700083077 293.70541287958622 18345.834784835577 293.24620005488396 15160.941218644381 31618.885308668017 6994.6040018796921 5125.8759377598763 30353.467020586133 47.511819452047348 1647.4302633404732 1464.0276695936918 100.63866737484932 16485.218336582184 163.26839151978493 1305.5419436246157 239.74515935778618 8177.099417373538 915.82469420135021 5233.9977503567934 18729.757579043508 249.15940788388252 329.21639692783356 418.87712472677231 429.0306541621685 37140.708743706346 4335.0706125497818 913.14361637830734 323.16818697750568 938.19925564527512 4140.8961447477341 431.20112782716751 40.553342461585999 2004.0054584741592 3045.2925207167864 26.415997102856636 187.67756029963493 470.61366160213947 390.88087750971317 893.9839159399271 4062.7906963974237 18715.18247243762 13.521926850080488 604.79750987887383 60.18082894384861 46.1431675106287 844.84369054436684 161.20578645169735
leaf_count=101 58312 2287 22205 261 21466 502 25855 661 19239 36495 11301 8337 39327 85 2930 2690 216 25094 440 1927 531 9299 1635 7908 25051 575 915 803 832 44849 4979 1528 602 1563 5789 894 72 3240 4940 48 458 954 768 2006 5728 20028 21 1200 119 118 1571 306
internal_value=0.0129196 0.0119918 0.0125196 0.0104027 0.01369 0.00580549 0.0114965 0.00410694 0.0123451 0.0144147 0.00853946 0.00550694 0.0119654 0.000563876 0.0059248 0.00649974 0.00925965 0.0090769 -0.00135128 0.007089 0.00456818 0.0137241 0.00298757 0.00845035 0.0113661 0.00222086 -0.00569109 0.00660619 -0.00024119 0.013593 0.0169654 0.00451785 0.00276266 0.00589373 0.00952579 0.0034011 -0.00433085 0.00729149 0.00670332 -0.00690055 0.00104776 -0.000303998 0.000395484 -0.000428197 0.0104444 0.0152829 -0.00766234 0.000862179 0.00911143 0.00256623 0.00293286 -5.7078e-06
internal_weight=335673 273283 251734 89872.7 161861 21548.9 56401.7 14548.1 57119.4 104742 33471 10399.9 48699.3 4148.25 5850.24 7934.25 7000.8 27620.7 2334.38 2644.31 1278.58 23338 1813.87 7702.41 33781.3 2465.62 416.666 2468.41 1917.72 54408 62389.7 2808.37 2216.46 1038.84 20626.1 1895.23 203.822 2049.54 4692.72 369.154 981.459 658.291 1713.9 1284.86 4356.5 50334.1 342.738 898.044 1365.72 1157.51 1111.37 266.528
internal_count=429061 365770 328176 129544 198632 37594 77234 27008 75055 123577 52310 18325 65182 8683 10126 13449 10586 42184 5187 4356 2310 28538 3496 12052 46517 4876 1069 4144 4118 67054 63291 5112 4301 1779 30883 3584 512 3341 7870 984 2014 1412 3606 2774 6230 56523 936 1861 2046 2256 2138 567
is_linear=0
shrinkage=0.0125994


Tree=14
num_leaves=53
num_cat=0
split_feature=15 2 24 2 2 24 24 2 24 24 24 24 23 23 10 30 30 21 10 19 30 10 24 24 24 23 21 24 7 24 24 31 2 23 24 30 11 30 13 8 2 30 21 31 3 19 2 13 24 10 23 14
split_gain=7778.24 5510.28 3879.94 1089.98 907.364 777.149 557.071 432.871 413.461 377.054 346.986 218.712 184.076 127.242 125.883 89.9624 85.3566 93.5001 77.25 72.0293 69.3441 68.3597 49.0237 46.7712 45.3096 41.5991 37.7798 37.2438 36.6496 34.8826 34.3204 33.8467 32.8329 32.8063 31.9827 27.6879 26.7282 24.6203 24.2695 23.3092 22.9458 21.7129 26.1147 21.5094 27.1709 20.5688 19.9922 19.8954 19.0974 18.8398 18.2546 16.4062
threshold=1.0000000180025095e-35 132.50000000000003 1198.6500000000003 75.500000000000014 75.500000000000014 1421.3500000000001 751.1500000000002 196.50000000000003 1554.6000000000001 1510.4500000000003 682.80000000000007 941.75000000000011 0.63542205513784467 0.62274354636591489 61.500000000000007 600.50000000000011 4556.5000000000009 1.0361000000000002 68.500000000000014 0.50208333333333355 702.50000000000011 67.500000000000014 1816.8000000000004 537.55000000000007 1118.7500000000002 0.64915300751879712 1.2942000000000002 809.1500000000002 0.77500000000000013 870.60000000000025 996.70000000000016 622.505 132.50000000000003 0.64790748746867177 967.80000000000007 4556.5000000000009 198.50000000000003 812.50000000000011 81.500000000000014 110.50000000000001 177.50000000000003 756.50000000000011 0.57965000000000011 495.06500000000005 4.9500000000000011 0.50041666666666684 134.50000000000003 81.500000000000014 1629.7000000000005 74.500000000000014 0.54738458646616561 83.500000000000014
decision_type=2 2 2 2 2 2 2 2 2 2 2 2 2 2 2 2 2 2 2 2 2 2 2 2 2 2 2 2 2 2 2 2 2 2 2 2 2 2 2 2 2 2 2 2 2 2 2 2 2 2 2 2
left_child=1 2 3 6 9 7 15 11 25 33 23 20 34 29 24 31 17 -7 -13 28 -3 45 -10 -5 37 -6 49 36 -16 -12 -15 -1 -2 -4 -8 -11 -21 -9 -20 -33 -23 42 -25 -29 -45 -19 -40 -44 -42 -22 -17 -39
right_child=32 5 4 10 8 16 12 14 22 35 13 18 -14 30 19 50 -18 21 38 27 26 40 -24 41 -26 -27 -28 43 -30 -31 -32 39 -34 -35 -36 -37 -38 51 46 -41 48 -43 47 44 -46 -47 -48 -49 -50 -51 -52 -53
leaf_value=4.2204242752702588e-05 0.016979503805944016 -0.0040756221945098267 0.012625282756613482 -0.0022686857358119677 0.0104874639807823 0.0095159790615703989 0.0096282260094387208 -0.0045249723933060079 0.012881600244358133 0.014752478592482529 0.0060334852250339861 0.0073761977633148065 0.012449190853700836 0.0083907360539446103 0.002204930151615768 0.00075790126529547662 0.011810981259303245 0.0011512242968980118 0.0012455942119389456 -0.0064966902120862672 0.0036498935087846142 0.0036089018152636316 0.014853726109138916 0.0036219598279785348 0.0048566276249257731 0.011848244649828024 -0.0017728844951307291 0.0025981377932820706 -0.0070173663460825026 0.0080406837075755865 0.0099808369822301825 0.0059584687853305738 0.014519334090521059 0.013858513275941571 0.011286731000601386 0.01617591284804085 0.0020601463362861961 -0.0028528953376453776 0.00054720032776576588 -0.00051535855794687224 -0.0035666942778294396 0.0051095077097903351 -0.0043804111032501297 0.0020835467893400815 -0.0016779012754418517 0.0073330353793722349 0.0052709004563418682 0.0011138179594485981 0.0021326129024053235 -0.00013260523546809527 0.0081243086146992674 0.0020565976010841766
leaf_weight=337.14330267906189 58375.200571879745 208.37818755209446 17194.582520231605 223.12587656080723 15000.963713139296 3238.6668697297573 7899.6890302598476 53.835456326603889 15095.702239379287 36125.680323913693 3111.7947134077549 4989.4428110718727 31191.081216990948 7362.8490491360426 47.486579030752182 69.571053206920624 1761.243646889925 120.66261310875416 380.2481911033392 158.29338377714157 1751.4226745218039 295.52681905031204 8135.569669470191 422.63203857839108 892.90395644307137 18657.043779626489 227.57658630609512 426.438222900033 363.67016386985779 9126.9766893386841 11968.798018842936 483.9882438480854 4371.9765008836985 36965.951812431216 11504.172879546881 13944.345348745584 40.532789215445518 61.978943169116974 170.40880264341831 92.314134731888771 136.42200922966003 608.14849016070366 86.409934431314468 383.01469179987907 872.70077891647816 1567.2693141102791 2191.6697822213173 257.49958443641663 108.13378700613976 230.43089048564434 4158.295267239213 775.22179138660431
leaf_count=711 59108 516 22205 517 21466 4813 11721 151 19239 41733 5342 8151 40698 11529 85 140 2328 241 769 434 3290 539 9299 782 1593 25051 519 826 974 14525 17528 811 5059 44849 15856 14790 72 156 353 200 336 1066 227 755 1961 2542 3873 523 204 492 6572 1541
internal_value=0.0128132 0.0118819 0.0124083 0.0102745 0.0135807 0.00572725 0.0113649 0.00398512 0.0122399 0.0143039 0.00842205 0.00536994 0.0117743 0.00871259 0.000504358 0.00723278 0.00908498 0.00806866 0.00640026 -0.00143348 0.00198773 0.00573922 0.0136147 0.00255654 0.00295469 0.0112648 0.00266721 -0.000308755 -0.00578565 0.00756753 0.00940764 0.00328862 0.0168244 0.0134838 0.0106485 0.0151709 -0.00466835 0.000833682 0.00448528 0.00497711 0.00157802 0.00341192 0.00175019 0.000371885 -0.000480873 0.00695473 0.00495583 -0.000772043 -0.00113119 0.00322032 0.0080175 0.00150083
internal_weight=334225 271478 250024 88904.5 161120 21453.6 55736.3 14225.7 56889.3 104231 33168.2 10149.6 50594.9 31570.4 4076.08 5141.31 7227.93 5466.68 7731.77 2292.14 2417.81 2228.01 23231.3 1597.82 1783.94 33658 2209.43 1880.98 411.157 12238.8 19331.6 913.446 62747.2 54160.5 19403.9 50070 198.826 891.036 2742.33 576.302 540.083 1374.69 766.542 1682.15 1255.72 1687.93 2362.08 343.91 244.556 1981.85 4227.87 837.201
internal_count=429061 364894 327380 128748 198632 37514 76709 26511 75055 123577 52039 17963 68275 48924 8548 8434 11003 8675 13146 5107 4817 3862 28538 3115 3441 46517 4301 4048 1059 19867 29057 1722 64167 67054 27577 56523 506 1848 4995 1011 1079 2598 1532 3542 2716 2783 4226 750 540 3782 6712 1697
is_linear=0
shrinkage=0.0125994


end of trees

feature_importances:
age_bmi=158
physical_activity_minutes_per_week=103
overall_health_risk=83
log_physical_activity=61
heart_rate=56
age=38
diet_activity_balance=38
cholesterol_risk=29
triglycerides=26
diet_score=24
ldl_cholesterol=23
systolic_bp=20
age_squared=19
metabolic_index=16
age_bp=13
family_history_age=13
bmi=11
cardio_risk_score=10
cholesterol_total=9
hdl_cholesterol=7
waist_to_hip_ratio=5
bmi_cholesterol=5
log_triglycerides=3
bmi_squared=3
medical_history_score=3
lifestyle_risk=2
screen_time_hours_per_day=1
family_history_diabetes=1

parameters:
[boosting: gbdt]
[objective: binary]
[metric: binary_logloss]
[tree_learner: serial]
[device_type: cpu]
[data_sample_strategy: bagging]
[data: ]
[valid: ]
[num_iterations: 700]
[learning_rate: 0.0125994]
[num_leaves: 53]
[num_threads: 0]
[seed: 42]
[deterministic: 0]
[force_col_wise: 0]
[force_row_wise: 0]
[histogram_pool_size: -1]
[max_depth: 16]
[min_data_in_leaf: 16]
[min_sum_hessian_in_leaf: 0.0429932]
[bagging_fraction: 0.765851]
[pos_bagging_fraction: 1]
[neg_bagging_fraction: 1]
[bagging_freq: 8]
[bagging_seed: 400]
[bagging_by_query: 0]
[feature_fraction: 0.749347]
[feature_fraction_bynode: 1]
[feature_fraction_seed: 30056]
[extra_trees: 0]
[extra_seed: 12879]
[early_stopping_round: 0]
[early_stopping_min_delta: 0]
[first_metric_only: 0]
[max_delta_step: 0]
[lambda_l1: 0.0391642]
[lambda_l2: 69.8735]
[linear_lambda: 0]
[min_gain_to_split: 0.835253]
[drop_rate: 0.1]
[max_drop: 50]
[skip_drop: 0.5]
[xgboost_dart_mode: 0]
[uniform_drop: 0]
[drop_seed: 17869]
[top_rate: 0.2]
[other_rate: 0.1]
[min_data_per_group: 100]
[max_cat_threshold: 32]
[cat_l2: 10]
[cat_smooth: 10]
[max_cat_to_onehot: 4]
[top_k: 20]
[monotone_constraints: ]
[monotone_constraints_method: basic]
[monotone_penalty: 0]
[feature_contri: ]
[forcedsplits_filename: ]
[refit_decay_rate: 0.9]
[cegb_tradeoff: 1]
[cegb_penalty_split: 0]
[cegb_penalty_feature_lazy: ]
[cegb_penalty_feature_coupled: ]
[path_smooth: 0]
[interaction_constraints: ]
[verbosity: -1]
[saved_feature_importance_type: 0]
[use_quantized_grad: 0]
[num_grad_quant_bins: 4]
[quant_train_renew_leaf: 0]
[stochastic_rounding: 1]
[linear_tree: 0]
[max_bin: 255]
[max_bin_by_feature: ]
[min_data_in_bin: 3]
[bin_construct_sample_cnt: 200000]
[data_random_seed: 175]
[is_enable_sparse: 1]
[enable_bundle: 1]
[use_missing: 1]
[zero_as_missing: 0]
[feature_pre_filter: 1]
[pre_partition: 0]
[two_round: 0]
[header: 0]
[label_column: ]
[weight_column: ]
[group_column: ]
[ignore_column: ]
[categorical_feature: ]
[forcedbins_filename: ]
[precise_float_parser: 0]
[parser_config_file: ]
[objective_seed: 16083]
[num_class: 1]
[is_unbalance: 0]
[scale_pos_weight: 5.02185]
[sigmoid: 1]
[boost_from_average: 1]
[reg_sqrt: 0]
[alpha: 0.9]
[fair_c: 1]
[poisson_max_delta_step: 0.7]
[tweedie_variance_power: 1.5]
[lambdarank_truncation_level: 30]
[lambdarank_norm: 1]
[label_gain: ]
[lambdarank_position_bias_regularization: 0]
[eval_at: ]
[multi_error_top_k: 1]
[auc_mu_weights: ]
[num_machines: 1]
[local_listen_port: 12400]
[time_out: 120]
[machine_list_filename: ]
[machines: ]
[gpu_platform_id: -1]
[gpu_device_id: -1]
[gpu_use_dp: 0]
[num_gpu: 1]

end of parameters

pandas_categorical:[]
