tree
version=v4
num_class=1
num_tree_per_iteration=1
label_index=0
max_feature_idx=63
objective=binary sigmoid:1
feature_names=age alcohol_consumption_per_week physical_activity_minutes_per_week diet_score sleep_hours_per_day screen_time_hours_per_day bmi waist_to_hip_ratio systolic_bp diastolic_bp heart_rate cholesterol_total hdl_cholesterol ldl_cholesterol triglycerides family_history_diabetes hypertension_history cardiovascular_history cardio_risk_score cholesterol_risk lifestyle_risk diet_activity_balance metabolic_index overall_health_risk age_bmi age_bp bmi_cholesterol family_history_age log_physical_activity log_triglycerides age_squared bmi_squared high_bp_flag high_cholesterol_flag obese_flag sedentary_flag medical_history_score gender_Male gender_Other ethnicity_Black ethnicity_Hispanic ethnicity_Other ethnicity_White education_level_Highschool education_level_No_formal education_level_Postgraduate income_level_Low income_level_Lower-Middle income_level_Middle income_level_Upper-Middle smoking_status_Former smoking_status_Never employment_status_Retired employment_status_Student employment_status_Unemployed bmi_category_normal bmi_category_overweight bmi_category_obese age_group_middle age_group_senior age_group_elderly bp_category_elevated bp_category_high bp_category_very_high
feature_infos=[19:89] [1:8] [1:747] [0.10000000000000001:9.9000000000000004] [3.2999999999999998:9.9000000000000004] [0.59999999999999998:15.800000000000001] [15.1:37.799999999999997] [0.69999999999999996:1.02] [91:163] [51:103] [42:98] [121:286] [21:90] [51:199] [31:290] [0:1] [0:1] [0:1] [0.4792857142857142:0.98438095238095236] [0.31916666666666671:1.0175000000000001] [0:0.76657142857142857] [0.0049000000000000007:7.0217999999999998] [0.52715789473684216:1.3934736842105264] [0.43086146616541354:0.89127230576441108] [352:3001.2000000000003] [1729:13261] [2174.4000000000001:9792] [0:89] [0.69314718055994529:6.6174029779744776] [3.4657359027997265:5.6733232671714928] [361:7921] [228.00999999999999:1428.8399999999997] [0:1] [0:1] [0:1] [0:1] [0:3] [0:1] [0:1] [0:1] [0:1] [0:1] [0:1] [0:1] [0:1] [0:1] [0:1] [0:1] [0:1] [0:1] [0:1] [0:1] [0:1] [0:1] [0:1] [0:1] [0:1] [0:1] [0:1] [0:1] [0:1] [0:1] [0:1] [0:1]
tree_sizes=1821 1865 1863 1869 1861 1862 1864 1865 1869 1857 1866 1870 1871 1875 1875 1872 1871

Tree=0
num_leaves=16
num_cat=0
split_feature=27 28 0 23 28 0 28 28 0 23 23 0 0 0 0
split_gain=8341.77 6085.39 3287.06 1332.51 1000.96 705.897 510.129 126.494 94.6885 47.1419 26.1333 21.7972 15.2827 12.2333 10.9311
threshold=26.500000000000004 4.8940944640863338 48.500000000000007 0.64396857769423577 4.3372693810700085 60.500000000000007 5.2652741739841078 4.7749040587885982 67.500000000000014 0.65430980576441111 0.59114385964912286 50.500000000000007 60.500000000000007 58.500000000000007 40.500000000000007
decision_type=2 2 2 2 2 2 2 2 2 2 2 2 2 2 2
left_child=1 2 3 -1 -4 6 -3 9 -7 11 14 -2 -12 -11 -9
right_child=7 5 4 -5 -6 8 -8 10 -10 13 12 -13 -14 -15 -16
leaf_value=0.51191370134143854 0.51928283050887969 0.50848746672500189 0.51727044211579087 0.51482787446769895 0.51510510563992684 0.51116741508900387 0.50362665422730868 0.51442357431715091 0.51486070616493773 0.52020076429793394 0.51817642089102678 0.52007337248362961 0.51975720654869795 0.52074802454039715 0.51725545788860161
leaf_weight=34404.793726891279 10310.89193674922 9176.9194424450397 75006.527637004852 44837.618757247925 40971.361860394478 2193.5293120443821 3782.6743720471859 256.56577196717262 1433.2246101200581 16764.666036754847 3161.2103026807308 8175.4574118554592 1094.9988083839417 8360.4115352332592 646.75625771284103
leaf_count=55925 11482 17101 94013 63807 57516 3679 8326 372 2036 17600 3763 8655 1183 8459 811
internal_value=0.515717 0.514761 0.515311 0.513563 0.516506 0.508285 0.507069 0.519869 0.512628 0.520065 0.518213 0.519633 0.518584 0.520383 0.516456
internal_weight=260578 211807 195220 79242.4 115978 16586.3 12959.6 48771 3626.75 43611.4 5159.53 18486.3 4256.21 25125.1 903.322
internal_count=354728 302403 271261 119732 151529 31142 25427 52325 5715 46196 6129 20137 4946 26059 1183
is_linear=0
shrinkage=1


Tree=1
num_leaves=16
num_cat=0
split_feature=27 2 24 2 2 24 2 0 2 24 24 2 21 25 24
split_gain=8239.4 5992.12 4155.27 1304.33 933.435 862.411 422.851 130.537 125.187 54.3724 28.4132 20.1874 17.3393 14.9779 11.553
threshold=26.500000000000004 132.50000000000003 1239.4000000000003 75.500000000000014 75.500000000000014 1419.1500000000003 200.50000000000003 67.500000000000014 117.50000000000001 1118.7500000000002 1052.6500000000003 169.50000000000003 0.38205000000000006 7684.5000000000009 1461.8500000000001
decision_type=2 2 2 2 2 2 2 2 2 2 2 2 2 2 2
left_child=1 2 3 -1 -4 6 -3 -7 9 12 11 -10 -2 -11 -12
right_child=8 5 4 -5 -6 7 -8 -9 10 13 14 -13 -14 -15 -16
leaf_value=0.010767109293661502 0.016127571395157973 0.0041969639199749284 0.013711641232770445 0.007785088649683059 0.011621995370332251 0.0072520928027947403 -0.00071042321560289519 0.011208296065407368 0.013967357371781688 0.016482177695962417 0.014468885667350292 0.010770091506067291 0.015230838021153867 0.017066415812135333 0.015754107299469237
leaf_weight=49027.441368803382 6306.2604112327099 7955.0800372213125 75878.896425649524 28940.290536910295 40802.544515401125 4239.9652933776379 2995.6756646484137 1376.2117787152529 893.78291054069996 24131.223616823554 2232.0769038647413 359.80318665504456 5208.3692424893379 7785.703829228878 1655.007484048605
leaf_count=71347 6821 15217 94854 48114 56946 7210 6755 1960 1101 25505 2672 523 5958 7912 1833
internal_value=0.0120547 0.0111037 0.0116509 0.00966029 0.0129809 0.0046742 0.00285409 0.00822235 0.0161904 0.0163857 0.0145392 0.0130533 0.0157224 0.0166248 0.0150173
internal_weight=259788 211216 194649 77967.7 116681 16566.9 10950.8 5616.18 48572.2 43431.6 5140.67 1253.59 11514.6 31916.9 3887.08
internal_count=354728 302403 271261 119461 151800 31142 21972 9170 52325 46196 6129 1624 12779 33417 4505
is_linear=0
shrinkage=0.0111355


Tree=2
num_leaves=16
num_cat=0
split_feature=27 2 24 2 2 24 2 0 2 24 24 2 21 25 24
split_gain=8140.96 5901.01 4099.72 1284.74 921.99 846.698 414.148 128.532 123.953 53.8576 28.0925 19.9309 17.1627 14.8409 11.4299
threshold=26.500000000000004 132.50000000000003 1239.4000000000003 75.500000000000014 75.500000000000014 1419.1500000000003 200.50000000000003 67.500000000000014 117.50000000000001 1118.7500000000002 1052.6500000000003 169.50000000000003 0.38205000000000006 7684.5000000000009 1461.8500000000001
decision_type=2 2 2 2 2 2 2 2 2 2 2 2 2 2 2
left_child=1 2 3 -1 -4 6 -3 -7 9 12 11 -10 -2 -11 -12
right_child=8 5 4 -5 -6 7 -8 -9 10 13 14 -13 -14 -15 -16
leaf_value=0.010676539330508741 0.016014826891022637 0.0041546067343326346 0.013606915835336549 0.0077136639772711884 0.011526838887562419 0.0071844661354459414 -0.00070238760228823465 0.01111532621626514 0.013861651358009699 0.016368539286875258 0.014361321732770761 0.010679649924578575 0.015120784338657402 0.016951421868037032 0.01564236889856005
leaf_weight=48893.518745407462 6280.0847638398409 7946.7428158819675 75612.929593935609 28883.33401453495 40681.945665419102 4232.2600052058697 2996.200634971261 1372.2915492355824 890.58791333436966 24028.746373176575 2223.7994831204414 358.81523650884628 5187.9711383283138 7751.4250214993954 1648.306060180068
leaf_count=71347 6821 15217 94854 48114 56946 7210 6755 1960 1101 25505 2672 523 5958 7912 1833
internal_value=0.0119575 0.0110113 0.0115556 0.0095763 0.0128793 0.00462763 0.00282434 0.00814777 0.0160775 0.0162723 0.0144315 0.0129515 0.0156108 0.0165109 0.0149078
internal_weight=258989 210619 194072 77776.9 116295 16547.5 10942.9 5604.55 48369.7 43248.2 5121.51 1249.4 11468.1 31780.2 3872.11
internal_count=354728 302403 271261 119461 151800 31142 21972 9170 52325 46196 6129 1624 12779 33417 4505
is_linear=0
shrinkage=0.0111355


Tree=3
num_leaves=16
num_cat=0
split_feature=27 2 24 2 2 24 2 0 2 24 24 21 2 24 23
split_gain=8046.26 5811.96 4045.83 1265.61 910.956 831.297 405.622 126.574 122.789 53.5061 27.7858 20.7612 19.6836 11.3134 9.64039
threshold=26.500000000000004 132.50000000000003 1239.4000000000003 75.500000000000014 75.500000000000014 1419.1500000000003 200.50000000000003 67.500000000000014 117.50000000000001 1246.7500000000002 1052.6500000000003 0.35965000000000008 169.50000000000003 1461.8500000000001 0.69209392230576461
decision_type=2 2 2 2 2 2 2 2 2 2 2 2 2 2 2
left_child=1 2 3 -1 -4 6 -3 -7 9 11 12 -2 -10 -12 -11
right_child=8 5 4 -5 -6 7 -8 -9 10 14 13 -13 -14 -15 -16
leaf_value=0.010587053997338048 0.016069059438035719 0.0041126669910352635 0.013503803051241338 0.0076429696860989922 0.011432896599879691 0.0071175230843713187 -0.00069444620333589352 0.011023506891342526 0.013757615236455715 0.016326063911347558 0.014255545749065604 0.015278874601719561 0.010590291784915834 0.015532761571892232 0.016812164677993822
leaf_weight=48758.482132852077 8821.7302974760532 7938.4333045333624 75343.381802469492 28826.205138534307 40560.16479369998 4224.5375667065382 2996.7189469784498 1368.3354874253273 887.34858693182468 17107.013458132744 2215.4001431465149 8591.5202507972717 357.81911197304726 1641.4911870062351 8541.3354260921478
leaf_count=71347 9521 15217 94854 48114 56946 7210 6755 1960 1101 18154 2672 9746 523 1833 8775
internal_value=0.0118616 0.0109202 0.0114616 0.00949325 0.0127791 0.00458154 0.00279489 0.00807397 0.0159669 0.0161612 0.0143255 0.0156795 0.0128511 0.0148003 0.0164881
internal_weight=258180 210016 193488 77584.7 115904 16528 10935.2 5592.87 48163.7 43061.6 5102.06 17413.3 1245.17 3856.89 25648.3
internal_count=354728 302403 271261 119461 151800 31142 21972 9170 52325 46196 6129 19267 1624 4505 26929
is_linear=0
shrinkage=0.0111355


Tree=4
num_leaves=16
num_cat=0
split_feature=27 2 24 2 2 24 2 0 2 24 24 2 21 25 24
split_gain=7955.09 5724.9 3993.52 1246.93 900.311 816.201 397.269 124.661 121.69 53.1178 27.4925 19.4448 16.8883 14.7175 11.2032
threshold=26.500000000000004 132.50000000000003 1239.4000000000003 75.500000000000014 75.500000000000014 1419.1500000000003 200.50000000000003 67.500000000000014 117.50000000000001 1118.7500000000002 1052.6500000000003 169.50000000000003 0.38205000000000006 7684.5000000000009 1461.8500000000001
decision_type=2 2 2 2 2 2 2 2 2 2 2 2 2 2 2
left_child=1 2 3 -1 -4 6 -3 -7 9 12 11 -10 -2 -11 -12
right_child=8 5 4 -5 -6 7 -8 -9 10 13 14 -13 -14 -15 -16
leaf_value=0.010498627589281891 0.0157953226020477 0.0040711403088693086 0.013402254819274095 0.0075729943625466815 0.011340138872205748 0.0070512514199113398 -0.00068659517362665724 0.010932809156137825 0.013655196098423429 0.016148101727764451 0.014151499894040069 0.01050198956918043 0.014904683893875503 0.016731056966949948 0.01542521320800655
leaf_weight=48622.39226077497 6226.2106896191835 7930.1531139910221 75070.435687929392 28768.923592567444 40437.264103680849 4216.8008831292391 2997.2308054566383 1364.3459108024836 884.0671963095665 23818.169102624059 2206.8848951458931 356.81534367799759 5145.8357070833445 7681.6168891042471 1634.5683997124434
leaf_count=71347 6821 15217 94854 48114 56946 7210 6755 1960 1101 25505 2672 523 5958 7912 1833
internal_value=0.0117671 0.0108301 0.0113688 0.00941113 0.0126804 0.00453592 0.00276574 0.00800094 0.0158584 0.0160524 0.0142213 0.0127522 0.0153927 0.0162904 0.0146947
internal_weight=257362 209408 192899 77391.3 115508 16508.5 10927.4 5581.15 47954.2 42871.8 5082.34 1240.88 11372 31499.8 3841.45
internal_count=354728 302403 271261 119461 151800 31142 21972 9170 52325 46196 6129 1624 12779 33417 4505
is_linear=0
shrinkage=0.0111355


Tree=5
num_leaves=16
num_cat=0
split_feature=27 2 24 2 2 24 24 21 2 24 24 21 2 0 23
split_gain=7867.29 5639.75 3945.4 1115.28 1002.61 807.671 318.162 240.535 120.654 52.7568 27.2119 20.486 19.2142 11.1222 9.60362
threshold=26.500000000000004 132.50000000000003 1198.6500000000003 75.500000000000014 75.500000000000014 1108.3000000000004 1629.7000000000005 1.3594500000000003 117.50000000000001 1246.7500000000002 1052.6500000000003 0.35965000000000008 169.50000000000003 60.500000000000007 0.69209392230576461
decision_type=2 2 2 2 2 2 2 2 2 2 2 2 2 2 2
left_child=1 2 3 -1 -4 7 -7 -3 9 11 12 -2 -10 -12 -11
right_child=8 5 4 -5 -6 6 -8 -9 10 14 13 -13 -14 -15 -16
leaf_value=0.01022980629519387 0.015854091262135515 0.0022598505960936609 0.013203070983234363 0.0072925559618672213 0.0111020534548138 0.005094090979511798 0.0094267605499210125 -0.0032464398483152746 0.013554343568729459 0.016109486006820203 0.014168310844020012 0.0150657675923772 0.010414716157155801 0.015527946739510155 0.016596628578612164
leaf_weight=43032.585278794169 8744.0000900179148 3943.8836757689714 80247.018054321408 25569.865806356072 43454.952641800046 8429.9998638629913 2804.9324256181717 1310.2011593729258 880.74592715501785 16952.86706854403 2640.2831091731787 8519.1759371310472 355.80443733930588 1185.5196316987276 8463.0249205678701
leaf_count=63867 9521 8063 102334 43225 61835 15570 4324 3185 1101 18154 3187 9746 523 1318 8775
internal_value=0.0116738 0.0107412 0.0112771 0.00913509 0.012465 0.00449076 0.0061762 0.000885891 0.0157521 0.0159457 0.0141188 0.0154653 0.0126547 0.0145908 0.0162719
internal_weight=256535 208793 192304 68602.5 123702 16489 11234.9 5254.08 47741.4 42679.1 5062.35 17263.2 1236.55 3825.8 25415.9
internal_count=354728 302403 271261 107092 164169 31142 19894 11248 52325 46196 6129 19267 1624 4505 26929
is_linear=0
shrinkage=0.0111355


Tree=6
num_leaves=16
num_cat=0
split_feature=27 2 24 2 2 24 24 21 2 24 24 2 21 25 25
split_gain=7782.72 5556.52 3900.79 1251.39 850.242 792.194 312.91 235.205 119.678 52.48 26.9433 18.9914 16.6475 14.6194 11.0743
threshold=26.500000000000004 132.50000000000003 1246.7500000000002 75.500000000000014 75.500000000000014 1108.3000000000004 1629.7000000000005 1.3594500000000003 117.50000000000001 1118.7500000000002 1052.6500000000003 169.50000000000003 0.38205000000000006 7684.5000000000009 8312.0000000000018
decision_type=2 2 2 2 2 2 2 2 2 2 2 2 2 2 2
left_child=1 2 3 -1 -4 7 -7 -3 9 12 11 -10 -2 -11 -12
right_child=8 5 4 -5 -6 6 -8 -9 10 13 14 -13 -14 -15 -16
leaf_value=0.010360889362676637 0.015584246293140095 0.0022359851858901251 0.013219981702545645 0.0074516050834338276 0.011195697615771919 0.0050440259807813777 0.0093456007276792197 -0.0032077049006788401 0.013455010755038613 0.015936471035055147 0.014215567576837139 0.010328447044719398 0.014696115903611834 0.016520067997200984 0.01594057379809628
leaf_weight=49382.447370424867 6170.657323807478 3941.6044621914625 73480.007597252727 29184.15537878871 39658.236630186439 8418.9302981346846 2797.82513910532 1311.2508881092072 877.38692419230938 23600.829700395465 3209.2886019647121 354.78687508404255 5102.4966635555029 7609.477569937706 600.66276517510414
leaf_count=72747 6821 8063 93454 48968 56092 15570 4324 3185 1101 25505 3856 523 5958 7912 649
internal_value=0.0115817 0.0106534 0.0111866 0.00928027 0.0125105 0.00444604 0.00611739 0.00087623 0.0156479 0.0158412 0.0140179 0.0125585 0.0151827 0.0160789 0.0144887
internal_weight=255700 208174 191705 78566.6 113138 16469.6 11216.8 5252.86 47525.6 42483.5 5042.13 1232.17 11273.2 31210.3 3809.95
internal_count=354728 302403 271261 121715 149546 31142 19894 11248 52325 46196 6129 1624 12779 33417 4505
is_linear=0
shrinkage=0.0111355


Tree=7
num_leaves=16
num_cat=0
split_feature=27 2 24 2 24 24 2 30 2 24 24 2 24 8 10
split_gain=7668.76 5426.35 3843.62 1097.43 990.873 769.839 443.88 122.976 121.096 52.3721 27.0164 19.8237 13.1648 5.60147 3.66854
threshold=26.500000000000004 132.50000000000003 1198.6500000000003 75.500000000000014 1612.4500000000003 1438.6000000000004 198.50000000000003 4556.5000000000009 132.50000000000003 1217.5000000000002 1198.6500000000003 75.500000000000014 1646.7000000000003 106.50000000000001 71.500000000000014
decision_type=2 2 2 2 2 2 2 2 2 2 2 2 2 2 2
left_child=1 2 3 -1 -4 6 -3 -7 9 11 13 -2 -11 -10 -12
right_child=8 5 4 -5 -6 7 -8 -9 10 12 14 -13 -14 -15 -16
leaf_value=0.010085388763395733 0.015495791742831713 0.0041833395823121337 0.011577819672266218 0.0071660545356311382 0.013695534136791991 0.0069587568429126632 -0.00074720253199432921 0.010870189573788165 0.011149245164470786 0.015842400979329881 0.014542376780803921 0.014665191527039545 0.016399950381059542 0.01279162509564356 0.012991554164485365
leaf_weight=42759.157248839736 10774.053221970797 8033.8492773324251 81437.503157153726 25508.165817037225 41343.85563480854 3923.5171107053757 3150.5634372532368 1344.6862555742264 456.26396092772484 19369.201323568821 1693.9335609376431 5786.1799959242344 8121.1651796847582 866.46958173811436 284.43177805840969
leaf_count=63742 11955 15334 112794 43276 51166 6718 7111 1931 645 21019 1993 6757 8496 1126 365
internal_value=0.0115075 0.0105846 0.0111131 0.00899464 0.0122909 0.00444784 0.00279404 0.007958 0.0155513 0.0157061 0.0134844 0.0152059 0.0160073 0.0122286 0.0143217
internal_weight=254853 207501 191049 68267.3 122781 16452.6 11184.4 5268.2 47351.7 44050.6 3301.1 16560.2 27490.4 1322.73 1978.37
internal_count=354428 302072 270978 107018 163960 31094 22445 8649 52356 48227 4129 18712 29515 1771 2358
is_linear=0
shrinkage=0.0111355


Tree=8
num_leaves=16
num_cat=0
split_feature=27 28 23 0 0 25 28 28 28 23 0 0 28 25 0
split_gain=7590.62 5347.37 3235.57 1225.85 948.739 619.526 421.663 142.564 120.458 44.7713 28.1561 18.2726 16.2817 11.6798 4.80276
threshold=26.500000000000004 4.8940944640863338 0.65129830827067681 45.500000000000007 53.500000000000007 7013.0000000000009 5.2958110956362647 5.2600927804663344 4.7749040587885982 0.64871622807017559 49.500000000000007 49.500000000000007 5.0657496176235997 7078.0000000000009 64.500000000000014
decision_type=2 2 2 2 2 2 2 2 2 2 2 2 2 2 2
left_child=1 2 3 -1 -4 6 -3 -7 9 11 12 -2 -10 -11 -12
right_child=8 5 4 -5 -6 7 -8 -9 10 13 14 -13 -14 -15 -16
leaf_value=0.0075769945012199805 0.014807449069150564 0.004365566843497962 0.011208007630811449 0.010427817937531289 0.013252313367582603 0.0091909841040193653 -0.00031982921121756242 0.0047967126980183964 0.013555624205048291 0.015754944843194819 0.01426072760457929 0.015588055571521217 0.011479185041476098 0.016275860571520164 0.015433350885474194
leaf_weight=31388.732657670975 8459.6815444529057 8659.1866739690304 56350.92927069962 46343.995117366314 56355.943220973015 3201.1861704140902 3282.9917069673538 1289.552324488759 1446.8641740977764 17433.947835326195 2069.4645181745291 7395.5332506299019 753.47800293564796 8858.691344410181 712.21582806110382
leaf_count=52262 9778 16407 79480 67858 71378 4977 7310 2400 1800 18996 2472 8143 1047 9328 792
internal_value=0.0114177 0.0104988 0.0110247 0.0092767 0.0122302 0.00440363 0.00307714 0.00793015 0.0154509 0.0156453 0.0138057 0.0151718 0.0128467 0.0159306 0.0145626
internal_weight=254002 206873 190440 77732.7 112707 16432.9 11942.2 4490.74 47129.9 42147.9 4982.02 15855.2 2200.34 26292.6 2781.68
internal_count=354428 302072 270978 120120 150858 31094 23717 7377 52356 46245 6111 17921 2847 28324 3264
is_linear=0
shrinkage=0.0111355


Tree=9
num_leaves=16
num_cat=0
split_feature=27 2 24 2 24 2 2 0 2 24 0 2 21 24 24
split_gain=7515.35 5270.07 3774.12 1437.97 747.934 592.464 426.444 120.484 119.625 48.5346 27.9099 16.1142 15.2489 11.418 4.99134
threshold=26.500000000000004 132.50000000000003 1336.45 75.500000000000014 1438.6000000000004 75.500000000000014 198.50000000000003 67.500000000000014 117.50000000000001 1217.5000000000002 49.500000000000007 157.50000000000003 0.37955000000000011 1646.7000000000003 1469.0500000000002
decision_type=2 2 2 2 2 2 2 2 2 2 2 2 2 2 2
left_child=1 2 3 -1 6 -4 -3 -6 9 12 11 -10 -2 -11 -12
right_child=8 4 5 -5 7 -7 -8 -9 10 13 14 -13 -14 -15 -16
leaf_value=0.010441512936509884 0.015378855707963034 0.0040942681526709426 0.013199973469858566 0.0076343743181019391 0.0068377925893812015 0.01133310097076728 -0.00073975460149155656 0.010718896342138276 0.013459874136269723 0.015685186444052424 0.013895207281123655 0.011390212718452588 0.014657005333602863 0.016220130403397853 0.014940695875789648
leaf_weight=61214.148123055696 8564.8520174324512 8015.1898587048054 60161.005306944251 35925.186842381954 3909.5788090974092 32526.685443744063 3151.0670529603958 1337.5112790316343 1440.9635700285435 18511.733225181699 1264.6498614549637 750.92204886674881 7136.2180286198854 7731.3623458892107 1504.7050554007292
leaf_count=89516 9544 15334 76293 59644 6718 45525 7111 1931 1800 20229 1541 1047 8313 8159 1723
internal_value=0.011329 0.0104139 0.0109373 0.00940339 0.00435983 0.0125449 0.00272972 0.00782798 0.0153524 0.0155466 0.0137095 0.0127529 0.0150511 0.015843 0.0144649
internal_weight=253146 206240 189827 97139.3 16413.3 92687.7 11166.3 5247.09 46905.4 41944.2 4961.24 2191.89 15701.1 26243.1 2769.35
internal_count=354428 302072 270978 149160 31094 121818 22445 8649 52356 46245 6111 2847 17857 28388 3264
is_linear=0
shrinkage=0.0111355


Tree=10
num_leaves=16
num_cat=0
split_feature=27 28 24 28 24 24 28 28 0 24 24 28 24 8 10
split_gain=7442.59 5194.31 3736.7 1067.97 970.034 734.517 417.794 118.857 118.74 51.5626 26.4442 19.6402 12.9798 5.60229 3.69565
threshold=26.500000000000004 4.8940944640863338 1198.6500000000003 4.3372693810700085 1612.4500000000003 1438.6000000000004 5.2857353797162627 4.8940944640863338 67.500000000000014 1217.5000000000002 1198.6500000000003 4.3372693810700085 1646.7000000000003 106.50000000000001 71.500000000000014
decision_type=2 2 2 2 2 2 2 2 2 2 2 2 2 2 2
left_child=1 2 3 -1 -4 6 -3 9 -7 11 13 -2 -11 -9 -12
right_child=7 5 4 -5 -6 8 -8 10 -10 12 14 -13 -14 -15 -16
leaf_value=0.0098362981787435497 0.015201197096419159 0.004073108807102402 0.011310733627775892 0.0069457198201361738 0.013417740739426639 0.0067745177430174226 -0.00068223953570587025 0.010863162797339843 0.010632915183514016 0.01554658763916643 0.014252068108339271 0.014368966384459324 0.0161042669655014 0.012512043424642995 0.012690414726205653
leaf_weight=42390.198765620589 10622.29481741786 7940.2318075448275 80614.596252813935 25338.466680720448 40866.724841073155 3902.1941131204367 3217.9019369632006 451.36288852989674 1333.3358561098576 19088.016773343086 1671.8887063413858 5708.2752289772034 7999.0468620210886 856.70026154816151 280.8431353867054
leaf_count=63742 11955 15196 112794 43276 51166 6718 7249 645 1931 21019 1993 6757 8496 1126 365
internal_value=0.0112414 0.01033 0.010851 0.00875495 0.0120196 0.00431651 0.0027013 0.0152557 0.00775801 0.0154103 0.0131955 0.0149106 0.0157114 0.0119466 0.0140298
internal_weight=252282 205604 189210 67728.7 121481 16393.7 11158.1 46678.4 5235.53 43417.6 3260.79 16330.6 27087.1 1308.06 1952.73
internal_count=354428 302072 270978 107018 163960 31094 22445 52356 8649 48227 4129 18712 29515 1771 2358
is_linear=0
shrinkage=0.0111355


Tree=11
num_leaves=16
num_cat=0
split_feature=27 23 2 2 24 24 24 2 2 24 0 2 21 24 24
split_gain=7372.31 5127.56 2879.9 1259.92 1245.77 661.947 634.904 355.458 118.341 48.0068 27.5368 15.9058 15.1243 11.289 4.96272
threshold=26.500000000000004 0.64790748746867177 132.50000000000003 76.500000000000014 1073.3500000000001 1385.4500000000003 1392.1500000000003 198.50000000000003 117.50000000000001 1217.5000000000002 49.500000000000007 157.50000000000003 0.37955000000000011 1646.7000000000003 1469.0500000000002
decision_type=2 2 2 2 2 2 2 2 2 2 2 2 2 2 2
left_child=1 2 4 5 -1 -3 -5 -4 9 12 11 -10 -2 -11 -12
right_child=8 3 7 6 -6 -7 -8 -9 10 13 14 -13 -14 -15 -16
leaf_value=0.0070671372595895428 0.015187844112928041 0.011365637281558478 0.0042222069992231409 0.0084816787903796518 0.010092671577649717 0.013383063814707899 0.011285763977995926 -8.0915034797636137e-06 0.013271534747822828 0.015493592240698139 0.013703598674976133 0.011207560219930326 0.014465640127262779 0.016028230726065004 0.014750114956994929
leaf_weight=27618.400743171573 8481.809463635087 36348.52599349618 7395.7843604534864 17430.268011748791 43442.921395525336 45444.934282869101 23592.937661081553 3689.6534833014011 1428.9384487122297 18327.178734734654 1253.5991985350847 745.52283756434917 7070.1962370872498 7651.1970012187958 1490.657699778676
leaf_count=46861 9544 50707 14063 27873 64458 56932 33050 8128 1800 20229 1541 1047 8313 8159 1723
internal_value=0.0111549 0.0102471 0.00809331 0.0116876 0.00891684 0.0124866 0.0100945 0.00281379 0.0151607 0.015355 0.0135197 0.012566 0.0148598 0.0156512 0.0142737
internal_weight=251413 204963 82146.8 122817 71061.3 81793.5 41023.2 11085.4 46449.1 41530.4 4918.72 2174.46 15552 25978.4 2744.26
internal_count=354428 302072 133510 168562 111319 107639 60923 22191 52356 46245 6111 2847 17857 28388 3264
is_linear=0
shrinkage=0.0111355


Tree=12
num_leaves=16
num_cat=0
split_feature=27 23 2 24 2 24 24 2 2 24 0 2 2 24 24
split_gain=7304.56 5063.25 2843.67 1240.51 1233.31 650.775 613.912 351.146 117.647 47.7684 27.3207 15.7538 15.0746 11.2363 4.92987
threshold=26.500000000000004 0.64830686090225575 132.50000000000003 1073.3500000000001 76.500000000000014 1377.8000000000004 1392.1500000000003 198.50000000000003 117.50000000000001 1217.5000000000002 49.500000000000007 157.50000000000003 75.500000000000014 1646.7000000000003 1469.0500000000002
decision_type=2 2 2 2 2 2 2 2 2 2 2 2 2 2 2
left_child=1 2 3 -1 5 -3 -6 -4 9 12 11 -10 -2 -11 -12
right_child=8 4 7 -5 6 -7 -8 -9 10 13 14 -13 -14 -15 -16
leaf_value=0.0070094565594144218 0.015013350780392336 0.011266141634893721 0.0041954733415072139 0.010019394588920334 0.0084289551273661178 0.013280497921218345 0.011201390256703643 -4.1088562800950908e-06 0.013179865149245363 0.015400341305623138 0.013611242784049375 0.011121787806335794 0.014242136393141012 0.015935108712725923 0.014656696125003497
leaf_weight=27738.976416692138 10518.362478509545 35246.088782548904 7424.6057593524456 43829.865367606282 17217.899945065379 45786.909510239959 23380.836145788431 3695.5849868506193 1422.8883031159639 18233.357182592154 1248.0818304419518 742.92113891243935 4957.9867692291737 7610.4386457949877 1483.4938437789679
leaf_count=47151 11955 49372 14126 65208 27577 57636 32862 8140 1800 20229 1541 1047 5902 8159 1723
internal_value=0.0110694 0.010165 0.00803883 0.00885285 0.0116105 0.0124044 0.0100257 0.00279941 0.0150675 0.0152617 0.0134278 0.012476 0.0147666 0.015558 0.0141807
internal_weight=250538 204321 82689 71568.8 121632 81033 40598.7 11120.2 46217.5 41320.1 4897.39 2165.81 15476.3 25843.8 2731.58
internal_count=354428 302072 134625 112359 167447 107008 60439 22266 52356 46245 6111 2847 17857 28388 3264
is_linear=0
shrinkage=0.0111355


Tree=13
num_leaves=16
num_cat=0
split_feature=27 28 24 28 24 24 28 30 28 24 24 21 24 8 10
split_gain=7239.05 5004.08 3632.33 1298.73 705.08 671.991 393.384 117.943 117.002 50.8908 25.9356 18.9737 17.1948 5.60888 3.72976
threshold=26.500000000000004 4.8940944640863338 1300.1000000000001 4.3372693810700085 1438.6000000000004 1734.1000000000001 5.2857353797162627 4556.5000000000009 4.8940944640863338 1123.2500000000002 1198.6500000000003 0.53405000000000014 1457.6000000000001 106.50000000000001 71.500000000000014
decision_type=2 2 2 2 2 2 2 2 2 2 2 2 2 2 2
left_child=1 2 3 -1 6 -4 -3 -6 9 11 13 -2 -11 -10 -12
right_child=8 4 5 -5 7 -7 -8 -9 10 12 14 -13 -14 -15 -16
leaf_value=0.0099970260556226601 0.014749699089787316 0.0039235360757131727 0.011527858941355541 0.0072033837849719154 0.0065730052239152646 0.013635287356558853 -0.00069390124741547062 0.010432174467976398 0.010587188743487946 0.015106298057914422 0.013975361798758074 0.013655548804153698 0.015647595482061186 0.01224371222615038 0.01240106973152081
leaf_weight=55530.590032398701 9013.9060977101326 7908.3999582231045 73745.447109863162 32863.299882397056 3878.0744031071663 25208.917339280248 3217.040583729744 1323.2647559046745 446.37088519334793 15995.306042551994 1649.2262514680624 2697.032215744257 15058.138497784734 846.72645972669125 277.15781377255917
leaf_count=82672 10405 15196 101803 55406 6718 31097 7249 1931 645 18065 1993 3319 16438 1126 365
internal_value=0.010985 0.0100839 0.0105992 0.00895845 0.00417084 0.0120648 0.00258795 0.00755569 0.0149758 0.0151306 0.0129189 0.0144981 0.0153689 0.0116754 0.0137512
internal_weight=249659 203675 187348 88393.9 16326.8 98954.4 11125.4 5201.34 45983.9 42764.4 3219.48 11710.9 31053.4 1293.1 1926.38
internal_count=354428 302072 270978 138078 31094 132900 22445 8649 52356 48227 4129 13724 34503 1771 2358
is_linear=0
shrinkage=0.0111355


Tree=14
num_leaves=16
num_cat=0
split_feature=15 23 2 2 24 24 24 0 2 24 24 24 24 2 19
split_gain=7137.09 4947.5 2441.39 1624.15 964.828 789.728 772.904 316.139 112.271 72.5471 24.1339 21.5466 16.5166 11.3273 1.64066
threshold=1.0000000180025095e-35 0.63811027568922318 132.50000000000003 76.500000000000014 1065.7500000000002 1385.4500000000003 1518.6500000000003 49.500000000000007 132.50000000000003 1087.0000000000002 1469.0500000000002 1476.7000000000003 864.10000000000014 172.50000000000003 0.50875000000000015
decision_type=2 2 2 2 2 2 2 2 2 2 2 2 2 2 2
left_child=1 2 4 5 -1 -3 -5 -4 9 12 13 -11 -2 -10 -12
right_child=8 3 7 6 -6 -7 -8 -9 10 11 14 -13 -14 -15 -16
leaf_value=0.006580235897998399 0.013519181783757807 0.010953714103118451 0.00039426827828313105 0.0083615096932980609 0.0095902770360362186 0.013037666650691542 0.011260242411008554 0.0044285343210891167 0.012862433245340244 0.015002250618813598 0.012115169986850445 0.015596579645006024 0.014498896444907141 0.011193882508814571 0.014498112963647954
leaf_weight=22446.307747811079 3312.3006898462772 42763.364509135485 5148.3406874239445 28720.227556154132 32121.603599965572 47815.353021472692 18948.216618865728 4530.7445382326841 1357.794306576252 18102.355844333768 63.059756845235825 14203.500631213188 7201.8462907671928 909.03692615032196 893.09795390069485
leaf_count=38783 4108 60754 11178 46067 48693 60919 26515 8544 1746 20569 84 15551 8436 1275 1046
internal_value=0.0108913 0.00999144 0.00743794 0.0111781 0.00835219 0.0120539 0.00951385 0.00228316 0.0148488 0.0150003 0.0128347 0.0152637 0.0141907 0.0121953 0.0143457
internal_weight=248537 202494 64247 138247 54567.9 90578.7 47668.4 9679.09 46043 42820 3222.99 32305.9 10514.1 2266.83 956.158
internal_count=354268 301453 107198 194255 87476 121673 72582 19722 52815 48664 4151 36120 12544 3021 1130
is_linear=0
shrinkage=0.0111355


Tree=15
num_leaves=16
num_cat=0
split_feature=27 2 24 2 24 24 2 2 2 24 24 2 24 2 10
split_gain=7085.63 4868.51 3434.55 1367.19 741.547 654.839 264.272 219.436 109.925 59.7945 22.9154 19.1279 14.2861 10.9339 1.62793
threshold=26.500000000000004 132.50000000000003 1316.9500000000003 75.500000000000014 1243.1000000000001 1741.1500000000003 196.50000000000003 198.50000000000003 132.50000000000003 1217.5000000000002 1469.0500000000002 53.500000000000007 1646.7000000000003 172.50000000000003 65.500000000000014
decision_type=2 2 2 2 2 2 2 2 2 2 2 2 2 2 2
left_child=1 2 3 -1 6 -4 -3 -6 9 11 13 -2 -11 -10 -12
right_child=8 4 5 -5 7 -7 -8 -9 10 12 14 -13 -14 -15 -16
leaf_value=0.0099389212528187363 0.014909177425252241 0.0029089634564173302 0.011378493781202292 0.0071253210982657657 0.0073758753900726214 0.013509635033634865 -0.0016035578135498764 0.0032742687712718449 0.012812830563927059 0.01509601531386867 0.014775140169569254 0.014087231998058398 0.015686252375603196 0.011154983623447887 0.013584822401365795
leaf_weight=57773.168372809887 5936.8183699697256 5429.3731447160244 70266.895674288273 34055.656400680542 6377.2494867742062 24023.155525580049 2285.8256246000528 2173.1944494843483 1329.3669167459011 18500.775052189827 533.26683433353901 9858.8938325345516 7797.4661636501551 891.53894525766373 418.17261165380478
leaf_count=86141 6783 10811 97626 57536 10684 29809 5297 4272 1713 20898 614 11828 8488 1252 516
internal_value=0.0108088 0.00991796 0.0104285 0.00889552 0.00407524 0.0119215 0.00157142 0.00633394 0.0147918 0.0149431 0.0127829 0.0143965 0.0152712 0.0121494 0.0142568
internal_weight=247651 202385 186119 91828.8 16265.6 94290.1 7715.2 8550.44 45266.3 42094 3172.35 15795.7 26298.2 2220.91 951.439
internal_count=354268 302176 271112 143677 31064 127435 16108 14956 52092 47997 4095 18611 29386 2965 1130
is_linear=0
shrinkage=0.0111355


Tree=16
num_leaves=16
num_cat=0
split_feature=27 23 2 2 24 24 24 25 2 24 24 2 24 2 25
split_gain=7026.4 4841.71 2366.26 1601.84 918.84 769.977 748.821 300.836 109.379 59.5683 22.7579 19.0267 14.2382 10.8351 1.87932
threshold=26.500000000000004 0.63811027568922318 132.50000000000003 76.500000000000014 1073.3500000000001 1410.2500000000002 1518.6500000000003 6679.5000000000009 132.50000000000003 1217.5000000000002 1469.0500000000002 53.500000000000007 1646.7000000000003 172.50000000000003 8378.5000000000018
decision_type=2 2 2 2 2 2 2 2 2 2 2 2 2 2 2
left_child=1 2 4 5 -1 -3 -5 -4 9 11 13 -2 -11 -10 -12
right_child=8 3 7 6 -6 -7 -8 -9 10 12 14 -13 -14 -15 -16
leaf_value=0.0065357257616402327 0.014821966223462399 0.010868388965088818 0.0011137021423580839 0.0082278557907292764 0.0094603096097610317 0.012928870398619377 0.011089096675993238 0.0056512538441896992 0.012726147358725378 0.015009252725481613 0.013721015136195717 0.014000091966969049 0.015600096342300324 0.011072378927973112 0.015027899170133179
leaf_weight=23200.632746905088 5905.4269038289785 45365.295232236385 7278.2774399518967 28638.22502450645 31330.105867236853 44696.578710645437 18808.305776655674 2414.0563915520906 1323.5502863377333 18401.070680201054 625.51011528074741 9810.0635262131691 7753.4670139551163 888.20704175531864 321.17849558591843
leaf_count=40121 6783 64650 15429 46156 47730 57237 26515 4338 1713 20898 766 11828 8488 1252 364
internal_value=0.0107273 0.00983946 0.00731493 0.0110185 0.0082161 0.011891 0.00936218 0.00224433 0.0147048 0.0148561 0.0126965 0.0143092 0.0151846 0.0120641 0.0141692
internal_weight=246760 201731 64223.1 137508 54530.7 90061.9 47446.5 9692.33 45028.5 41870 3158.45 15715.5 26154.5 2211.76 946.689
internal_count=354268 302176 107618 194558 87851 121887 72671 19767 52092 47997 4095 18611 29386 2965 1130
is_linear=0
shrinkage=0.0111355


end of trees

feature_importances:
age_bmi=84
physical_activity_minutes_per_week=72
age=23
log_physical_activity=18
family_history_age=16
diet_activity_balance=11
overall_health_risk=11
age_bp=9
heart_rate=4
systolic_bp=3
age_squared=2
family_history_diabetes=1
cholesterol_risk=1

parameters:
[boosting: gbdt]
[objective: binary]
[metric: binary_logloss]
[tree_learner: serial]
[device_type: cpu]
[data_sample_strategy: bagging]
[data: ]
[valid: ]
[num_iterations: 500]
[learning_rate: 0.0111355]
[num_leaves: 125]
[num_threads: 0]
[seed: 42]
[deterministic: 0]
[force_col_wise: 0]
[force_row_wise: 0]
[histogram_pool_size: -1]
[max_depth: 4]
[min_data_in_leaf: 49]
[min_sum_hessian_in_leaf: 0.0227744]
[bagging_fraction: 0.632756]
[pos_bagging_fraction: 1]
[neg_bagging_fraction: 1]
[bagging_freq: 7]
[bagging_seed: 400]
[bagging_by_query: 0]
[feature_fraction: 0.893617]
[feature_fraction_bynode: 1]
[feature_fraction_seed: 30056]
[extra_trees: 0]
[extra_seed: 12879]
[early_stopping_round: 0]
[early_stopping_min_delta: 0]
[first_metric_only: 0]
[max_delta_step: 0]
[lambda_l1: 0.408263]
[lambda_l2: 0.00301454]
[linear_lambda: 0]
[min_gain_to_split: 0.39899]
[drop_rate: 0.1]
[max_drop: 50]
[skip_drop: 0.5]
[xgboost_dart_mode: 0]
[uniform_drop: 0]
[drop_seed: 17869]
[top_rate: 0.2]
[other_rate: 0.1]
[min_data_per_group: 100]
[max_cat_threshold: 32]
[cat_l2: 10]
[cat_smooth: 10]
[max_cat_to_onehot: 4]
[top_k: 20]
[monotone_constraints: ]
[monotone_constraints_method: basic]
[monotone_penalty: 0]
[feature_contri: ]
[forcedsplits_filename: ]
[refit_decay_rate: 0.9]
[cegb_tradeoff: 1]
[cegb_penalty_split: 0]
[cegb_penalty_feature_lazy: ]
[cegb_penalty_feature_coupled: ]
[path_smooth: 0]
[interaction_constraints: ]
[verbosity: -1]
[saved_feature_importance_type: 0]
[use_quantized_grad: 0]
[num_grad_quant_bins: 4]
[quant_train_renew_leaf: 0]
[stochastic_rounding: 1]
[linear_tree: 0]
[max_bin: 255]
[max_bin_by_feature: ]
[min_data_in_bin: 3]
[bin_construct_sample_cnt: 200000]
[data_random_seed: 175]
[is_enable_sparse: 1]
[enable_bundle: 1]
[use_missing: 1]
[zero_as_missing: 0]
[feature_pre_filter: 1]
[pre_partition: 0]
[two_round: 0]
[header: 0]
[label_column: ]
[weight_column: ]
[group_column: ]
[ignore_column: ]
[categorical_feature: ]
[forcedbins_filename: ]
[precise_float_parser: 0]
[parser_config_file: ]
[objective_seed: 16083]
[num_class: 1]
[is_unbalance: 0]
[scale_pos_weight: 4.41568]
[sigmoid: 1]
[boost_from_average: 1]
[reg_sqrt: 0]
[alpha: 0.9]
[fair_c: 1]
[poisson_max_delta_step: 0.7]
[tweedie_variance_power: 1.5]
[lambdarank_truncation_level: 30]
[lambdarank_norm: 1]
[label_gain: ]
[lambdarank_position_bias_regularization: 0]
[eval_at: ]
[multi_error_top_k: 1]
[auc_mu_weights: ]
[num_machines: 1]
[local_listen_port: 12400]
[time_out: 120]
[machine_list_filename: ]
[machines: ]
[gpu_platform_id: -1]
[gpu_device_id: -1]
[gpu_use_dp: 0]
[num_gpu: 1]

end of parameters

pandas_categorical:[]
